<?xml version="1.0"?>
<opencv_storage>
<opencv_ml_svm>
  <format>3</format>
  <svmType>C_SVC</svmType>
  <kernel>
    <type>SIGMOID</type>
    <gamma>1.</gamma>
    <coef0>0.</coef0></kernel>
  <C>1.</C>
  <term_criteria><iterations>100</iterations></term_criteria>
  <var_count>320</var_count>
  <class_count>2</class_count>
  <class_labels type_id="opencv-matrix">
    <rows>2</rows>
    <cols>1</cols>
    <dt>i</dt>
    <data>
      0 1</data></class_labels>
  <sv_total>14</sv_total>
  <support_vectors>
    <_>
      -1.85431825e-04 9.27891233e-05 6.61821221e-04 7.73681968e-04
      -3.34759039e-04 -2.09272909e-03 6.70948904e-03 8.07241350e-03
      1.49827066e-03 -5.49542857e-03 3.92805506e-03 8.15484673e-03
      -1.19360434e-02 2.14722284e-04 1.19360434e-02 4.53605055e-04
      2.15206183e-02 -1.36106247e-02 4.16858681e-02 1.43531924e-02
      -3.58721837e-02 -2.01634075e-02 3.67224723e-01 3.63882095e-01
      3.01348437e-02 -1.94718707e-02 3.66277933e-01 3.71766359e-01
      -8.03024024e-02 -1.07764150e-03 8.03024024e-02 3.08263861e-03
      8.36625602e-03 -2.69374717e-03 4.73923720e-02 5.21393009e-02
      1.84197918e-01 1.47389760e-02 3.94753516e-01 2.75876611e-01
      -7.73655549e-02 8.18728581e-02 3.41166496e-01 1.68495774e-01
      -7.66118690e-02 2.55492772e-03 7.66118690e-02 3.37135629e-03
      1.00263780e-04 -1.13170838e-03 9.89429071e-04 1.43101823e-03
      -4.46720514e-03 -7.08041387e-03 7.60578690e-03 1.49376048e-02
      5.21680526e-03 -8.71146377e-03 7.23228510e-03 1.56450737e-02
      -1.13564488e-02 1.03403640e-04 1.13564488e-02 3.47416411e-04
      1.13184960e-03 -6.58743840e-04 1.78406260e-03 1.07907562e-03
      3.39296390e-03 3.02610267e-03 6.82847947e-02 3.51613536e-02
      -1.01255914e-02 1.17128650e-02 4.41424400e-02 4.27755490e-02
      1.76944956e-03 7.83268013e-04 2.33702105e-03 1.30202738e-03
      7.67321978e-03 3.75739834e-03 1.03070028e-02 6.61102030e-03
      1.17730871e-01 2.35872041e-03 5.08625150e-01 5.42218648e-02
      -1.20820723e-01 -4.07806179e-03 4.56396848e-01 5.10527343e-02
      -2.05028895e-03 -4.80546942e-03 5.73945791e-03 6.33215671e-03
      1.88959837e-02 -9.36563127e-03 1.97943356e-02 2.74687000e-02
      1.40191906e-03 4.46816646e-02 3.35920811e-01 3.26812625e-01
      -1.53030837e-02 8.56711529e-03 3.82974267e-01 3.20565790e-01
      -5.72433462e-03 3.35862045e-03 8.98586866e-03 5.11569204e-03
      1.03986380e-03 -8.43823142e-03 1.09783316e-03 8.81398190e-03
      6.00198098e-03 -6.66907057e-02 6.33700984e-03 6.68860450e-02
      4.88877483e-03 -5.59221990e-02 6.66680047e-03 5.60818948e-02
      4.13609669e-04 -6.25532353e-03 7.22784840e-04 6.25601318e-03
      -1.25408638e-03 -3.28128372e-04 1.31619407e-03 3.30303068e-04
      2.54359711e-02 1.11356808e-03 3.48890834e-02 1.33412182e-02
      5.08175045e-03 3.98111006e-04 1.64026003e-02 1.90830510e-02
      -3.71466478e-04 2.28718243e-04 1.11602701e-03 9.11109790e-04
      1.11422595e-02 2.06363993e-03 1.71242207e-02 3.68815754e-03
      -1.58746555e-01 -4.26541232e-02 4.60907251e-01 1.05645254e-01
      2.79328585e-01 -2.41383255e-01 2.81382263e-01 2.83081979e-01
      4.56097117e-03 -7.61328638e-03 8.03822279e-03 1.00458367e-02
      3.44421379e-02 7.06029171e-03 3.64871733e-02 7.76874693e-03
      -2.35388353e-02 5.99533841e-02 4.68556404e-01 1.43635109e-01
      5.51067898e-03 2.62800813e-01 1.06163859e-01 3.39960665e-01
      -1.23401580e-03 -6.70494465e-03 1.78615283e-02 7.75975138e-02
      8.07023142e-03 1.89875928e-03 8.11966322e-03 1.91125355e-03
      -2.30696140e-04 -1.66675239e-03 9.06347297e-03 2.21003536e-02
      2.40310049e-03 -1.02921305e-02 6.67137420e-03 1.55691989e-02
      -7.60148861e-04 -5.41552203e-04 1.75528345e-03 1.30256603e-03
      2.68101285e-04 -6.45564985e-04 9.14704578e-04 9.12441174e-04
      5.61721576e-03 4.02320037e-03 7.26133212e-02 2.72202715e-02
      -9.17937234e-03 9.71845537e-03 4.70835119e-02 4.27426472e-02
      -5.85706322e-04 1.11873727e-03 2.81728315e-03 2.84887035e-03
      1.91984547e-03 2.61943135e-03 3.61872511e-03 4.47046617e-03
      1.17238156e-01 -9.30272858e-04 5.10309696e-01 5.27690910e-02
      -1.25545219e-01 -1.16745261e-02 4.47616100e-01 5.22161834e-02
      -2.08112039e-03 -4.32515889e-03 8.54916591e-03 7.63771124e-03
      3.58017231e-03 -8.62328243e-03 4.81135724e-03 1.12276506e-02
      6.87484769e-03 1.43574420e-02 3.27226192e-01 3.38734716e-01
      1.03417467e-02 1.23084104e-02 3.70249242e-01 3.46720725e-01
      -8.23340099e-03 3.31139681e-03 1.06032565e-02 6.32076059e-03
      1.39025087e-03 -7.72156985e-03 1.39025087e-03 7.72156985e-03
      8.38473532e-03 -6.44638315e-02 8.54700897e-03 6.44638315e-02
      6.99399365e-03 -4.86391000e-02 6.99399365e-03 4.86391000e-02
      5.38876746e-04 -5.52081969e-03 8.24870949e-04 5.63133508e-03
      9.40115773e-04 2.99142255e-03 3.01636592e-03 3.54799675e-03
      -1.85374934e-02 -1.24958735e-02 2.01029778e-02 8.21586251e-02
      -1.16275973e-03 5.03535196e-02 2.26334520e-02 7.18327090e-02
      -2.33145244e-03 1.22418972e-02 2.38782284e-03 1.22455945e-02
      1.12917433e-02 7.91305443e-04 1.35553954e-02 7.74647575e-03
      -1.07625589e-01 1.02429636e-01 3.42386693e-01 4.67661202e-01
      1.23906851e-01 -6.28131554e-02 2.38639802e-01 2.17356488e-01
      8.31594167e-04 -4.49693901e-03 7.23328814e-02 1.64645948e-02
      5.26210014e-03 -3.23135667e-02 7.70393619e-03 3.62172499e-02
      -1.39033556e-01 -1.44498244e-01 1.96956858e-01 4.94664133e-01
      8.96287486e-02 1.97047386e-02 3.49158645e-01 1.53339729e-01
      5.69210760e-02 5.27785579e-03 5.84323704e-02 3.00410893e-02
      -6.98233125e-05 2.71795579e-05 1.91722604e-04 3.25594119e-05
      3.57346120e-03 -1.87612493e-02 5.79906069e-03 1.88381448e-02
      1.39358239e-02 -6.11545444e-02 1.41097736e-02 6.15081973e-02
      2.34539039e-03 -8.37721583e-03 2.60538282e-03 8.69967882e-03</_>
    <_>
      3.81473941e-03 1.29207809e-04 5.77803934e-03 1.36704417e-03
      -2.48195580e-03 -3.40581732e-03 6.62208125e-02 2.14627981e-02
      -1.31696472e-02 1.85596850e-02 3.56285758e-02 4.56002951e-02
      6.52017910e-03 5.97947452e-04 6.60518650e-03 2.01587006e-03
      3.06251738e-02 -4.30584839e-03 4.68145646e-02 8.28403607e-03
      -1.18875392e-02 6.26213029e-02 4.00242537e-01 3.00172716e-01
      -2.54586954e-02 2.53123306e-02 3.80559832e-01 3.22935641e-01
      7.29619665e-03 2.61548394e-03 7.52760377e-03 3.36737093e-03
      2.08770800e-02 -1.85960606e-02 2.91716028e-02 3.94562073e-02
      -4.07291483e-03 -8.52543190e-02 3.00008804e-01 4.13666070e-01
      3.89601737e-02 -1.28534464e-02 3.39935452e-01 2.83961952e-01
      1.24888367e-03 -2.11248733e-03 1.63076026e-03 2.11248733e-03
      -9.17484358e-05 -2.53958977e-04 1.53971268e-04 2.79557513e-04
      1.14998128e-02 -4.48430069e-02 1.21006677e-02 4.49603498e-02
      1.50826182e-02 -6.57686591e-02 1.55443968e-02 6.58005700e-02
      1.48705905e-03 -6.93078339e-03 1.49107282e-03 6.93129003e-03
      -8.15347210e-03 2.14897259e-03 9.05405823e-03 4.36701672e-03
      1.03579881e-02 2.90391371e-02 3.23581882e-02 5.22471108e-02
      8.89110286e-03 -8.87420261e-04 6.74005449e-02 2.28059478e-02
      -5.56604797e-03 4.54937480e-03 9.06541198e-03 7.32501736e-03
      -1.98251773e-02 9.12973844e-03 1.99942514e-02 9.18796565e-03
      2.71522999e-02 2.40463465e-02 3.81598055e-01 3.53921115e-01
      4.43130247e-02 7.61189163e-02 3.87402803e-01 2.90475875e-01
      -1.36723537e-02 7.20310258e-03 1.87171139e-02 8.85010604e-03
      -9.20644496e-04 3.04449553e-04 1.31026120e-03 1.11786567e-03
      -2.63934061e-02 1.33550782e-02 3.69971335e-01 3.04401219e-01
      2.42223497e-02 5.06536616e-03 3.20574313e-01 3.69684756e-01
      -8.18900997e-04 -2.53506616e-04 6.36731787e-03 1.75848585e-02
      2.09934587e-04 -1.85510376e-04 8.71845114e-04 2.59274943e-03
      1.58444489e-03 2.97560380e-03 8.30328465e-03 3.19629870e-02
      -3.93530633e-03 9.01592080e-04 7.94500299e-03 4.07533981e-02
      -7.14470167e-04 -3.32880276e-03 1.81489205e-03 7.37776607e-03
      -9.58627323e-04 -1.72813702e-03 5.96948899e-03 5.21149486e-03
      -5.92404464e-03 2.86158230e-02 5.12303412e-02 5.67616560e-02
      2.57862490e-02 -7.91560020e-03 5.53718545e-02 2.10495032e-02
      -4.46006452e-05 2.08515194e-04 2.80406937e-04 2.08515194e-04
      3.17697152e-02 1.04390122e-02 6.55395389e-02 2.29529962e-02
      -1.02077387e-02 5.60034402e-02 3.93850058e-01 3.41630220e-01
      6.10187687e-02 5.54486103e-02 4.07213390e-01 2.76688099e-01
      6.64629450e-04 2.83589121e-04 1.33985654e-03 1.33585359e-03
      1.13370325e-02 -1.49549665e-02 2.69497652e-02 4.09547538e-02
      -2.95830355e-03 1.23216994e-02 3.49904358e-01 3.39265585e-01
      2.51097027e-02 1.57785825e-02 3.15194517e-01 3.39273900e-01
      -5.26280666e-04 -4.41891514e-03 6.83888840e-03 1.27816210e-02
      2.45744805e-03 1.06505835e-02 2.49046157e-03 1.07830185e-02
      7.37757422e-04 6.53616007e-05 1.76698230e-02 2.45242603e-02
      -2.66745011e-03 -8.87104217e-03 2.35847011e-02 3.03547364e-02
      -2.75824009e-03 -2.67678243e-03 5.57694538e-03 5.00056474e-03
      2.71452736e-04 -1.73101679e-03 3.86856310e-03 1.27746286e-02
      -1.86934473e-03 3.81531604e-02 2.30817217e-02 7.03082010e-02
      1.17834453e-02 1.94642833e-03 3.72010246e-02 3.21372189e-02
      -4.35830653e-03 -1.11500768e-03 7.19790626e-03 3.42854601e-03
      9.96515993e-03 1.06382780e-02 3.41736972e-02 4.24974114e-02
      -8.47051293e-02 -1.25176802e-01 4.27079916e-01 3.15070421e-01
      2.31070518e-01 -2.57966109e-03 4.54722881e-01 8.73874277e-02
      -7.21786991e-02 1.11742818e-03 7.70183727e-02 1.21047087e-02
      1.15168775e-02 -8.72641057e-03 2.25172173e-02 5.66947572e-02
      -1.04534082e-01 3.25169265e-02 1.91851214e-01 4.20705110e-01
      2.10006416e-01 6.76587000e-02 2.56209850e-01 1.74707264e-01
      -8.22130665e-02 -1.17469700e-02 8.22130665e-02 1.29893459e-02
      1.87740161e-03 3.14108748e-03 2.86889053e-03 7.72754475e-03
      -3.77241112e-02 3.12818550e-02 4.06643860e-02 5.62822483e-02
      5.14573269e-02 -2.12373538e-03 6.66242018e-02 1.56781618e-02
      -1.44198975e-02 -6.22823252e-04 1.44302603e-02 8.29653814e-04
      1.73436501e-03 1.21998120e-04 7.78417289e-03 7.54230609e-03
      -4.80693998e-03 -2.28821430e-02 6.06681705e-02 5.38784005e-02
      2.63341377e-03 6.47841161e-03 5.09942099e-02 1.54254977e-02
      -2.12816565e-04 -9.85059771e-04 2.12816565e-04 9.92374960e-04
      7.06701539e-03 -3.18223634e-03 5.22646084e-02 5.65163419e-02
      -1.93119347e-02 -1.80271380e-02 2.95264870e-01 4.32495683e-01
      9.78500471e-02 -2.83843242e-02 3.99129450e-01 1.62095368e-01
      -5.00521846e-02 3.60333873e-03 5.00521846e-02 1.01027256e-02
      2.61568092e-02 4.19075973e-03 6.51579201e-02 3.98831666e-02
      -1.07220069e-01 4.90051880e-02 1.94067508e-01 4.54153836e-01
      1.94433764e-01 5.35099721e-03 2.83374757e-01 3.02808136e-01
      -1.04199037e-01 1.27552459e-02 1.04324803e-01 1.34210885e-02
      -5.03664417e-03 -9.54628922e-04 9.09044687e-03 3.04581458e-03
      1.60241891e-02 1.96836740e-02 2.51933280e-02 7.06967711e-02
      7.06472481e-03 1.14998955e-03 6.19069561e-02 3.24679874e-02
      -1.12392558e-02 1.81571057e-03 1.12482617e-02 1.91080698e-03</_>
    <_>
      -6.67745830e-04 -1.14802300e-04 7.05275103e-04 1.27160369e-04
      5.28582186e-02 -1.03643723e-02 7.56826028e-02 1.79800820e-02
      -1.82408020e-02 -3.60901514e-03 2.42508873e-02 9.51872021e-03
      -3.36838374e-03 -1.29868882e-03 4.05108510e-03 2.10650754e-03
      4.03796264e-04 -6.14348333e-04 1.23164686e-03 1.32522092e-03
      4.06564772e-01 -1.06764957e-02 4.30102885e-01 4.32253256e-02
      -2.43884936e-01 6.97435141e-02 2.73320884e-01 3.71635169e-01
      -1.77705521e-03 1.15025854e-02 2.06857212e-02 2.70785857e-02
      -2.02750976e-04 1.82746444e-03 7.74097920e-04 4.49574227e-03
      3.56356919e-01 6.37382120e-02 4.35121268e-01 1.04933321e-01
      -9.74417999e-02 -8.82037077e-03 9.79751796e-02 3.54886837e-02
      -1.98343098e-02 2.94163381e-03 2.15094909e-02 3.84545815e-03
      3.35186895e-04 2.53380230e-03 3.69848101e-04 3.26346443e-03
      2.54321750e-02 6.60241349e-03 7.35857934e-02 1.53867174e-02
      -4.59786598e-03 -2.58408627e-03 1.08244643e-02 3.29588121e-03
      -2.83928355e-03 2.92863027e-04 2.83928355e-03 3.84751853e-04
      -9.95914545e-03 2.58934475e-03 1.00390287e-02 3.07307346e-03
      2.63442937e-02 1.82428688e-03 2.63442937e-02 3.84158897e-03
      -9.43083595e-03 2.73791607e-03 4.39596958e-02 1.38521856e-02
      -6.03881478e-03 -2.88656750e-03 6.63213246e-03 3.02687706e-03
      -2.24325410e-03 -3.05840652e-02 3.90910506e-02 4.18945514e-02
      1.67534441e-01 1.53089911e-01 2.11811647e-01 4.16257322e-01
      -1.06855355e-01 6.17650971e-02 4.67128724e-01 2.82063544e-01
      -3.06360540e-03 -4.18539305e-04 7.19559286e-03 1.85117673e-03
      3.84263508e-02 1.11099528e-02 3.90832685e-02 1.90623738e-02
      3.10122162e-01 -1.63564626e-02 3.34688544e-01 1.22230366e-01
      -2.65529096e-01 6.91773221e-02 3.06434363e-01 7.38156438e-02
      -1.70451067e-02 7.53481081e-03 2.36595310e-02 7.88329262e-03
      -3.88039101e-04 1.38304627e-03 1.33933173e-03 3.36248777e-03
      4.75068092e-02 -6.41076593e-03 4.84666787e-02 2.52742004e-02
      -2.01131627e-02 2.53591430e-03 2.82155704e-02 3.07849748e-03
      -6.26390567e-03 2.73653935e-03 6.41915109e-03 4.73522302e-03
      4.87730053e-04 -2.94399611e-03 6.88116357e-04 6.74140407e-03
      4.50869352e-02 7.02982536e-03 4.61967848e-02 1.95223633e-02
      -2.22531166e-02 -7.29328347e-03 2.42967885e-02 3.08364369e-02
      -2.77861021e-03 -2.78559187e-03 3.77123593e-03 4.23986185e-03
      2.60326982e-04 -2.00357614e-03 2.60326982e-04 2.36947648e-03
      3.92883480e-01 -4.37636189e-02 4.10975903e-01 5.31111136e-02
      -2.61919677e-01 -1.57668861e-03 2.63817400e-01 1.02284133e-01
      -1.81813892e-02 -1.03006680e-02 2.14523710e-02 1.51048042e-02
      -4.52359556e-04 2.82606430e-04 1.36509095e-03 1.99533463e-03
      2.12009773e-01 3.27558182e-02 4.65005279e-01 1.98267594e-01
      -1.51089400e-01 -1.41423717e-01 1.77590519e-01 3.65299553e-01
      -1.66314710e-02 2.01634932e-02 1.98537987e-02 3.68953794e-02
      3.27510899e-03 2.99975206e-03 3.33831320e-03 3.06534558e-03
      1.17019350e-02 7.44060799e-03 3.71806957e-02 2.20182333e-02
      -1.42314304e-02 -4.16372111e-03 3.51748504e-02 4.48611192e-03
      2.27274443e-03 -1.70263532e-03 2.43973639e-03 2.69652368e-03
      -9.06754006e-03 4.13629040e-03 9.08765662e-03 4.30254918e-03
      1.13864290e-02 -1.77347511e-02 3.81470956e-02 2.37603225e-02
      -1.27395978e-02 -8.23186561e-02 2.39005461e-02 8.25306177e-02
      8.22238345e-03 -8.23901314e-03 8.62627197e-03 8.47367570e-03
      -1.69518478e-02 -7.73760751e-02 1.72689948e-02 7.95137957e-02
      4.83593754e-02 -2.94825193e-02 3.87247801e-01 2.55752385e-01
      1.77953988e-01 3.16562533e-01 2.07548127e-01 3.64504993e-01
      2.52572186e-02 4.35789712e-02 3.77275236e-02 4.47720326e-02
      -7.29326857e-04 8.04976560e-04 1.79621310e-03 4.10487317e-03
      3.78565818e-01 9.33772605e-03 3.79321277e-01 8.68730247e-02
      1.26408920e-01 -8.69968086e-02 2.83508152e-01 1.75911531e-01
      1.30492197e-02 -3.89819295e-04 1.77657194e-02 7.12575624e-03
      2.83329340e-04 1.41488516e-03 4.72642365e-04 2.36164522e-03
      2.33675279e-02 -3.27773765e-02 3.12332325e-02 3.86734232e-02
      3.35663594e-02 -1.07330633e-02 3.87825184e-02 1.73383411e-02
      5.69259608e-03 -1.63716241e-03 5.73688513e-03 1.64259132e-03
      1.03188737e-03 -4.52119485e-03 1.29866367e-03 5.07784635e-03
      2.54945140e-02 3.15511711e-02 4.22721766e-02 5.23485541e-02
      3.82886790e-02 5.70296831e-02 4.94994819e-02 8.26679245e-02
      -2.07182951e-02 -1.65525882e-03 2.09839456e-02 1.68559898e-03
      2.65392475e-02 9.86134075e-03 2.74468362e-02 2.01301854e-02
      3.77184957e-01 3.20835747e-02 4.39459354e-01 2.36700669e-01
      9.77602229e-02 3.41201685e-02 2.65676737e-01 7.15949833e-02
      -1.26438841e-01 2.03175806e-02 1.28852099e-01 2.04263739e-02
      -2.96239392e-03 2.08618101e-02 1.38957044e-02 4.63309959e-02
      4.07112002e-01 2.55381851e-03 4.18919295e-01 2.45468721e-01
      8.11116025e-02 9.29848943e-03 1.56926826e-01 1.84033811e-02
      -9.94710922e-02 9.39630531e-03 1.03366643e-01 1.41273038e-02
      1.76938332e-03 5.31077478e-03 4.44305036e-03 7.80747645e-03
      2.73577254e-02 7.59815890e-03 4.11484279e-02 4.21993397e-02
      4.56217630e-03 -3.43841091e-02 1.59235243e-02 3.97816077e-02
      -1.33843599e-02 -5.16501023e-03 1.36851631e-02 6.28140708e-03</_>
    <_>
      1.76578411e-04 -9.48058223e-05 4.55500704e-04 4.73364693e-04
      1.29525186e-02 2.47643824e-04 6.62800595e-02 3.10931038e-02
      4.63460165e-04 -5.47919131e-04 2.52225599e-03 2.80261412e-03
      -1.60021009e-03 -2.36209002e-04 1.81515701e-03 4.99060319e-04
      -2.45569162e-02 -1.48186730e-02 6.33510128e-02 1.94644425e-02
      -7.72334933e-02 -2.36054108e-01 4.50419575e-01 3.36686701e-01
      2.44698435e-01 -1.42645046e-01 2.49270484e-01 1.47604078e-01
      -1.46087399e-02 -1.40421395e-03 1.72255337e-02 2.17722403e-03
      -8.45772494e-03 -1.81047304e-03 2.04369929e-02 3.73268686e-02
      -1.46004990e-01 2.23664910e-01 1.57779470e-01 4.39283401e-01
      2.12995917e-01 5.60860671e-02 2.14929536e-01 2.27638930e-01
      -1.02661075e-02 -6.34595286e-03 1.50771970e-02 1.27376085e-02
      8.02465511e-05 -3.54741304e-03 4.15625487e-04 3.54741304e-03
      1.38238934e-03 -3.80835310e-02 2.49182223e-03 3.80835310e-02
      1.86244084e-03 -5.17515130e-02 4.21710452e-03 5.17515130e-02
      -6.35269025e-05 -9.52273235e-03 5.16778673e-04 9.52273235e-03
      -8.42617999e-04 2.05419702e-03 1.19455706e-03 2.33301311e-03
      -1.07599320e-02 2.97353379e-02 1.48088513e-02 4.81747277e-02
      1.24765430e-02 2.58794520e-02 2.61304118e-02 2.85803005e-02
      -1.14149721e-02 5.90606534e-04 1.14149721e-02 7.70264945e-04
      2.12871954e-02 -1.43789835e-02 4.14830185e-02 1.52711030e-02
      -3.97524722e-02 -1.78111326e-02 3.80258888e-01 3.31555009e-01
      1.57347694e-02 -8.41208827e-03 3.86779666e-01 3.39055926e-01
      -7.39819184e-02 2.64803483e-03 7.39819184e-02 3.90166324e-03
      1.70797352e-02 -3.27145704e-03 5.66780642e-02 4.51695919e-02
      1.66977212e-01 2.07365602e-02 3.97413462e-01 2.24074945e-01
      -9.36632305e-02 6.61920756e-02 4.07281280e-01 1.68887854e-01
      -6.73949271e-02 3.57532920e-03 6.73949271e-02 4.22919774e-03
      2.50168639e-04 -4.04616694e-05 4.52800217e-04 6.56401215e-04
      -1.27975072e-03 -4.15137969e-03 1.99873932e-03 5.41718537e-03
      -5.53502527e-04 -5.46273822e-03 1.74853182e-03 6.52035000e-03
      -9.13734175e-03 4.96449531e-04 9.13734175e-03 5.87111339e-04
      1.09624365e-04 1.16519339e-03 1.23867125e-04 1.16690935e-03
      -2.86875367e-02 8.05715739e-04 2.93441731e-02 1.12008462e-02
      2.55666096e-02 -1.18045742e-02 3.48840058e-02 2.28501018e-02
      3.76519965e-05 5.92175755e-04 1.01359321e-04 5.92175755e-04
      -1.20802773e-02 -8.05219635e-03 1.24243442e-02 9.17937979e-03
      -2.42974371e-01 -3.16168398e-01 2.46325836e-01 3.21892709e-01
      2.78327495e-01 -1.52131647e-03 3.11392039e-01 1.58162955e-02
      -1.12998821e-02 -1.31716793e-02 1.26456805e-02 1.48488618e-02
      -1.67561192e-02 4.28230502e-03 1.89813804e-02 1.35108130e-02
      -2.25995541e-01 2.61880666e-01 2.35507026e-01 3.68962228e-01
      2.84909844e-01 6.26080716e-03 2.98375607e-01 2.07638927e-02
      -9.30093881e-03 2.89797317e-03 1.03497328e-02 2.64665931e-02
      -2.61499872e-03 -4.49062092e-03 3.01658409e-03 1.27715599e-02
      -5.36782760e-03 -1.16692092e-02 9.16966982e-03 9.53519791e-02
      2.26893835e-02 9.89416428e-03 4.19783369e-02 2.85999253e-02
      -1.88786280e-03 -9.85014340e-05 2.14990880e-03 1.18119726e-02
      9.28898517e-05 6.86821819e-04 1.14040522e-04 6.92578789e-04
      -3.30047198e-02 -2.46624602e-03 3.39285508e-02 1.02087455e-02
      3.05535626e-02 -1.26017807e-02 3.06820460e-02 1.87384691e-02
      -1.88367834e-04 4.43322642e-04 3.07211361e-04 7.39725714e-04
      -1.47669595e-02 -9.12664458e-03 1.70012526e-02 1.07580665e-02
      -2.46039093e-01 -2.96094716e-01 2.48992816e-01 3.01667094e-01
      3.00855964e-01 1.60820258e-04 3.00855964e-01 1.04439184e-02
      -1.16046623e-03 8.85675428e-04 1.77608430e-03 1.18427689e-03
      -1.53978132e-02 2.04153662e-03 1.63959581e-02 1.96849722e-02
      -2.39169195e-01 2.37628981e-01 2.50630826e-01 3.87407005e-01
      2.92345792e-01 4.43336181e-03 2.98173338e-01 1.27128726e-02
      -5.29100595e-04 1.01606653e-04 1.41297514e-03 1.55991106e-03
      -2.30209017e-03 -1.68651529e-03 2.55233166e-03 1.17963320e-02
      -3.16890329e-03 5.86015219e-03 5.76380128e-03 8.47465172e-02
      3.06991823e-02 1.13352770e-02 3.11390571e-02 2.68402211e-02
      5.73376747e-05 -1.27332821e-03 9.57861412e-05 1.36918575e-03
      6.80257654e-05 1.55260175e-04 2.25010168e-04 2.25201147e-04
      4.23606776e-04 -2.65516661e-04 1.10589911e-03 1.09580229e-03
      -3.08281183e-02 4.26979782e-03 3.13570760e-02 1.65877957e-02
      -5.27479511e-04 1.68507089e-04 5.36552106e-04 4.02529258e-04
      -1.12226764e-02 -3.20257954e-02 2.23398544e-02 6.34454042e-02
      6.92927614e-02 -1.81345921e-02 2.63743520e-01 4.50290203e-01
      -2.08973535e-03 1.06333401e-02 4.42926854e-01 3.27227473e-01
      -6.01740144e-02 2.19432488e-02 6.01740144e-02 2.23090071e-02
      1.16842650e-02 3.76276299e-02 1.46987028e-02 3.79536562e-02
      1.01053812e-01 8.31361935e-02 4.13898617e-01 2.10739225e-01
      -1.09010652e-01 9.70060378e-02 3.36154729e-01 1.56176403e-01
      -3.53981666e-02 1.52938599e-02 4.50724103e-02 1.89770255e-02
      2.28323755e-04 -4.39298950e-04 6.94010057e-04 4.46386519e-04
      -4.19971207e-03 -1.42052881e-02 6.30269898e-03 1.52168591e-02
      -1.21876132e-02 -3.39416079e-02 1.77865680e-02 4.66175824e-02
      9.85818799e-04 -5.67791890e-03 6.25636848e-03 8.24245624e-03</_>
    <_>
      -1.20991237e-04 -3.86295840e-03 1.02779514e-03 3.86295840e-03
      -7.47165876e-03 -5.90525568e-02 1.90078747e-02 5.93662150e-02
      2.48803291e-03 -1.70600545e-02 1.84082426e-02 5.01683168e-02
      -1.93555467e-03 2.46924610e-04 5.80972852e-03 9.41943936e-03
      -1.45297712e-02 -8.05465970e-03 1.51001420e-02 1.00982590e-02
      2.68953383e-01 1.48235425e-01 4.06454504e-01 2.21987814e-01
      -1.16442256e-01 1.57428056e-01 2.87984669e-01 3.30676436e-01
      -2.95008416e-03 -9.90144163e-03 5.91078065e-02 1.92791205e-02
      3.80889699e-03 6.54406892e-03 9.50697158e-03 7.71785574e-03
      2.46604770e-01 -7.21180588e-02 3.15905511e-01 2.00166836e-01
      -2.14107394e-01 -1.93865716e-01 2.76223153e-01 2.71448821e-01
      2.89058518e-02 1.85051765e-02 3.14529017e-02 2.56121513e-02
      2.95561366e-03 1.37529080e-03 4.89717396e-03 1.38337340e-03
      -1.52789447e-02 -3.86333349e-03 1.99835170e-02 5.52878343e-03
      2.33668368e-02 1.40370736e-02 3.53353694e-02 1.51965972e-02
      1.55463349e-03 3.81315331e-05 2.25413567e-03 1.45666883e-03
      1.76493675e-04 -9.47603257e-05 4.55282134e-04 4.73137537e-04
      1.29463030e-02 2.47524964e-04 6.62482530e-02 3.10781822e-02
      4.63237753e-04 -5.47656207e-04 2.52104551e-03 2.80126929e-03
      -1.59944221e-03 -2.36095642e-04 1.81428588e-03 4.98820853e-04
      -2.45451313e-02 -1.48115614e-02 6.33206144e-02 1.94551013e-02
      -7.71964267e-02 -2.35940829e-01 4.50203449e-01 3.36525112e-01
      2.44581014e-01 -1.42576590e-01 2.49150857e-01 1.47533253e-01
      -1.46017289e-02 -1.40354014e-03 1.72172673e-02 2.17617932e-03
      -8.48066248e-03 -1.56907260e-03 2.04001870e-02 3.70684229e-02
      -1.46020651e-01 2.23813087e-01 1.57618016e-01 4.38817114e-01
      2.12893695e-01 5.60591519e-02 2.14826405e-01 2.27529690e-01
      -1.02611808e-02 -6.34290744e-03 1.50699615e-02 1.27314953e-02
      7.09794622e-05 -1.12951966e-03 3.74113355e-04 6.44002017e-03
      3.81036050e-04 -2.25263387e-02 2.52196612e-03 5.45672439e-02
      1.52715133e-03 -3.69130000e-02 3.03048245e-03 6.69471100e-02
      1.60253781e-04 -7.47980410e-03 3.15223268e-04 1.13893049e-02
      -8.42830341e-04 2.05471460e-03 1.19485811e-03 2.33360124e-03
      -1.07626431e-02 2.97428314e-02 1.48125831e-02 4.81868647e-02
      1.24796871e-02 2.58859731e-02 2.61369962e-02 2.85875034e-02
      -1.01524042e-02 5.28985751e-04 1.21649262e-02 6.74599258e-04
      2.12925598e-02 -1.43826064e-02 4.14934754e-02 1.52749512e-02
      -3.96893732e-02 -1.83497034e-02 3.80888790e-01 3.31565499e-01
      1.57387331e-02 -8.41420796e-03 3.86877149e-01 3.39141369e-01
      -6.62695393e-02 2.65430007e-03 7.72370845e-02 3.50437220e-03
      1.70840397e-02 -3.27228149e-03 5.66923469e-02 4.51809727e-02
      1.67092398e-01 2.12758668e-02 3.98047715e-01 2.24058300e-01
      -9.36868340e-02 6.62087575e-02 4.07383919e-01 1.68930426e-01
      -6.10185526e-02 3.22194141e-03 6.83787242e-02 3.62916384e-03
      2.50231678e-04 -4.04718667e-05 4.52914304e-04 6.56566641e-04
      -1.28007319e-03 -4.15242556e-03 1.99924293e-03 5.41855022e-03
      -5.53641992e-04 -5.46411471e-03 1.74897246e-03 6.52199332e-03
      -8.51137098e-03 3.40840867e-04 9.21742059e-03 4.11431509e-04
      4.56141075e-03 1.14624714e-02 4.90607135e-03 1.15163764e-02
      -2.81456485e-02 6.30526524e-03 4.01170924e-02 2.49973703e-02
      3.77219506e-02 -2.52634510e-02 3.79932038e-02 2.54832525e-02
      -1.43169207e-04 -1.01780715e-04 1.57494942e-04 1.35378839e-04
      -2.15760749e-02 -5.01620732e-02 3.97913903e-02 5.22910655e-02
      1.69443354e-01 1.59417674e-01 2.98494488e-01 2.10683435e-01
      -1.17933795e-01 1.54140189e-01 4.41206783e-01 2.30057701e-01
      -1.52041600e-03 -1.93133450e-03 2.72741122e-03 3.96635476e-03
      8.85100279e-04 2.82558659e-03 6.36319490e-03 8.24949518e-03
      1.95457965e-01 -4.64686416e-02 2.03850448e-01 3.30762386e-01
      -1.05492353e-01 -4.55116667e-02 4.01286364e-01 3.79879862e-01
      1.58718403e-03 -5.92089724e-03 5.13248704e-03 1.49751669e-02
      -6.56839751e-04 6.57947548e-03 2.07507052e-03 6.69835927e-03
      2.23198277e-03 -2.25490262e-03 1.59590878e-02 3.80710624e-02
      -4.56699450e-03 -3.44647071e-03 6.48426730e-03 1.05514228e-02
      -9.51290131e-04 1.34504528e-03 1.24952930e-03 2.95160292e-03
      -6.96381461e-03 3.12697608e-04 1.65944770e-02 3.86876345e-04
      3.38236727e-02 1.13341620e-03 4.56728674e-02 1.52263488e-03
      -1.88902840e-02 3.12192040e-03 1.10398933e-01 5.86803164e-03
      4.71736351e-03 1.85460935e-03 1.25728883e-02 4.04362800e-03
      -6.29339740e-02 9.06468928e-03 9.70160887e-02 1.67100709e-02
      2.82606661e-01 8.48629996e-02 3.69852096e-01 1.03850491e-01
      -2.16950458e-02 1.19150013e-01 3.59597504e-01 3.27518523e-01
      -4.00633030e-02 -2.87401360e-02 4.23316360e-02 3.19113433e-02
      -2.85306573e-02 -2.87292041e-02 7.73878843e-02 3.07775792e-02
      2.20556632e-01 -1.16524339e-01 4.08832610e-01 1.25935882e-01
      -1.91705823e-01 -2.74369180e-01 1.91705823e-01 2.74369180e-01
      -2.13621213e-04 -1.56497501e-03 1.19208568e-03 2.21306318e-03
      8.39178916e-04 -1.22789264e-04 1.42713683e-03 3.39315040e-04
      3.15739796e-03 -1.40862959e-03 2.63641756e-02 1.88633986e-03
      -1.90087463e-04 2.10651895e-03 8.29496700e-03 7.61160068e-03
      2.30952934e-03 5.42725157e-03 2.57516187e-03 5.57545712e-03</_>
    <_>
      6.94535265e-04 -1.83055035e-05 2.17629992e-03 1.43783269e-04
      4.49005552e-02 2.09088670e-03 4.52141762e-02 2.61173071e-03
      -8.94822087e-03 1.90466847e-02 6.44476414e-02 4.46245968e-02
      -6.05774803e-05 6.03762455e-04 6.82288592e-05 7.41039636e-04
      7.76310312e-03 8.06101016e-04 1.68858878e-02 1.13366428e-03
      2.72764266e-01 1.40453503e-02 3.15744102e-01 3.82282995e-02
      -9.55594331e-02 1.02600776e-01 1.21585280e-01 5.13713956e-01
      -1.34464633e-02 -2.87283286e-02 2.07899660e-02 6.83179796e-02
      1.31054623e-02 5.10787417e-04 2.01918613e-02 1.85903581e-03
      2.32438624e-01 -5.06635336e-03 3.33439916e-01 5.12492210e-02
      -1.47001982e-01 -1.21858828e-01 1.85012028e-01 5.04000485e-01
      2.30369950e-03 2.31395978e-02 1.44063644e-02 9.93305370e-02
      1.43329694e-03 -2.24655043e-04 2.57528829e-03 2.42853435e-04
      4.04292829e-02 -3.14171612e-03 4.70064692e-02 4.73210216e-03
      3.85867861e-05 -1.66450366e-02 4.20902250e-03 2.86859889e-02
      3.70211928e-04 -2.16203998e-03 4.54662630e-04 3.41193960e-03
      9.61868442e-04 -1.06159772e-04 2.01287284e-03 1.69874751e-04
      2.18409877e-02 -4.21724841e-03 6.23297133e-02 7.58852484e-03
      -3.93006485e-03 -5.00331819e-03 5.32835200e-02 5.29852696e-02
      -6.81573641e-04 -1.06931496e-02 6.96886040e-04 1.09247137e-02
      2.29769899e-03 -6.38835118e-05 1.21620996e-02 1.28677138e-03
      2.88655460e-01 -2.26519145e-02 3.37873578e-01 3.65927443e-02
      -3.90611701e-02 6.79746866e-02 4.02217835e-01 2.55807936e-01
      -2.40929681e-03 -2.10073218e-02 5.01739746e-03 7.40547031e-02
      -2.15000007e-03 -4.82988580e-05 1.04588224e-02 1.01905887e-03
      3.53405237e-01 -3.77112404e-02 3.53405237e-01 3.77112404e-02
      -1.38944969e-01 -6.47451505e-02 4.12760884e-01 2.99354464e-01
      -6.00048993e-03 2.28881128e-02 1.03957877e-02 6.94262534e-02
      -1.02141185e-03 1.17233474e-04 1.27603393e-03 2.09984777e-04
      4.94174287e-02 -4.16112505e-03 4.94174287e-02 4.32090927e-03
      -1.78754814e-02 2.82009840e-02 3.03064194e-02 4.37971018e-02
      9.62800812e-04 7.05192378e-03 1.74291560e-03 1.34409303e-02
      6.80356636e-04 -7.76196684e-05 2.07044021e-03 1.07830165e-04
      4.70452644e-02 -8.14354746e-04 4.70452644e-02 2.83393078e-03
      -2.29283404e-02 -5.46045974e-03 3.88847925e-02 6.19056746e-02
      6.06561116e-05 7.12399371e-03 4.05352650e-04 1.38212424e-02
      2.59295735e-03 -4.21252189e-05 1.28752375e-02 1.27494417e-03
      3.07526559e-01 -1.60435250e-03 3.07526559e-01 1.25282593e-02
      -4.74750549e-02 1.27512842e-01 4.25027192e-01 2.97392279e-01
      1.34059592e-04 1.41747842e-05 4.04890947e-04 1.00136304e-03
      2.07166048e-03 2.91207369e-04 1.29253184e-02 7.17427116e-04
      3.16058308e-01 -3.72192613e-03 3.22480947e-01 1.64036956e-02
      -1.20929979e-01 -8.54948163e-02 1.41086221e-01 4.96509403e-01
      -1.35407355e-02 -4.04160023e-02 1.35407355e-02 7.52032027e-02
      6.54419884e-04 4.81882016e-05 2.22290400e-03 1.95883520e-04
      4.46863137e-02 -1.30417629e-03 4.68873195e-02 3.18480958e-03
      -3.06719486e-02 -3.70336808e-02 3.39947119e-02 6.29347712e-02
      2.79721874e-03 6.32197503e-03 2.91545992e-03 1.67114176e-02
      2.04945914e-03 -2.92696786e-04 3.06565990e-03 3.81193124e-04
      4.79021929e-02 -6.63418672e-04 5.70093170e-02 7.20121525e-03
      -2.48832465e-03 2.38352045e-02 8.00446700e-03 3.19488980e-02
      3.22668609e-04 2.75382563e-03 3.88818182e-04 5.71918115e-03
      9.04377457e-03 -8.55922350e-04 1.66537613e-02 1.12893793e-03
      2.70414770e-01 3.04121636e-02 4.26399410e-01 1.03559531e-01
      -1.18671339e-02 1.31464913e-01 3.01274545e-02 6.16167665e-01
      1.50044798e-03 2.02061944e-02 1.94605684e-03 9.29638073e-02
      7.41389720e-03 -4.44742152e-04 1.53249791e-02 1.10317406e-03
      3.86968315e-01 -6.50697993e-03 3.86968315e-01 1.76721141e-02
      6.80633774e-03 -7.24676438e-03 9.53546073e-03 1.26275551e-02
      -3.56364151e-04 -1.61278003e-03 1.36455137e-03 4.20733774e-03
      1.04234519e-03 4.54355686e-05 2.22240714e-03 1.31666733e-04
      2.55647935e-02 -3.94549295e-02 2.59881411e-02 4.24463265e-02
      4.06395691e-03 -7.94031844e-02 4.06395691e-03 8.29914957e-02
      -7.85332741e-05 -1.12985438e-02 7.85332741e-05 1.16046453e-02
      4.62075230e-04 -9.85954102e-05 2.03905720e-03 3.80179146e-04
      5.72284833e-02 1.19481771e-03 5.72284833e-02 1.59016892e-03
      -3.09080668e-02 1.74121894e-02 6.06206134e-02 6.00598864e-02
      -1.56721193e-03 3.51434282e-04 1.93090690e-03 1.47183454e-02
      4.61543025e-03 -3.82538710e-05 1.60511397e-02 8.32240738e-04
      3.90173972e-01 8.72495119e-03 3.90173972e-01 1.10345427e-02
      -4.10692859e-03 5.44369705e-02 3.25929895e-02 6.46215677e-02
      5.52530575e-04 1.28092589e-02 1.65402284e-03 1.47299133e-02
      5.83354803e-03 4.28392887e-05 1.72695108e-02 8.29078781e-04
      3.69821370e-01 -1.75055140e-03 3.78189147e-01 2.25530285e-02
      -1.31198436e-01 -1.67031005e-01 3.42372209e-01 4.50455934e-01
      1.28878310e-04 -1.36117302e-02 2.13296525e-03 1.03892721e-01
      9.16429912e-04 4.32497873e-05 2.54189246e-03 9.83797800e-05
      4.90238331e-02 3.67537467e-03 5.12521602e-02 4.51256894e-03
      -6.02772925e-03 -4.97150142e-03 7.82941505e-02 5.47418743e-02
      -8.63658897e-06 -9.63205996e-04 1.82472228e-04 1.29388471e-03</_>
    <_>
      1.87241868e-03 -2.81618536e-03 3.93773848e-03 1.05023757e-02
      -1.54123986e-02 5.50739467e-02 1.57244522e-02 5.55454567e-02
      -9.87937953e-03 4.65155169e-02 1.13791982e-02 4.79503609e-02
      -1.92767780e-04 -3.23186367e-04 4.19355201e-04 3.56175762e-04
      5.31590125e-03 -8.85874964e-03 7.13709965e-02 3.57434526e-02
      4.52867113e-02 -1.64006054e-02 3.84231061e-01 3.04318994e-01
      5.18139312e-03 2.64354832e-02 3.34493786e-01 3.46992433e-01
      -3.30730677e-02 1.88254807e-02 3.95732559e-02 8.00146312e-02
      5.25799021e-02 2.04501525e-02 7.65942112e-02 3.06230877e-02
      -7.87045620e-03 -5.65825915e-03 3.37417185e-01 3.21340799e-01
      -2.45606806e-02 -8.10160190e-02 4.33469474e-01 2.39244550e-01
      -1.91231966e-02 -1.14351567e-02 2.97973584e-02 4.73829024e-02
      1.53300399e-03 5.22479939e-04 1.58189784e-03 3.97583842e-03
      -8.15830473e-03 -1.89750064e-02 4.26883921e-02 7.32366890e-02
      -4.92919283e-03 1.14972740e-02 6.79985136e-02 3.66146863e-02
      9.25587397e-03 1.99421914e-03 1.00002987e-02 5.46090724e-03
      2.75172596e-03 -4.38123150e-03 7.17341434e-03 8.95703863e-03
      -1.41295278e-02 -7.08241528e-03 6.08071722e-02 4.20535132e-02
      9.52762458e-03 2.52028164e-02 3.88362482e-02 7.62633383e-02
      -1.58821960e-04 1.28046761e-03 1.43776857e-03 3.05262464e-03
      4.39601834e-04 -1.26201555e-03 6.01637997e-02 4.24902551e-02
      6.46112710e-02 6.41852021e-02 4.85139787e-01 2.44205445e-01
      1.47402314e-02 9.69194248e-03 3.55547369e-01 3.28569323e-01
      1.86122290e-03 1.44661299e-03 5.28908614e-03 3.03918822e-03
      2.20267437e-02 2.10227305e-03 2.36956943e-02 5.70184365e-02
      3.86796053e-03 -3.70974466e-02 3.29493701e-01 3.51447165e-01
      2.31775958e-02 2.14163791e-02 3.24728847e-01 2.96862960e-01
      -8.32788181e-03 -2.44404073e-03 9.43153631e-03 3.83924320e-03
      1.03448656e-04 4.88606092e-05 1.56928523e-04 5.61861343e-05
      1.26083232e-02 -4.15301360e-02 1.44143170e-02 4.15575951e-02
      1.80756077e-02 -5.28226234e-02 1.83952581e-02 5.28226234e-02
      9.87110834e-05 -2.94425688e-03 2.15703808e-03 3.90451355e-03
      -5.57695865e-04 1.17389029e-02 7.30979082e-04 1.17785903e-02
      -5.16247656e-03 7.77397007e-02 6.37643505e-03 7.77397007e-02
      -3.19387997e-03 4.71578464e-02 5.56630967e-03 4.72117402e-02
      -2.36418273e-04 2.08424428e-03 4.11009009e-04 2.08424428e-03
      7.75001617e-03 -6.06924342e-03 8.63239691e-02 2.44926456e-02
      6.28849268e-02 1.65751819e-02 4.96272832e-01 2.48949140e-01
      1.56088136e-02 8.02564099e-02 3.22758943e-01 3.03640008e-01
      -1.74598657e-02 1.65051855e-02 2.75628958e-02 3.11062839e-02
      -1.03267850e-02 1.27299912e-02 8.33246112e-02 3.51352766e-02
      8.73857811e-02 -4.77549806e-03 4.36346352e-01 2.81213015e-01
      1.54327536e-02 6.23363350e-03 3.06433380e-01 2.19774157e-01
      -1.85437799e-02 2.82281102e-03 2.57961284e-02 2.21614279e-02
      5.74886566e-04 -9.72363725e-03 7.11971021e-04 9.75186564e-03
      7.15811178e-03 -8.13813284e-02 7.22287409e-03 8.15170854e-02
      7.21609127e-03 -8.24910477e-02 7.73336412e-03 8.25858563e-02
      9.16766527e-04 -9.64461267e-03 1.21884956e-03 9.96676460e-03
      2.25763375e-04 3.74548777e-04 2.32576975e-04 4.22360637e-04
      5.05160540e-03 3.01410519e-02 5.49292052e-03 3.23148593e-02
      7.06328638e-03 6.01675287e-02 7.06867827e-03 6.09230809e-02
      1.08155853e-03 8.98623094e-03 1.18340028e-03 9.07478482e-03
      3.07489140e-03 2.04952117e-02 2.31921505e-02 7.90955946e-02
      5.87434182e-03 2.82967482e-02 2.85899490e-01 3.42370450e-01
      -7.17630237e-02 2.68343557e-02 1.81505710e-01 4.30641949e-01
      2.82831583e-02 5.07838372e-03 6.66208789e-02 3.13844495e-02
      1.76869184e-02 -4.24856273e-03 4.45359088e-02 4.29011881e-02
      1.25962943e-01 -4.81739268e-02 4.28115517e-01 1.50063485e-01
      -6.83961883e-02 -2.71512698e-02 5.00393748e-01 2.35956594e-01
      -1.95117835e-02 -8.46481416e-03 2.73954868e-02 2.18396280e-02
      1.33213762e-03 -4.67816740e-03 6.47005159e-03 9.36186034e-03
      1.88502315e-02 1.41376373e-03 5.80265522e-02 3.47392596e-02
      -2.60286871e-02 4.91988333e-03 4.19414863e-02 6.24870174e-02
      3.42745357e-03 2.67418264e-03 6.62907073e-03 6.47827750e-03
      -1.17687567e-03 2.48472393e-03 1.69240031e-03 2.48869462e-03
      6.64187071e-04 1.20200114e-02 5.53290453e-03 1.25648556e-02
      -6.56188326e-03 6.71648158e-05 6.56188326e-03 1.42621959e-03
      -2.04638182e-03 -3.56299133e-04 2.04638182e-03 3.56299133e-04
      -2.89258622e-02 4.39773453e-03 3.28978486e-02 3.65098119e-02
      6.40762970e-02 -5.45367226e-02 3.99581224e-01 2.89150834e-01
      -4.87838499e-03 2.73613073e-02 2.32412875e-01 3.30162436e-01
      -3.09977718e-02 -5.34897065e-03 4.81387898e-02 5.53353168e-02
      -9.01615713e-04 -2.05998421e-02 3.09173446e-02 5.59438467e-02
      -2.49581356e-02 2.98180953e-02 4.13978934e-01 3.23936492e-01
      1.04670285e-03 -7.16883317e-02 3.40871096e-01 3.91518205e-01
      -7.00256322e-04 -5.39073674e-03 7.01519325e-02 3.69364247e-02
      1.23560592e-03 -3.98828508e-03 1.23560592e-03 4.17446438e-03
      9.23975836e-03 -6.01086393e-02 9.98872425e-03 6.08601980e-02
      8.21676385e-03 -1.08669782e-02 1.47142876e-02 6.65663853e-02
      -2.30712909e-03 2.39958381e-03 4.69720876e-03 9.39038210e-03</_>
    <_>
      1.74006249e-03 1.09126454e-03 1.78046699e-03 1.95968826e-03
      1.07845906e-02 7.43756862e-03 2.56232489e-02 3.71707417e-02
      2.26222090e-02 2.92346422e-02 3.50318030e-02 3.82004827e-02
      -5.25182439e-03 -1.73074321e-03 1.20709958e-02 7.81810656e-03
      2.16935407e-02 1.64775420e-02 3.43897566e-02 3.83264758e-02
      -4.65050153e-02 -3.00649256e-02 3.42330724e-01 3.77532989e-01
      1.42031491e-01 -1.50349796e-01 2.21078932e-01 1.92348570e-01
      -3.58875245e-02 2.80273762e-02 6.33665919e-02 4.98664491e-02
      -2.18849164e-03 1.94187202e-02 4.66461703e-02 3.60820852e-02
      -1.60335869e-01 7.81342536e-02 4.09506351e-01 3.66334856e-01
      2.54197091e-01 5.14922291e-03 4.20572519e-01 4.02328223e-02
      -7.86033366e-03 1.68235099e-03 8.44675768e-03 6.86132861e-03
      -1.73603141e-04 3.37928650e-04 5.09258534e-04 6.30727387e-04
      -4.55464646e-02 1.69308030e-03 4.59958985e-02 5.99071383e-03
      3.41781825e-02 -2.51311972e-03 5.93735315e-02 9.02163330e-03
      -4.96807275e-03 -5.63528761e-03 8.99213925e-03 6.07064366e-03
      -9.07977810e-05 4.37560584e-03 8.16048007e-04 6.00888394e-03
      1.09721627e-02 1.37425587e-02 1.26665933e-02 1.89583525e-02
      -2.66085397e-02 2.11870894e-02 2.96668243e-02 2.34152321e-02
      -1.65795768e-03 -1.97081696e-04 3.33240698e-03 3.03308293e-03
      -1.15622801e-03 -1.04116341e-02 6.78671710e-03 1.20100491e-02
      -1.05558084e-02 -4.40689884e-02 3.58550757e-01 3.76772434e-01
      1.64177231e-02 -1.18308328e-02 3.78521889e-01 3.98868114e-01
      -3.65205444e-02 3.04551814e-02 4.38207984e-02 3.79939452e-02
      1.43135199e-03 -2.50088070e-02 5.96870594e-02 5.28969876e-02
      2.16896862e-01 4.86363173e-02 3.73765260e-01 2.87761003e-01
      -6.92391843e-02 8.89584199e-02 3.28553110e-01 1.13510206e-01
      -5.51361311e-03 4.32078633e-03 8.59824382e-03 5.84598677e-03
      4.25528153e-04 -3.61867918e-04 7.63316732e-03 6.94599375e-03
      2.28989925e-02 -1.73607636e-02 2.36713178e-02 3.30871157e-02
      2.13801721e-03 2.25724609e-04 4.30108001e-03 3.65758128e-03
      -1.87883881e-04 -8.22509988e-04 6.05282199e-04 1.09554257e-03
      -3.33043310e-04 6.73800940e-03 6.13982510e-03 1.28931031e-02
      -1.26552823e-05 1.06197400e-02 7.02150613e-02 4.42760140e-02
      2.18295958e-02 8.12396593e-03 3.35555673e-02 1.12089068e-02
      -4.87968698e-03 4.50670253e-03 7.14730518e-03 6.66224025e-03
      -4.98329708e-03 1.66226557e-04 6.18181238e-03 2.92340899e-03
      1.32071316e-01 5.06105199e-02 5.62887013e-01 1.65363565e-01
      -3.54633443e-02 -1.32640064e-01 1.07678592e-01 1.40203625e-01
      -1.68714374e-02 4.37652273e-03 2.08989866e-02 1.27821080e-02
      -4.80806036e-03 -2.95865349e-03 5.05519938e-03 5.13181649e-03
      -2.41495389e-02 -2.65016197e-03 3.62570316e-01 3.78231704e-01
      -2.21467745e-02 -5.46933040e-02 3.34771425e-01 4.14421976e-01
      -1.02175800e-02 -3.01022511e-02 1.37235979e-02 3.02512776e-02
      -3.74391122e-04 -1.85873301e-03 8.64664209e-04 1.88414950e-03
      -1.84896514e-02 -3.32855321e-02 1.85000468e-02 3.32855321e-02
      -2.49951445e-02 -5.81446886e-02 2.53061876e-02 5.81446886e-02
      -7.61589792e-04 -1.46122684e-03 8.44777504e-04 1.48321886e-03
      -2.33981782e-03 6.83089998e-03 4.94990917e-03 7.48267677e-03
      -8.81019235e-03 6.09478727e-02 1.11962883e-02 6.11124076e-02
      -1.13950213e-02 2.75083147e-02 1.86832156e-02 2.75401007e-02
      -9.40068159e-04 1.71545066e-03 9.55029740e-04 1.81134359e-03
      -3.80466692e-02 -1.93538312e-02 5.19431084e-02 3.04725450e-02
      3.01574152e-02 -1.76865786e-01 5.06030977e-01 2.40984738e-01
      1.65180042e-01 3.89465620e-03 3.29740971e-01 2.55727619e-01
      -2.47162879e-02 1.24103418e-02 4.46319841e-02 4.37282994e-02
      2.82310601e-03 -8.38876516e-03 1.91101320e-02 6.29574656e-02
      -2.49941908e-02 5.95633779e-03 2.78947502e-01 3.35573822e-01
      1.15844689e-01 -4.61269096e-02 3.07852179e-01 3.42138052e-01
      2.43362449e-02 1.43432047e-03 6.74111024e-02 3.39199118e-02
      -2.11690394e-06 3.50677365e-05 1.59783129e-04 4.63996112e-05
      -1.61921396e-03 2.04383838e-03 3.03308922e-03 2.45541986e-03
      7.40866922e-03 -3.68423127e-02 1.06574930e-02 3.69341820e-02
      2.70813564e-03 -1.11997528e-02 2.93987058e-03 1.12841586e-02
      2.18772120e-03 9.33401461e-05 2.59000133e-03 2.30092974e-03
      -8.30038101e-04 1.56240603e-02 4.22721729e-03 1.69970468e-02
      -1.46278907e-02 6.66978257e-03 2.33700108e-02 1.26579050e-02
      -1.32646982e-03 1.15696026e-03 6.19465578e-03 3.21642915e-03
      -9.22313426e-03 -4.36518826e-02 1.70215331e-02 4.93339039e-02
      3.74214202e-02 -1.07680589e-01 2.87578374e-01 3.96458238e-01
      2.80180592e-02 -2.23343559e-02 3.75592023e-01 3.59481841e-01
      -5.27930446e-02 1.68981683e-02 7.12290034e-02 2.79932693e-02
      3.02937385e-02 2.10246556e-02 5.34342863e-02 5.42299338e-02
      1.30924419e-01 1.55116171e-01 3.27366471e-01 2.05492705e-01
      -8.64876956e-02 7.10901991e-02 4.61080760e-01 1.73857942e-01
      -3.01698595e-02 4.88476967e-03 4.11228500e-02 1.29911778e-02
      2.14354950e-03 6.01294637e-03 6.50355686e-03 6.86320057e-03
      -4.45682835e-03 -2.42079422e-02 2.81619262e-02 2.96871327e-02
      4.26027225e-03 -2.67407615e-02 1.80861931e-02 2.96831354e-02
      -2.84604030e-03 -3.59110790e-03 3.83831770e-03 4.79512429e-03</_>
    <_>
      6.79037621e-05 3.86399566e-04 2.48375698e-04 4.00981866e-04
      1.74427871e-02 1.35284699e-02 1.78153627e-02 1.35284699e-02
      1.41986264e-02 1.21877892e-02 6.83346614e-02 5.26890010e-02
      -1.87372832e-04 -3.16128106e-04 1.38621277e-03 6.97007729e-03
      -6.88129803e-05 2.54534464e-03 1.14381325e-03 2.73633283e-03
      4.24722940e-01 9.80799049e-02 4.24722940e-01 9.88681838e-02
      -1.29369289e-01 6.61014467e-02 4.29231226e-01 8.68404135e-02
      -9.70560126e-03 2.16785148e-02 4.41640429e-02 3.49119753e-02
      1.36512145e-03 1.11630410e-02 2.19310913e-03 1.11861201e-02
      3.41000259e-01 -6.62978142e-02 3.58745098e-01 1.51829496e-01
      -6.13616966e-02 -6.12665489e-02 2.92237729e-01 1.51900262e-01
      2.80931452e-03 -1.51349707e-02 1.32328700e-02 3.05363964e-02
      -9.44532439e-06 3.42048792e-04 8.64223912e-05 3.42048792e-04
      -5.20656351e-03 7.33373920e-03 7.01642781e-03 7.33373920e-03
      1.92728192e-02 -2.07981765e-02 2.83071324e-02 4.98158410e-02
      5.15318417e-04 8.94083001e-04 8.28103453e-04 7.76962331e-03
      2.70822668e-04 -1.16794035e-04 2.91128177e-04 2.11647872e-04
      2.11037248e-02 4.05112170e-02 2.35625133e-02 4.78964001e-02
      2.11357116e-03 3.21358331e-02 1.32090915e-02 4.95363027e-02
      3.07408511e-04 7.72028361e-05 3.18241830e-04 1.30643733e-04
      7.87773058e-02 1.71228852e-02 7.89140090e-02 2.27595791e-02
      1.30000442e-01 6.42377213e-02 3.10299665e-01 3.56776416e-01
      -1.60390854e-01 7.28649423e-02 3.66693348e-01 2.01350808e-01
      5.01941377e-03 2.16502324e-03 1.31893251e-02 5.62857650e-03
      7.85611570e-02 -2.12006439e-02 7.87142515e-02 2.54957750e-02
      1.51195467e-01 -4.52460349e-02 3.21053952e-01 4.05035585e-01
      -1.83384493e-01 -9.10504386e-02 3.50872248e-01 2.11670235e-01
      9.55831073e-03 -1.97463972e-03 1.45232268e-02 7.94001296e-03
      2.07354999e-04 -3.17693659e-04 2.43098999e-04 5.87995688e-04
      1.72700379e-02 -6.18948862e-02 1.72700379e-02 6.22208863e-02
      7.42947357e-03 -3.35776620e-02 2.13095807e-02 4.03709039e-02
      6.37180288e-04 -7.16454815e-05 6.56549004e-04 1.42092715e-04
      -8.10676836e-04 -6.35887627e-05 8.16435844e-04 1.13767535e-04
      4.01020097e-03 6.95377365e-02 2.77589895e-02 8.12392235e-02
      -2.27987170e-02 1.06874384e-01 2.55234037e-02 1.06948145e-01
      -1.18617236e-03 8.15328094e-04 1.19248533e-03 8.98913946e-04
      4.15303409e-02 1.48455100e-02 6.43695518e-02 2.29902640e-02
      1.13063000e-01 3.70557718e-02 3.03093016e-01 2.55426526e-01
      -1.66721910e-01 -9.55265537e-02 2.31770486e-01 4.81778622e-01
      -1.11621190e-02 2.21950784e-02 1.09005719e-01 4.69417050e-02
      5.26530519e-02 -1.00098504e-02 6.88575357e-02 1.52467266e-02
      9.76076722e-02 -4.31208536e-02 3.34115446e-01 1.30398214e-01
      -2.41529167e-01 1.79495662e-02 2.83253282e-01 3.31008464e-01
      3.03931776e-02 -1.68937247e-03 1.31544590e-01 2.56978143e-02
      -1.03140390e-03 7.48624461e-06 1.03443221e-03 1.27889798e-03
      1.57486722e-02 -4.05876711e-03 3.12771872e-02 1.11440197e-01
      -1.71137005e-02 -1.29994759e-02 2.06674375e-02 1.35832608e-01
      -6.54493319e-03 -6.85886433e-03 6.56896411e-03 7.10171321e-03
      -5.86424896e-04 8.71090568e-04 7.51735060e-04 1.34663761e-03
      2.39806119e-02 4.23742412e-03 3.02859768e-02 8.09807144e-03
      1.86227332e-03 -1.45459436e-02 1.38767492e-02 1.70260351e-02
      1.58988609e-04 1.03993953e-04 6.13115961e-04 6.18148537e-04
      -4.25855163e-03 1.37159256e-02 8.93325452e-03 2.23302431e-02
      2.58568734e-01 7.07261041e-02 3.26787382e-01 2.28635475e-01
      9.50557645e-03 2.36237034e-01 6.37507141e-02 2.69342899e-01
      8.90966225e-03 1.47636468e-02 1.26574738e-02 2.41373088e-02
      -2.91195139e-03 -1.62700017e-03 8.84516723e-03 3.47872749e-02
      1.43337250e-01 -1.62654802e-01 2.79721916e-01 3.14899892e-01
      6.02407418e-02 -2.48153627e-01 1.93915322e-01 5.35981834e-01
      -6.10634917e-03 -2.14153249e-02 1.45244608e-02 8.36852789e-02
      5.70037577e-04 1.45132875e-03 1.36560341e-03 3.40612023e-03
      -1.81622468e-02 2.03661192e-02 2.79114190e-02 3.40779796e-02
      3.92863974e-02 4.77458205e-04 5.34860715e-02 4.27815728e-02
      -7.34480098e-04 3.20837903e-03 1.30793359e-03 3.20891547e-03
      2.29440353e-04 1.29247994e-07 2.69179232e-04 9.49872192e-05
      -1.12438318e-03 2.18649046e-03 2.84524541e-03 2.43743137e-03
      3.49700637e-02 2.65109651e-02 4.67370301e-02 3.88892256e-02
      -1.52716797e-03 -4.37668618e-03 4.59102541e-03 1.67280082e-02
      6.26249879e-04 7.26511190e-03 3.10332538e-03 7.26511190e-03
      5.18464856e-03 4.22710106e-02 1.94499511e-02 4.22710106e-02
      4.23198044e-01 5.18384688e-02 7.38384545e-01 1.57598272e-01
      1.72252245e-02 3.39984186e-02 2.59791687e-02 4.32800353e-02
      1.89102627e-03 2.21402422e-02 2.92006298e-03 2.21926384e-02
      3.09864711e-02 1.78217411e-01 3.48075889e-02 1.80756822e-01
      1.80045947e-01 -1.71012506e-02 2.49549448e-01 2.49848619e-01
      5.67631563e-03 -3.97513993e-02 2.07290072e-02 8.32728744e-02
      1.02215294e-04 1.17583550e-03 1.16939293e-04 1.17583550e-03
      1.05352455e-03 5.73449349e-03 1.26841152e-03 5.81378862e-03
      1.50252762e-03 4.48518060e-03 2.08559912e-03 4.52775555e-03
      3.32496187e-04 8.62739806e-04 5.02683281e-04 9.37833916e-04</_>
    <_>
      -3.04611217e-06 -1.60597003e-04 3.46192886e-04 5.86025708e-04
      3.48159781e-04 2.05092249e-03 2.03152793e-03 4.86443378e-03
      2.49845930e-03 1.31379711e-02 2.96141603e-03 1.37874549e-02
      1.06597719e-04 4.50479594e-04 3.43255524e-04 1.92523317e-03
      -9.39704420e-04 -9.04325978e-04 1.96675304e-03 1.20446207e-02
      1.53982982e-01 1.47345185e-01 1.70495033e-01 1.85935065e-01
      2.29336973e-02 1.98171943e-01 1.71406776e-01 4.23288256e-01
      1.77661330e-02 9.78644378e-03 5.22081777e-02 5.55774011e-02
      7.08581638e-06 -9.70647496e-04 1.10595871e-03 1.32388412e-03
      3.90373409e-01 -6.49109036e-02 3.93338054e-01 6.89019561e-02
      -3.05312783e-01 -3.56488004e-02 4.35373962e-01 1.33101389e-01
      4.22100164e-02 -1.29846809e-02 8.94072354e-02 2.32284572e-02
      -6.88536675e-05 6.89532899e-05 2.03164163e-04 4.06412000e-04
      4.07235026e-02 -1.07014282e-02 4.13826928e-02 1.18763689e-02
      -1.16216475e-02 -1.21838041e-02 4.13891897e-02 4.15558666e-02
      1.19626184e-03 -1.97743575e-04 3.12109571e-03 1.12601407e-02
      8.74295714e-04 5.34620660e-04 3.47511075e-03 4.10089875e-03
      1.00382417e-02 6.84968662e-03 2.63116024e-02 3.77979055e-02
      2.26213261e-02 2.92335022e-02 3.50304358e-02 3.81989926e-02
      -5.25161950e-03 -1.73067558e-03 1.20705245e-02 7.81780109e-03
      2.08338499e-02 1.55384121e-02 3.47196609e-02 3.87770683e-02
      -4.65032011e-02 -3.00637521e-02 3.42317373e-01 3.77518266e-01
      1.42025948e-01 -1.50343925e-01 2.21070305e-01 1.92341059e-01
      -3.59274708e-02 2.80323867e-02 6.34054691e-02 4.98706028e-02
      -2.18840619e-03 1.94179621e-02 4.66443524e-02 3.60806733e-02
      -1.60329610e-01 7.81312063e-02 4.09490377e-01 3.66320550e-01
      2.54187167e-01 5.14902174e-03 4.20556098e-01 4.02312540e-02
      -7.86002725e-03 1.68228534e-03 8.44642799e-03 6.86106086e-03
      -1.73596360e-04 3.37915466e-04 5.09238627e-04 6.30702823e-04
      -4.55446877e-02 1.69301429e-03 4.59941030e-02 5.99048007e-03
      3.41768488e-02 -2.51302170e-03 5.93712144e-02 9.02128126e-03
      -4.96787857e-03 -5.63506735e-03 8.99178814e-03 6.07040664e-03
      -9.07976719e-05 4.37560072e-03 8.16047075e-04 6.00887695e-03
      1.09721497e-02 1.37425428e-02 1.26665784e-02 1.89583302e-02
      -2.66085099e-02 2.11870652e-02 2.96667889e-02 2.34152041e-02
      -1.67994865e-03 -1.89275772e-04 3.36093851e-03 3.05902166e-03
      -1.15622673e-03 -1.04116220e-02 6.78670919e-03 1.20100351e-02
      -1.05557963e-02 -4.40689363e-02 3.58550340e-01 3.76771986e-01
      1.64177027e-02 -1.18308188e-02 3.78521442e-01 3.98867637e-01
      -3.65205035e-02 3.04551460e-02 4.38207500e-02 3.79939005e-02
      1.43135025e-03 -2.50087772e-02 5.96869923e-02 5.28969243e-02
      2.16896608e-01 4.86362576e-02 3.73764813e-01 2.87760675e-01
      -6.92391023e-02 8.89583156e-02 3.28552723e-01 1.13510072e-01
      -5.51360706e-03 4.32078121e-03 8.59823357e-03 5.84598025e-03
      4.77155409e-04 -4.28550557e-04 7.70551618e-03 7.00707268e-03
      2.29134131e-02 -1.73658263e-02 2.36568432e-02 3.30819935e-02
      2.13801488e-03 2.25724332e-04 4.30107489e-03 3.65757709e-03
      -1.87883663e-04 -8.22508999e-04 6.05281501e-04 1.09554129e-03
      -2.41265097e-05 -5.09159931e-04 4.78447415e-04 5.33439859e-04
      -8.56231607e-04 -8.54274782e-04 2.01941771e-03 4.75364039e-03
      1.95147260e-03 7.17465393e-03 2.82637798e-03 8.94987211e-03
      -4.10730900e-05 1.68740947e-03 3.18473816e-04 1.85803627e-03
      -1.33247836e-03 -3.50082613e-04 2.97680311e-03 1.17793670e-02
      1.59457028e-01 1.43726572e-01 1.68648362e-01 1.84084356e-01
      4.41240706e-02 2.04020828e-01 1.79126889e-01 4.43847299e-01
      -7.42178969e-03 1.18102077e-02 3.42437215e-02 5.64740375e-02
      9.03446635e-04 -1.47647248e-03 1.17119984e-03 2.02346081e-03
      4.06767964e-01 -6.63819239e-02 4.08734769e-01 6.69943988e-02
      -2.86213368e-01 -3.10973544e-02 3.69490325e-01 1.83790788e-01
      1.54002197e-02 -1.46956195e-03 1.01752818e-01 2.67463103e-02
      -1.47154307e-04 2.73732003e-04 1.93785454e-04 3.49362526e-04
      3.34966443e-02 -1.20171402e-02 3.41501050e-02 1.43939210e-02
      -8.92511010e-03 -3.93908024e-02 2.05257740e-02 5.67216389e-02
      -1.80412550e-03 -9.84526705e-03 1.87270378e-03 1.03388783e-02
      -3.16983860e-05 3.14501784e-04 1.89664192e-04 3.69838934e-04
      6.92294561e-04 -5.28875180e-03 2.25209002e-03 7.08635431e-03
      1.82049617e-03 7.53421569e-03 6.41757809e-03 1.10593047e-02
      5.36709922e-05 -5.17576584e-04 1.01867277e-04 5.17576584e-04
      4.01464151e-03 2.67415959e-03 1.77189484e-02 5.81980385e-02
      -1.93594862e-02 -7.16366339e-03 2.88653731e-01 3.10833186e-01
      6.46903664e-02 3.74494269e-02 3.83880258e-01 2.26350740e-01
      -9.73774120e-03 5.39758382e-03 1.02834962e-02 5.74222067e-03
      -2.37102099e-02 2.32751854e-02 5.52560315e-02 3.01278308e-02
      4.23222445e-02 1.59927309e-01 5.24468124e-01 2.27587357e-01
      6.22269697e-02 -6.94058090e-03 4.18851316e-01 2.48916060e-01
      -4.45983969e-02 7.27264793e-04 4.51693572e-02 1.13245724e-02
      -3.06552788e-03 -6.87991502e-03 3.19666602e-03 6.95248228e-03
      -1.02242166e-02 -5.13960868e-02 1.14513310e-02 5.31009287e-02
      -1.00868726e-02 -1.02871275e-02 1.25339758e-02 1.42817236e-02
      -5.76090497e-05 -8.72531291e-06 2.11688530e-04 2.00305902e-03</_>
    <_>
      -9.25363274e-04 1.64767407e-04 9.25363274e-04 1.77820868e-04
      1.70568936e-02 7.94605352e-03 5.59267662e-02 1.05007188e-02
      -1.55706806e-02 2.56415660e-04 7.04018399e-02 2.67402790e-02
      -3.60026048e-03 2.69192795e-04 4.91397362e-03 1.23697810e-03
      -4.14735358e-03 2.35286017e-04 4.22253972e-03 5.65410068e-04
      3.40800211e-02 6.76285028e-02 3.60002041e-01 2.94209123e-01
      -1.32467272e-02 8.86299610e-02 3.97117049e-01 3.33240271e-01
      -5.86822815e-03 -1.17962086e-03 8.22824426e-03 9.97329969e-03
      -4.43564903e-04 1.92676060e-04 4.93548752e-04 5.56782994e-04
      1.46673108e-02 -1.13199381e-02 3.40540469e-01 3.29212934e-01
      8.04754253e-03 2.28848821e-03 3.46498460e-01 3.80297184e-01
      -1.22021371e-02 3.49688414e-03 1.70535259e-02 9.37688723e-03
      -4.90434351e-04 -3.05285538e-03 6.85668900e-04 5.14649739e-03
      2.07531988e-03 -1.84092205e-02 5.36530046e-03 2.02422310e-02
      -4.11839101e-05 -1.77451372e-02 3.48787126e-03 1.96052175e-02
      -4.41871118e-04 -2.76476215e-03 8.81915563e-04 3.06709926e-03
      -4.75517918e-05 -5.41813730e-04 5.27083685e-05 5.52525744e-04
      2.10252969e-04 -3.62191279e-03 4.79775452e-04 3.69037711e-03
      3.12091172e-04 -8.73742276e-04 5.53130230e-04 9.37333971e-04
      -6.68055704e-03 1.31801949e-04 6.68055704e-03 6.76490949e-04
      6.76494883e-03 1.64556671e-02 9.70394723e-03 6.16618991e-02
      7.84498751e-02 3.22265923e-02 2.79864699e-01 3.55796546e-01
      -2.39663441e-02 2.12367978e-02 3.43084395e-01 3.24616283e-01
      -4.26155403e-02 2.90693541e-04 4.26155403e-02 1.50675722e-03
      -1.67015591e-03 -1.53393485e-02 2.74701752e-02 6.68482333e-02
      8.85094628e-02 -1.61880478e-02 3.26546162e-01 3.91219497e-01
      2.90984660e-03 5.71734784e-03 3.83439571e-01 3.60321999e-01
      -4.44360152e-02 -2.55931052e-04 4.44360152e-02 9.06757545e-04
      1.07729668e-03 -1.10699888e-03 1.58469938e-03 1.82274333e-03
      -7.38095958e-03 -1.53127732e-02 8.68894346e-03 2.22476497e-02
      7.57068070e-03 -1.49777420e-02 9.40532796e-03 1.99671686e-02
      -6.66511338e-03 -1.35874317e-04 6.66511338e-03 1.74262634e-04
      8.83515517e-04 2.28047883e-03 9.78556578e-04 2.50670826e-03
      -1.28657394e-03 1.35160685e-02 1.31214876e-03 1.47275478e-02
      -2.88366689e-03 7.34009873e-03 1.17149251e-02 8.74633621e-03
      -2.70011812e-03 2.35538627e-03 4.07312671e-03 2.82409461e-03
      4.83042188e-03 -8.20167549e-03 8.30187462e-03 8.69079400e-03
      -8.32356419e-03 -6.30134018e-03 3.42769951e-01 3.64832014e-01
      3.83181986e-03 -8.67466093e-04 3.56549442e-01 3.72309029e-01
      -1.70089696e-02 6.38938369e-03 2.71607209e-02 1.10161733e-02
      1.46525456e-02 -3.72732594e-03 2.02211048e-02 1.50290662e-02
      1.32668748e-01 -9.65963025e-03 4.54517901e-01 9.02754739e-02
      -1.14049509e-01 3.26702222e-02 4.31201935e-01 2.11700067e-01
      -6.70909230e-03 3.90470703e-03 8.69062170e-03 4.41761455e-03
      -7.99173198e-04 -1.54031732e-03 3.05335852e-03 1.25906235e-02
      2.24870536e-02 1.69623196e-02 2.66728140e-02 2.71727145e-02
      -6.72420813e-03 -1.41495951e-02 8.78696144e-03 1.88596006e-02
      7.56201975e-04 -2.42106570e-03 1.58345897e-03 3.08299600e-03
      3.40885133e-03 6.67232508e-03 5.17939543e-03 8.64287745e-03
      7.74615444e-03 2.83319168e-02 1.54053215e-02 4.05243598e-02
      -1.38099096e-03 4.60556615e-03 1.04628578e-02 4.76986682e-03
      -9.22143273e-03 2.39309412e-03 9.27153789e-03 2.42980151e-03
      1.41619006e-02 -8.02724343e-03 2.15430930e-02 1.58444569e-02
      -2.24333592e-02 -1.36077926e-02 3.31711143e-01 3.65573645e-01
      1.13344220e-02 -1.75928790e-02 3.52625072e-01 3.69143188e-01
      -4.88962643e-02 1.32424822e-02 4.89704385e-02 1.33294715e-02
      1.20872520e-02 -1.40634086e-02 2.53763404e-02 2.97655035e-02
      1.41540706e-01 7.44252652e-03 4.36009914e-01 8.01633000e-02
      -1.14951052e-01 4.27133851e-02 4.53404903e-01 2.06600845e-01
      -2.70538330e-02 7.50531070e-03 2.71310378e-02 7.64050102e-03
      -6.21194660e-04 8.28666706e-03 1.60700933e-03 8.51398986e-03
      1.46583878e-02 2.03747675e-02 1.47569319e-02 2.04393920e-02
      -8.27853940e-03 -8.71634670e-03 9.50972084e-03 1.14912149e-02
      -1.27273714e-04 -3.24706989e-03 5.67853823e-03 5.66234253e-03
      -3.81537917e-04 -6.17783167e-04 7.59173592e-04 6.61721278e-04
      1.90336034e-02 7.22028129e-03 6.80994540e-02 2.31528487e-02
      2.38204768e-04 -3.41635081e-04 5.53017773e-04 4.51726635e-04
      -5.59467031e-03 -2.15076935e-03 8.83640535e-03 3.28917499e-03
      -5.54748550e-02 -1.33760478e-02 8.14751238e-02 1.87343359e-02
      -7.29135424e-02 -2.22883061e-01 3.84498686e-01 2.97330946e-01
      2.17581913e-01 -1.58808053e-01 3.70837659e-01 1.60461456e-01
      -1.82779860e-02 -2.32883282e-02 7.22227693e-02 3.32340561e-02
      -1.08970553e-02 1.84168816e-02 1.80285480e-02 2.82735694e-02
      -1.50694624e-01 3.12578917e-01 1.51594862e-01 3.64453435e-01
      1.78709641e-01 1.62747711e-01 2.40801454e-01 2.05089286e-01
      -6.26164163e-03 4.40695956e-02 6.82075555e-03 5.62644303e-02
      4.15627524e-04 -1.38410961e-03 5.83575515e-04 5.15531283e-03
      -3.43422079e-03 -4.24794555e-02 1.75604280e-02 4.31961752e-02
      -1.54435518e-03 -4.49669659e-02 9.83681157e-03 4.59114499e-02
      1.60937838e-04 -3.70714650e-03 3.84720042e-03 5.28965518e-03</_>
    <_>
      1.86132640e-03 -2.14842986e-03 3.22480197e-03 2.18403805e-03
      -1.32782534e-02 1.15097477e-03 2.46944595e-02 1.44598363e-02
      1.85202565e-02 -8.29343405e-03 5.20009249e-02 1.58792846e-02
      3.72462418e-05 -3.16537125e-03 2.44111568e-03 3.39876954e-03
      1.89183082e-03 3.26656643e-03 2.06417833e-02 1.69724599e-02
      1.46689817e-01 9.83129218e-02 2.41898656e-01 3.16680670e-01
      -4.19534296e-02 3.06362629e-01 1.37834504e-01 4.66717362e-01
      -4.42662451e-04 6.32266402e-02 6.32366771e-03 7.68974349e-02
      5.30914636e-03 3.85490624e-04 3.17054577e-02 4.38156910e-03
      4.17614669e-01 -3.84799317e-02 4.47124779e-01 5.67161068e-02
      -1.28882423e-01 -8.44250098e-02 1.87059090e-01 1.01934664e-01
      1.76782161e-02 -2.10605524e-02 1.77407190e-02 2.36484129e-02
      1.61506212e-03 -1.76299305e-04 4.72305575e-03 4.26957791e-04
      5.88151477e-02 -1.22543667e-02 6.59870505e-02 1.34174814e-02
      -3.43387425e-02 -8.04023352e-03 4.10515182e-02 2.28873603e-02
      3.82885220e-03 -1.24437583e-03 3.82885220e-03 1.83153374e-03
      -1.14450180e-04 -8.03714385e-04 5.96679794e-03 3.81127489e-03
      6.46204455e-03 -1.57723501e-02 3.38289589e-02 1.60329361e-02
      1.31181199e-02 -4.75016329e-03 3.20360176e-02 1.77400876e-02
      -2.95293488e-04 9.73705202e-04 1.80073211e-03 3.86482337e-03
      -1.10744573e-02 3.59210512e-03 8.37020352e-02 8.60728417e-03
      2.06423938e-01 1.03498682e-01 2.67437190e-01 2.35240832e-01
      -8.36749896e-02 2.92310208e-01 1.77391216e-01 4.91981983e-01
      6.15732325e-03 2.83688977e-02 3.01864892e-02 6.51597530e-02
      1.36885664e-03 -3.79485922e-04 7.97908753e-02 5.00598876e-03
      2.50841051e-01 -5.48096783e-02 5.24996102e-01 1.00098073e-01
      8.70638937e-02 -1.16955906e-01 1.63266733e-01 1.43490583e-01
      -7.15184724e-03 1.39203351e-02 2.45854575e-02 2.83461846e-02
      1.56828249e-03 -4.27514111e-04 9.15497448e-03 4.79200477e-04
      7.10767321e-03 -4.85596992e-03 2.06137728e-02 1.52211552e-02
      1.90118160e-02 -5.35289645e-02 2.79632434e-02 6.57618716e-02
      2.92769028e-03 -4.46666824e-03 4.39212797e-03 5.21448022e-03
      1.54450489e-03 -2.57888198e-04 1.78458984e-03 3.02450440e-04
      3.55157964e-02 -6.54692901e-03 3.72631699e-02 6.54692901e-03
      1.05381701e-02 -2.80763172e-02 1.51781365e-02 2.81461515e-02
      3.30103358e-04 -3.97377927e-03 7.22874305e-04 4.77811415e-03
      4.08879045e-04 5.81891695e-03 3.76169966e-03 7.33355619e-03
      4.09859270e-01 1.62323430e-01 4.13615912e-01 1.81149557e-01
      7.01848604e-03 1.40257061e-01 1.45865127e-01 2.02485532e-01
      3.62482783e-03 1.22999018e-02 8.32473394e-03 2.96785738e-02
      -1.68068346e-03 2.15684227e-03 3.08616157e-03 1.30491862e-02
      3.25141132e-01 -1.65846631e-01 3.34143728e-01 1.98444143e-01
      -7.44086802e-02 -2.14493603e-01 1.75998792e-01 3.69876027e-01
      -2.95166695e-03 -3.07323206e-02 1.51082473e-02 7.36053064e-02
      2.59953493e-04 -5.96033678e-05 2.74901482e-04 1.43303629e-03
      1.81050114e-02 2.63788924e-03 1.81050114e-02 6.62337057e-03
      2.51633730e-02 1.40564889e-02 4.02306281e-02 1.78060345e-02
      -1.18434487e-03 1.63489126e-03 2.16097478e-03 1.93496945e-03
      -6.70092937e-04 4.10242938e-03 2.68871989e-03 7.97316246e-03
      2.18580905e-02 -8.26578587e-03 3.87202688e-02 1.73413772e-02
      5.13209915e-03 -1.36226220e-02 2.84270272e-02 2.54728869e-02
      -1.32513233e-03 -7.45457481e-04 2.17060116e-03 5.14857238e-03
      -3.63006070e-02 -6.41341973e-03 5.65491095e-02 1.39927967e-02
      2.40835279e-01 1.11494988e-01 3.60588849e-01 1.86266527e-01
      -1.19530126e-01 2.35687301e-01 2.91739643e-01 4.36138272e-01
      1.11875338e-02 -1.55041767e-02 1.57324299e-02 3.17092501e-02
      -3.74587253e-02 -1.18962387e-02 6.68351054e-02 1.42623745e-02
      2.09932178e-01 -7.85844326e-02 4.02222306e-01 1.74103841e-01
      1.63578644e-01 -7.40083531e-02 2.64926493e-01 2.13343754e-01
      -3.30790058e-02 3.80750075e-02 3.68252732e-02 5.97306378e-02
      1.92601164e-03 -3.10775969e-04 8.81394278e-03 1.72829989e-03
      -1.50233903e-03 -2.98450910e-03 1.98918208e-02 1.69714242e-02
      3.33483964e-02 -2.27632076e-02 3.92110050e-02 3.55231054e-02
      -7.39690789e-04 -4.73892811e-04 1.35633000e-03 1.54738035e-03
      2.04391574e-04 -3.48746835e-04 1.02909910e-03 1.26476842e-03
      4.52286042e-02 -4.79161274e-03 4.69971560e-02 4.91438583e-02
      -3.45866592e-03 -3.82984281e-02 7.80143822e-03 7.21072629e-02
      2.66013504e-03 3.70358326e-03 2.92910798e-03 6.97138021e-03
      5.26115997e-03 4.35253326e-03 6.70945738e-03 2.65111160e-02
      3.16525817e-01 1.16175257e-01 3.42995226e-01 1.82614848e-01
      7.48188719e-02 2.23258808e-01 2.96738476e-01 3.26790154e-01
      1.50345350e-02 -6.28444785e-03 3.30183245e-02 2.56162789e-02
      4.79667680e-03 2.57860031e-02 4.85968776e-03 2.66109370e-02
      2.89326608e-01 -1.45127866e-02 2.92908639e-01 1.94246709e-01
      -1.26783401e-01 -2.89313972e-01 1.48246631e-01 3.46388578e-01
      1.61473267e-03 -1.47344777e-02 1.25216469e-02 3.75210233e-02
      -5.79396670e-04 2.39478797e-03 9.68600332e-04 3.07773682e-03
      2.38807593e-02 5.05370609e-02 2.50104517e-02 5.61530031e-02
      -3.17824036e-02 4.06470485e-02 6.75016791e-02 4.51507904e-02
      5.03210956e-03 4.88915201e-03 6.97576161e-03 7.00219069e-03</_>
    <_>
      1.21204776e-03 -1.00596398e-02 1.99457607e-03 1.35278972e-02
      -7.39887403e-03 -2.87469868e-02 3.85834910e-02 6.79961815e-02
      5.98733220e-03 3.07063349e-02 5.22013158e-02 6.73996657e-02
      -8.52381159e-03 5.44958189e-03 8.99589527e-03 6.14573061e-03
      -5.78609586e-04 -1.02206897e-02 2.41341884e-03 1.03251236e-02
      3.67803067e-01 7.63395876e-02 3.88933241e-01 1.73830852e-01
      -2.59135455e-01 -5.97752444e-02 3.40300649e-01 3.16774458e-01
      3.41904424e-02 -2.69697662e-02 6.84960186e-02 5.46383709e-02
      1.90042425e-04 2.12379638e-03 1.61652965e-03 2.52162898e-03
      2.33794793e-01 -1.91858947e-01 2.38038003e-01 2.07257822e-01
      -2.01919749e-01 -1.94892690e-01 2.16961265e-01 2.13450342e-01
      7.20745884e-03 -8.80218763e-03 7.78600853e-03 1.02783106e-02
      6.26337074e-04 5.75491758e-05 6.26337074e-04 2.41801070e-04
      1.48769133e-02 1.81468800e-02 1.73586681e-02 1.81815755e-02
      -9.51757655e-03 2.02614646e-02 1.00849941e-02 2.03347169e-02
      9.02604486e-04 1.47789170e-03 9.54164367e-04 1.54191500e-03
      -1.48720504e-03 5.45892224e-04 1.79406675e-03 1.80481013e-03
      -3.17090075e-03 -9.48364194e-03 7.12694926e-03 9.59408376e-03
      -1.03563734e-03 -1.88916293e-03 2.11389316e-03 2.98978598e-03
      6.35159609e-04 -5.95711055e-04 6.35159609e-04 5.95711055e-04
      -9.13827121e-03 -6.00884715e-03 9.46004130e-03 9.81236994e-03
      2.15234667e-01 1.56336039e-01 2.43868038e-01 1.73639178e-01
      -2.14197576e-01 2.00256452e-01 2.17823610e-01 2.12479308e-01
      -5.43530390e-04 -8.07376346e-04 1.78453454e-03 1.69628183e-03
      -4.63547185e-02 2.28238255e-02 7.31726438e-02 8.63415226e-02
      2.66549319e-01 -4.31608036e-02 3.68487626e-01 2.71726251e-01
      -1.37929454e-01 -6.64106905e-02 3.76227111e-01 4.12422448e-01
      -1.16958683e-02 2.88617611e-02 3.94640751e-02 7.25101009e-02
      3.22627719e-04 7.40534766e-03 4.29953216e-03 9.60678700e-03
      -2.31626593e-02 2.77265087e-02 9.21838209e-02 7.92799890e-02
      -2.53969524e-03 1.34528615e-02 3.42061929e-02 4.43286300e-02
      6.63371815e-04 -2.02898300e-04 1.59541378e-03 1.50255370e-03
      4.44249995e-03 7.07341963e-03 4.44249995e-03 9.56193358e-03
      1.76654067e-02 -1.52153466e-02 6.72243461e-02 4.31994610e-02
      -8.71314295e-03 -1.20577263e-03 5.49820922e-02 4.90494817e-02
      -6.81390986e-03 9.14546568e-03 6.82530506e-03 1.03268670e-02
      -4.63550119e-03 -3.03441994e-02 2.07372699e-02 3.53792496e-02
      3.52923125e-01 7.53213912e-02 4.09418434e-01 1.29945263e-01
      -2.77639389e-01 -3.57854813e-02 4.72155750e-01 2.09008992e-01
      -1.12884985e-02 -3.80956903e-02 2.02433467e-02 5.02522364e-02
      8.37675761e-03 8.24670121e-03 1.06163621e-02 8.24670121e-03
      2.19521880e-01 -4.84712347e-02 2.68619299e-01 1.96404994e-01
      -2.55857378e-01 -7.01765716e-02 2.62156308e-01 1.36652991e-01
      5.85614471e-03 1.28775612e-02 8.44929367e-03 1.28775612e-02
      3.93747166e-03 1.54506299e-03 4.18884633e-03 1.55052938e-03
      -1.11053661e-02 6.53670286e-05 1.16943968e-02 2.98659271e-03
      -2.56921793e-03 6.24021469e-03 5.20570809e-03 6.24021469e-03
      1.92883459e-03 4.62337746e-04 2.82315421e-03 8.15693231e-04
      -7.03315833e-04 -1.05085419e-02 4.37727384e-03 1.17071625e-02
      8.60204268e-03 -2.38575879e-02 5.56205697e-02 3.76255773e-02
      -2.04341542e-02 8.52917554e-04 6.34618551e-02 3.88475321e-02
      5.88218262e-03 2.43150120e-04 6.37787394e-03 1.41253485e-03
      2.49117613e-03 -2.53746705e-03 5.17761614e-03 6.60222722e-03
      3.62120926e-01 7.78284967e-02 3.69239420e-01 1.01700388e-01
      -3.74884009e-01 5.53277358e-02 3.83424729e-01 2.35445231e-01
      1.18136639e-02 -3.03806155e-03 1.24667278e-02 1.07841603e-02
      2.60322209e-04 5.59838722e-03 2.89644673e-03 5.59838722e-03
      2.37111017e-01 -1.41283244e-01 2.50147253e-01 1.59505501e-01
      -2.43068367e-01 -1.68048292e-01 2.62810409e-01 1.91793486e-01
      4.87535307e-03 3.84419062e-03 4.87535307e-03 4.00407566e-03
      -8.08494049e-04 1.68013596e-03 1.01300993e-03 1.74698967e-03
      -3.02091846e-03 1.26116518e-02 3.95102473e-03 1.26116518e-02
      5.88049588e-04 8.59162584e-03 6.24073017e-03 1.13627659e-02
      1.15543010e-03 1.81544037e-03 1.43953355e-03 1.84313010e-03
      9.38414247e-04 -2.98109837e-04 9.38414247e-04 3.05564579e-04
      3.22457706e-03 -1.68341363e-03 3.22457706e-03 1.68341363e-03
      -6.33645512e-04 -1.06233293e-02 3.87759670e-03 1.08753629e-02
      -1.61048234e-03 -5.16361184e-03 1.61048234e-03 5.30745322e-03
      6.02136785e-03 -1.62694266e-03 6.02136785e-03 1.62694266e-03
      1.52534783e-01 1.10383898e-01 2.43145823e-01 2.46811464e-01
      -2.43837703e-02 2.16896504e-01 4.10277665e-01 3.00980747e-01
      7.32152211e-03 2.20649112e-02 2.90891193e-02 2.81727836e-02
      5.94254956e-03 -1.94523577e-03 5.94254956e-03 1.94523577e-03
      3.71673971e-01 -7.49214366e-02 4.70105886e-01 9.21446383e-02
      -1.55839816e-01 5.54622449e-02 3.37816238e-01 6.39534965e-02
      2.71017849e-02 -9.93240857e-04 9.69192535e-02 6.58001844e-03
      8.27248907e-04 -1.85857396e-04 9.30157490e-04 2.28444202e-04
      3.75551917e-02 -7.95497186e-03 5.52859046e-02 1.24480687e-02
      7.20748957e-03 -1.06452929e-03 3.46699879e-02 1.42927207e-02
      7.56495341e-04 -5.10063146e-05 1.22271162e-02 5.38488210e-04</_>
    <_>
      2.91355012e-04 -4.23249061e-04 1.82236731e-03 2.92375148e-03
      7.25479238e-03 1.57806147e-02 4.74441312e-02 5.45355938e-02
      -6.65874861e-04 -2.60778994e-04 7.08126351e-02 2.19199508e-02
      -2.00027367e-03 -4.49219113e-03 3.28227971e-03 5.18584764e-03
      2.21030712e-02 -3.96642229e-03 5.04386760e-02 1.17898872e-02
      2.93393545e-02 4.20521162e-02 3.71148527e-01 3.33884627e-01
      -8.30935221e-03 5.35523519e-02 4.66032058e-01 2.31230989e-01
      -5.95227862e-03 1.09367315e-02 1.34361722e-02 1.28188664e-02
      3.55371386e-02 -8.55699109e-05 6.42545596e-02 1.36218593e-02
      -1.32105295e-02 2.13811249e-02 3.15906137e-01 3.33860576e-01
      -1.11136492e-02 2.78734579e-03 3.15644920e-01 3.75071585e-01
      -3.47932009e-03 -1.19964043e-02 3.76617676e-03 1.22466637e-02
      9.75113595e-04 3.36416531e-04 2.26013712e-03 3.18696513e-03
      -5.38382912e-03 -2.46174205e-02 7.04521313e-03 2.48662420e-02
      -4.37058508e-03 -8.54876358e-03 6.80611748e-03 8.86100344e-03
      -1.88310136e-04 2.04901353e-05 3.26600333e-04 1.06815161e-04
      7.92660285e-05 1.12479590e-02 3.31267715e-04 1.12479590e-02
      -1.80475850e-04 7.02457801e-02 2.95997853e-03 7.02457801e-02
      -8.49626758e-06 6.29112497e-02 3.00692813e-03 6.29112497e-02
      4.91245592e-05 7.67093012e-03 7.86346733e-04 7.67093012e-03
      2.83877589e-02 -6.45603286e-03 3.98558564e-02 1.67937521e-02
      -3.07860821e-02 -2.33073495e-02 2.98338503e-01 3.72998297e-01
      7.72721739e-03 -6.16097962e-03 2.98278123e-01 3.55195850e-01
      -6.31758594e-04 4.89976676e-03 1.50417606e-03 7.35927001e-03
      2.78052744e-02 2.98368954e-03 5.17374277e-02 7.49805197e-03
      2.04724558e-02 -4.08705138e-02 3.76402587e-01 3.50618869e-01
      -4.94229188e-03 -5.69277927e-02 4.49884415e-01 2.14120626e-01
      -1.41877504e-02 -6.11967221e-03 2.83607468e-02 3.07694599e-02
      7.50229636e-04 1.08506542e-03 4.16296860e-03 2.17321073e-03
      8.36927816e-03 -1.65963378e-02 4.20142636e-02 4.64473292e-02
      -1.97941065e-03 -1.60225015e-03 7.44374320e-02 2.48165857e-02
      -3.92894435e-06 -3.58008001e-05 1.33364738e-04 3.83346080e-04
      -2.74533650e-05 -1.06311141e-04 4.20082331e-04 1.59742078e-04
      6.10766932e-03 1.19215604e-02 2.66816430e-02 2.56391186e-02
      -4.52114455e-03 1.18956075e-03 6.19307812e-03 1.86999992e-03
      -8.80788453e-03 6.66686028e-05 8.80788453e-03 8.15354288e-04
      2.18258128e-02 -9.87309497e-03 4.01425362e-02 1.13320025e-02
      -2.53085904e-02 -1.14609096e-02 3.78306150e-01 3.39455783e-01
      2.14711167e-02 -3.46237198e-02 3.73587936e-01 3.43786389e-01
      -6.62649423e-02 4.85516619e-03 6.62649423e-02 7.48355919e-03
      1.04908971e-02 -3.42994602e-03 4.85021807e-02 5.73168397e-02
      1.66520879e-01 2.88369823e-02 3.59930396e-01 2.52274185e-01
      -9.19317603e-02 6.47120923e-02 4.34587955e-01 1.77116901e-01
      -6.03279360e-02 4.69400641e-03 6.03279360e-02 5.30464249e-03
      4.74727247e-04 -1.53737096e-03 9.92296729e-04 1.66296179e-03
      -2.77634808e-05 -1.17505249e-02 8.42006877e-04 1.40893850e-02
      2.03954100e-04 -1.10026700e-02 3.74553353e-03 1.48498472e-02
      -7.09544774e-03 1.30732136e-03 7.09544774e-03 1.49986986e-03
      7.92102015e-04 -8.84733512e-04 1.12213036e-02 5.53011475e-03
      -9.27796774e-03 -1.47138648e-02 5.89607097e-02 3.68635915e-02
      3.06913699e-03 3.23718190e-02 3.98368947e-02 7.93069378e-02
      1.87406060e-03 -8.00004345e-04 6.77670538e-03 3.13184876e-03
      5.12478426e-02 5.81799308e-03 8.08297768e-02 3.54087539e-02
      9.12898928e-02 2.42972355e-02 5.36704421e-01 1.06458373e-01
      -9.97162461e-02 -4.17462997e-02 2.83444792e-01 3.27187866e-01
      -3.54842469e-02 -5.64025529e-03 5.59422821e-02 1.65754855e-02
      2.22806726e-02 8.48030765e-03 2.59313211e-02 3.54623869e-02
      -2.27638297e-02 1.45187601e-02 3.19484442e-01 3.16087842e-01
      2.85207741e-02 2.24208366e-02 2.93009669e-01 3.62939686e-01
      -4.76044677e-02 2.91032810e-03 9.25087854e-02 2.83670463e-02
      -9.34730633e-05 -6.75660465e-03 7.92310690e-04 6.75660465e-03
      3.37469601e-03 -8.07059258e-02 6.93032378e-03 8.07059258e-02
      7.08141690e-03 -8.34448859e-02 8.61725304e-03 8.34448859e-02
      1.01509073e-03 -1.01543739e-02 1.05752342e-03 1.01543739e-02
      -1.00141158e-03 -5.75513812e-03 3.67298955e-03 6.89726276e-03
      3.47301783e-03 -9.14188381e-03 1.84122995e-02 5.42217940e-02
      -5.31823421e-03 3.75023969e-02 2.84267012e-02 5.60699366e-02
      -5.47322910e-04 1.71524982e-04 4.47299704e-03 1.54863449e-03
      3.22662592e-02 -3.67184728e-03 8.53296220e-02 3.99664268e-02
      -2.51318584e-03 2.63992660e-02 2.22806439e-01 4.50677782e-01
      2.37787981e-02 -8.02445784e-03 3.64658505e-01 3.28800440e-01
      -2.28700135e-02 -1.97913544e-03 2.28961539e-02 3.37834214e-03
      -1.35681853e-02 2.19213567e-03 4.47595976e-02 7.29901642e-02
      1.53510645e-01 2.98319627e-02 2.99858004e-01 2.40509599e-01
      -9.65407118e-02 1.25997094e-02 4.49487478e-01 2.79351085e-01
      -2.11027507e-02 -7.14036729e-03 2.16833111e-02 7.40387896e-03
      -3.67833255e-03 8.49732198e-03 3.90490610e-03 1.37117943e-02
      8.56830273e-03 -4.17415053e-02 2.85945944e-02 8.80820230e-02
      1.45967286e-02 -3.07956319e-02 2.97319163e-02 4.37602066e-02
      -4.89566009e-04 -1.27984065e-04 5.08692174e-04 5.84610971e-04</_></support_vectors>
  <decision_functions>
    <_>
      <sv_count>14</sv_count>
      <rho>-1.0027388930320740e+00</rho>
      <alpha>
        1. 1. 1. 1. 1. 1. 1. -1. -1. -1. -1. -1. -1. -1.</alpha></_></decision_functions></opencv_ml_svm>
</opencv_storage>
