<?xml version="1.0"?>
<opencv_storage>
<opencv_ml_svm>
  <format>3</format>
  <svmType>C_SVC</svmType>
  <kernel>
    <type>LINEAR</type></kernel>
  <C>1.</C>
  <term_criteria><iterations>100</iterations></term_criteria>
  <var_count>384</var_count>
  <class_count>2</class_count>
  <class_labels type_id="opencv-matrix">
    <rows>2</rows>
    <cols>1</cols>
    <dt>i</dt>
    <data>
      0 1</data></class_labels>
  <sv_total>1</sv_total>
  <support_vectors>
    <_>
      0. 0. 0. 0. -7.49706775e-02 6.45630155e-03 -7.46797323e-02
      4.73012635e-03 3.93229537e-02 1.99460555e-02 -5.04516661e-02
      -1.07434606e-02 1.32961679e-04 3.77373217e-04 -6.94268616e-03
      -7.69069418e-04 0. 0. 0. 0. -1.55300766e-01 8.12335834e-02
      -1.52054101e-01 5.57785146e-02 4.76754457e-02 2.95383543e-01
      6.88327709e-03 -2.99101993e-02 2.66732126e-02 2.54684966e-03
      -2.82020513e-02 -4.63568233e-03 0. 0. 0. 0. 1.87628940e-01
      6.56010807e-02 2.43126035e-01 -8.36020187e-02 -1.90155432e-01
      1.49016902e-01 3.14244807e-01 -2.56500125e-01 2.18468308e-02
      1.07829021e-02 -2.18468308e-02 -1.11756893e-02 0. 0. 0. 0.
      2.33608168e-02 4.36429027e-03 2.95139067e-02 1.09764123e-02
      -1.63627472e-02 -8.89589638e-03 6.52469695e-02 9.18944087e-03
      2.09540688e-14 1.33361299e-13 -2.10246656e-14 -1.33361299e-13 0.
      0. 0. 0. 3.23000029e-02 -1.34871772e-03 3.23000029e-02
      2.72031361e-03 3.32656614e-02 4.33294801e-03 -9.82400868e-03
      -4.05518571e-03 -4.50148061e-03 3.09790182e-03 4.75830445e-03
      4.53828089e-03 0. 0. 0. 0. 1.25680611e-01 -5.03749922e-02
      1.46674931e-01 -4.30858880e-02 -3.25309373e-02 -8.25827420e-02
      -9.10254344e-02 -8.38253647e-02 -1.74048748e-02 -2.67373193e-02
      3.99642438e-03 -3.02465688e-02 0. 0. 0. 0. -1.15745151e-02
      8.57851061e-04 4.39880230e-02 8.66097864e-03 7.99876228e-02
      -1.31608754e-01 -8.32689274e-03 1.07248545e-01 -2.76180841e-02
      -1.55174835e-02 1.75903384e-02 -1.02849063e-02 0. 0. 0. 0.
      3.78953107e-02 9.46854427e-03 4.02710289e-02 1.03411665e-02
      -3.89332250e-02 1.82467268e-03 -5.42538501e-02 7.58785568e-03
      -4.53827251e-03 2.75588688e-03 -1.06924213e-03 -3.14267073e-03 0.
      0. 0. 0. 2.11959779e-02 1.28071504e-02 4.88783196e-02
      1.29787233e-02 8.75441264e-03 -5.47111314e-03 1.68226697e-02
      -5.38981892e-03 1.07566256e-03 -1.56673475e-03 1.59606256e-03
      -3.89241870e-03 0. 0. 0. 0. 8.84575322e-02 -1.29477024e-01
      2.15752244e-01 -9.91069078e-02 1.33705825e-01 -9.04101785e-03
      1.19069442e-01 -2.36350540e-02 -3.52615640e-02 -4.55649989e-03
      2.31680945e-02 -1.41488304e-02 0. 0. 0. 0. -9.36216712e-02
      1.01637587e-01 1.46808019e-02 5.71670420e-02 2.83286572e-01
      -7.63766691e-02 -7.13911420e-03 1.28011778e-01 -4.06330898e-02
      -3.34167061e-03 4.58464250e-02 -1.45128416e-02 0. 0. 0. 0.
      -2.33641043e-02 1.04487054e-02 -4.40386962e-03 1.54750375e-02
      2.76806727e-02 -2.00454127e-02 -4.33616340e-02 -5.12646930e-03
      -1.02154550e-03 -1.48240593e-03 1.51491929e-02 1.58912293e-03
      -2.22604169e-04 -1.64208628e-04 -2.45684234e-04 -2.09147984e-04
      5.07280193e-02 -8.05162941e-04 4.50164601e-02 2.35513505e-03
      -9.30482429e-03 -1.05340611e-02 6.87435595e-03 2.47876043e-03
      7.75359804e-04 -2.00299826e-03 1.67393975e-03 -6.34655007e-04
      -2.63831820e-02 -3.56403948e-03 -2.63831820e-02 -3.67535022e-03
      2.02225938e-01 -2.02527810e-02 9.53165740e-02 -1.03505284e-01
      -5.34254946e-02 -1.63956374e-01 -4.10223715e-02 -3.10935050e-01
      -5.71129192e-03 -3.50707322e-02 -2.37160437e-02 -7.20279664e-02
      -5.00688590e-02 -7.61508197e-03 -5.01269028e-02 -7.78976036e-03
      -1.42081976e-02 -1.58099398e-01 -1.74815640e-01 4.50960919e-02
      -7.08873719e-02 -3.91584963e-01 -5.21315858e-02 1.27579689e-01
      -2.67681107e-03 -4.21127267e-02 -7.03419447e-02 2.10249927e-02
      -4.62659774e-03 -6.71159360e-04 -4.62713465e-03 -8.87532660e-04
      -3.37351821e-02 -8.16758373e-04 -3.57130133e-02 -6.45034621e-03
      -4.59987065e-03 -3.80478962e-03 -2.20339131e-02 -3.54940556e-02
      -2.65382023e-05 3.83467297e-03 -4.28279210e-03 -8.17318913e-03 0.
      0. 0. 0. 2.73723132e-03 1.27680488e-02 2.00788919e-02
      1.28303692e-02 3.71280015e-02 -4.91276383e-03 4.33354080e-02
      -4.72950656e-03 -1.68134191e-03 1.98000786e-03 6.13237265e-03
      2.60569411e-03 1.99746966e-04 -4.43417885e-05 1.99746966e-04
      1.59455260e-04 8.44892785e-02 -1.11793563e-01 2.12994367e-01
      -7.62737840e-02 2.64248587e-02 -2.32635230e-01 2.78252959e-01
      -1.33106381e-01 -2.13457756e-02 -7.02999681e-02 2.17207856e-02
      -2.50516403e-02 0. 0. 0. 0. -2.71992683e-01 5.87217025e-02
      -2.74910599e-01 5.49162664e-02 2.51470029e-01 -9.49667990e-02
      2.48937830e-02 -5.51565215e-02 -5.74730895e-02 1.48508111e-02
      2.85298899e-02 1.95679739e-02 0. 0. 0. 0. -1.19680082e-02
      2.74314662e-03 -2.49665938e-02 -3.15138511e-03 6.56778365e-03
      4.47836630e-02 -1.57041661e-02 -6.50961325e-02 -1.28897121e-02
      1.90227502e-03 8.90725851e-03 -4.51310351e-03 -4.90179984e-03
      -4.90179984e-03 -4.90179984e-03 -4.90179984e-03 -1.78147405e-02
      -5.08671952e-03 -3.45112532e-02 -1.52993007e-02 4.53596339e-02
      1.36742415e-02 -2.26917285e-02 -5.24281040e-02 -8.29920918e-03
      -2.50118156e-03 -3.34797730e-03 -4.75731259e-03 -4.90179984e-03
      -4.90179984e-03 -4.90179984e-03 -4.90179984e-03 -9.14722160e-02
      -1.98577177e-02 -1.24126114e-01 -7.81965479e-02 2.78742939e-01
      2.87403888e-03 2.83222757e-02 -4.58090715e-02 -2.65603866e-02
      -1.76893957e-02 1.58383176e-02 1.95325874e-02 -4.90179984e-03
      -4.90179984e-03 -4.90179984e-03 -4.90179984e-03 -2.20287722e-02
      1.00846238e-01 4.77243308e-03 -1.00059122e-01 1.86480373e-01
      4.26730774e-02 1.63628981e-01 -1.12803169e-01 -1.94858052e-02
      -1.22139929e-02 1.56938601e-02 1.01897782e-02 -4.90179984e-03
      -4.90179984e-03 -4.90179984e-03 -4.90179984e-03 6.95265038e-03
      9.81990993e-03 8.23844597e-03 6.54304959e-03 -1.09542850e-02
      -7.47203245e-04 -5.21567278e-03 -6.92547439e-03 -4.13420005e-03
      -6.19502086e-03 -5.68264071e-03 -4.85972269e-03</_></support_vectors>
  <uncompressed_sv_total>7</uncompressed_sv_total>
  <uncompressed_support_vectors>
    <_>
      0. 0. 0. 0. 0. 0. 0. 0. 0. 0. 0. 0. 0. 0. 0. 0. 0. 0. 0. 0.
      2.29721904e-01 1.97694108e-01 3.48446459e-01 2.33478010e-01
      -2.42053539e-01 2.37186283e-01 2.66724408e-01 2.37186283e-01 0. 0.
      0. 0. 0. 0. 0. 0. 1.70509309e-01 -2.13732034e-01 2.94201195e-01
      2.13732034e-01 -1.58360541e-01 -2.31829152e-01 3.82518977e-01
      2.40493864e-01 0. 0. 0. 0. 0. 0. 0. 0. 0. 0. 0. 0. 0. 0. 0. 0. 0.
      0. 0. 0. 0. 0. 0. 0. 0. 0. 0. 0. 1.40095770e-04 2.96652695e-04
      2.96652695e-04 2.96652695e-04 -3.86200081e-05 3.86200081e-05
      3.86200081e-05 3.86200081e-05 0. 0. 0. 0. 2.06545189e-01
      1.40598819e-01 2.06842929e-01 1.41731292e-01 -6.83175698e-02
      2.68566221e-01 2.27445155e-01 3.33172709e-01 -3.55802514e-02
      3.20961769e-03 3.55802514e-02 8.46943632e-03 0. 0. 0. 0.
      3.48890424e-01 -6.77955896e-02 3.80651474e-01 8.74030963e-02
      -6.76922873e-02 -2.00774539e-02 5.25953472e-01 2.36489758e-01
      -6.36365265e-02 3.71036562e-03 6.36365265e-02 7.96199683e-03 0. 0.
      0. 0. 1.18562281e-02 -8.29776097e-03 1.59804542e-02 1.21575361e-02
      1.15597993e-02 -5.02057560e-02 1.50198136e-02 6.64764643e-02
      -5.90115041e-03 -8.18269385e-04 5.90115041e-03 9.74308001e-04 0.
      0. 0. 0. 0. 0. 0. 0. 0. 0. 0. 0. 0. 0. 0. 0. 0. 0. 0. 0.
      2.12763712e-01 1.27946347e-01 2.30348364e-01 1.71938345e-01
      -1.26774669e-01 2.19454989e-01 1.74298063e-01 3.92106354e-01
      -6.32660789e-03 5.45060844e-04 6.32660789e-03 1.48804940e-03 0. 0.
      0. 0. 3.36743921e-01 -5.60721718e-02 3.70505750e-01 6.57284483e-02
      -1.54168293e-01 -5.24629168e-02 5.10754406e-01 2.39016369e-01
      -1.82328429e-02 1.26217469e-03 1.82328429e-02 5.53555321e-03 0. 0.
      0. 0. 4.49110381e-03 -1.54381422e-02 2.87687443e-02 1.54381422e-02
      2.37821275e-03 -3.50179970e-02 1.24066090e-02 3.51135395e-02
      -7.59909221e-04 -6.65078333e-05 7.59909221e-04 3.04358662e-04 0.
      0. 0. 0. 0. 0. 0. 0. 0. 0. 0. 0. 0. 0. 0. 0. 0. 0. 0. 0.
      1.08081244e-01 9.20790806e-02 1.08081244e-01 9.90667865e-02
      -8.17134380e-02 2.16736540e-01 9.14097801e-02 2.16736540e-01 0. 0.
      0. 0. 0. 0. 0. 0. 4.09992903e-01 -1.33847268e-02 4.09992903e-01
      1.29698008e-01 -2.74418890e-01 1.42329307e-02 5.99694252e-01
      2.39695445e-01 0. 0. 0. 0. 0. 0. 0. 0. 1.41855720e-02
      -1.10305054e-02 1.42818447e-02 1.10305054e-02 -1.04333712e-02
      -3.58766615e-02 1.56746861e-02 3.58766615e-02 0. 0. 0. 0. 0. 0. 0.
      0. 2.49417906e-04 8.93933466e-04 4.76983143e-04 8.93933466e-04
      9.75914707e-04 1.88063318e-03 1.22534938e-03 1.88063318e-03
      3.47655872e-03 9.69546568e-03 3.57287819e-03 9.70452651e-03
      4.45195910e-04 -9.88289466e-05 4.45195910e-04 3.55393771e-04
      1.27155185e-01 -1.68761183e-02 1.29926518e-01 1.04807854e-01
      1.61701709e-01 5.69143817e-02 1.90350175e-01 6.86291337e-01
      2.04974320e-02 -4.04767692e-02 2.20325142e-02 7.48279020e-02 0. 0.
      0. 0. 3.59879732e-02 -4.39547142e-03 3.74927074e-02 2.30116844e-02
      3.71746927e-01 -9.63474344e-03 4.51523811e-01 2.29912385e-01
      -2.12223977e-02 3.57726775e-02 2.23249570e-02 8.56117830e-02 0. 0.
      0. 0. 2.34418854e-04 -9.06365894e-05 2.34418854e-04 2.34418854e-04
      8.46748613e-03 -3.30496505e-02 2.27461103e-02 3.30496505e-02
      -7.20242388e-04 -6.78064721e-03 1.22359721e-03 6.78064721e-03 0.
      0. 0. 0. 0. 0. 0. 0. 0. 0. 0. 0. 0. 0. 0. 0. 0. 0. 0. 0. 0. 0. 0.
      0. 3.43845367e-01 1.61598831e-01 5.38783967e-01 2.47591600e-01
      -4.18064222e-02 3.72069553e-02 7.21909702e-02 4.51513492e-02 0. 0.
      0. 0. 0. 0. 0. 0. 3.23820710e-01 -1.87702298e-01 5.15956819e-01
      2.69523829e-01 -4.80207242e-02 -3.11793666e-02 8.40854868e-02
      6.62402511e-02 0. 0. 0. 0. 0. 0. 0. 0. 6.91993700e-05
      -8.03611008e-04 2.57516193e-04 8.03611008e-04 0. 0. 0. 0.</_>
    <_>
      0. 0. 0. 0. 0. 0. 0. 0. 0. 0. 0. 0. 0. 0. 0. 0. 0. 0. 0. 0.
      6.79744631e-02 7.60904402e-02 1.74151748e-01 1.61163315e-01
      -7.07264245e-02 8.99507776e-02 9.39446315e-02 9.95641500e-02 0. 0.
      0. 0. 0. 0. 0. 0. 4.77267802e-01 -6.77319756e-03 4.77267802e-01
      8.05129707e-02 -4.37277228e-01 1.26777247e-01 4.44099873e-01
      1.50697425e-01 0. 0. 0. 0. 0. 0. 0. 0. 2.99829841e-02
      -9.86244902e-03 2.99829841e-02 9.86244902e-03 -1.75456386e-02
      -2.09915228e-02 8.83125663e-02 3.99943106e-02 0. 0. 0. 0. 0. 0. 0.
      0. 1.39532029e-04 1.39532029e-04 1.39532029e-04 1.39532029e-04
      -2.62556241e-05 1.50897354e-03 7.20750133e-04 1.50897354e-03 0. 0.
      0. 0. 0. 0. 0. 0. 7.99634159e-02 -5.39043511e-04 7.99634159e-02
      1.61752161e-02 1.91672266e-01 1.49040699e-01 6.14698529e-01
      2.20994204e-01 -9.37357824e-03 1.52757822e-03 9.37357824e-03
      1.68842892e-03 0. 0. 0. 0. 9.26788673e-02 1.22338925e-02
      9.26788673e-02 1.91880241e-02 2.29021177e-01 -1.27064502e-02
      6.45874321e-01 7.23626763e-02 -2.48713363e-02 6.17089274e-04
      2.48713363e-02 5.87082980e-03 0. 0. 0. 0. 2.07310040e-02
      -1.51376100e-03 2.07310040e-02 1.55077281e-03 1.12083368e-02
      -1.85273122e-02 7.15552270e-02 2.63003726e-02 -1.35710789e-03
      6.45111550e-06 1.35710789e-03 2.26984906e-04 0. 0. 0. 0. 0. 0. 0.
      0. 0. 0. 0. 0. 0. 0. 0. 0. 0. 0. 0. 0. 2.26056157e-03
      3.88187589e-04 2.26056157e-03 1.19623251e-03 1.89773500e-01
      1.18401252e-01 6.48260474e-01 1.90349936e-01 -8.83723085e-04
      3.70363530e-04 8.83723085e-04 3.70363530e-04 0. 0. 0. 0.
      2.43929890e-03 -4.04022459e-04 2.43929890e-03 4.04022459e-04
      2.03684017e-01 -4.64869253e-02 6.57341540e-01 1.19559772e-01
      -2.16065953e-03 -6.97864962e-05 2.16065953e-03 7.41310243e-04 0.
      0. 0. 0. 2.11596649e-04 5.68599535e-05 2.11596649e-04
      2.11596649e-04 1.30535904e-02 -2.12263353e-02 3.68415415e-02
      3.79140228e-02 -3.09608673e-04 2.24661380e-06 3.09608673e-04
      1.72208849e-04 0. 0. 0. 0. 3.39583377e-04 -1.74104818e-04
      3.39583377e-04 4.26118873e-04 1.37487873e-02 6.25183582e-02
      3.40293907e-02 6.26373217e-02 -2.15297914e-03 4.11710516e-03
      2.15297914e-03 4.17333934e-03 0. 0. 0. 0. 3.35027301e-03
      3.26232228e-04 3.35027301e-03 3.26232228e-04 2.58481830e-01
      8.72852188e-03 5.65188348e-01 2.05158770e-01 -1.51554439e-02
      5.78625500e-03 5.72195724e-02 6.87009515e-03 0. 0. 0. 0.
      1.64830685e-03 -5.16330067e-04 1.64830685e-03 5.16330067e-04
      3.71264756e-01 3.29623069e-03 6.30331695e-01 9.77310389e-02
      -5.84265888e-02 1.90095673e-03 5.84265888e-02 1.34946229e-02 0. 0.
      0. 0. 0. 0. 0. 0. 5.02773076e-02 -1.79182664e-02 5.86466342e-02
      1.95140075e-02 -1.26228724e-02 -2.47786520e-04 1.27903940e-02
      4.88238223e-03 0. 0. 0. 0. 7.28044659e-03 5.50853787e-03
      7.28044659e-03 5.50853787e-03 -3.54184653e-04 6.46204054e-02
      1.44186532e-02 6.46204054e-02 -1.27694308e-04 1.27694308e-04
      1.27694308e-04 1.27694308e-04 0. 0. 0. 0. 9.36144441e-02
      -5.28550195e-03 9.36144441e-02 6.89607998e-03 1.75161794e-01
      1.77167226e-02 6.40211165e-01 6.43941537e-02 -6.38811756e-03
      6.02207787e-04 6.38811756e-03 7.12977722e-04 0. 0. 0. 0.
      1.84678584e-01 2.45277341e-02 1.84678584e-01 2.95561776e-02
      6.38529882e-02 -3.15745249e-02 6.62726223e-01 8.59895274e-02
      -4.76119854e-03 -8.83135013e-04 4.76119854e-03 9.93905007e-04 0.
      0. 0. 0. 3.43357474e-02 -2.32300139e-03 3.43357474e-02
      2.33910559e-03 -1.53983766e-02 -2.24160962e-02 4.77738455e-02
      4.21440899e-02 -1.39174721e-04 -8.84386736e-06 1.39174721e-04
      2.16504322e-05 -431602080. -431602080. -431602080. -431602080.
      -431602080. -431602080. -431602080. -431602080. -431602080.
      -431602080. -431602080. -431602080. -431602080. -431602080.
      -431602080. -431602080. -431602080. -431602080. -431602080.
      -431602080. -431602080. -431602080. -431602080. -431602080.
      -431602080. -431602080. -431602080. -431602080. -431602080.
      -431602080. -431602080. -431602080. -431602080. -431602080.
      -431602080. -431602080. -431602080. -431602080. -431602080.
      -431602080. -431602080. -431602080. -431602080. -431602080.
      -431602080. -431602080. -431602080. -431602080. -431602080.
      -431602080. -431602080. -431602080. -431602080. -431602080.
      -431602080. -431602080. -431602080. -431602080. -431602080.
      -431602080. -431602080. -431602080. -431602080. -431602080.</_>
    <_>
      0. 0. 0. 0. 6.17728755e-02 8.69752001e-03 6.17728755e-02
      1.25448182e-02 -1.61332022e-02 2.74602566e-02 1.97860170e-02
      6.39447793e-02 -3.12816352e-04 -8.94200522e-04 1.55042186e-02
      1.87723245e-03 0. 0. 0. 0. 2.69939482e-01 8.07615966e-02
      3.86569768e-01 1.26239046e-01 7.71596506e-02 -2.01208591e-02
      2.97896355e-01 3.14695209e-01 -5.94492406e-02 -5.67641668e-03
      6.28567114e-02 1.03320060e-02 0. 0. 0. 0. 1.84348211e-01
      -1.79851696e-01 1.84348211e-01 1.82486758e-01 2.35019475e-02
      -3.31887215e-01 9.28012431e-02 5.30099571e-01 -4.86922041e-02
      -2.40329243e-02 4.86922041e-02 2.49083694e-02 0. 0. 0. 0. 0. 0. 0.
      0. 0. 0. 0. 0. 0. 0. 0. 0. 0. 0. 0. 0. 4.46686447e-02
      1.04762437e-02 4.46686447e-02 1.18124643e-02 -2.54826006e-02
      7.82402791e-03 7.44315162e-02 3.93868424e-02 0. 0. 0. 0. 0. 0. 0.
      0. 4.47125107e-01 6.24854527e-02 4.47125107e-01 1.03322014e-01
      -4.03610706e-01 -1.02360055e-01 4.14773971e-01 1.47365540e-01 0.
      0. 0. 0. 0. 0. 0. 0. 1.63090765e-01 -1.42152131e-01 1.63090765e-01
      1.81709170e-01 -1.65234864e-01 -1.49334505e-01 1.67560801e-01
      1.49334505e-01 0. 0. 0. 0. 0. 0. 0. 0. 0. 0. 0. 0. 0. 0. 0. 0. 0.
      0. 0. 0. 0. 0. 0. 0. 1.44589599e-02 6.28000405e-03 1.44589599e-02
      6.28000405e-03 4.44200411e-02 1.05069727e-02 6.43197596e-02
      2.84775570e-02 -3.95564362e-03 1.51261385e-03 5.74917626e-03
      1.06547438e-02 0. 0. 0. 0. 4.10717040e-01 1.05909593e-01
      4.10717040e-01 1.05909593e-01 -1.25050366e-01 -8.72832313e-02
      3.30451757e-01 2.92497426e-01 2.27434821e-02 -4.89504263e-03
      3.26438434e-02 4.86185811e-02 0. 0. 0. 0. 1.76950291e-01
      -1.47272453e-01 1.76950291e-01 1.54623494e-01 5.90517633e-02
      -1.93718076e-01 1.28641635e-01 4.89504993e-01 1.36301462e-02
      -1.63049940e-02 2.66000722e-02 6.28968477e-02 0. 0. 0. 0. 0. 0. 0.
      0. 8.12466169e-05 -8.12466169e-05 8.12466169e-05 8.12466169e-05
      4.21283097e-04 -1.22495624e-03 4.21283097e-04 1.22495624e-03
      4.96140041e-04 3.65988089e-04 5.47580887e-04 4.66148893e-04
      2.39351243e-02 8.19249079e-03 3.66650410e-02 1.07186846e-02
      1.35480834e-03 8.60245898e-03 7.09506217e-03 1.75763518e-02
      -1.70593048e-04 2.36687111e-03 8.32308084e-04 4.10477770e-03
      5.88028207e-02 7.94352870e-03 5.88028207e-02 8.19161814e-03
      1.81925848e-01 -4.67713736e-02 4.53177154e-01 1.94216207e-01
      -1.68377474e-01 -4.02838849e-02 3.27710688e-01 2.25064412e-01
      9.10835573e-04 -1.90087222e-03 2.64891163e-02 6.83901161e-02
      1.11593440e-01 1.69724897e-02 1.11722812e-01 1.73618123e-02
      -1.96613837e-02 1.32672042e-02 3.56393158e-01 3.58734190e-01
      3.10636461e-02 2.27984395e-02 3.47313195e-01 3.29404265e-01
      -3.01279798e-02 6.53022341e-03 6.71170056e-02 1.68268848e-02
      1.03117581e-02 1.49587949e-03 1.03129549e-02 1.97813218e-03
      -1.85348457e-04 7.37682357e-03 4.31911461e-03 8.82009417e-03
      -3.52981791e-04 1.91193249e-04 6.44459343e-03 7.14180106e-03
      -1.38224941e-03 -4.70366685e-05 1.40558777e-03 3.22950305e-04 0.
      0. 0. 0. 6.35872260e-02 1.04268072e-02 6.35872260e-02
      1.04268072e-02 -7.82551430e-03 1.55008305e-02 1.52430218e-02
      3.16003822e-02 -4.10166889e-04 2.05491553e-03 2.10966170e-03
      7.12446682e-03 0. 0. 0. 0. 3.67688000e-01 3.16540711e-02
      3.77676249e-01 7.54348636e-02 -2.63269171e-02 7.66983032e-02
      5.50897717e-02 4.26900119e-01 -1.37518421e-02 5.47670480e-03
      3.75298299e-02 5.54712415e-02 0. 0. 0. 0. 2.37533495e-01
      -2.50898935e-02 5.04128456e-01 7.47112781e-02 1.46922410e-01
      -1.34918094e-01 2.30177239e-01 2.92607278e-01 -1.80437136e-02
      -3.52773955e-03 3.73140648e-02 2.15882752e-02 0. 0. 0. 0.
      2.35924628e-02 6.66899094e-03 7.66521320e-02 1.27920574e-02
      1.63697731e-02 1.67606920e-02 5.61561286e-02 3.40619385e-02
      7.29510357e-05 -1.94975908e-03 9.30649322e-03 7.76877208e-03 0. 0.
      0. 0. 2.62571294e-02 -8.49802885e-03 6.34703115e-02 1.52056012e-02
      1.34584242e-02 2.90091000e-02 1.55677870e-02 7.58091137e-02
      -9.84100392e-04 2.62782467e-03 5.64730586e-03 7.75944162e-03 0. 0.
      0. 0. 2.83011854e-01 5.51822670e-02 4.40318853e-01 7.12740868e-02
      3.89412642e-02 8.74326080e-02 1.14621788e-01 4.08542186e-01
      -2.93082534e-03 1.05642295e-02 3.53624560e-02 4.58357111e-02 0. 0.
      0. 0. 3.43074024e-01 -3.59528773e-02 4.16310996e-01 8.87426138e-02
      -1.20438561e-02 -6.20110407e-02 3.82678024e-02 4.41696495e-01
      -1.53783932e-02 -1.20816352e-02 4.19305898e-02 5.20350114e-02 0.
      0. 0. 0. 5.71205728e-02 -7.20127393e-03 5.71205728e-02
      7.21419370e-03 2.38388171e-03 -1.69061739e-02 1.21321669e-02
      2.03916971e-02 -1.97981927e-03 1.15879020e-03 3.03627108e-03
      2.81029032e-03</_>
    <_>
      0. 0. 0. 0. 5.93950339e-02 9.91746504e-03 5.93950339e-02
      9.91746504e-03 -4.08660732e-02 4.51189058e-04 5.14806546e-02
      1.64195355e-02 0. 0. 0. 0. 0. 0. 0. 0. 4.42616940e-01
      5.43007962e-02 4.42616940e-01 8.31618384e-02 -3.96485895e-01
      -8.84820446e-02 3.96485895e-01 1.46087825e-01 0. 0. 0. 0. 0. 0. 0.
      0. 1.76989093e-01 -1.50978446e-01 1.76989093e-01 1.87587082e-01
      -1.74773708e-01 -1.57692075e-01 1.78789660e-01 1.86785161e-01 0.
      0. 0. 0. 0. 0. 0. 0. 0. 0. 0. 0. 0. 0. 0. 0. 0. 0. 0. 0. 0. 0. 0.
      0. 0. 0. 0. 0. 0. 0. 0. 0. 1.20531491e-04 1.96380832e-04
      1.20531491e-04 1.96380832e-04 0. 0. 0. 0. 1.94186777e-01
      1.42943785e-01 1.94186777e-01 1.46429569e-01 4.15704697e-02
      2.30322957e-01 1.85920566e-01 4.58102137e-01 -4.50166082e-03
      1.00710839e-02 1.94536038e-02 6.19488209e-02 0. 0. 0. 0.
      4.48565543e-01 -9.18398499e-02 4.48565543e-01 9.24167037e-02
      -1.44434378e-01 7.48253837e-02 3.11752945e-01 1.59195855e-01
      -7.99453992e-04 1.97563004e-02 1.36354538e-02 2.72681955e-02 0. 0.
      0. 0. 1.19265029e-02 -7.48179527e-03 1.19265029e-02 7.48179527e-03
      4.34042737e-02 -2.70656385e-02 7.39350393e-02 3.02124266e-02
      1.84559997e-03 -3.98703711e-03 4.87172976e-03 4.84215282e-03 0. 0.
      0. 0. 0. 0. 0. 0. 0. 0. 0. 0. 0. 0. 0. 0. 0. 0. 0. 0.
      1.59044802e-01 1.93862528e-01 1.76983804e-01 1.97948366e-01
      -1.56038135e-01 2.12376028e-01 1.72381401e-01 2.12376028e-01 0. 0.
      0. 0. 0. 0. 0. 0. 4.34728622e-01 -1.07478186e-01 4.51770663e-01
      1.07478186e-01 -3.77655298e-01 4.17777933e-02 3.77655298e-01
      9.14305523e-02 0. 0. 0. 0. 0. 0. 0. 0. 4.85288166e-02
      -6.67883316e-03 4.85288166e-02 6.67883316e-03 -2.67661437e-02
      7.65350135e-03 6.49337545e-02 3.18334810e-02 0. 0. 0. 0. 0. 0. 0.
      0. 0. 0. 0. 0. 0. 0. 0. 0. 0. 0. 0. 0. 0. 0. 0. 0. 1.48936644e-01
      1.67088658e-01 1.48936644e-01 1.67088658e-01 6.59856126e-02
      3.06499928e-01 1.29569128e-01 4.86015528e-01 1.14068463e-02
      4.13432606e-02 2.18657646e-02 5.99662513e-02 0. 0. 0. 0.
      4.33934391e-01 -6.26806691e-02 4.39232111e-01 8.95268694e-02
      -1.04457654e-01 3.34669501e-02 2.58883893e-01 2.42271066e-01
      2.16729622e-02 -5.80925448e-03 5.11968732e-02 1.80840585e-02 0. 0.
      0. 0. 4.48086150e-02 -8.29878077e-03 4.48086150e-02 8.29878077e-03
      8.59549109e-05 -1.38027053e-02 2.91883126e-02 5.39565273e-02
      7.21160439e-04 -4.25256183e-03 4.07255488e-03 8.95245373e-03 0. 0.
      0. 0. 0. 0. 0. 0. 0. 0. 0. 0. 0. 0. 0. 0. 0. 0. 0. 0.
      1.68274924e-01 1.61294073e-01 1.68274924e-01 1.62461579e-01
      8.37110877e-02 3.12369555e-01 1.52821735e-01 4.22772735e-01
      -2.06816103e-03 4.18322869e-02 3.30881961e-02 5.11886477e-02 0. 0.
      0. 0. 4.42680031e-01 -9.12071913e-02 4.42680031e-01 9.12071913e-02
      -6.45255744e-02 2.98636779e-02 2.73971528e-01 2.70839959e-01
      -1.57809909e-02 -1.41060594e-02 4.07138653e-02 2.74202600e-02 0.
      0. 0. 0. 2.15960555e-02 -8.07643775e-03 2.15960555e-02
      8.07643775e-03 4.29269066e-03 -7.80406371e-02 2.30547488e-02
      7.80406371e-02 -1.76685397e-03 -7.68988905e-03 1.76685397e-03
      7.68988905e-03 0. 0. 0. 0. 5.96199520e-02 1.05216205e-02
      5.96199520e-02 1.42364278e-02 -3.39296125e-02 -2.10946202e-02
      4.16389517e-02 3.33125815e-02 -3.02859607e-05 -2.33911796e-05
      3.02859607e-05 2.33911796e-05 0. 0. 0. 0. 4.00307029e-01
      7.91896358e-02 4.19264436e-01 1.48932680e-01 -3.26596081e-01
      -3.87976803e-02 3.49994808e-01 2.40995616e-01 0. 0. 0. 0. 0. 0. 0.
      0. 1.54788807e-01 -2.41418183e-01 1.54788807e-01 2.41418183e-01
      -1.40214428e-01 -2.43161187e-01 1.56514883e-01 2.59119719e-01 0.
      0. 0. 0. 0. 0. 0. 0. 0. 0. 0. 0. 0. 0. 0. 0. 0. 0. 0. 0.</_>
    <_>
      0. 0. 0. 0. 6.70044497e-03 2.14685183e-02 7.02488562e-03
      2.14685183e-02 -5.08829020e-03 3.64322253e-02 5.12066996e-03
      3.64322253e-02 -8.24099970e-06 -2.65726867e-05 1.51917802e-05
      8.16177417e-05 0. 0. 0. 0. 2.89560646e-01 8.63817483e-02
      2.92133242e-01 9.17073861e-02 -1.83613554e-01 1.12168133e-01
      4.19757485e-01 1.51513845e-01 0. 0. 0. 0. 0. 0. 0. 0.
      3.93140525e-01 -6.08747862e-02 3.93140525e-01 7.87287056e-02
      -2.95829087e-01 -4.15824130e-02 3.84256601e-01 4.56540287e-02 0.
      0. 0. 0. 0. 0. 0. 0. 2.60499604e-02 4.86667873e-03 3.29113528e-02
      1.22399442e-02 -1.82463191e-02 -9.91993304e-03 7.27577731e-02
      1.02472687e-02 0. 0. 0. 0. 0. 0. 0. 0. 5.83667941e-02
      3.73750343e-03 5.83667941e-02 8.94347299e-03 2.42754314e-02
      8.59782659e-03 2.61362884e-02 1.50356209e-02 -4.87980759e-03
      3.63157014e-03 5.40725794e-03 5.23775630e-03 0. 0. 0. 0.
      4.54701900e-01 4.76882607e-02 4.77963984e-01 7.91669786e-02
      -1.62459150e-01 -4.73480783e-02 1.78141281e-01 2.71664262e-01
      -6.10855082e-03 -2.13498957e-02 6.10855082e-03 2.39830371e-02 0.
      0. 0. 0. 3.42699319e-01 -1.28085330e-01 3.88767153e-01
      1.49257913e-01 -1.04041636e-01 -1.36603221e-01 1.23156413e-01
      2.35184610e-01 2.41890972e-04 5.96175669e-04 1.41203380e-03
      1.18158106e-02 0. 0. 0. 0. 4.82521616e-02 7.22824316e-03
      4.88379225e-02 1.29307071e-02 -5.79428673e-03 8.80335792e-05
      5.92112960e-03 5.41422656e-03 -2.62623536e-04 -5.04513911e-04
      7.26938597e-04 8.50252516e-04 0. 0. 0. 0. 3.08700297e-02
      1.74234379e-02 6.17389791e-02 1.76147614e-02 3.19864079e-02
      -8.44060618e-04 5.09396605e-02 8.23763851e-03 -7.79602793e-04
      -9.90295550e-04 4.65621985e-03 9.90295550e-04 0. 0. 0. 0.
      3.56725037e-01 3.84555385e-02 5.07814109e-01 5.43974042e-02
      -6.07828051e-03 4.88269329e-02 3.83284181e-01 1.36183903e-01
      -2.47762874e-02 -7.80280773e-03 3.90020981e-02 7.80280773e-03 0.
      0. 0. 0. 2.50381857e-01 -3.97700965e-02 3.71301711e-01
      2.15701908e-01 4.49196696e-02 -1.14063665e-01 1.78515628e-01
      3.59502733e-01 -2.93688048e-02 -1.25155514e-02 5.53102568e-02
      1.25155514e-02 0. 0. 0. 0. 2.02282015e-02 1.26966732e-02
      2.92244181e-02 1.62112396e-02 2.95172655e-03 2.78015621e-03
      1.04139857e-02 8.58952198e-03 -5.48164709e-04 -2.23264587e-03
      1.67236459e-02 2.23264587e-03 0. 0. 0. 0. 6.85427189e-02
      3.20102088e-03 6.85427189e-02 7.98901729e-03 -9.69809573e-03
      -7.44268857e-03 1.12154894e-02 1.15579031e-02 7.79262919e-04
      -1.04937667e-03 2.28305324e-03 1.34599104e-03 0. 0. 0. 0.
      4.11387444e-01 7.50348195e-02 4.27883893e-01 9.92737114e-02
      -3.69496420e-02 -4.92253341e-03 2.02050656e-01 1.43454283e-01
      5.49381785e-03 1.28437090e-03 8.67272727e-03 1.38638616e-02 0. 0.
      0. 0. 2.03125909e-01 -2.25644931e-01 2.17475817e-01 2.54405558e-01
      -3.06660179e-02 -3.98909181e-01 7.44799152e-02 4.29420024e-01
      3.61437676e-03 -4.95025180e-02 6.33762544e-03 4.99481410e-02 0. 0.
      0. 0. 0. 0. 0. 0. 0. 0. 0. 0. 0. 0. 0. 0. 0. 0. 0. 0.
      3.47415097e-02 1.90073121e-02 5.39655723e-02 1.90768056e-02
      3.69983986e-02 1.33617129e-03 5.53372204e-02 9.59545560e-03
      -3.81949428e-03 -1.61478843e-03 6.10621413e-03 1.61478843e-03 0.
      0. 0. 0. 3.82833481e-01 6.09122068e-02 5.29742002e-01
      6.27117604e-02 1.91032775e-02 6.28531873e-02 3.95431817e-01
      1.44565359e-01 -4.30067256e-02 -1.35687003e-02 6.50629550e-02
      1.35687003e-02 0. 0. 0. 0. 2.40214661e-01 -3.60796712e-02
      3.69590849e-01 1.78311408e-01 1.03407785e-01 -1.38716862e-01
      1.90986753e-01 2.40701705e-01 -7.82796443e-02 -1.72085147e-02
      8.00272822e-02 1.72085147e-02 0. 0. 0. 0. 1.99368708e-02
      -1.63553993e-03 3.19887996e-02 1.08451266e-02 1.55701879e-02
      -3.18065309e-03 2.22585313e-02 5.95753500e-03 -1.57434940e-02
      -3.15164565e-03 1.57434940e-02 3.15164565e-03 0. 0. 0. 0.
      5.83575331e-02 6.06367877e-03 5.83575331e-02 1.02497051e-02
      2.88511068e-02 1.41336117e-02 2.95900423e-02 1.82441957e-02
      -4.31114761e-03 3.96832451e-03 4.58843587e-03 4.06671688e-03 0. 0.
      0. 0. 4.45367754e-01 9.01208967e-02 5.06616235e-01 1.02860592e-01
      -1.62849724e-01 -6.72335997e-02 1.74826503e-01 2.75906205e-01
      -4.70153289e-03 -2.75895130e-02 4.70153289e-03 2.75895130e-02 0.
      0. 0. 0. 3.07337165e-01 -1.41485080e-01 3.73865485e-01
      1.79706708e-01 -9.48414430e-02 -1.27223924e-01 1.05448343e-01
      2.24938929e-01 6.87987122e-05 1.40105735e-03 1.87554967e-03
      9.72165260e-03 0. 0. 0. 0. 4.17976342e-02 1.28134331e-02
      4.32314426e-02 1.63717121e-02 -5.59112430e-03 -3.42359138e-03
      5.59112430e-03 7.54368911e-03 -1.34582355e-04 -8.62321700e-04
      6.48382062e-04 1.45296601e-03</_>
    <_>
      0. 0. 0. 0. 6.97907060e-02 9.31590423e-03 6.97907060e-02
      9.37807746e-03 4.94285079e-04 1.86048099e-03 2.38407440e-02
      8.52819905e-03 -4.19808857e-05 8.97171340e-05 4.19808857e-05
      8.97171340e-05 0. 0. 0. 0. 4.42171574e-01 6.99265078e-02
      4.42171574e-01 7.19710812e-02 3.35887596e-02 1.72444750e-02
      3.41520421e-02 1.83566939e-02 0. 0. 0. 0. 0. 0. 0. 0.
      2.04295799e-01 -2.13440463e-01 2.04620451e-01 2.42282152e-01
      5.65643385e-02 -4.38553631e-01 5.65643385e-02 4.38553631e-01
      6.55774958e-03 -5.65757453e-02 6.55774958e-03 5.65757453e-02 0. 0.
      0. 0. 0. 0. 0. 0. 0. 0. 0. 0. 2.60499587e-06 -4.88489695e-06
      2.60499587e-06 4.88489695e-06 0. 0. 0. 0. 0. 0. 0. 0. 0. 0. 0. 0.
      0. 0. 0. 0. 0. 0. 0. 0. 2.06009418e-01 1.92827240e-01
      2.10385799e-01 2.23731980e-01 5.24304397e-02 4.12042469e-01
      7.04263151e-02 4.29128855e-01 6.16077799e-03 4.07577902e-02
      1.02232769e-02 6.12760521e-02 0. 0. 0. 0. 4.68468189e-01
      -6.80346116e-02 4.68468189e-01 6.82004094e-02 -1.95319508e-03
      4.38507320e-03 1.95319508e-03 4.38507320e-03 -1.26256011e-02
      6.23171357e-03 1.51037853e-02 9.68470890e-03 0. 0. 0. 0.
      7.03836679e-02 -9.09286644e-03 7.03836679e-02 9.09286644e-03
      1.36389327e-03 -7.23964011e-04 1.36389327e-03 7.31972221e-04
      -2.26353272e-03 4.77468029e-06 2.76563410e-03 1.41416560e-04 0. 0.
      0. 0. 7.13347197e-02 9.70418844e-03 7.13347197e-02 9.71105136e-03
      -3.86373606e-03 3.28105432e-03 2.06998587e-02 1.06872208e-02
      -1.09122531e-03 2.55583972e-03 1.17213465e-03 2.97340378e-03 0. 0.
      0. 0. 4.42476720e-01 6.12225458e-02 4.42476720e-01 6.43710718e-02
      3.11465748e-02 1.71542987e-02 3.13714705e-02 1.75444726e-02
      -2.97605857e-05 4.16164585e-05 2.97605857e-05 4.16164585e-05 0. 0.
      0. 0. 1.99966773e-01 -2.12315023e-01 2.00291470e-01 2.49893859e-01
      5.87839931e-02 -4.39277023e-01 5.87839931e-02 4.39277023e-01
      7.10419333e-03 -5.68285696e-02 7.15550641e-03 5.68285696e-02 0. 0.
      0. 0. 0. 0. 0. 0. 0. 0. 0. 0. 0. 0. 0. 0. 0. 0. 0. 0. 0. 0. 0. 0.
      0. 0. 0. 0. 2.55188525e-06 4.78530364e-06 2.55188525e-06
      4.78530364e-06 0. 0. 0. 0. 1.72980204e-01 1.59318998e-01
      1.72980204e-01 1.76312238e-01 7.87086189e-02 2.48061165e-01
      1.04794182e-01 5.43921590e-01 1.29206199e-02 2.89946590e-02
      1.29206199e-02 6.42174408e-02 0. 0. 0. 0. 4.35831904e-01
      -7.55479708e-02 4.35831904e-01 9.43089649e-02 -1.83046862e-01
      6.48766533e-02 1.91315487e-01 1.62715644e-01 1.25938235e-03
      -1.94593631e-02 3.01894778e-03 4.66288067e-02 0. 0. 0. 0.
      4.37207669e-02 -8.12011026e-03 4.37207669e-02 8.13856907e-03
      9.52840690e-03 -3.55309527e-03 3.62113267e-02 2.30266787e-02
      -1.80830189e-03 -3.98899254e-04 2.40981416e-03 7.75348814e-03 0.
      0. 0. 0. 0. 0. 0. 0. 0. 0. 0. 0. 0. 0. 0. 0. 0. 0. 0. 0.
      2.21182585e-01 2.02644944e-01 2.21182585e-01 2.05430880e-01
      5.09222820e-02 3.41385573e-01 1.04171246e-01 3.57417136e-01
      2.40467731e-02 4.94892597e-02 2.45370362e-02 4.94892597e-02 0. 0.
      0. 0. 4.72989410e-01 -8.48258436e-02 4.72989410e-01 9.76692885e-02
      -1.16230305e-02 4.75431010e-02 9.10205022e-02 2.28244200e-01
      -5.59400953e-03 -3.26142982e-02 1.12537295e-02 3.84098738e-02 0.
      0. 0. 0. 2.92486697e-02 -2.27684751e-02 2.92486697e-02
      2.27684751e-02 -2.03939248e-02 -1.04519032e-01 2.03939248e-02
      1.04519032e-01 -6.53224241e-04 -6.92133966e-04 6.53224241e-04
      6.92133966e-04 0. 0. 0. 0. 0. 0. 0. 0. 0. 0. 0. 0. 2.87723378e-06
      8.18241915e-06 8.18241915e-06 8.18241915e-06 0. 0. 0. 0.
      1.80458620e-01 1.56139955e-01 1.80458620e-01 2.32262969e-01
      1.01802140e-01 2.76635140e-01 1.08952016e-01 5.22175312e-01
      1.18064042e-02 3.14947143e-02 1.18824765e-02 5.88332340e-02 0. 0.
      0. 0. 4.46580857e-01 -6.80087805e-02 4.46580857e-01 1.07011549e-01
      -1.11555494e-01 8.99308696e-02 1.19443320e-01 1.47865921e-01
      -1.37031935e-02 -2.69789137e-02 1.57664195e-02 4.18299958e-02 0.
      0. 0. 0. 4.54493016e-02 -9.66327824e-03 4.54893075e-02
      9.66327824e-03 2.10497156e-02 -7.11322809e-03 2.90645342e-02
      9.90861747e-03 -3.99233773e-03 4.28186730e-03 4.02843347e-03
      7.06783775e-03</_>
    <_>
      0. 0. 0. 0. 0. 0. 0. 0. 0. 0. 0. 0. 0. 0. 0. 0. 0. 0. 0. 0.
      1.82203010e-01 1.77777112e-01 1.82203010e-01 1.82770193e-01
      8.01743998e-04 2.58643359e-01 2.41040334e-01 3.74069333e-01
      -5.61018521e-03 2.31343210e-02 4.38658856e-02 5.24606965e-02 0. 0.
      0. 0. 4.33054298e-01 -8.57026726e-02 4.33054298e-01 8.57026726e-02
      -2.50795126e-01 8.38239118e-03 3.24424863e-01 1.44792482e-01
      1.47433085e-02 2.04470963e-03 8.37960020e-02 2.02929378e-02 0. 0.
      0. 0. 3.40358727e-02 -1.37914810e-02 3.40358727e-02 1.37914810e-02
      -1.01870466e-02 -6.53322786e-02 1.42829502e-02 6.53322786e-02
      -1.84499763e-03 -1.17424112e-02 1.85121363e-03 1.17424112e-02 0.
      0. 0. 0. 0. 0. 0. 0. 0. 0. 0. 0. 0. 0. 0. 0. 0. 0. 0. 0.
      1.54465199e-01 1.88092723e-01 1.54465199e-01 1.88402116e-01
      -2.30395328e-02 2.96637237e-01 1.75063834e-01 4.10490006e-01
      2.37839371e-02 2.77267899e-02 4.09678370e-02 5.09801619e-02 0. 0.
      0. 0. 4.09592569e-01 -5.20949028e-02 4.09592569e-01 5.53154759e-02
      -2.64419436e-01 -4.41110171e-02 3.80541801e-01 1.23998106e-01
      3.29805762e-02 -1.10840509e-02 7.07211122e-02 1.65801961e-02 0. 0.
      0. 0. 5.11380769e-02 -1.25614349e-02 5.11380769e-02 1.26206810e-02
      -1.82382260e-02 -8.76022037e-03 3.02059613e-02 3.65456082e-02
      1.36449921e-03 5.64333051e-04 2.79295584e-03 7.92297069e-03 0. 0.
      0. 0. 5.82445860e-02 -6.58227073e-04 5.82445860e-02 2.05479329e-03
      -7.24283792e-03 -1.54660186e-02 4.09834087e-02 3.12890559e-02
      -1.28115644e-03 -2.25263950e-03 2.10031867e-03 2.68684956e-03 0.
      0. 0. 0. 3.82961571e-01 3.75287831e-02 3.82961571e-01
      3.79550457e-02 -1.33340999e-01 1.34483695e-01 3.30911905e-01
      3.37755173e-01 2.84256833e-03 1.96442232e-02 2.77020335e-02
      5.51300757e-02 0. 0. 0. 0. 2.54678756e-01 -2.95830108e-02
      4.69983488e-01 3.50027531e-02 8.55741501e-02 -1.57715783e-01
      1.73827350e-01 2.59117246e-01 -1.26168933e-02 -5.16115222e-03
      1.89960673e-02 1.35132205e-02 0. 0. 0. 0. 1.90480482e-02
      1.01936674e-02 8.39525014e-02 1.10980077e-02 1.55376205e-02
      2.28236206e-02 5.38630933e-02 2.93779690e-02 1.61272462e-03
      -3.77131323e-03 5.61566791e-03 9.10203904e-03 0. 0. 0. 0.
      4.36179787e-02 4.47667763e-03 4.36179787e-02 6.07438432e-03
      1.16696842e-02 5.00943232e-03 3.18199657e-02 3.23425978e-02
      -3.05538578e-03 1.71968786e-04 8.83817021e-03 4.43989038e-03 0. 0.
      0. 0. 4.21320349e-01 9.10205767e-02 4.21320349e-01 9.86221731e-02
      -1.05463944e-01 -6.74119294e-02 2.56261289e-01 2.76488006e-01
      8.90381518e-04 -4.25028498e-04 7.12815970e-02 3.20668034e-02 0. 0.
      0. 0. 1.61489770e-01 -1.75341785e-01 1.61489770e-01 1.81792170e-01
      5.07066138e-02 -2.59227604e-01 1.33392662e-01 4.96768802e-01
      1.90245882e-02 -1.95259359e-02 2.52004340e-02 7.22024739e-02 0. 0.
      0. 0. 0. 0. 0. 0. 0. 0. 0. 0. 0. 0. 0. 0. 0. 0. 0. 0.
      5.39968722e-02 5.16694505e-03 5.50764687e-02 5.16694505e-03
      -1.93534521e-04 1.49969785e-02 1.53277162e-02 1.93121396e-02
      -4.10442101e-03 1.44240865e-03 6.55390834e-03 2.43777200e-03 0. 0.
      0. 0. 3.59919935e-01 3.97640467e-02 3.93320858e-01 9.05740634e-02
      -7.68269002e-02 6.03387319e-02 1.79272056e-01 3.69654268e-01
      -2.34251674e-02 -8.79994035e-03 4.30186242e-02 1.54460417e-02 0.
      0. 0. 0. 2.99395949e-01 -3.61902453e-02 4.53609318e-01
      8.19622353e-02 -7.16353580e-02 -2.48121142e-01 1.07616991e-01
      3.42737257e-01 -1.28961308e-02 2.00925907e-03 5.37481233e-02
      2.00155955e-02 0. 0. 0. 0. 3.73225696e-02 7.75274215e-03
      5.99928126e-02 2.51968391e-02 -1.14846956e-02 3.34593318e-02
      1.57493241e-02 8.98552239e-02 -1.32494012e-03 -1.03909045e-03
      1.13046635e-02 1.81737263e-03 0. 0. 0. 0. 4.82352413e-02
      7.97874201e-03 5.30878901e-02 8.37507937e-03 1.63393444e-03
      2.29889099e-02 2.98340600e-02 3.58038135e-02 -6.66770758e-03
      7.14094902e-04 1.02802478e-02 1.99531182e-03 0. 0. 0. 0.
      3.72711957e-01 3.91552523e-02 4.05457824e-01 7.62609467e-02
      -9.07496363e-02 3.54975648e-02 2.03135625e-01 3.34514827e-01
      -3.44973803e-02 -7.79327145e-03 6.72417730e-02 8.69741011e-03 0.
      0. 0. 0. 2.95168966e-01 -2.42964216e-02 4.33182538e-01
      1.38399959e-01 -4.85740267e-02 -1.92374676e-01 1.51266292e-01
      3.76417339e-01 -5.32825142e-02 -4.79548093e-04 5.32825142e-02
      8.71621910e-03 0. 0. 0. 0. 3.69127914e-02 -8.71955976e-03
      5.99739701e-02 1.44136371e-02 -3.90115008e-03 -8.25076271e-03
      2.49560960e-02 4.79253754e-02 -1.09580159e-02 -2.46664422e-04
      1.09580159e-02 4.98854322e-04</_></uncompressed_support_vectors>
  <decision_functions>
    <_>
      <sv_count>1</sv_count>
      <rho>-3.7313772768270553e-01</rho>
      <alpha>
        1.</alpha></_></decision_functions></opencv_ml_svm>
</opencv_storage>
