<?xml version="1.0"?>
<opencv_storage>
<opencv_ml_svm>
  <format>3</format>
  <svmType>C_SVC</svmType>
  <kernel>
    <type>RBF</type>
    <gamma>1.0000000000000001e-05</gamma></kernel>
  <C>1.0000000000000001e-01</C>
  <term_criteria><epsilon>1.1920928955078125e-07</epsilon>
    <iterations>1000</iterations></term_criteria>
  <var_count>600</var_count>
  <class_count>2</class_count>
  <class_labels type_id="opencv-matrix">
    <rows>2</rows>
    <cols>1</cols>
    <dt>i</dt>
    <data>
      0 1</data></class_labels>
  <sv_total>96</sv_total>
  <support_vectors>
    <_>
      255. 255. 255. 255. 255. 255. 255. 255. 255. 255. 255. 255. 255.
      255. 255. 255. 255. 255. 255. 255. 255. 255. 255. 255. 255. 255.
      255. 255. 255. 255. 255. 255. 255. 255. 255. 255. 255. 255. 255.
      255. 0. 0. 0. 0. 0. 0. 255. 255. 255. 255. 255. 255. 255. 255.
      255. 255. 255. 255. 255. 255. 0. 0. 0. 0. 0. 0. 255. 255. 255.
      255. 255. 255. 255. 255. 255. 0. 0. 0. 0. 0. 255. 255. 0. 0. 0. 0.
      0. 255. 255. 255. 255. 255. 255. 255. 255. 0. 0. 0. 0. 0. 255.
      255. 0. 0. 0. 0. 0. 255. 255. 255. 255. 255. 255. 255. 255. 0. 0.
      0. 0. 0. 255. 255. 0. 0. 0. 0. 0. 255. 255. 255. 255. 255. 255.
      255. 0. 0. 0. 0. 0. 255. 255. 255. 255. 0. 0. 0. 0. 0. 255. 255.
      255. 255. 255. 255. 0. 0. 0. 0. 0. 255. 255. 255. 255. 0. 0. 0. 0.
      0. 255. 255. 255. 255. 0. 0. 0. 0. 0. 0. 255. 255. 255. 255. 255.
      0. 0. 0. 0. 0. 255. 255. 255. 255. 0. 0. 0. 0. 0. 0. 255. 255.
      255. 255. 255. 255. 0. 0. 0. 0. 0. 0. 255. 0. 0. 0. 0. 0. 255.
      255. 255. 255. 255. 255. 255. 255. 0. 0. 0. 0. 0. 0. 0. 0. 0. 0.
      0. 0. 255. 255. 255. 255. 255. 255. 255. 255. 255. 255. 0. 0. 0.
      0. 0. 0. 0. 0. 0. 255. 255. 255. 255. 255. 255. 255. 255. 255.
      255. 255. 0. 0. 0. 0. 0. 0. 0. 0. 0. 255. 255. 255. 255. 255. 255.
      255. 255. 255. 255. 255. 0. 0. 0. 0. 0. 0. 0. 0. 0. 255. 255. 255.
      255. 255. 255. 255. 255. 255. 255. 255. 255. 0. 0. 0. 0. 0. 0. 0.
      255. 255. 255. 255. 255. 255. 255. 255. 255. 255. 255. 255. 255.
      0. 0. 0. 0. 0. 0. 0. 255. 255. 255. 255. 255. 255. 255. 255. 255.
      255. 255. 255. 255. 0. 0. 0. 0. 0. 255. 255. 255. 255. 255. 255.
      255. 255. 255. 255. 255. 255. 255. 255. 255. 0. 0. 0. 0. 0. 255.
      255. 255. 255. 255. 255. 255. 255. 255. 255. 255. 255. 255. 255.
      255. 0. 0. 0. 0. 0. 255. 255. 255. 255. 255. 255. 255. 255. 255.
      255. 255. 255. 255. 255. 255. 0. 0. 0. 0. 0. 255. 255. 255. 255.
      255. 255. 255. 255. 255. 255. 255. 255. 255. 255. 255. 0. 0. 0. 0.
      0. 255. 255. 255. 255. 255. 255. 255. 255. 255. 255. 255. 255.
      255. 255. 255. 0. 0. 0. 0. 0. 255. 255. 255. 255. 255. 255. 255.
      255. 255. 255. 255. 255. 255. 255. 255. 0. 0. 0. 0. 0. 255. 255.
      255. 255. 255. 255. 255. 255. 255. 255. 255. 255. 255. 255. 255.
      0. 0. 0. 0. 0. 255. 255. 255. 255. 255. 255. 255. 255. 255. 255.
      255. 255. 255. 255. 255. 0. 0. 0. 0. 0. 255. 255. 255. 255. 255.
      255. 255. 255. 255. 255. 255. 255. 255. 255. 255. 0. 0. 0. 0. 0.
      255. 255. 255. 255. 255. 255. 255. 255. 255. 255. 255. 255. 255.
      255. 255. 0. 0. 0. 0. 255. 255. 255. 255. 255. 255. 255. 255. 255.
      255. 255. 255. 255. 255. 255. 255. 0. 0. 0. 0. 0. 255. 255. 255.
      255. 255. 255. 255. 255. 255. 255. 255. 255. 255. 255. 255. 0. 0.
      0. 0. 255. 255. 255. 255. 255. 255. 255. 255. 255.</_>
    <_>
      255. 255. 255. 255. 255. 255. 255. 255. 255. 255. 255. 255. 255.
      255. 255. 255. 255. 255. 255. 255. 255. 255. 255. 255. 255. 255.
      255. 255. 255. 255. 255. 255. 255. 255. 255. 255. 255. 255. 255.
      255. 0. 0. 0. 0. 0. 255. 255. 255. 255. 255. 255. 255. 255. 255.
      255. 0. 0. 0. 0. 255. 0. 0. 0. 0. 0. 255. 255. 255. 255. 255. 255.
      255. 255. 255. 255. 0. 0. 0. 0. 0. 255. 255. 0. 0. 0. 0. 0. 255.
      255. 255. 255. 255. 255. 255. 0. 0. 0. 0. 0. 255. 255. 255. 0. 0.
      0. 0. 0. 255. 255. 255. 255. 255. 255. 0. 0. 0. 0. 0. 0. 255. 255.
      255. 0. 0. 0. 0. 0. 0. 255. 255. 255. 255. 255. 0. 0. 0. 0. 0.
      255. 255. 255. 255. 255. 0. 0. 0. 0. 0. 255. 255. 255. 255. 0. 0.
      0. 0. 0. 0. 255. 255. 255. 255. 255. 0. 0. 0. 0. 0. 255. 255. 255.
      255. 0. 0. 0. 0. 0. 255. 255. 255. 255. 255. 255. 255. 0. 0. 0. 0.
      0. 255. 0. 0. 0. 0. 0. 0. 0. 255. 255. 255. 255. 255. 255. 255. 0.
      0. 0. 0. 0. 255. 0. 0. 0. 0. 0. 255. 255. 255. 255. 255. 255. 255.
      255. 255. 0. 0. 0. 0. 0. 0. 0. 0. 0. 0. 0. 255. 255. 255. 255.
      255. 255. 255. 255. 255. 255. 0. 0. 0. 0. 0. 0. 0. 0. 0. 255. 255.
      255. 255. 255. 255. 255. 255. 255. 255. 255. 0. 0. 0. 0. 0. 0. 0.
      0. 0. 255. 255. 255. 255. 255. 255. 255. 255. 0. 0. 255. 255. 255.
      0. 0. 0. 0. 0. 0. 255. 255. 255. 255. 255. 255. 255. 0. 0. 0. 0.
      255. 255. 255. 0. 0. 0. 0. 0. 0. 255. 255. 255. 255. 255. 255.
      255. 0. 0. 0. 0. 255. 255. 255. 0. 0. 0. 0. 0. 0. 255. 255. 255.
      255. 255. 255. 255. 0. 0. 0. 0. 255. 255. 255. 0. 0. 0. 0. 0. 255.
      255. 255. 255. 255. 255. 255. 255. 255. 255. 255. 255. 255. 0. 0.
      0. 0. 0. 0. 0. 0. 255. 255. 255. 255. 255. 255. 255. 255. 255.
      255. 255. 255. 0. 0. 0. 0. 0. 0. 0. 0. 255. 255. 255. 255. 255.
      255. 255. 255. 255. 255. 255. 0. 0. 0. 0. 0. 0. 0. 0. 0. 0. 255.
      255. 255. 255. 255. 255. 255. 255. 255. 255. 0. 0. 0. 0. 0. 0. 0.
      0. 0. 0. 255. 255. 255. 255. 255. 255. 255. 255. 255. 0. 0. 0. 0.
      0. 0. 0. 0. 0. 0. 0. 255. 255. 255. 255. 255. 255. 255. 255. 255.
      0. 0. 0. 0. 0. 255. 255. 0. 0. 0. 0. 0. 255. 255. 255. 255. 255.
      255. 255. 0. 0. 0. 0. 0. 0. 255. 255. 0. 0. 0. 0. 0. 255. 255.
      255. 255. 255. 255. 255. 0. 0. 0. 0. 0. 255. 255. 255. 0. 0. 0. 0.
      0. 0. 0. 255. 255. 255. 0. 0. 0. 0. 0. 0. 0. 255. 255. 255. 255.
      255. 0. 0. 0. 0. 0. 255. 255. 255. 0. 0. 0. 0. 0. 255. 255. 255.
      255. 255. 255. 255. 0. 0. 0. 0. 0. 255. 255. 255. 0. 0. 0. 0. 0.
      255. 255. 255. 255. 255. 255. 255. 255. 0. 0. 0. 0. 0. 255. 255.
      0. 0. 0. 0. 255. 255. 255. 255. 255. 255. 255. 255. 255. 0. 0. 0.
      0. 0. 255. 255.</_>
    <_>
      255. 255. 255. 255. 255. 255. 255. 255. 255. 255. 255. 255. 255.
      255. 255. 255. 255. 255. 255. 255. 255. 255. 255. 255. 255. 255.
      255. 255. 255. 255. 255. 255. 255. 255. 255. 255. 255. 255. 255.
      255. 255. 255. 255. 255. 255. 255. 255. 255. 255. 0. 0. 0. 0. 0.
      0. 255. 255. 255. 255. 255. 255. 255. 255. 255. 255. 255. 0. 0. 0.
      0. 0. 0. 0. 0. 0. 0. 0. 255. 255. 255. 255. 255. 255. 255. 255. 0.
      0. 0. 0. 0. 0. 0. 0. 0. 0. 0. 0. 0. 255. 255. 255. 255. 255. 255.
      0. 0. 0. 0. 0. 0. 0. 0. 0. 0. 0. 0. 0. 0. 0. 255. 255. 255. 255.
      0. 0. 0. 0. 0. 0. 255. 255. 255. 255. 255. 255. 0. 0. 0. 0. 0.
      255. 255. 255. 0. 0. 0. 0. 0. 255. 255. 255. 255. 255. 255. 255.
      255. 0. 0. 0. 0. 255. 255. 255. 0. 0. 0. 0. 0. 255. 255. 255. 255.
      255. 255. 255. 255. 255. 0. 0. 0. 255. 255. 255. 0. 0. 0. 255.
      255. 255. 255. 255. 255. 255. 255. 255. 255. 255. 255. 255. 255.
      255. 255. 255. 0. 0. 0. 255. 255. 255. 255. 255. 255. 255. 255.
      255. 255. 255. 255. 255. 255. 255. 255. 255. 0. 0. 0. 255. 255.
      255. 255. 255. 255. 255. 255. 255. 255. 255. 255. 255. 255. 255.
      255. 0. 0. 0. 0. 255. 255. 255. 255. 255. 255. 255. 255. 255. 255.
      255. 255. 255. 255. 255. 255. 0. 0. 0. 0. 255. 255. 255. 255. 255.
      255. 255. 255. 255. 255. 255. 255. 255. 255. 255. 255. 0. 0. 0. 0.
      255. 255. 255. 255. 255. 255. 255. 255. 255. 255. 255. 255. 255.
      255. 255. 255. 0. 0. 0. 0. 255. 255. 255. 255. 255. 255. 255. 0.
      0. 0. 0. 0. 0. 0. 255. 255. 0. 0. 0. 0. 255. 255. 255. 255. 255.
      255. 0. 0. 0. 0. 0. 0. 0. 0. 255. 255. 0. 0. 0. 0. 255. 255. 255.
      255. 255. 255. 0. 0. 0. 0. 0. 0. 0. 0. 255. 255. 0. 0. 0. 0. 255.
      255. 255. 255. 255. 255. 255. 0. 0. 0. 0. 0. 0. 0. 255. 255. 0. 0.
      0. 0. 255. 255. 255. 255. 255. 255. 255. 255. 255. 255. 0. 0. 0.
      0. 255. 255. 0. 0. 0. 0. 255. 255. 255. 255. 255. 255. 255. 255.
      255. 255. 0. 0. 0. 0. 255. 255. 0. 0. 0. 0. 255. 255. 255. 255.
      255. 255. 255. 255. 255. 255. 0. 0. 0. 0. 255. 255. 0. 0. 0. 0.
      255. 255. 255. 255. 255. 255. 255. 255. 255. 255. 0. 0. 0. 0. 255.
      255. 0. 0. 0. 0. 255. 255. 255. 255. 255. 255. 255. 255. 255. 255.
      0. 0. 0. 0. 255. 255. 255. 0. 0. 0. 0. 0. 255. 255. 255. 255. 255.
      255. 255. 0. 0. 0. 0. 0. 255. 255. 255. 0. 0. 0. 0. 0. 0. 255.
      255. 255. 255. 0. 0. 0. 0. 0. 0. 255. 255. 255. 255. 255. 0. 0. 0.
      0. 0. 0. 0. 0. 0. 0. 0. 0. 0. 0. 255. 255. 255. 255. 255. 255.
      255. 0. 0. 0. 0. 0. 0. 0. 0. 0. 0. 0. 0. 0. 255. 255. 255. 255.
      255. 255. 255. 255. 0. 0. 0. 0. 0. 0. 0. 0. 0. 0. 255. 255. 255.
      255. 255. 255. 255. 255. 255. 255. 255. 255. 255. 0. 0. 0. 0. 255.
      255. 255. 255. 255. 255. 255.</_>
    <_>
      255. 255. 255. 255. 255. 255. 255. 255. 255. 255. 255. 255. 255.
      255. 255. 255. 255. 255. 255. 255. 255. 255. 255. 255. 255. 255.
      255. 255. 255. 255. 255. 255. 255. 255. 255. 255. 255. 255. 255.
      255. 255. 255. 255. 255. 255. 255. 255. 255. 255. 0. 0. 0. 0. 0.
      255. 255. 255. 255. 255. 255. 255. 255. 255. 255. 255. 255. 255.
      0. 0. 0. 0. 0. 0. 0. 0. 0. 255. 255. 255. 255. 255. 255. 255. 255.
      255. 0. 0. 0. 0. 0. 0. 0. 0. 0. 0. 0. 0. 255. 255. 255. 255. 255.
      255. 255. 0. 0. 0. 0. 0. 0. 0. 0. 0. 0. 0. 0. 0. 0. 255. 255. 255.
      255. 255. 255. 0. 0. 0. 0. 0. 0. 255. 255. 255. 0. 0. 0. 0. 0. 0.
      255. 255. 255. 255. 255. 0. 0. 0. 0. 255. 255. 255. 255. 255. 255.
      255. 0. 0. 0. 0. 255. 255. 255. 255. 0. 0. 0. 0. 255. 255. 255.
      255. 255. 255. 255. 255. 0. 0. 0. 0. 0. 255. 255. 255. 0. 0. 0. 0.
      255. 255. 255. 255. 255. 255. 255. 255. 255. 0. 0. 0. 0. 255. 255.
      255. 0. 0. 0. 0. 255. 255. 255. 255. 255. 255. 255. 255. 255. 0.
      0. 0. 0. 255. 255. 255. 0. 0. 0. 0. 0. 255. 255. 255. 255. 255.
      255. 255. 0. 0. 0. 0. 0. 255. 255. 255. 255. 0. 0. 0. 0. 255. 255.
      255. 255. 255. 255. 0. 0. 0. 0. 0. 255. 255. 255. 255. 255. 0. 0.
      0. 0. 0. 0. 255. 255. 255. 0. 0. 0. 0. 0. 0. 255. 255. 255. 255.
      255. 255. 0. 0. 0. 0. 0. 0. 0. 0. 0. 0. 0. 0. 0. 255. 255. 255.
      255. 255. 255. 255. 0. 0. 0. 0. 0. 0. 0. 0. 0. 0. 0. 0. 255. 255.
      255. 255. 255. 255. 255. 0. 0. 0. 0. 0. 0. 0. 0. 0. 0. 0. 0. 0. 0.
      255. 255. 255. 255. 255. 0. 0. 0. 0. 0. 0. 0. 0. 0. 0. 0. 0. 0. 0.
      0. 255. 255. 255. 255. 255. 0. 0. 0. 0. 0. 255. 255. 255. 255.
      255. 255. 0. 0. 0. 0. 0. 255. 255. 255. 255. 0. 0. 0. 0. 255. 255.
      255. 255. 255. 255. 255. 255. 0. 0. 0. 0. 255. 255. 255. 0. 0. 0.
      0. 255. 255. 255. 255. 255. 255. 255. 255. 255. 0. 0. 0. 0. 0.
      255. 255. 0. 0. 0. 0. 255. 255. 255. 255. 255. 255. 255. 255. 255.
      255. 0. 0. 0. 0. 255. 255. 0. 0. 0. 0. 255. 255. 255. 255. 255.
      255. 255. 255. 255. 255. 0. 0. 0. 0. 255. 255. 0. 0. 0. 0. 255.
      255. 255. 255. 255. 255. 255. 255. 255. 0. 0. 0. 0. 255. 255. 255.
      255. 0. 0. 0. 0. 255. 255. 255. 255. 255. 255. 255. 0. 0. 0. 0. 0.
      255. 255. 255. 255. 0. 0. 0. 0. 0. 255. 255. 255. 255. 255. 255.
      0. 0. 0. 0. 0. 255. 255. 255. 255. 255. 0. 0. 0. 0. 0. 0. 0. 0. 0.
      0. 0. 0. 0. 0. 255. 255. 255. 255. 255. 255. 0. 0. 0. 0. 0. 0. 0.
      0. 0. 0. 0. 0. 0. 255. 255. 255. 255. 255. 255. 255. 255. 0. 0. 0.
      0. 0. 0. 0. 0. 0. 0. 0. 255. 255. 255. 255. 255. 255. 255. 255.
      255. 255. 255. 0. 0. 0. 0. 0. 0. 0. 0. 255. 255. 255. 255. 255.</_>
    <_>
      255. 255. 255. 255. 255. 255. 255. 255. 255. 255. 255. 255. 255.
      255. 255. 255. 255. 255. 255. 255. 255. 255. 255. 255. 255. 255.
      255. 255. 255. 255. 255. 255. 255. 255. 255. 255. 255. 255. 255.
      255. 255. 255. 255. 255. 255. 255. 255. 255. 0. 0. 0. 0. 0. 255.
      255. 255. 255. 255. 255. 255. 255. 255. 255. 255. 255. 0. 0. 0. 0.
      0. 0. 0. 0. 0. 0. 0. 255. 255. 255. 255. 255. 255. 255. 255. 0. 0.
      0. 0. 0. 0. 0. 0. 0. 0. 0. 0. 0. 255. 255. 255. 255. 255. 255. 0.
      0. 0. 0. 0. 0. 0. 0. 0. 0. 0. 0. 0. 0. 0. 255. 255. 255. 255. 255.
      0. 0. 0. 0. 0. 0. 255. 255. 255. 0. 0. 0. 0. 0. 0. 0. 255. 255.
      255. 0. 0. 0. 0. 0. 0. 255. 255. 255. 255. 255. 255. 255. 0. 0. 0.
      0. 255. 255. 255. 0. 0. 0. 0. 255. 255. 255. 255. 255. 255. 255.
      255. 255. 255. 0. 0. 0. 0. 255. 255. 0. 0. 0. 0. 255. 255. 255.
      255. 255. 255. 255. 255. 255. 255. 0. 0. 0. 0. 255. 255. 0. 0. 0.
      255. 255. 255. 255. 255. 255. 255. 255. 255. 255. 255. 0. 0. 0. 0.
      255. 255. 0. 0. 0. 255. 255. 255. 255. 255. 255. 255. 255. 255.
      255. 255. 0. 0. 0. 0. 255. 255. 0. 0. 0. 0. 255. 255. 255. 255.
      255. 255. 255. 255. 255. 255. 0. 0. 0. 0. 255. 255. 0. 0. 0. 0.
      255. 255. 255. 255. 255. 255. 255. 255. 255. 0. 0. 0. 0. 0. 255.
      255. 0. 0. 0. 0. 0. 0. 255. 255. 255. 255. 255. 255. 255. 0. 0. 0.
      0. 0. 255. 255. 255. 0. 0. 0. 0. 0. 0. 255. 255. 255. 0. 0. 0. 0.
      0. 0. 0. 0. 255. 255. 255. 0. 0. 0. 0. 0. 0. 0. 0. 0. 0. 0. 0. 0.
      0. 0. 0. 0. 255. 255. 255. 255. 0. 0. 0. 0. 0. 0. 0. 0. 0. 0. 0.
      0. 0. 0. 0. 0. 255. 255. 255. 255. 255. 0. 0. 0. 0. 0. 0. 0. 0. 0.
      0. 0. 0. 0. 0. 0. 255. 255. 255. 255. 255. 255. 255. 255. 0. 0. 0.
      0. 0. 255. 255. 0. 0. 0. 0. 0. 255. 255. 255. 255. 255. 255. 255.
      255. 255. 255. 255. 255. 255. 255. 255. 255. 0. 0. 0. 0. 255. 255.
      255. 255. 255. 255. 255. 255. 255. 255. 255. 255. 255. 255. 255.
      0. 0. 0. 0. 0. 255. 255. 0. 0. 0. 255. 255. 255. 255. 255. 255.
      255. 255. 255. 255. 0. 0. 0. 0. 255. 0. 0. 0. 0. 0. 255. 255. 255.
      255. 255. 255. 255. 255. 255. 255. 0. 0. 0. 0. 255. 255. 255. 0.
      0. 0. 0. 255. 255. 255. 255. 255. 255. 255. 0. 0. 0. 0. 0. 0. 255.
      255. 255. 0. 0. 0. 0. 0. 0. 255. 255. 255. 255. 0. 0. 0. 0. 0. 0.
      0. 255. 255. 255. 255. 0. 0. 0. 0. 0. 0. 0. 0. 0. 0. 0. 0. 0. 0.
      0. 255. 255. 255. 255. 255. 255. 0. 0. 0. 0. 0. 0. 0. 0. 0. 0. 0.
      0. 0. 255. 255. 255. 255. 255. 255. 255. 255. 0. 0. 0. 0. 0. 0. 0.
      0. 0. 0. 0. 255. 255. 255. 255. 255. 255. 255. 255. 255. 255. 0.
      0. 0. 0. 0. 0. 0. 255. 255. 255. 255. 255. 255. 255.</_>
    <_>
      255. 255. 255. 255. 255. 255. 255. 255. 255. 255. 255. 255. 255.
      255. 255. 255. 255. 255. 255. 255. 255. 255. 255. 255. 255. 255.
      255. 255. 255. 255. 255. 255. 255. 255. 255. 255. 255. 255. 255.
      255. 255. 255. 255. 255. 255. 255. 255. 255. 255. 0. 0. 0. 0. 0.
      0. 255. 255. 255. 255. 255. 255. 255. 255. 255. 255. 255. 255. 0.
      0. 0. 0. 0. 0. 0. 0. 0. 0. 255. 255. 255. 255. 255. 255. 255. 255.
      255. 0. 0. 0. 0. 0. 0. 0. 0. 0. 0. 0. 0. 255. 255. 255. 255. 255.
      255. 255. 0. 0. 0. 0. 0. 0. 0. 0. 0. 0. 0. 0. 0. 0. 255. 255. 255.
      255. 255. 255. 0. 0. 0. 0. 255. 255. 255. 255. 255. 255. 0. 0. 0.
      0. 255. 255. 255. 255. 255. 0. 0. 0. 0. 255. 255. 255. 255. 255.
      255. 255. 255. 0. 0. 0. 0. 255. 255. 255. 255. 0. 0. 0. 0. 255.
      255. 255. 255. 255. 255. 255. 255. 0. 0. 0. 0. 255. 255. 255. 255.
      0. 0. 0. 0. 255. 255. 255. 255. 255. 255. 255. 255. 0. 0. 0. 0.
      255. 255. 255. 255. 0. 0. 0. 0. 255. 255. 255. 255. 255. 255. 255.
      255. 0. 0. 0. 0. 255. 255. 255. 255. 0. 0. 0. 0. 255. 255. 255.
      255. 255. 255. 255. 255. 0. 0. 0. 0. 255. 255. 255. 255. 255. 0.
      0. 0. 0. 255. 255. 255. 255. 255. 255. 0. 0. 0. 0. 255. 255. 255.
      255. 255. 255. 0. 0. 0. 0. 0. 0. 0. 0. 0. 0. 0. 0. 0. 0. 255. 255.
      255. 0. 0. 255. 255. 0. 0. 0. 0. 0. 0. 0. 0. 0. 0. 0. 0. 255. 255.
      255. 255. 0. 0. 0. 255. 0. 0. 0. 0. 0. 0. 0. 0. 0. 0. 0. 0. 255.
      255. 255. 255. 0. 0. 0. 0. 0. 0. 0. 0. 0. 0. 0. 0. 0. 0. 0. 0.
      255. 255. 255. 255. 255. 0. 0. 0. 0. 0. 0. 0. 255. 255. 255. 0. 0.
      0. 0. 0. 0. 255. 255. 255. 255. 255. 0. 0. 0. 0. 255. 255. 255.
      255. 255. 255. 255. 0. 0. 0. 0. 255. 255. 255. 255. 0. 0. 0. 0.
      255. 255. 255. 255. 255. 255. 255. 255. 255. 0. 0. 0. 0. 255. 255.
      255. 0. 0. 0. 0. 255. 255. 255. 255. 255. 255. 255. 255. 255. 0.
      0. 0. 0. 255. 255. 255. 0. 0. 0. 0. 255. 255. 255. 255. 255. 255.
      255. 255. 255. 255. 0. 0. 0. 255. 255. 255. 0. 0. 0. 0. 255. 255.
      255. 255. 255. 255. 255. 255. 255. 0. 0. 0. 0. 255. 255. 255. 0.
      0. 0. 0. 255. 255. 255. 255. 255. 255. 255. 255. 255. 0. 0. 0. 0.
      255. 255. 255. 255. 0. 0. 0. 0. 255. 255. 255. 255. 255. 255. 255.
      0. 0. 0. 0. 0. 255. 255. 255. 255. 0. 0. 0. 0. 0. 255. 255. 255.
      255. 255. 0. 0. 0. 0. 0. 255. 255. 255. 255. 255. 255. 0. 0. 0. 0.
      0. 0. 0. 0. 0. 0. 0. 0. 0. 0. 255. 255. 255. 255. 255. 255. 0. 0.
      0. 0. 0. 0. 0. 0. 0. 0. 0. 0. 0. 255. 255. 255. 255. 255. 255.
      255. 255. 0. 0. 0. 0. 0. 0. 0. 0. 0. 0. 0. 255. 255. 255. 255.
      255. 255. 255. 255. 255. 255. 255. 0. 0. 0. 0. 0. 0. 0. 255. 255.
      255. 255. 255.</_>
    <_>
      255. 255. 255. 255. 255. 255. 255. 255. 255. 255. 255. 255. 255.
      255. 255. 255. 255. 255. 255. 255. 255. 255. 255. 255. 255. 255.
      255. 255. 255. 255. 255. 255. 255. 255. 255. 255. 255. 255. 255.
      255. 255. 255. 255. 255. 255. 255. 255. 255. 255. 255. 255. 255.
      0. 0. 0. 0. 255. 255. 255. 255. 255. 255. 255. 255. 255. 255. 255.
      255. 255. 255. 255. 0. 0. 0. 0. 0. 255. 255. 255. 255. 255. 255.
      255. 255. 255. 255. 255. 255. 255. 255. 255. 0. 0. 0. 0. 0. 255.
      255. 255. 255. 255. 255. 255. 255. 255. 255. 255. 255. 255. 255.
      0. 0. 0. 0. 0. 255. 255. 255. 255. 255. 255. 255. 255. 255. 255.
      255. 255. 255. 255. 255. 0. 0. 0. 0. 0. 255. 255. 255. 255. 255.
      255. 255. 255. 255. 255. 255. 255. 255. 255. 0. 0. 0. 0. 255. 255.
      255. 255. 255. 255. 255. 255. 255. 255. 255. 255. 255. 255. 255.
      255. 0. 0. 0. 0. 255. 255. 255. 255. 255. 255. 255. 255. 255. 255.
      255. 255. 255. 255. 255. 0. 0. 0. 0. 0. 255. 255. 255. 255. 255.
      255. 255. 255. 255. 255. 255. 255. 255. 255. 255. 0. 0. 0. 0. 255.
      255. 255. 255. 255. 255. 255. 255. 255. 255. 255. 255. 255. 255.
      0. 0. 0. 0. 0. 0. 255. 255. 255. 255. 255. 255. 255. 255. 255.
      255. 255. 255. 255. 255. 0. 0. 0. 0. 0. 255. 255. 255. 255. 255.
      255. 255. 255. 255. 255. 255. 255. 255. 255. 255. 0. 0. 0. 0. 0.
      255. 255. 255. 255. 255. 255. 255. 255. 255. 255. 255. 255. 255.
      255. 0. 0. 0. 0. 0. 255. 255. 255. 255. 255. 255. 255. 255. 255.
      255. 255. 255. 255. 255. 255. 0. 0. 0. 0. 0. 255. 255. 255. 255.
      255. 255. 255. 255. 255. 255. 255. 255. 255. 255. 0. 0. 0. 0. 0.
      255. 255. 255. 255. 255. 255. 255. 255. 255. 255. 255. 255. 255.
      255. 255. 0. 0. 0. 0. 0. 255. 255. 255. 255. 0. 0. 0. 0. 0. 255.
      255. 255. 255. 255. 0. 0. 0. 0. 0. 0. 255. 255. 255. 255. 0. 0. 0.
      0. 0. 255. 255. 255. 255. 255. 0. 0. 0. 0. 0. 255. 255. 255. 255.
      255. 0. 0. 0. 0. 0. 255. 255. 255. 255. 0. 0. 0. 0. 0. 0. 255.
      255. 255. 255. 255. 0. 0. 0. 0. 0. 255. 255. 255. 255. 0. 0. 0. 0.
      255. 255. 255. 255. 255. 255. 255. 0. 0. 0. 0. 0. 255. 255. 255.
      255. 0. 0. 0. 0. 0. 0. 0. 0. 0. 255. 0. 0. 0. 0. 0. 0. 255. 255.
      255. 255. 0. 0. 0. 0. 0. 0. 0. 0. 0. 0. 0. 0. 0. 0. 0. 0. 0. 0.
      255. 255. 0. 0. 0. 0. 0. 0. 0. 0. 0. 0. 0. 0. 0. 0. 0. 0. 0. 0.
      255. 255. 0. 0. 0. 0. 0. 0. 0. 0. 0. 0. 0. 0. 0. 0. 0. 0. 0. 0.
      255. 255. 255. 255. 255. 255. 255. 255. 255. 255. 255. 255. 0. 0.
      0. 0. 0. 0. 0. 255. 255. 255. 255. 255. 255. 255. 255. 255. 255.
      255. 255. 255. 255. 0. 0. 0. 0. 255. 255. 255. 255. 255. 255. 255.
      255. 255. 255. 255. 255. 255. 255. 255. 255. 0. 0. 0. 0. 255. 255.
      255. 255. 255. 255. 255. 255. 255. 255. 255. 255. 255. 255. 255.
      255. 0. 0. 0. 0. 255. 255. 255.</_>
    <_>
      255. 255. 255. 255. 0. 255. 255. 255. 255. 255. 255. 255. 255.
      255. 255. 255. 255. 255. 255. 255. 255. 255. 255. 0. 0. 0. 0. 0.
      0. 0. 0. 0. 0. 0. 0. 0. 0. 0. 0. 0. 255. 255. 255. 0. 0. 0. 0. 0.
      0. 0. 0. 0. 0. 0. 0. 0. 0. 0. 0. 0. 255. 255. 255. 0. 0. 0. 0. 0.
      0. 0. 0. 0. 0. 0. 0. 0. 0. 0. 0. 0. 255. 255. 255. 0. 0. 0. 0. 0.
      0. 0. 0. 0. 0. 0. 0. 0. 0. 0. 0. 0. 255. 255. 255. 0. 0. 0. 0. 0.
      0. 0. 0. 0. 0. 0. 255. 0. 0. 0. 0. 0. 255. 255. 255. 0. 0. 0. 0.
      0. 0. 0. 0. 0. 0. 0. 0. 0. 0. 0. 0. 0. 255. 255. 255. 0. 0. 0. 0.
      0. 0. 0. 0. 0. 0. 0. 0. 0. 0. 0. 0. 0. 255. 255. 255. 0. 0. 0. 0.
      0. 0. 0. 0. 0. 0. 0. 0. 0. 0. 0. 0. 0. 255. 255. 255. 0. 0. 0. 0.
      0. 0. 0. 0. 0. 0. 0. 0. 0. 0. 0. 0. 0. 255. 255. 255. 0. 0. 0. 0.
      0. 0. 0. 0. 0. 0. 0. 0. 0. 0. 0. 0. 0. 255. 255. 255. 0. 0. 0. 0.
      0. 0. 0. 0. 0. 0. 0. 0. 0. 0. 0. 0. 0. 255. 255. 255. 0. 0. 0. 0.
      0. 0. 0. 0. 0. 0. 0. 0. 0. 0. 0. 0. 0. 255. 255. 255. 0. 0. 0. 0.
      0. 0. 0. 0. 0. 0. 0. 0. 0. 0. 0. 0. 0. 255. 255. 255. 0. 0. 0. 0.
      0. 0. 0. 0. 0. 0. 0. 0. 0. 0. 0. 0. 0. 255. 255. 255. 0. 0. 0. 0.
      0. 0. 0. 0. 0. 0. 0. 0. 0. 0. 0. 0. 0. 255. 255. 255. 0. 0. 0. 0.
      0. 0. 0. 0. 0. 0. 0. 0. 0. 0. 0. 0. 255. 255. 255. 255. 0. 0. 0.
      0. 0. 0. 0. 0. 0. 0. 0. 0. 0. 0. 0. 0. 255. 255. 255. 255. 0. 0.
      0. 0. 0. 0. 0. 0. 0. 0. 0. 0. 0. 0. 0. 0. 255. 255. 255. 255. 0.
      0. 0. 0. 0. 255. 255. 0. 0. 0. 0. 0. 0. 0. 0. 0. 255. 255. 255. 0.
      0. 0. 0. 0. 255. 255. 255. 0. 0. 255. 255. 0. 0. 0. 0. 0. 255.
      255. 255. 0. 0. 0. 0. 0. 255. 255. 255. 255. 255. 0. 0. 0. 0. 0.
      0. 0. 255. 255. 255. 0. 0. 0. 0. 0. 255. 255. 255. 255. 255. 255.
      0. 0. 0. 0. 0. 0. 255. 255. 255. 0. 0. 0. 0. 0. 255. 255. 0. 0. 0.
      0. 0. 0. 0. 0. 0. 0. 255. 255. 255. 0. 0. 0. 0. 0. 255. 255. 255.
      255. 255. 255. 255. 0. 0. 0. 0. 0. 255. 255. 255. 0. 0. 0. 0. 0.
      0. 0. 0. 0. 0. 0. 0. 0. 0. 0. 0. 0. 255. 255. 255. 0. 0. 0. 0. 0.
      0. 0. 0. 0. 0. 0. 0. 0. 0. 0. 0. 0. 255. 255. 255. 0. 0. 0. 0. 0.
      0. 0. 0. 0. 0. 0. 0. 0. 0. 0. 0. 0. 255. 255. 255. 0. 0. 0. 0. 0.
      0. 0. 0. 0. 0. 0. 0. 0. 0. 0. 0. 0. 255. 255. 255. 0. 0. 0. 0. 0.
      0. 0. 0. 0. 0. 0. 0. 0. 0. 0. 0. 0. 255.</_>
    <_>
      255. 255. 255. 255. 255. 255. 255. 255. 255. 255. 255. 255. 255.
      255. 255. 255. 255. 255. 255. 255. 255. 255. 255. 255. 255. 255.
      255. 255. 255. 255. 255. 255. 255. 255. 255. 255. 255. 255. 255.
      255. 255. 255. 255. 255. 0. 0. 0. 0. 0. 0. 0. 0. 0. 0. 0. 0. 0. 0.
      0. 0. 255. 255. 255. 255. 0. 0. 0. 0. 0. 0. 0. 0. 0. 0. 0. 0. 0.
      0. 0. 0. 255. 255. 255. 255. 0. 0. 0. 0. 0. 0. 0. 0. 0. 0. 0. 0.
      0. 0. 0. 0. 255. 255. 255. 255. 255. 255. 255. 255. 255. 255. 255.
      255. 255. 255. 255. 0. 0. 0. 0. 0. 255. 255. 255. 255. 255. 255.
      255. 255. 255. 255. 255. 255. 255. 255. 255. 0. 0. 0. 0. 255. 255.
      255. 255. 255. 255. 255. 255. 255. 255. 255. 255. 255. 255. 255.
      255. 0. 0. 0. 0. 255. 255. 255. 255. 255. 255. 255. 255. 255. 255.
      255. 255. 255. 255. 255. 0. 0. 0. 0. 255. 255. 255. 255. 255. 255.
      255. 255. 255. 255. 255. 255. 255. 255. 255. 0. 0. 0. 0. 0. 255.
      255. 255. 255. 255. 255. 255. 255. 255. 255. 255. 255. 255. 255.
      0. 0. 0. 0. 0. 255. 255. 255. 255. 255. 255. 255. 255. 255. 255.
      255. 255. 255. 255. 255. 0. 0. 0. 0. 255. 255. 255. 255. 255. 255.
      255. 255. 255. 255. 255. 255. 255. 255. 0. 0. 0. 0. 0. 255. 255.
      255. 255. 255. 255. 255. 255. 255. 255. 255. 255. 255. 255. 255.
      0. 0. 0. 0. 0. 255. 255. 255. 255. 255. 255. 255. 255. 255. 255.
      255. 255. 255. 255. 0. 0. 0. 0. 0. 0. 255. 255. 255. 255. 255.
      255. 255. 255. 255. 255. 255. 255. 255. 0. 0. 0. 0. 0. 0. 255.
      255. 255. 255. 0. 0. 255. 255. 255. 255. 255. 255. 255. 255. 0. 0.
      0. 0. 0. 255. 255. 255. 255. 255. 0. 0. 255. 255. 255. 255. 255.
      255. 255. 0. 0. 0. 0. 0. 255. 255. 255. 255. 255. 255. 255. 255.
      255. 255. 255. 255. 255. 255. 0. 0. 0. 0. 255. 255. 255. 255. 255.
      255. 255. 255. 255. 255. 255. 255. 255. 255. 255. 255. 0. 0. 0. 0.
      255. 255. 255. 255. 255. 255. 255. 255. 255. 255. 255. 255. 255.
      255. 255. 0. 0. 0. 0. 0. 255. 255. 255. 255. 255. 255. 255. 255.
      255. 255. 255. 255. 255. 255. 255. 0. 0. 0. 0. 255. 255. 255. 255.
      255. 255. 255. 255. 255. 255. 255. 255. 255. 255. 255. 0. 0. 0. 0.
      255. 255. 255. 255. 255. 255. 255. 255. 255. 255. 255. 255. 255.
      255. 255. 0. 0. 0. 0. 255. 255. 255. 255. 255. 255. 255. 255. 255.
      255. 255. 255. 255. 255. 255. 255. 0. 0. 0. 0. 255. 255. 255. 255.
      255. 255. 255. 255. 255. 255. 255. 255. 255. 255. 255. 255. 0. 0.
      0. 0. 255. 255. 255. 255. 255. 255. 255. 255. 255. 255. 255. 255.
      255. 255. 255. 0. 0. 0. 0. 0. 0. 0. 0. 0. 0. 0. 0. 0. 0. 0. 0.
      255. 255. 255. 255. 0. 0. 0. 0. 0. 0. 0. 0. 0. 0. 0. 0. 0. 0. 0.
      0. 255. 255. 255. 255. 0. 0. 0. 0. 0. 0. 0. 0. 0. 0. 0. 0. 0. 0.
      0. 0. 255. 255. 255. 255. 255. 255. 255. 255. 255. 0. 0. 255. 255.
      255. 255. 255. 255. 255. 0. 255. 255. 255.</_>
    <_>
      255. 255. 255. 255. 255. 255. 255. 255. 255. 255. 255. 255. 255.
      255. 255. 255. 255. 255. 255. 255. 255. 255. 255. 255. 255. 255.
      255. 255. 255. 255. 255. 255. 255. 255. 255. 255. 255. 255. 255.
      255. 255. 255. 0. 0. 0. 0. 0. 0. 0. 0. 0. 0. 0. 0. 0. 0. 0. 0. 0.
      0. 255. 255. 0. 0. 0. 0. 0. 0. 0. 0. 0. 0. 0. 0. 0. 0. 0. 0. 0. 0.
      255. 255. 0. 0. 0. 0. 0. 0. 0. 0. 0. 0. 0. 0. 0. 0. 0. 0. 0. 0.
      255. 255. 255. 255. 255. 255. 255. 255. 255. 0. 0. 0. 0. 255. 255.
      255. 255. 255. 255. 255. 255. 255. 255. 255. 255. 255. 255. 255.
      255. 0. 0. 0. 0. 255. 255. 255. 255. 255. 255. 255. 255. 255. 255.
      255. 255. 255. 255. 255. 255. 0. 0. 0. 0. 255. 255. 255. 255. 255.
      255. 255. 255. 255. 255. 255. 255. 255. 255. 255. 255. 0. 0. 0. 0.
      255. 255. 255. 255. 255. 255. 255. 255. 255. 255. 255. 255. 255.
      255. 255. 255. 0. 0. 0. 0. 255. 255. 255. 255. 255. 255. 255. 255.
      255. 255. 255. 255. 255. 255. 255. 255. 0. 0. 0. 0. 255. 255. 255.
      255. 255. 255. 255. 255. 255. 255. 255. 255. 255. 255. 255. 255.
      0. 0. 0. 0. 255. 255. 255. 255. 255. 255. 255. 255. 255. 255. 255.
      255. 255. 255. 255. 255. 0. 0. 0. 255. 255. 255. 255. 255. 255.
      255. 255. 255. 255. 255. 255. 255. 255. 255. 255. 255. 0. 0. 0.
      255. 255. 255. 255. 255. 255. 255. 255. 255. 255. 255. 255. 255.
      255. 255. 255. 255. 0. 0. 0. 255. 255. 255. 255. 255. 255. 255.
      255. 255. 255. 255. 255. 255. 255. 255. 255. 255. 0. 0. 0. 255.
      255. 255. 255. 255. 255. 255. 255. 255. 255. 255. 255. 255. 255.
      255. 255. 255. 0. 0. 0. 255. 255. 255. 255. 255. 255. 255. 255.
      255. 255. 255. 255. 255. 255. 255. 255. 255. 0. 0. 0. 255. 255.
      255. 255. 255. 255. 255. 255. 255. 255. 255. 255. 255. 255. 255.
      255. 0. 0. 0. 0. 255. 255. 255. 255. 255. 255. 255. 255. 255. 255.
      255. 255. 255. 255. 255. 255. 0. 0. 0. 0. 255. 255. 255. 255. 255.
      255. 255. 255. 255. 255. 255. 255. 255. 255. 255. 255. 0. 0. 0. 0.
      255. 255. 255. 255. 255. 255. 255. 255. 255. 255. 255. 255. 255.
      255. 255. 255. 0. 0. 0. 0. 255. 255. 255. 255. 255. 255. 255. 255.
      255. 255. 255. 255. 255. 255. 255. 255. 0. 0. 0. 0. 255. 255. 255.
      255. 255. 255. 255. 255. 255. 255. 255. 255. 255. 255. 255. 255.
      0. 0. 0. 0. 255. 255. 255. 255. 255. 255. 255. 255. 255. 255. 255.
      255. 255. 255. 255. 255. 0. 0. 0. 0. 255. 255. 255. 255. 255. 255.
      255. 255. 255. 255. 255. 255. 255. 255. 255. 255. 0. 0. 0. 0. 255.
      255. 255. 255. 255. 255. 255. 255. 255. 255. 255. 255. 255. 255.
      255. 255. 0. 0. 0. 0. 255. 255. 255. 255. 255. 255. 255. 255. 255.
      255. 255. 255. 255. 255. 255. 255. 0. 0. 0. 255. 255. 255. 255.
      255. 255. 255. 255. 255. 255. 255. 255. 255. 255. 255. 255. 255.
      0. 0. 0. 255. 255. 255. 255. 255. 255. 255. 255. 255. 255. 255.
      255. 255. 255. 255. 255. 255. 255. 255. 0. 255. 255. 255. 255.
      255. 255. 255. 255. 255.</_>
    <_>
      255. 255. 255. 255. 255. 255. 255. 255. 255. 255. 255. 255. 255.
      255. 255. 255. 255. 255. 255. 255. 255. 255. 255. 255. 255. 255.
      255. 255. 255. 255. 255. 255. 255. 255. 255. 255. 255. 255. 255.
      255. 255. 255. 255. 0. 0. 0. 0. 0. 0. 0. 0. 255. 255. 255. 255.
      255. 255. 255. 255. 255. 255. 255. 255. 0. 0. 0. 0. 0. 0. 0. 0. 0.
      0. 0. 0. 0. 0. 0. 255. 255. 255. 255. 255. 0. 0. 0. 0. 0. 0. 0. 0.
      0. 0. 0. 0. 0. 0. 0. 0. 255. 255. 255. 255. 0. 0. 0. 0. 0. 255.
      255. 255. 255. 255. 0. 0. 0. 0. 0. 0. 0. 255. 255. 255. 0. 0. 0.
      255. 255. 255. 255. 255. 255. 255. 255. 255. 255. 0. 0. 0. 0. 255.
      255. 255. 0. 0. 0. 255. 255. 255. 255. 255. 255. 255. 255. 255.
      255. 0. 0. 0. 0. 255. 255. 255. 0. 0. 0. 255. 255. 255. 255. 255.
      255. 255. 255. 255. 255. 0. 0. 0. 0. 255. 255. 255. 0. 0. 0. 255.
      255. 255. 255. 255. 255. 255. 255. 255. 255. 0. 0. 0. 0. 255. 255.
      255. 0. 0. 0. 255. 255. 255. 255. 255. 255. 255. 255. 255. 255.
      255. 0. 0. 0. 255. 255. 255. 0. 0. 0. 255. 255. 255. 255. 255.
      255. 255. 255. 255. 255. 0. 0. 0. 0. 255. 255. 255. 0. 0. 0. 255.
      255. 255. 255. 255. 255. 255. 255. 255. 255. 0. 0. 0. 0. 255. 255.
      0. 0. 0. 0. 255. 255. 255. 255. 255. 255. 255. 255. 255. 255. 0.
      0. 0. 0. 255. 255. 0. 0. 0. 0. 255. 255. 255. 255. 255. 255. 255.
      255. 255. 255. 0. 0. 0. 0. 255. 255. 0. 0. 0. 0. 255. 255. 255.
      255. 255. 255. 255. 255. 255. 255. 0. 0. 0. 0. 255. 255. 0. 0. 0.
      0. 255. 255. 255. 255. 255. 255. 255. 255. 255. 255. 0. 0. 0. 0.
      255. 255. 0. 0. 0. 0. 255. 255. 255. 255. 255. 255. 255. 255. 255.
      255. 0. 0. 0. 0. 255. 255. 0. 0. 0. 0. 255. 255. 255. 255. 255.
      255. 255. 255. 255. 255. 0. 0. 0. 0. 255. 255. 0. 0. 0. 0. 255.
      255. 255. 255. 255. 255. 255. 255. 255. 255. 0. 0. 0. 0. 255. 255.
      0. 0. 0. 0. 255. 255. 255. 255. 255. 255. 255. 255. 255. 255. 0.
      0. 0. 0. 255. 255. 0. 0. 0. 0. 255. 255. 255. 255. 255. 255. 255.
      255. 255. 255. 0. 0. 0. 0. 255. 255. 0. 0. 0. 0. 255. 255. 255.
      255. 255. 255. 255. 255. 255. 255. 0. 0. 0. 0. 255. 255. 0. 0. 0.
      0. 255. 255. 255. 255. 255. 255. 255. 255. 255. 255. 0. 0. 0. 0.
      255. 255. 0. 0. 0. 0. 255. 255. 255. 255. 255. 255. 255. 255. 255.
      255. 0. 0. 0. 255. 255. 255. 0. 0. 0. 0. 255. 255. 255. 255. 255.
      255. 255. 255. 255. 0. 0. 0. 0. 255. 255. 255. 0. 0. 0. 0. 255.
      255. 255. 255. 255. 255. 255. 0. 0. 0. 0. 0. 0. 255. 255. 255. 0.
      0. 0. 0. 0. 0. 0. 0. 0. 0. 0. 0. 0. 0. 0. 0. 255. 255. 255. 255.
      0. 0. 0. 0. 0. 0. 0. 0. 0. 0. 0. 0. 0. 0. 0. 255. 255. 255. 255.
      255. 255. 0. 0. 0. 0. 0. 0. 0. 0. 0. 0. 0. 0. 255. 255. 255. 255.
      255.</_>
    <_>
      255. 255. 255. 255. 255. 255. 255. 255. 255. 255. 255. 255. 255.
      255. 255. 255. 255. 255. 255. 255. 255. 255. 255. 255. 255. 255.
      255. 255. 255. 255. 255. 255. 255. 255. 255. 255. 255. 255. 255.
      255. 255. 255. 255. 0. 0. 0. 0. 0. 0. 0. 0. 0. 0. 255. 255. 255.
      255. 255. 255. 255. 255. 255. 255. 0. 0. 0. 0. 0. 0. 0. 0. 0. 0.
      0. 0. 0. 0. 0. 255. 255. 255. 255. 255. 0. 0. 0. 0. 0. 0. 0. 0. 0.
      0. 0. 0. 0. 0. 0. 255. 255. 255. 255. 255. 0. 0. 0. 255. 255. 255.
      255. 255. 255. 255. 255. 255. 255. 255. 255. 255. 255. 255. 255.
      255. 0. 0. 0. 255. 255. 255. 255. 255. 255. 255. 255. 255. 255.
      255. 255. 255. 255. 255. 255. 255. 0. 0. 0. 255. 255. 255. 255.
      255. 255. 255. 255. 255. 255. 255. 255. 255. 255. 255. 255. 0. 0.
      0. 0. 255. 255. 255. 255. 255. 255. 255. 255. 255. 255. 255. 255.
      255. 255. 255. 255. 0. 0. 0. 0. 255. 255. 255. 255. 255. 255. 255.
      255. 255. 255. 255. 255. 255. 255. 255. 255. 0. 0. 0. 0. 255. 255.
      255. 255. 255. 255. 255. 255. 255. 255. 255. 255. 255. 255. 255.
      255. 0. 0. 0. 0. 255. 255. 255. 255. 255. 255. 255. 255. 255. 255.
      255. 255. 255. 255. 255. 255. 0. 0. 0. 0. 255. 255. 255. 0. 0. 0.
      0. 255. 255. 255. 255. 255. 255. 255. 255. 255. 0. 0. 0. 0. 255.
      255. 255. 0. 0. 0. 0. 255. 255. 255. 255. 255. 255. 255. 255. 255.
      0. 0. 0. 0. 0. 0. 0. 0. 0. 0. 0. 0. 0. 0. 255. 255. 255. 255. 255.
      255. 0. 0. 0. 0. 0. 0. 0. 0. 0. 0. 0. 0. 0. 0. 0. 0. 255. 255.
      255. 255. 255. 0. 0. 0. 0. 0. 0. 0. 255. 255. 0. 0. 0. 0. 0. 0.
      255. 255. 255. 255. 255. 255. 255. 0. 0. 0. 255. 255. 255. 255.
      255. 255. 255. 0. 0. 0. 0. 255. 255. 255. 255. 255. 255. 255. 255.
      255. 255. 255. 255. 255. 255. 255. 255. 255. 0. 0. 0. 255. 255.
      255. 255. 255. 255. 255. 255. 255. 255. 255. 255. 255. 255. 255.
      255. 255. 0. 0. 0. 255. 255. 255. 255. 255. 255. 255. 255. 255.
      255. 255. 255. 255. 255. 255. 255. 255. 0. 0. 0. 0. 255. 255. 255.
      255. 255. 255. 255. 255. 255. 255. 255. 255. 255. 255. 255. 255.
      0. 0. 0. 0. 255. 255. 255. 255. 255. 255. 255. 255. 255. 255. 255.
      255. 255. 255. 255. 255. 0. 0. 0. 0. 255. 255. 255. 255. 255. 255.
      255. 255. 255. 255. 255. 255. 255. 255. 255. 255. 0. 0. 0. 255.
      255. 255. 255. 255. 255. 255. 0. 0. 255. 255. 255. 255. 255. 255.
      255. 0. 0. 0. 0. 255. 255. 255. 255. 255. 255. 255. 0. 0. 255.
      255. 255. 255. 255. 255. 255. 0. 0. 0. 0. 255. 255. 255. 255. 255.
      0. 0. 0. 0. 0. 255. 255. 255. 255. 0. 0. 0. 0. 0. 0. 255. 255.
      255. 255. 255. 0. 0. 0. 0. 0. 0. 0. 0. 0. 0. 0. 0. 0. 0. 255. 255.
      255. 255. 255. 255. 255. 0. 0. 0. 0. 0. 0. 0. 0. 0. 0. 0. 0. 255.
      255. 255. 255. 255. 255. 255. 255. 255. 255. 255. 0. 0. 0. 0. 0.
      0. 0. 255. 255. 255. 255. 255.</_>
    <_>
      255. 255. 255. 255. 255. 255. 255. 255. 255. 255. 255. 255. 255.
      255. 255. 255. 255. 255. 255. 255. 255. 255. 255. 255. 255. 255.
      255. 255. 255. 255. 255. 255. 255. 255. 255. 255. 255. 255. 255.
      255. 255. 255. 255. 255. 255. 255. 255. 255. 255. 0. 0. 0. 0. 0.
      0. 0. 0. 0. 0. 0. 255. 255. 255. 255. 255. 255. 0. 0. 0. 0. 0. 0.
      0. 0. 0. 0. 0. 0. 0. 0. 255. 255. 255. 0. 0. 0. 0. 0. 0. 0. 0. 0.
      0. 0. 0. 0. 0. 0. 0. 0. 0. 0. 0. 0. 0. 0. 0. 0. 0. 0. 0. 0. 0. 0.
      0. 0. 0. 0. 0. 0. 0. 0. 0. 0. 0. 0. 0. 0. 0. 0. 0. 0. 0. 0. 0. 0.
      0. 0. 0. 0. 0. 0. 0. 0. 0. 0. 0. 0. 0. 0. 0. 0. 0. 0. 0. 0. 0. 0.
      0. 0. 255. 255. 255. 255. 255. 255. 255. 255. 255. 255. 255. 255.
      0. 0. 0. 0. 0. 0. 0. 0. 255. 255. 255. 255. 255. 255. 255. 255.
      255. 255. 255. 255. 0. 0. 0. 0. 0. 0. 0. 0. 255. 255. 255. 255.
      255. 255. 255. 255. 255. 255. 255. 255. 0. 0. 0. 0. 0. 0. 0. 0.
      255. 255. 255. 255. 255. 255. 255. 255. 255. 255. 255. 255. 0. 0.
      0. 0. 0. 0. 0. 0. 255. 255. 255. 255. 255. 255. 255. 255. 255.
      255. 255. 255. 0. 0. 0. 0. 0. 0. 0. 0. 255. 255. 255. 255. 255.
      255. 255. 255. 255. 255. 255. 255. 0. 0. 0. 0. 0. 0. 0. 0. 255.
      255. 255. 255. 255. 255. 255. 255. 255. 255. 255. 255. 0. 0. 0. 0.
      0. 0. 0. 0. 255. 255. 255. 255. 255. 255. 255. 255. 255. 255. 255.
      255. 0. 0. 0. 0. 0. 0. 0. 0. 255. 255. 255. 255. 255. 255. 255.
      255. 255. 255. 255. 255. 0. 0. 0. 0. 0. 0. 0. 0. 255. 255. 255.
      255. 255. 255. 255. 255. 255. 255. 255. 255. 0. 0. 0. 0. 0. 0. 0.
      0. 255. 255. 255. 255. 255. 255. 255. 255. 255. 255. 255. 255. 0.
      0. 0. 0. 0. 0. 0. 0. 255. 255. 255. 255. 255. 255. 255. 255. 255.
      255. 255. 255. 0. 0. 0. 0. 0. 0. 0. 0. 255. 255. 255. 255. 255.
      255. 255. 255. 255. 255. 255. 255. 0. 0. 0. 0. 0. 0. 0. 0. 255.
      255. 255. 255. 255. 255. 255. 255. 255. 255. 255. 255. 0. 0. 0. 0.
      0. 0. 0. 0. 255. 255. 255. 255. 255. 255. 255. 255. 255. 255. 255.
      255. 0. 0. 0. 0. 0. 0. 0. 0. 255. 255. 255. 255. 255. 255. 255.
      255. 255. 255. 255. 255. 0. 0. 0. 0. 0. 0. 0. 0. 255. 255. 255.
      255. 255. 255. 255. 255. 255. 255. 255. 255. 0. 0. 0. 0. 0. 0. 0.
      0. 255. 255. 255. 255. 255. 255. 255. 255. 255. 255. 255. 255. 0.
      0. 0. 0. 0. 0. 0. 0. 255. 255. 255. 255. 255. 255. 255. 255. 255.
      255. 255. 255. 0. 0. 0. 0. 0. 0. 0. 0. 255. 255. 255. 255. 255.
      255. 255. 255. 255. 255. 255. 255. 0. 0. 0. 0. 0. 0. 0. 0. 255.
      255. 255. 255. 255. 255. 255. 255. 255. 255. 255. 255. 0. 0. 0. 0.
      0. 0. 0. 0. 255. 255. 255. 255. 255. 255. 255. 255. 255. 255. 255.
      255. 0. 0. 0. 0. 0. 0. 0. 0.</_>
    <_>
      255. 255. 0. 255. 255. 255. 255. 255. 255. 255. 255. 255. 255.
      255. 255. 255. 255. 255. 255. 255. 255. 255. 0. 255. 255. 255.
      255. 255. 255. 255. 255. 255. 255. 255. 255. 255. 255. 255. 255.
      255. 255. 255. 0. 0. 0. 0. 0. 0. 0. 0. 0. 0. 0. 0. 0. 0. 255. 255.
      255. 255. 255. 255. 0. 0. 0. 0. 0. 0. 0. 0. 0. 0. 0. 0. 0. 0. 0.
      0. 0. 0. 255. 255. 0. 0. 0. 0. 0. 0. 0. 0. 0. 0. 0. 0. 0. 0. 0. 0.
      0. 0. 255. 255. 0. 0. 0. 255. 255. 255. 255. 255. 255. 255. 255.
      255. 255. 0. 0. 0. 0. 0. 255. 255. 0. 0. 0. 255. 255. 255. 255.
      255. 255. 255. 255. 255. 255. 0. 0. 0. 0. 255. 255. 255. 0. 0. 0.
      255. 255. 255. 255. 255. 255. 255. 255. 255. 255. 0. 0. 0. 0. 255.
      255. 255. 255. 0. 0. 255. 255. 255. 255. 255. 255. 255. 255. 0. 0.
      0. 0. 0. 0. 255. 255. 255. 255. 255. 255. 255. 255. 255. 255. 255.
      255. 255. 255. 0. 0. 0. 0. 0. 255. 255. 255. 255. 255. 255. 255.
      255. 255. 255. 255. 255. 255. 255. 0. 0. 0. 0. 0. 0. 255. 255.
      255. 255. 255. 255. 255. 255. 255. 255. 255. 255. 255. 255. 0. 0.
      0. 0. 0. 255. 255. 255. 255. 255. 255. 255. 255. 255. 255. 255.
      255. 255. 255. 0. 0. 0. 0. 0. 255. 255. 255. 255. 255. 255. 255.
      255. 255. 255. 255. 255. 255. 255. 255. 0. 0. 0. 0. 0. 255. 255.
      255. 255. 255. 255. 255. 255. 255. 255. 255. 255. 255. 255. 0. 0.
      0. 0. 0. 0. 255. 255. 255. 255. 255. 255. 255. 255. 255. 255. 255.
      255. 255. 255. 0. 0. 0. 0. 0. 255. 255. 255. 255. 255. 255. 255.
      255. 255. 255. 255. 255. 255. 255. 0. 0. 0. 0. 255. 255. 255. 255.
      255. 255. 255. 255. 255. 255. 255. 255. 255. 255. 255. 255. 0. 0.
      0. 0. 255. 255. 255. 255. 255. 255. 255. 255. 255. 255. 255. 255.
      255. 255. 255. 0. 0. 0. 0. 255. 255. 255. 255. 255. 255. 255. 255.
      255. 255. 255. 255. 255. 255. 255. 255. 0. 0. 0. 0. 255. 255. 255.
      255. 255. 255. 255. 255. 255. 255. 255. 255. 255. 255. 0. 0. 0. 0.
      0. 255. 255. 255. 255. 255. 255. 255. 255. 255. 255. 255. 255.
      255. 255. 255. 0. 0. 0. 0. 0. 255. 255. 255. 255. 255. 255. 255.
      255. 255. 255. 255. 255. 255. 255. 0. 0. 0. 0. 0. 255. 255. 255.
      255. 255. 255. 255. 255. 255. 255. 255. 255. 255. 255. 255. 0. 0.
      0. 0. 255. 255. 255. 255. 255. 255. 255. 255. 255. 255. 255. 255.
      255. 255. 255. 0. 0. 0. 0. 0. 255. 255. 255. 255. 255. 255. 255.
      255. 255. 255. 255. 255. 255. 255. 255. 0. 0. 0. 0. 0. 255. 255.
      255. 255. 255. 255. 255. 255. 255. 255. 255. 255. 255. 255. 0. 0.
      0. 0. 0. 255. 255. 255. 255. 255. 255. 255. 255. 255. 255. 255.
      255. 255. 255. 255. 0. 0. 0. 0. 0. 255. 255. 255. 255. 255. 255.
      255. 255. 255. 255. 255. 255. 255. 255. 0. 0. 0. 0. 255. 255. 255.
      255. 255. 255. 255. 255. 255. 255. 255. 255. 255. 255. 255. 255.
      0. 0. 0. 0. 255. 255. 255. 255. 255. 255. 255. 255. 255. 255. 255.
      255. 255. 255.</_>
    <_>
      255. 255. 255. 255. 255. 255. 255. 255. 255. 255. 255. 255. 255.
      255. 255. 255. 255. 255. 255. 255. 255. 255. 255. 255. 255. 255.
      255. 255. 255. 255. 255. 255. 255. 255. 255. 255. 255. 255. 255.
      255. 255. 255. 255. 255. 255. 255. 255. 255. 0. 0. 0. 255. 255.
      255. 255. 255. 255. 255. 255. 255. 255. 255. 255. 255. 0. 0. 0. 0.
      0. 0. 0. 0. 0. 0. 0. 255. 255. 255. 255. 255. 255. 255. 255. 0. 0.
      0. 0. 0. 0. 0. 0. 0. 0. 0. 0. 0. 0. 255. 255. 255. 255. 255. 255.
      0. 0. 0. 0. 0. 0. 0. 0. 0. 0. 0. 0. 0. 0. 0. 255. 255. 255. 255.
      0. 0. 0. 0. 255. 255. 255. 255. 255. 255. 255. 0. 0. 0. 0. 0. 255.
      255. 255. 255. 0. 0. 0. 255. 255. 255. 255. 255. 255. 255. 255.
      255. 255. 0. 0. 0. 0. 255. 255. 255. 255. 255. 255. 255. 255. 255.
      255. 255. 255. 255. 255. 255. 255. 255. 0. 0. 0. 255. 255. 255.
      255. 255. 255. 255. 255. 255. 255. 255. 255. 255. 255. 255. 255.
      255. 0. 0. 0. 0. 255. 255. 255. 255. 255. 255. 255. 255. 255. 255.
      255. 255. 255. 255. 255. 255. 0. 0. 0. 255. 255. 255. 255. 255.
      255. 255. 255. 255. 255. 255. 255. 255. 255. 255. 255. 255. 0. 0.
      0. 255. 255. 255. 255. 255. 255. 255. 255. 255. 255. 255. 255.
      255. 255. 255. 255. 255. 0. 0. 0. 255. 255. 255. 255. 255. 255.
      255. 255. 255. 255. 255. 255. 255. 255. 255. 255. 0. 0. 0. 0. 255.
      255. 255. 255. 255. 255. 255. 255. 255. 255. 255. 255. 255. 255.
      0. 0. 0. 0. 0. 255. 255. 255. 255. 255. 255. 255. 255. 255. 255.
      255. 255. 255. 255. 0. 0. 0. 0. 0. 0. 255. 255. 255. 255. 255.
      255. 255. 255. 255. 255. 255. 255. 255. 0. 0. 0. 0. 0. 0. 255.
      255. 255. 255. 255. 255. 255. 255. 255. 255. 255. 255. 255. 0. 0.
      0. 0. 0. 0. 255. 255. 255. 255. 255. 255. 255. 255. 255. 255. 255.
      255. 255. 0. 0. 0. 0. 0. 0. 255. 255. 255. 255. 255. 255. 255.
      255. 255. 255. 255. 0. 0. 0. 0. 0. 0. 0. 255. 255. 255. 255. 255.
      255. 255. 255. 255. 255. 255. 255. 0. 0. 0. 0. 0. 0. 0. 255. 255.
      255. 255. 255. 255. 255. 255. 255. 255. 255. 255. 255. 0. 0. 0. 0.
      0. 0. 0. 255. 255. 255. 255. 255. 255. 255. 255. 255. 255. 255.
      255. 255. 0. 0. 0. 0. 0. 0. 255. 255. 255. 255. 255. 255. 255.
      255. 255. 255. 255. 255. 0. 0. 0. 0. 0. 0. 255. 255. 255. 255.
      255. 255. 255. 255. 255. 255. 255. 255. 255. 255. 0. 0. 0. 0. 0.
      255. 255. 255. 255. 255. 255. 255. 255. 255. 255. 255. 255. 255.
      255. 0. 0. 0. 0. 0. 0. 255. 255. 255. 255. 255. 255. 255. 255.
      255. 255. 255. 255. 255. 255. 0. 0. 0. 0. 0. 0. 0. 0. 0. 0. 0. 0.
      0. 0. 0. 0. 0. 255. 255. 255. 0. 0. 0. 0. 0. 0. 0. 0. 0. 0. 0. 0.
      0. 0. 0. 0. 0. 255. 255. 255. 0. 0. 0. 0. 0. 0. 0. 0. 0. 0. 0. 0.
      0. 0. 0. 0. 0. 255. 255. 255. 255. 255. 255. 255. 255. 255. 255.
      255. 255. 255. 255. 255. 255. 255. 255. 255. 0. 255.</_>
    <_>
      0. 0. 0. 0. 0. 0. 0. 0. 0. 0. 0. 0. 0. 0. 0. 0. 0. 0. 0. 255. 0.
      0. 0. 0. 0. 0. 0. 0. 0. 0. 0. 0. 0. 0. 0. 0. 0. 0. 0. 255. 0. 0.
      0. 0. 0. 0. 0. 0. 0. 0. 0. 0. 0. 0. 0. 0. 0. 0. 0. 255. 0. 0. 0.
      0. 0. 0. 0. 0. 0. 0. 0. 0. 0. 0. 0. 0. 0. 0. 0. 0. 0. 0. 0. 0. 0.
      0. 0. 0. 0. 0. 0. 0. 0. 0. 0. 0. 0. 0. 0. 0. 0. 0. 0. 0. 0. 0. 0.
      0. 0. 0. 0. 0. 0. 0. 0. 0. 0. 0. 0. 0. 0. 0. 0. 0. 0. 0. 0. 0. 0.
      0. 0. 0. 0. 0. 0. 0. 0. 0. 0. 0. 0. 0. 0. 0. 0. 0. 0. 0. 0. 0. 0.
      0. 0. 0. 0. 0. 0. 0. 0. 0. 0. 0. 0. 0. 0. 0. 0. 0. 0. 0. 0. 0. 0.
      0. 0. 0. 0. 0. 0. 0. 0. 0. 0. 0. 0. 0. 0. 0. 0. 0. 0. 0. 0. 0. 0.
      0. 0. 0. 0. 0. 0. 0. 0. 0. 0. 0. 0. 0. 0. 0. 0. 0. 0. 0. 0. 0. 0.
      0. 0. 0. 0. 0. 0. 0. 0. 0. 0. 0. 0. 0. 0. 0. 0. 0. 0. 0. 0. 0. 0.
      0. 0. 0. 0. 0. 0. 0. 0. 0. 0. 0. 0. 0. 0. 0. 0. 0. 0. 0. 0. 0. 0.
      0. 0. 0. 0. 0. 0. 0. 0. 0. 0. 0. 0. 0. 0. 0. 0. 0. 0. 0. 0. 0. 0.
      0. 0. 0. 0. 0. 0. 0. 0. 0. 0. 0. 0. 0. 0. 0. 0. 0. 0. 0. 0. 0. 0.
      0. 0. 0. 0. 0. 0. 0. 0. 0. 0. 0. 0. 0. 0. 0. 0. 0. 0. 0. 0. 0. 0.
      0. 0. 0. 0. 0. 0. 0. 0. 0. 0. 0. 0. 0. 0. 0. 0. 0. 0. 0. 0. 0. 0.
      0. 0. 0. 0. 0. 0. 0. 0. 0. 0. 0. 0. 0. 0. 0. 0. 0. 0. 0. 0. 0. 0.
      0. 0. 0. 0. 0. 0. 0. 0. 0. 0. 0. 0. 0. 255. 255. 255. 255. 255.
      255. 255. 255. 255. 255. 0. 0. 0. 0. 0. 0. 0. 0. 0. 0. 255. 255.
      255. 255. 255. 0. 255. 255. 255. 255. 0. 0. 0. 0. 0. 0. 0. 0. 0.
      0. 255. 255. 255. 255. 255. 0. 0. 0. 0. 0. 0. 0. 0. 0. 0. 0. 0. 0.
      0. 0. 255. 255. 255. 255. 255. 255. 255. 255. 0. 0. 0. 0. 0. 0. 0.
      0. 0. 0. 0. 0. 255. 255. 255. 0. 0. 0. 0. 0. 0. 0. 0. 0. 0. 0. 0.
      0. 0. 0. 0. 0. 255. 255. 255. 255. 255. 255. 255. 255. 255. 255.
      0. 0. 0. 0. 0. 0. 0. 0. 0. 0. 0. 0. 0. 0. 0. 255. 255. 255. 255.
      255. 0. 0. 0. 0. 0. 0. 0. 0. 0. 0. 0. 0. 0. 0. 0. 0. 0. 0. 0. 0.
      0. 0. 0. 0. 0. 0. 0. 0. 0. 0. 0. 0. 0. 0. 0. 0. 0. 0. 0. 0. 0. 0.
      0. 0. 0. 0. 0. 0. 0. 0. 0. 0. 0. 0. 0. 0. 0. 0. 0. 0. 0. 0. 0. 0.
      0. 0. 0. 0. 0. 0. 0. 0. 0. 0. 0. 0. 0. 0. 0. 0. 0. 0. 0. 0. 0. 0.</_>
    <_>
      255. 255. 255. 255. 255. 255. 255. 255. 255. 255. 255. 255. 255.
      255. 255. 255. 255. 255. 255. 255. 255. 255. 255. 255. 255. 255.
      255. 255. 255. 255. 255. 255. 255. 255. 255. 255. 255. 255. 255.
      255. 255. 255. 255. 255. 255. 255. 255. 255. 255. 255. 255. 255.
      255. 255. 255. 255. 255. 255. 255. 255. 255. 255. 255. 255. 255.
      255. 255. 255. 255. 255. 255. 255. 255. 255. 255. 255. 255. 255.
      255. 255. 255. 255. 255. 255. 255. 255. 255. 255. 255. 255. 255.
      255. 255. 255. 255. 255. 255. 255. 255. 255. 255. 255. 255. 255.
      255. 255. 255. 255. 255. 255. 255. 255. 255. 255. 255. 255. 255.
      255. 255. 255. 255. 255. 255. 255. 255. 255. 255. 255. 255. 255.
      255. 255. 255. 255. 255. 255. 255. 255. 255. 255. 255. 255. 255.
      255. 255. 255. 255. 255. 255. 255. 255. 255. 255. 255. 255. 255.
      255. 255. 255. 255. 255. 255. 255. 255. 255. 255. 255. 255. 255.
      255. 255. 255. 255. 255. 255. 255. 255. 255. 255. 255. 255. 255.
      255. 255. 255. 255. 255. 255. 255. 255. 255. 255. 255. 255. 255.
      255. 255. 255. 255. 255. 255. 255. 255. 255. 255. 255. 255. 255.
      255. 255. 255. 255. 255. 255. 255. 255. 255. 255. 255. 255. 255.
      255. 255. 255. 255. 255. 255. 255. 255. 255. 255. 255. 255. 255.
      255. 255. 255. 255. 255. 255. 255. 255. 255. 255. 255. 255. 255.
      255. 255. 255. 255. 255. 255. 255. 255. 255. 255. 255. 255. 255.
      0. 255. 255. 255. 255. 255. 255. 255. 255. 255. 255. 255. 255.
      255. 255. 255. 255. 255. 255. 255. 0. 255. 255. 255. 255. 255.
      255. 255. 255. 255. 255. 255. 255. 255. 255. 255. 255. 255. 255.
      255. 0. 255. 255. 255. 255. 255. 255. 255. 255. 255. 255. 255.
      255. 255. 255. 255. 255. 255. 255. 255. 0. 255. 255. 255. 255.
      255. 255. 255. 255. 255. 255. 255. 255. 255. 255. 255. 255. 255.
      255. 255. 0. 255. 255. 255. 255. 255. 255. 255. 255. 255. 255.
      255. 255. 255. 255. 255. 255. 255. 255. 255. 0. 255. 255. 255.
      255. 255. 255. 255. 255. 255. 255. 255. 255. 255. 255. 255. 255.
      255. 255. 255. 0. 255. 255. 255. 255. 255. 255. 255. 255. 255.
      255. 255. 255. 255. 255. 255. 255. 255. 255. 255. 0. 255. 255.
      255. 255. 255. 255. 255. 255. 255. 255. 255. 255. 255. 255. 255.
      255. 255. 255. 255. 0. 255. 255. 255. 255. 255. 255. 255. 255.
      255. 255. 255. 255. 255. 255. 255. 255. 255. 255. 255. 0. 0. 0. 0.
      0. 0. 255. 255. 255. 255. 255. 255. 255. 255. 255. 255. 255. 255.
      255. 0. 0. 0. 0. 0. 0. 0. 255. 255. 255. 255. 255. 255. 255. 255.
      255. 255. 255. 255. 255. 0. 0. 0. 0. 0. 0. 0. 255. 255. 255. 255.
      255. 255. 255. 255. 255. 255. 255. 255. 255. 0. 0. 0. 0. 0. 0. 0.
      255. 255. 255. 255. 255. 255. 255. 255. 255. 255. 255. 255. 255.
      0. 0. 0. 0. 0. 0. 0. 0. 0. 0. 0. 0. 0. 0. 0. 0. 255. 255. 255.
      255. 255. 0. 0. 0. 0. 0. 0. 0. 0. 0. 0. 0. 0. 0. 0. 0. 255. 255.
      255. 255. 255. 0. 0. 0. 0. 0. 0. 0. 0. 0. 0. 0. 0. 0. 0. 0. 255.
      255. 255. 255. 255. 0. 0. 0. 0. 0. 0. 0. 0. 0. 0. 0. 0. 0. 0. 0.
      255. 255. 255. 255. 255.</_>
    <_>
      0. 0. 0. 0. 0. 0. 0. 0. 0. 255. 255. 255. 255. 255. 0. 0. 0. 0. 0.
      0. 0. 0. 0. 0. 0. 0. 0. 0. 0. 255. 255. 255. 255. 255. 0. 0. 0. 0.
      0. 0. 0. 0. 0. 0. 0. 255. 255. 255. 255. 255. 255. 255. 255. 255.
      255. 255. 255. 255. 0. 0. 0. 0. 0. 0. 0. 255. 255. 255. 255. 255.
      255. 255. 255. 255. 255. 255. 255. 255. 0. 0. 0. 0. 0. 0. 0. 255.
      255. 255. 255. 255. 255. 255. 255. 255. 255. 255. 255. 255. 255.
      255. 0. 0. 0. 0. 0. 255. 255. 255. 255. 255. 255. 255. 255. 255.
      255. 255. 255. 255. 255. 255. 0. 0. 0. 255. 255. 255. 255. 255.
      255. 255. 255. 255. 255. 255. 255. 255. 255. 255. 255. 255. 0. 0.
      0. 255. 255. 255. 255. 255. 255. 255. 255. 255. 255. 255. 255.
      255. 255. 255. 255. 255. 0. 0. 0. 255. 255. 255. 255. 255. 255.
      255. 255. 255. 255. 255. 255. 255. 255. 255. 255. 255. 0. 0. 0.
      255. 255. 255. 255. 255. 255. 255. 255. 255. 255. 255. 255. 255.
      255. 255. 255. 255. 0. 0. 0. 255. 255. 255. 255. 255. 255. 255.
      255. 255. 255. 255. 255. 255. 255. 255. 255. 255. 0. 0. 0. 255.
      255. 255. 255. 255. 255. 255. 255. 255. 255. 255. 255. 255. 255.
      255. 255. 255. 0. 0. 0. 255. 255. 255. 255. 255. 255. 255. 255.
      255. 255. 255. 255. 255. 255. 255. 255. 255. 0. 0. 0. 255. 255.
      255. 255. 255. 255. 255. 255. 255. 255. 255. 255. 255. 255. 255.
      255. 255. 0. 0. 0. 255. 255. 255. 255. 255. 255. 255. 255. 255.
      255. 255. 255. 255. 255. 255. 255. 255. 0. 0. 0. 0. 0. 255. 255.
      255. 255. 255. 255. 255. 255. 255. 255. 255. 255. 255. 255. 255.
      0. 0. 0. 0. 0. 255. 255. 255. 255. 255. 255. 255. 255. 255. 255.
      255. 255. 255. 255. 255. 0. 0. 0. 0. 0. 255. 255. 255. 255. 255.
      255. 255. 255. 255. 255. 255. 255. 255. 255. 255. 0. 0. 0. 0. 0.
      255. 255. 255. 255. 255. 255. 255. 255. 255. 255. 255. 255. 255.
      255. 255. 0. 0. 0. 0. 0. 255. 255. 255. 255. 255. 255. 255. 255.
      255. 255. 255. 255. 255. 255. 255. 0. 0. 0. 0. 0. 255. 255. 255.
      255. 255. 255. 255. 255. 255. 255. 255. 255. 255. 255. 255. 0. 0.
      0. 0. 0. 255. 255. 255. 255. 255. 255. 255. 255. 255. 255. 255.
      255. 255. 255. 255. 0. 0. 0. 0. 0. 255. 255. 255. 255. 255. 255.
      255. 255. 255. 255. 255. 255. 255. 255. 255. 0. 0. 0. 0. 0. 255.
      255. 255. 255. 255. 255. 255. 255. 255. 255. 255. 255. 255. 255.
      255. 0. 0. 0. 0. 0. 255. 255. 255. 255. 255. 255. 255. 255. 255.
      255. 255. 255. 255. 255. 255. 0. 0. 0. 0. 0. 255. 255. 255. 255.
      255. 255. 255. 255. 255. 255. 255. 255. 255. 255. 255. 0. 0. 0. 0.
      0. 255. 255. 255. 255. 255. 255. 255. 255. 255. 255. 255. 255.
      255. 255. 255. 0. 0. 0. 0. 0. 255. 255. 255. 255. 255. 255. 255.
      255. 255. 255. 255. 255. 255. 0. 0. 0. 0. 0. 0. 0. 255. 255. 255.
      255. 255. 255. 255. 255. 255. 255. 255. 255. 255. 0. 0. 0. 0. 0.
      0. 0. 0. 0. 0. 0. 255. 255. 255. 255. 255. 255. 255. 0. 0. 0. 0.</_>
    <_>
      255. 255. 255. 255. 255. 255. 255. 255. 255. 255. 255. 255. 255.
      255. 255. 255. 255. 255. 255. 255. 255. 255. 255. 255. 255. 255.
      255. 255. 255. 255. 255. 255. 255. 255. 255. 255. 255. 255. 255.
      255. 255. 255. 255. 255. 255. 255. 255. 255. 0. 0. 0. 0. 0. 0. 0.
      255. 255. 255. 255. 255. 255. 255. 255. 255. 255. 255. 0. 0. 0. 0.
      0. 0. 0. 0. 0. 0. 255. 255. 255. 255. 255. 255. 255. 255. 0. 0. 0.
      0. 0. 0. 0. 0. 0. 0. 0. 0. 0. 0. 255. 255. 255. 255. 255. 0. 0. 0.
      0. 0. 255. 255. 255. 255. 0. 0. 0. 0. 0. 0. 0. 255. 255. 255. 255.
      0. 0. 0. 0. 0. 255. 255. 255. 255. 0. 0. 0. 0. 0. 0. 0. 255. 255.
      255. 0. 0. 0. 0. 0. 255. 255. 255. 255. 255. 255. 255. 255. 0. 0.
      0. 0. 255. 255. 255. 0. 0. 0. 0. 255. 255. 255. 255. 255. 255.
      255. 255. 255. 0. 0. 0. 0. 0. 255. 255. 0. 0. 0. 0. 255. 255. 255.
      255. 255. 255. 255. 255. 255. 255. 0. 0. 0. 255. 255. 255. 0. 0.
      0. 0. 255. 255. 255. 255. 255. 255. 255. 255. 255. 255. 255. 255.
      255. 255. 255. 255. 0. 0. 0. 0. 255. 255. 255. 255. 255. 255. 255.
      255. 255. 255. 255. 255. 255. 255. 255. 255. 0. 0. 0. 0. 0. 255.
      255. 255. 255. 255. 255. 255. 255. 255. 255. 255. 255. 255. 255.
      255. 0. 0. 0. 0. 0. 0. 255. 255. 255. 255. 255. 255. 255. 255.
      255. 255. 255. 255. 255. 255. 255. 0. 0. 0. 0. 0. 0. 0. 0. 0. 0.
      0. 255. 255. 255. 255. 255. 255. 255. 255. 255. 255. 0. 0. 0. 0.
      0. 0. 0. 0. 0. 0. 0. 0. 255. 255. 255. 255. 255. 255. 255. 255. 0.
      0. 0. 0. 0. 0. 0. 0. 0. 0. 0. 0. 255. 255. 255. 255. 255. 255.
      255. 255. 255. 255. 255. 0. 0. 0. 0. 0. 0. 0. 0. 0. 0. 0. 255.
      255. 255. 255. 255. 255. 255. 255. 255. 255. 255. 255. 255. 255.
      0. 0. 0. 0. 0. 0. 0. 255. 255. 255. 255. 255. 255. 255. 255. 255.
      255. 255. 255. 255. 255. 255. 255. 0. 0. 0. 0. 255. 255. 255. 255.
      255. 255. 255. 255. 255. 255. 255. 255. 255. 255. 255. 255. 0. 0.
      0. 0. 255. 255. 255. 255. 255. 255. 255. 255. 255. 255. 255. 255.
      255. 255. 255. 255. 0. 0. 0. 0. 255. 255. 255. 0. 0. 255. 255.
      255. 255. 255. 255. 255. 255. 255. 255. 255. 0. 0. 0. 0. 255. 0.
      0. 0. 0. 0. 0. 255. 255. 255. 255. 255. 255. 255. 255. 255. 0. 0.
      0. 0. 255. 255. 255. 0. 0. 0. 0. 255. 255. 255. 255. 255. 255.
      255. 255. 0. 0. 0. 0. 0. 255. 255. 255. 0. 0. 0. 0. 0. 0. 255.
      255. 255. 0. 0. 0. 0. 0. 0. 0. 255. 255. 255. 255. 0. 0. 0. 0. 0.
      0. 255. 255. 255. 0. 0. 0. 0. 0. 0. 0. 255. 255. 255. 255. 255. 0.
      0. 0. 0. 0. 0. 0. 0. 0. 0. 0. 0. 0. 255. 255. 255. 255. 255. 255.
      255. 255. 0. 0. 0. 0. 0. 0. 0. 0. 0. 0. 0. 255. 255. 255. 255.
      255. 255. 255. 255. 255. 255. 255. 255. 0. 0. 0. 0. 0. 255. 255.
      255. 255. 255. 255. 255. 255.</_>
    <_>
      255. 255. 255. 255. 255. 255. 255. 255. 255. 255. 255. 255. 255.
      255. 255. 255. 255. 255. 255. 255. 255. 255. 255. 255. 255. 255.
      255. 255. 255. 255. 255. 255. 255. 255. 255. 255. 255. 255. 255.
      255. 0. 0. 0. 0. 0. 0. 255. 255. 255. 255. 255. 255. 255. 255.
      255. 255. 0. 0. 0. 0. 0. 0. 0. 0. 0. 0. 255. 255. 255. 255. 255.
      255. 255. 255. 255. 0. 0. 0. 0. 0. 255. 255. 0. 0. 0. 0. 0. 0.
      255. 255. 255. 255. 255. 255. 255. 0. 0. 0. 0. 255. 255. 255. 0.
      0. 0. 0. 0. 0. 255. 255. 255. 255. 255. 255. 255. 0. 0. 0. 0. 255.
      255. 255. 0. 0. 0. 0. 0. 0. 255. 255. 255. 255. 255. 255. 255. 0.
      0. 0. 0. 255. 255. 255. 255. 0. 0. 0. 0. 0. 255. 255. 255. 255.
      255. 0. 0. 0. 0. 0. 255. 255. 255. 255. 255. 0. 0. 0. 0. 0. 0.
      255. 255. 255. 255. 0. 0. 0. 0. 0. 255. 255. 255. 255. 255. 255.
      255. 0. 0. 0. 0. 255. 255. 255. 0. 0. 0. 0. 0. 0. 255. 255. 255.
      255. 255. 255. 255. 0. 0. 0. 0. 255. 255. 255. 0. 0. 0. 0. 255.
      255. 255. 255. 255. 255. 255. 255. 255. 0. 0. 0. 0. 255. 255. 255.
      0. 0. 0. 0. 255. 255. 255. 255. 255. 255. 255. 255. 255. 0. 0. 0.
      0. 0. 0. 0. 0. 0. 0. 0. 255. 255. 255. 255. 255. 255. 255. 255.
      255. 255. 0. 0. 0. 0. 0. 0. 0. 0. 0. 255. 255. 255. 255. 255. 255.
      255. 255. 255. 255. 255. 0. 0. 0. 0. 0. 0. 0. 0. 0. 255. 255. 255.
      255. 255. 255. 255. 255. 255. 255. 255. 255. 255. 0. 0. 0. 0. 0.
      0. 0. 255. 255. 255. 255. 255. 255. 255. 255. 255. 255. 255. 255.
      255. 0. 0. 0. 0. 0. 0. 0. 255. 255. 255. 255. 255. 255. 255. 255.
      255. 255. 255. 255. 255. 0. 0. 0. 0. 0. 255. 255. 255. 255. 255.
      255. 255. 255. 255. 255. 255. 255. 255. 255. 255. 0. 0. 0. 0. 0.
      255. 255. 255. 255. 255. 255. 255. 255. 255. 255. 255. 255. 255.
      255. 255. 0. 0. 0. 0. 0. 255. 255. 255. 255. 255. 255. 255. 255.
      255. 255. 255. 255. 255. 255. 255. 0. 0. 0. 0. 0. 255. 255. 255.
      255. 255. 255. 255. 255. 255. 255. 255. 255. 255. 255. 255. 0. 0.
      0. 0. 0. 255. 255. 255. 255. 255. 255. 255. 255. 255. 255. 255.
      255. 255. 255. 255. 0. 0. 0. 0. 0. 255. 255. 255. 255. 255. 255.
      255. 255. 255. 255. 255. 255. 255. 255. 255. 0. 0. 0. 0. 0. 255.
      255. 255. 255. 255. 255. 255. 255. 255. 255. 255. 255. 255. 255.
      255. 0. 0. 0. 0. 255. 255. 255. 255. 255. 255. 255. 255. 255. 255.
      255. 255. 255. 255. 255. 255. 0. 0. 0. 0. 255. 255. 255. 255. 255.
      255. 255. 255. 255. 255. 255. 255. 255. 255. 255. 255. 0. 0. 0. 0.
      255. 255. 255. 255. 255. 255. 255. 255. 255. 255. 255. 255. 255.
      255. 255. 255. 255. 0. 0. 0. 255. 255. 255. 255. 255. 255. 255.
      255. 255. 255. 255. 255. 255. 255. 255. 255. 0. 0. 0. 0. 255. 255.
      255. 255. 255. 255. 255. 255. 255. 255. 255. 255. 255. 255. 255.
      255. 0. 0. 0. 0. 255. 255. 255. 255. 255. 255. 255. 255.</_>
    <_>
      255. 255. 255. 255. 255. 255. 255. 255. 255. 255. 255. 255. 255.
      255. 255. 255. 255. 255. 255. 255. 255. 255. 255. 255. 255. 255.
      255. 255. 255. 255. 255. 255. 255. 255. 255. 255. 255. 255. 255.
      255. 255. 255. 0. 0. 0. 0. 0. 0. 0. 0. 0. 0. 0. 0. 0. 255. 255.
      255. 255. 255. 255. 255. 0. 0. 0. 0. 0. 0. 0. 0. 0. 0. 0. 0. 0. 0.
      0. 0. 255. 255. 255. 255. 0. 0. 0. 0. 0. 0. 0. 0. 0. 0. 0. 0. 0.
      0. 0. 0. 0. 255. 255. 255. 0. 0. 0. 0. 0. 255. 255. 255. 255. 255.
      255. 255. 0. 0. 0. 0. 0. 255. 255. 255. 0. 0. 0. 0. 0. 255. 255.
      255. 255. 255. 255. 255. 0. 0. 0. 0. 0. 255. 255. 255. 0. 0. 0. 0.
      0. 255. 255. 255. 255. 255. 255. 255. 255. 0. 0. 0. 0. 255. 255.
      255. 0. 0. 0. 0. 0. 255. 255. 255. 255. 255. 255. 255. 255. 0. 0.
      0. 0. 0. 255. 255. 0. 0. 0. 0. 0. 255. 255. 255. 255. 255. 255.
      255. 255. 0. 0. 0. 0. 0. 255. 255. 0. 0. 0. 0. 0. 255. 255. 255.
      255. 255. 255. 255. 255. 0. 0. 0. 0. 255. 255. 255. 0. 0. 0. 0. 0.
      255. 255. 255. 255. 255. 255. 255. 255. 0. 0. 0. 0. 255. 255. 255.
      0. 0. 0. 0. 0. 255. 255. 255. 255. 255. 255. 255. 0. 0. 0. 0. 0.
      255. 255. 255. 0. 0. 0. 0. 0. 255. 255. 255. 255. 255. 255. 0. 0.
      0. 0. 0. 0. 255. 255. 255. 0. 0. 0. 0. 0. 0. 0. 0. 0. 0. 0. 0. 0.
      0. 0. 0. 255. 255. 255. 255. 0. 0. 0. 0. 0. 0. 0. 0. 0. 0. 0. 0.
      0. 0. 0. 0. 255. 255. 255. 255. 0. 0. 0. 0. 0. 0. 0. 0. 0. 0. 0.
      0. 0. 0. 0. 0. 255. 255. 255. 255. 0. 0. 0. 0. 0. 0. 0. 0. 0. 0.
      0. 0. 0. 0. 0. 0. 255. 255. 255. 255. 0. 0. 0. 0. 0. 255. 255.
      255. 255. 255. 255. 255. 0. 0. 0. 0. 0. 255. 255. 255. 0. 0. 0. 0.
      0. 255. 255. 255. 255. 255. 255. 255. 255. 0. 0. 0. 0. 255. 255.
      255. 0. 0. 0. 0. 0. 255. 255. 255. 255. 255. 255. 255. 255. 0. 0.
      0. 0. 0. 255. 255. 0. 0. 0. 0. 0. 255. 255. 255. 255. 255. 255.
      255. 255. 0. 0. 0. 0. 0. 255. 255. 255. 0. 0. 0. 0. 255. 255. 255.
      255. 255. 255. 255. 255. 255. 255. 0. 0. 0. 255. 255. 255. 0. 0.
      0. 0. 255. 255. 255. 255. 255. 255. 255. 255. 0. 0. 0. 0. 0. 255.
      255. 255. 0. 0. 0. 0. 255. 255. 255. 255. 255. 255. 255. 255. 0.
      0. 0. 0. 255. 255. 255. 255. 0. 0. 0. 0. 255. 255. 255. 255. 255.
      255. 0. 0. 0. 0. 0. 0. 255. 255. 255. 255. 0. 0. 0. 0. 255. 255.
      255. 255. 255. 255. 0. 0. 0. 0. 0. 0. 255. 255. 255. 255. 0. 0. 0.
      0. 0. 0. 0. 0. 0. 0. 0. 0. 0. 0. 0. 255. 255. 255. 255. 255. 0. 0.
      0. 0. 0. 0. 0. 0. 0. 0. 0. 0. 0. 0. 255. 255. 255. 255. 255. 255.
      0. 0. 0. 0. 0. 0. 0. 0. 0. 0. 0. 255. 255. 255. 255. 255. 255.</_>
    <_>
      255. 255. 255. 255. 255. 255. 255. 255. 255. 255. 255. 255. 255.
      255. 255. 255. 255. 255. 255. 255. 255. 255. 255. 255. 255. 255.
      255. 255. 255. 255. 255. 255. 255. 255. 255. 255. 255. 255. 255.
      255. 255. 255. 255. 255. 255. 255. 255. 0. 0. 0. 0. 0. 0. 0. 0.
      255. 255. 255. 255. 255. 255. 255. 255. 255. 255. 255. 0. 0. 0. 0.
      0. 0. 0. 0. 0. 0. 0. 0. 255. 255. 255. 255. 255. 255. 0. 0. 0. 0.
      0. 0. 0. 0. 0. 0. 0. 0. 0. 0. 0. 255. 255. 255. 255. 0. 0. 0. 0.
      0. 255. 255. 255. 255. 255. 255. 0. 0. 0. 0. 0. 255. 255. 255.
      255. 0. 0. 0. 0. 0. 255. 255. 255. 255. 255. 255. 0. 0. 0. 0. 0.
      255. 255. 255. 255. 0. 0. 0. 0. 255. 255. 255. 255. 255. 255. 255.
      255. 0. 0. 0. 0. 0. 255. 255. 255. 0. 0. 0. 0. 255. 255. 255. 255.
      255. 255. 255. 255. 0. 0. 0. 0. 0. 255. 255. 255. 0. 0. 0. 0. 255.
      255. 255. 255. 255. 255. 255. 255. 255. 0. 0. 0. 0. 255. 255. 255.
      0. 0. 0. 0. 255. 255. 255. 255. 255. 255. 255. 255. 0. 0. 0. 0. 0.
      255. 255. 255. 0. 0. 0. 0. 255. 255. 255. 255. 255. 255. 255. 255.
      0. 0. 0. 0. 0. 255. 255. 255. 0. 0. 0. 0. 0. 255. 255. 255. 255.
      255. 255. 0. 0. 0. 0. 0. 255. 255. 255. 255. 255. 0. 0. 0. 0. 0.
      0. 0. 0. 0. 0. 0. 0. 0. 0. 0. 255. 255. 255. 255. 255. 255. 255.
      0. 0. 0. 0. 0. 0. 0. 0. 0. 0. 0. 0. 255. 255. 255. 255. 255. 255.
      0. 0. 0. 0. 0. 0. 0. 0. 0. 0. 0. 0. 0. 0. 255. 255. 255. 255. 255.
      255. 0. 0. 0. 0. 0. 0. 0. 0. 0. 0. 0. 0. 0. 0. 255. 255. 255. 255.
      255. 0. 0. 0. 0. 0. 0. 0. 255. 255. 0. 0. 0. 0. 0. 0. 0. 255. 255.
      255. 255. 0. 0. 0. 0. 0. 255. 255. 255. 255. 255. 255. 255. 0. 0.
      0. 0. 0. 255. 255. 0. 0. 0. 0. 0. 255. 255. 255. 255. 255. 255.
      255. 255. 255. 0. 0. 0. 0. 255. 255. 0. 0. 0. 0. 255. 255. 255.
      255. 255. 255. 255. 255. 255. 255. 0. 0. 0. 0. 255. 255. 0. 0. 0.
      0. 255. 255. 255. 255. 255. 255. 255. 255. 255. 255. 0. 0. 0. 0.
      255. 255. 0. 0. 0. 0. 255. 255. 255. 255. 255. 255. 255. 255. 255.
      255. 0. 0. 0. 0. 255. 255. 255. 0. 0. 0. 0. 255. 255. 255. 255.
      255. 255. 255. 255. 255. 0. 0. 0. 0. 255. 255. 255. 0. 0. 0. 0. 0.
      255. 255. 255. 255. 255. 255. 255. 0. 0. 0. 0. 0. 255. 255. 255.
      0. 0. 0. 0. 0. 0. 0. 255. 255. 0. 0. 0. 0. 0. 0. 0. 255. 255. 255.
      255. 0. 0. 0. 0. 0. 0. 0. 255. 255. 0. 0. 0. 0. 0. 0. 0. 255. 255.
      255. 255. 255. 0. 0. 0. 0. 0. 0. 0. 0. 0. 0. 0. 0. 0. 0. 255. 255.
      255. 255. 255. 255. 255. 255. 0. 0. 0. 0. 0. 0. 0. 0. 0. 0. 255.
      255. 255. 255. 255. 255. 255. 255. 255. 255. 255. 255. 255. 255.
      0. 0. 0. 0. 255. 255. 255. 255. 255. 255.</_>
    <_>
      255. 255. 255. 255. 255. 255. 255. 255. 255. 255. 255. 255. 255.
      255. 255. 255. 255. 255. 255. 255. 255. 255. 255. 255. 255. 255.
      255. 255. 255. 255. 255. 255. 255. 255. 255. 255. 255. 255. 255.
      255. 255. 255. 255. 255. 255. 255. 255. 255. 0. 0. 0. 0. 0. 0.
      255. 255. 255. 255. 255. 255. 255. 255. 255. 255. 0. 0. 0. 0. 0.
      0. 0. 0. 0. 0. 0. 0. 255. 255. 255. 255. 255. 255. 255. 0. 0. 0.
      0. 0. 0. 0. 0. 0. 0. 0. 0. 0. 0. 0. 255. 255. 255. 255. 0. 0. 0.
      0. 0. 0. 0. 0. 255. 255. 0. 0. 0. 0. 0. 0. 0. 255. 255. 255. 0. 0.
      0. 0. 0. 0. 0. 0. 255. 255. 0. 0. 0. 0. 0. 0. 0. 255. 255. 255. 0.
      0. 0. 0. 0. 255. 255. 255. 255. 255. 255. 255. 255. 0. 0. 0. 0.
      255. 255. 255. 0. 0. 0. 0. 255. 255. 255. 255. 255. 255. 255. 255.
      255. 0. 0. 0. 0. 0. 255. 255. 255. 255. 255. 255. 255. 255. 255.
      255. 255. 255. 255. 255. 255. 255. 0. 0. 0. 0. 255. 255. 255. 255.
      255. 255. 255. 255. 255. 255. 255. 255. 255. 255. 255. 255. 0. 0.
      0. 0. 255. 255. 255. 255. 255. 255. 255. 255. 255. 255. 255. 255.
      255. 255. 255. 255. 0. 0. 0. 0. 255. 255. 255. 255. 255. 255. 255.
      255. 255. 255. 255. 255. 255. 255. 255. 255. 0. 0. 0. 0. 255. 255.
      255. 255. 255. 255. 255. 255. 255. 255. 255. 255. 255. 255. 255.
      0. 0. 0. 0. 255. 255. 255. 255. 255. 255. 255. 255. 255. 255. 255.
      255. 255. 255. 255. 0. 0. 0. 0. 0. 255. 255. 255. 255. 255. 255.
      255. 255. 255. 255. 255. 255. 255. 0. 0. 0. 0. 0. 0. 255. 255.
      255. 255. 255. 255. 255. 255. 255. 255. 255. 255. 255. 255. 0. 0.
      0. 0. 0. 0. 255. 255. 255. 255. 255. 255. 255. 255. 255. 255. 255.
      255. 255. 0. 0. 0. 0. 0. 255. 255. 255. 255. 255. 255. 255. 255.
      255. 255. 255. 255. 255. 255. 0. 0. 0. 0. 0. 255. 255. 255. 255.
      255. 255. 255. 255. 255. 255. 255. 255. 255. 0. 0. 0. 0. 0. 0.
      255. 255. 255. 255. 255. 255. 255. 255. 255. 255. 255. 255. 255.
      0. 0. 0. 0. 0. 255. 255. 255. 255. 255. 255. 255. 255. 255. 255.
      255. 255. 255. 255. 255. 0. 0. 0. 0. 0. 255. 255. 255. 255. 255.
      255. 255. 255. 255. 255. 255. 255. 255. 255. 0. 0. 0. 0. 0. 255.
      255. 255. 255. 255. 255. 255. 255. 255. 255. 255. 255. 255. 0. 0.
      0. 0. 0. 0. 255. 255. 255. 255. 255. 255. 255. 255. 255. 255. 255.
      255. 0. 0. 0. 0. 0. 0. 255. 255. 255. 255. 255. 255. 255. 255.
      255. 255. 255. 255. 255. 255. 0. 0. 0. 0. 0. 255. 255. 255. 255.
      255. 255. 255. 255. 255. 255. 255. 255. 255. 255. 255. 0. 0. 0. 0.
      0. 255. 255. 255. 255. 255. 255. 255. 255. 255. 255. 255. 255.
      255. 255. 255. 0. 0. 0. 0. 0. 0. 0. 0. 0. 0. 0. 0. 0. 0. 0. 0. 0.
      0. 255. 255. 0. 0. 0. 0. 0. 0. 0. 0. 0. 0. 0. 0. 0. 0. 0. 0. 0. 0.
      255. 255. 0. 0. 0. 0. 0. 0. 0. 0. 0. 0. 0. 0. 0. 0. 0. 0. 0. 0.</_>
    <_>
      255. 255. 255. 255. 255. 255. 255. 255. 255. 255. 255. 255. 255.
      255. 255. 255. 255. 255. 255. 255. 255. 255. 255. 255. 255. 255.
      255. 255. 255. 255. 255. 255. 255. 255. 255. 255. 255. 255. 255.
      255. 255. 255. 255. 255. 255. 255. 0. 0. 0. 0. 0. 0. 0. 0. 0. 255.
      255. 255. 255. 255. 255. 255. 255. 255. 255. 0. 0. 0. 0. 0. 0. 0.
      0. 0. 0. 0. 255. 255. 255. 255. 255. 255. 255. 0. 0. 0. 0. 0. 0.
      0. 0. 0. 0. 0. 0. 0. 0. 0. 0. 255. 255. 255. 0. 0. 0. 0. 0. 0. 0.
      255. 255. 255. 0. 0. 0. 0. 0. 0. 0. 255. 255. 255. 0. 0. 0. 0. 0.
      0. 0. 255. 255. 255. 0. 0. 0. 0. 0. 0. 0. 255. 255. 255. 0. 0. 0.
      0. 255. 255. 255. 255. 255. 255. 255. 255. 255. 0. 0. 0. 0. 0. 0.
      0. 0. 0. 0. 0. 255. 255. 255. 255. 255. 255. 255. 255. 255. 255.
      0. 0. 0. 0. 0. 0. 0. 0. 0. 255. 255. 255. 255. 255. 255. 255. 255.
      255. 255. 255. 0. 0. 0. 0. 0. 0. 0. 0. 0. 255. 255. 255. 255. 255.
      255. 255. 255. 255. 255. 255. 0. 0. 0. 0. 0. 0. 0. 0. 0. 255. 255.
      255. 255. 255. 255. 255. 255. 255. 255. 255. 0. 0. 0. 0. 0. 0. 0.
      0. 0. 255. 255. 255. 255. 255. 255. 255. 255. 255. 255. 255. 0. 0.
      0. 0. 0. 0. 0. 0. 0. 255. 255. 255. 255. 255. 255. 255. 255. 255.
      255. 255. 0. 0. 0. 0. 0. 0. 0. 0. 0. 255. 255. 255. 255. 255. 255.
      255. 255. 255. 255. 255. 0. 0. 0. 0. 0. 0. 0. 0. 0. 0. 255. 255.
      255. 255. 255. 255. 255. 255. 255. 255. 0. 0. 0. 0. 0. 0. 0. 0. 0.
      0. 255. 255. 255. 255. 255. 255. 255. 255. 255. 255. 0. 0. 0. 0.
      0. 0. 0. 0. 0. 0. 255. 255. 255. 255. 255. 255. 255. 255. 255.
      255. 0. 0. 0. 0. 0. 0. 0. 0. 0. 0. 255. 255. 255. 255. 255. 255.
      255. 255. 255. 255. 0. 0. 0. 0. 0. 0. 0. 0. 0. 0. 255. 255. 255.
      255. 255. 255. 255. 255. 255. 255. 0. 0. 0. 0. 0. 0. 0. 0. 0. 0.
      255. 255. 255. 255. 255. 255. 255. 255. 255. 255. 0. 0. 0. 0. 0.
      0. 0. 0. 0. 0. 255. 255. 255. 255. 255. 255. 255. 255. 255. 255.
      0. 0. 0. 0. 0. 0. 0. 0. 0. 0. 255. 255. 255. 255. 255. 255. 255.
      255. 255. 255. 0. 0. 0. 0. 0. 0. 0. 0. 0. 0. 255. 255. 255. 255.
      255. 255. 255. 255. 255. 255. 0. 0. 0. 0. 255. 255. 0. 0. 0. 0.
      255. 255. 255. 255. 255. 255. 255. 255. 255. 0. 0. 0. 0. 0. 255.
      255. 0. 0. 0. 0. 0. 0. 0. 255. 255. 255. 255. 0. 0. 0. 0. 0. 0. 0.
      255. 255. 0. 0. 0. 0. 0. 0. 0. 255. 255. 255. 255. 0. 0. 0. 0. 0.
      0. 0. 255. 255. 255. 0. 0. 0. 0. 0. 0. 0. 0. 0. 0. 0. 0. 0. 0. 0.
      0. 255. 255. 255. 255. 255. 255. 0. 0. 0. 0. 0. 0. 0. 0. 0. 0. 0.
      0. 0. 255. 255. 255. 255. 255. 255. 255. 255. 255. 255. 0. 0. 0.
      0. 0. 0. 0. 255. 255. 255. 255. 255.</_>
    <_>
      255. 255. 255. 255. 255. 255. 255. 255. 255. 255. 255. 255. 255.
      255. 255. 255. 255. 255. 255. 255. 255. 255. 255. 255. 255. 255.
      255. 255. 255. 255. 255. 255. 255. 255. 255. 255. 255. 255. 255.
      255. 255. 255. 255. 255. 255. 255. 0. 0. 0. 0. 0. 0. 0. 0. 255.
      255. 255. 255. 255. 255. 255. 255. 255. 255. 0. 0. 0. 0. 0. 0. 0.
      0. 0. 0. 0. 0. 255. 255. 255. 255. 255. 255. 255. 0. 0. 0. 0. 0.
      0. 0. 0. 0. 0. 0. 0. 0. 0. 0. 255. 255. 255. 255. 0. 0. 0. 0. 0.
      0. 255. 255. 255. 255. 0. 0. 0. 0. 0. 0. 0. 255. 255. 255. 0. 0.
      0. 0. 0. 0. 255. 255. 255. 255. 0. 0. 0. 0. 0. 0. 0. 255. 0. 0. 0.
      0. 0. 0. 255. 255. 255. 255. 255. 255. 255. 255. 0. 0. 0. 0. 0.
      255. 255. 255. 255. 0. 0. 0. 255. 255. 255. 255. 255. 255. 255.
      255. 255. 0. 0. 0. 0. 0. 255. 255. 255. 255. 255. 255. 255. 255.
      255. 255. 255. 255. 255. 255. 255. 0. 0. 0. 0. 0. 255. 255. 255.
      255. 255. 255. 255. 255. 255. 255. 255. 255. 255. 255. 255. 0. 0.
      0. 0. 0. 255. 255. 255. 255. 255. 255. 255. 255. 255. 255. 255.
      255. 255. 255. 255. 0. 0. 0. 0. 0. 255. 255. 255. 255. 255. 255.
      255. 255. 255. 255. 255. 255. 255. 255. 255. 0. 0. 0. 0. 255. 255.
      255. 255. 255. 255. 255. 255. 255. 255. 255. 255. 255. 0. 0. 0. 0.
      0. 0. 0. 255. 255. 255. 255. 255. 255. 255. 255. 255. 255. 255. 0.
      0. 0. 0. 0. 0. 0. 0. 255. 255. 255. 255. 255. 255. 0. 0. 0. 255.
      255. 255. 0. 0. 0. 0. 0. 0. 0. 0. 255. 255. 255. 255. 255. 255. 0.
      0. 0. 255. 255. 255. 0. 0. 0. 0. 0. 0. 0. 0. 255. 255. 255. 255.
      255. 255. 255. 255. 0. 255. 255. 255. 0. 0. 0. 0. 0. 0. 0. 0. 255.
      255. 255. 255. 255. 255. 255. 255. 255. 255. 255. 255. 255. 255.
      0. 0. 0. 0. 0. 0. 0. 255. 255. 255. 255. 255. 255. 255. 255. 255.
      255. 255. 255. 255. 255. 255. 255. 0. 0. 0. 0. 255. 255. 255. 255.
      255. 255. 255. 255. 255. 255. 255. 255. 255. 255. 255. 255. 0. 0.
      0. 0. 0. 255. 255. 255. 255. 255. 255. 255. 255. 255. 255. 255.
      255. 255. 255. 255. 0. 0. 0. 0. 0. 255. 255. 255. 255. 255. 255.
      255. 255. 255. 255. 255. 255. 255. 255. 255. 0. 0. 0. 0. 0. 255.
      255. 0. 0. 0. 0. 255. 255. 255. 255. 255. 255. 255. 255. 255. 0.
      0. 0. 0. 0. 255. 255. 0. 0. 0. 0. 0. 255. 255. 255. 255. 255. 255.
      255. 255. 0. 0. 0. 0. 255. 255. 255. 255. 0. 0. 0. 0. 0. 0. 0.
      255. 255. 0. 0. 0. 0. 0. 0. 0. 255. 255. 255. 255. 0. 0. 0. 0. 0.
      0. 0. 255. 255. 0. 0. 0. 0. 0. 0. 0. 255. 255. 255. 255. 0. 0. 0.
      0. 0. 0. 0. 0. 0. 0. 0. 0. 0. 0. 0. 255. 255. 255. 255. 255. 255.
      255. 255. 0. 0. 0. 0. 0. 0. 0. 0. 0. 0. 255. 255. 255. 255. 255.
      255. 255. 255. 255. 255. 255. 255. 0. 0. 0. 0. 0. 0. 255. 255.
      255. 255. 255. 255.</_>
    <_>
      255. 255. 0. 0. 0. 0. 0. 0. 0. 0. 0. 0. 0. 0. 0. 0. 0. 0. 0. 0.
      255. 255. 0. 0. 0. 0. 0. 0. 0. 0. 0. 0. 0. 0. 0. 0. 0. 0. 0. 0.
      255. 255. 0. 0. 0. 0. 0. 0. 0. 0. 0. 0. 0. 0. 0. 0. 0. 0. 0. 0.
      255. 255. 0. 0. 0. 0. 0. 0. 0. 0. 0. 0. 0. 0. 0. 0. 0. 0. 0. 0.
      255. 255. 0. 0. 0. 0. 0. 0. 0. 0. 0. 0. 0. 0. 0. 0. 0. 0. 0. 0.
      255. 255. 0. 0. 0. 0. 0. 0. 0. 0. 0. 0. 0. 0. 0. 0. 0. 0. 0. 0.
      255. 255. 0. 0. 0. 0. 0. 0. 0. 0. 0. 0. 0. 0. 0. 0. 0. 0. 0. 0.
      255. 255. 0. 0. 0. 0. 0. 0. 0. 0. 0. 0. 0. 0. 0. 0. 0. 0. 0. 0.
      255. 255. 0. 0. 0. 0. 0. 0. 0. 0. 0. 0. 0. 0. 0. 0. 0. 0. 0. 0.
      255. 255. 0. 0. 0. 0. 0. 0. 0. 0. 0. 0. 0. 0. 0. 0. 0. 0. 0. 0.
      255. 255. 255. 0. 0. 0. 0. 0. 0. 0. 0. 0. 0. 0. 0. 0. 0. 0. 0. 0.
      255. 255. 255. 0. 0. 0. 0. 0. 0. 0. 0. 0. 0. 0. 0. 0. 0. 0. 0. 0.
      255. 255. 255. 0. 0. 0. 0. 0. 0. 0. 0. 0. 0. 0. 0. 0. 0. 0. 0. 0.
      255. 255. 255. 0. 0. 0. 0. 0. 0. 0. 0. 0. 0. 0. 0. 0. 0. 0. 0. 0.
      255. 255. 255. 0. 0. 0. 0. 0. 0. 0. 0. 0. 0. 0. 0. 0. 0. 0. 0. 0.
      255. 255. 255. 0. 0. 0. 0. 0. 0. 0. 0. 0. 0. 0. 0. 0. 0. 0. 0. 0.
      255. 255. 255. 0. 0. 0. 0. 0. 0. 0. 0. 0. 0. 0. 0. 0. 0. 0. 0. 0.
      255. 255. 255. 0. 0. 0. 0. 0. 0. 0. 0. 0. 0. 0. 0. 0. 0. 0. 0. 0.
      255. 255. 255. 0. 0. 0. 0. 0. 0. 0. 0. 0. 0. 0. 0. 0. 0. 0. 0. 0.
      255. 255. 255. 0. 0. 0. 0. 0. 255. 255. 255. 255. 255. 255. 255.
      255. 0. 0. 0. 0. 255. 255. 255. 0. 0. 0. 0. 0. 255. 255. 0. 0. 0.
      0. 0. 0. 0. 0. 0. 0. 255. 255. 255. 0. 0. 0. 0. 0. 255. 255. 255.
      255. 255. 255. 255. 0. 0. 0. 0. 0. 255. 255. 255. 0. 0. 0. 0. 0.
      255. 255. 0. 0. 0. 0. 0. 0. 0. 0. 0. 0. 255. 255. 255. 0. 0. 0. 0.
      0. 255. 255. 255. 255. 255. 255. 255. 0. 0. 0. 0. 0. 255. 255.
      255. 0. 0. 0. 0. 0. 0. 255. 255. 255. 255. 255. 255. 255. 0. 0. 0.
      0. 255. 255. 255. 0. 0. 0. 0. 0. 0. 0. 0. 0. 0. 0. 0. 0. 0. 0. 0.
      0. 255. 255. 255. 0. 0. 0. 0. 0. 0. 0. 0. 0. 0. 0. 0. 0. 0. 0. 0.
      0. 255. 255. 255. 0. 0. 0. 0. 0. 0. 0. 0. 0. 0. 0. 0. 0. 0. 0. 0.
      0. 255. 255. 255. 0. 0. 0. 0. 0. 0. 0. 0. 0. 0. 0. 0. 0. 0. 0. 0.
      0. 255. 255. 255. 255. 255. 255. 255. 255. 255. 255. 255. 255. 0.
      0. 0. 0. 0. 0. 0. 0.</_>
    <_>
      255. 255. 255. 255. 255. 255. 255. 255. 255. 255. 255. 255. 255.
      255. 255. 255. 255. 255. 255. 255. 255. 255. 255. 255. 255. 255.
      255. 255. 255. 255. 255. 255. 255. 255. 255. 255. 255. 255. 255.
      255. 255. 255. 255. 255. 255. 255. 255. 255. 255. 0. 0. 0. 0. 0.
      255. 255. 255. 255. 255. 255. 255. 255. 255. 255. 255. 255. 255.
      255. 255. 0. 0. 0. 0. 255. 255. 255. 255. 255. 255. 255. 255. 255.
      255. 255. 255. 255. 255. 255. 0. 0. 0. 0. 0. 255. 255. 255. 255.
      255. 255. 255. 255. 255. 255. 255. 255. 255. 255. 255. 0. 0. 0. 0.
      0. 255. 255. 255. 255. 255. 255. 255. 255. 255. 255. 255. 255.
      255. 255. 255. 0. 0. 0. 0. 0. 255. 255. 255. 255. 255. 255. 255.
      255. 255. 255. 255. 255. 255. 255. 0. 0. 0. 0. 0. 255. 255. 255.
      255. 255. 255. 255. 255. 255. 255. 255. 255. 255. 255. 255. 0. 0.
      0. 0. 0. 255. 255. 255. 255. 255. 255. 255. 255. 255. 255. 255.
      255. 255. 0. 0. 0. 0. 0. 255. 255. 255. 255. 255. 255. 255. 255.
      255. 255. 255. 255. 255. 255. 255. 0. 0. 0. 0. 0. 255. 255. 255.
      255. 255. 255. 255. 255. 255. 255. 255. 255. 255. 255. 255. 0. 0.
      0. 0. 0. 255. 255. 255. 255. 255. 255. 255. 255. 255. 255. 255.
      255. 255. 255. 255. 0. 0. 0. 0. 0. 255. 255. 255. 255. 255. 255.
      255. 255. 255. 255. 255. 255. 255. 255. 0. 0. 0. 0. 0. 255. 255.
      255. 255. 255. 255. 255. 255. 255. 255. 255. 255. 255. 255. 255.
      0. 0. 0. 0. 0. 255. 255. 255. 255. 255. 255. 255. 255. 255. 255.
      255. 255. 255. 255. 255. 0. 0. 0. 0. 255. 255. 255. 255. 255. 255.
      255. 255. 255. 255. 255. 255. 255. 255. 255. 255. 0. 0. 0. 0. 255.
      255. 255. 255. 255. 255. 255. 255. 255. 255. 255. 255. 255. 255.
      255. 0. 0. 0. 0. 0. 255. 255. 255. 255. 255. 255. 0. 0. 0. 0. 255.
      255. 255. 255. 255. 0. 0. 0. 0. 0. 255. 255. 255. 255. 255. 255.
      0. 0. 0. 0. 255. 255. 255. 255. 255. 0. 0. 0. 0. 255. 255. 255.
      255. 255. 255. 255. 0. 0. 0. 0. 255. 255. 255. 255. 0. 0. 0. 0. 0.
      255. 255. 255. 255. 255. 255. 255. 0. 0. 0. 0. 255. 255. 255. 255.
      0. 0. 0. 0. 0. 255. 255. 255. 255. 255. 255. 255. 0. 0. 0. 0. 255.
      255. 255. 255. 0. 0. 0. 0. 0. 255. 255. 255. 255. 255. 255. 0. 0.
      0. 0. 0. 255. 255. 255. 255. 0. 0. 0. 0. 0. 0. 0. 0. 0. 0. 0. 0.
      0. 0. 0. 0. 0. 0. 255. 255. 0. 0. 0. 0. 0. 0. 0. 0. 0. 0. 0. 0. 0.
      0. 0. 0. 0. 0. 255. 255. 0. 0. 0. 0. 0. 0. 0. 0. 0. 0. 0. 0. 0. 0.
      0. 0. 0. 0. 255. 255. 0. 0. 0. 0. 0. 0. 0. 0. 0. 0. 0. 0. 0. 0. 0.
      0. 0. 0. 255. 255. 255. 255. 255. 255. 255. 255. 255. 255. 255.
      255. 255. 255. 0. 0. 0. 0. 255. 255. 255. 255. 255. 255. 255. 255.
      255. 255. 255. 255. 255. 255. 255. 255. 0. 0. 0. 0. 255. 255. 255.
      255. 255. 255. 255. 255. 255. 255. 255. 255. 255. 255. 255. 255.
      0. 0. 0. 0. 255. 255.</_>
    <_>
      255. 255. 255. 255. 255. 255. 255. 255. 255. 255. 255. 255. 255.
      255. 255. 255. 255. 255. 255. 255. 255. 255. 255. 255. 255. 255.
      255. 255. 255. 255. 255. 255. 255. 255. 255. 255. 255. 255. 255.
      255. 255. 255. 0. 0. 0. 0. 0. 0. 0. 0. 0. 0. 0. 0. 0. 0. 0. 0. 0.
      0. 255. 255. 0. 0. 0. 0. 0. 0. 0. 0. 0. 0. 0. 0. 0. 0. 0. 0. 0. 0.
      255. 255. 0. 0. 0. 0. 0. 0. 0. 0. 0. 0. 0. 0. 0. 0. 0. 0. 0. 0.
      255. 255. 0. 0. 0. 0. 0. 255. 255. 255. 255. 255. 255. 255. 255.
      255. 255. 255. 255. 255. 255. 255. 0. 0. 0. 255. 255. 255. 255.
      255. 255. 255. 255. 255. 255. 255. 255. 255. 255. 255. 255. 255.
      0. 0. 0. 255. 255. 255. 255. 255. 255. 255. 255. 255. 255. 255.
      255. 255. 255. 255. 255. 255. 0. 0. 0. 255. 255. 255. 255. 255.
      255. 255. 255. 255. 255. 255. 255. 255. 255. 255. 255. 255. 0. 0.
      0. 255. 255. 255. 255. 255. 255. 255. 255. 255. 255. 255. 255.
      255. 255. 255. 255. 255. 0. 0. 0. 255. 255. 255. 255. 255. 255.
      255. 255. 255. 255. 255. 255. 255. 255. 255. 255. 255. 0. 0. 0.
      255. 255. 255. 255. 255. 255. 255. 255. 255. 255. 255. 255. 255.
      255. 255. 255. 255. 0. 0. 0. 255. 255. 255. 255. 255. 255. 255.
      255. 255. 255. 255. 255. 255. 255. 255. 255. 255. 0. 0. 0. 255.
      255. 255. 255. 255. 255. 255. 255. 255. 255. 255. 255. 255. 255.
      255. 255. 255. 0. 0. 0. 0. 0. 0. 0. 0. 0. 0. 0. 0. 0. 255. 255.
      255. 255. 255. 255. 255. 0. 0. 0. 0. 0. 0. 0. 0. 0. 0. 0. 0. 0.
      255. 255. 255. 255. 255. 255. 255. 0. 0. 0. 0. 0. 0. 0. 0. 0. 0.
      0. 0. 0. 255. 255. 255. 255. 255. 255. 255. 0. 0. 0. 0. 0. 255.
      255. 255. 255. 255. 255. 255. 255. 255. 255. 255. 255. 255. 255.
      255. 0. 0. 0. 255. 255. 255. 255. 255. 255. 255. 255. 255. 255.
      255. 255. 255. 255. 255. 255. 255. 0. 0. 0. 255. 255. 255. 255.
      255. 255. 255. 255. 255. 255. 255. 255. 255. 255. 255. 255. 255.
      0. 0. 0. 255. 255. 255. 255. 255. 255. 255. 255. 255. 255. 255.
      255. 255. 255. 255. 255. 255. 0. 0. 0. 255. 255. 255. 255. 255.
      255. 255. 255. 255. 255. 255. 255. 255. 255. 255. 255. 255. 0. 0.
      0. 255. 255. 255. 255. 255. 255. 255. 255. 255. 255. 255. 255.
      255. 255. 255. 255. 255. 0. 0. 0. 255. 255. 255. 255. 255. 255.
      255. 255. 255. 255. 255. 255. 255. 255. 255. 255. 255. 0. 0. 0.
      255. 255. 255. 255. 255. 255. 255. 255. 255. 255. 255. 255. 255.
      255. 255. 255. 255. 0. 0. 0. 255. 255. 255. 255. 255. 255. 255.
      255. 255. 255. 255. 255. 255. 255. 255. 255. 255. 0. 0. 0. 255.
      255. 255. 255. 255. 255. 255. 255. 255. 255. 255. 255. 255. 255.
      255. 0. 0. 0. 0. 0. 255. 255. 255. 255. 255. 255. 255. 255. 255.
      255. 255. 255. 255. 255. 255. 0. 0. 0. 0. 0. 255. 255. 255. 255.
      255. 255. 255. 255. 255. 255. 255. 255. 255. 255. 255. 255. 255.
      0. 0. 0. 255. 255. 255. 255. 255. 255. 255. 255. 255. 255. 255.
      255. 255. 255. 255.</_>
    <_>
      255. 255. 255. 255. 255. 255. 255. 255. 255. 255. 255. 255. 255.
      255. 255. 255. 255. 255. 255. 255. 255. 255. 255. 255. 255. 255.
      255. 255. 255. 255. 255. 255. 255. 255. 255. 255. 255. 255. 255.
      255. 255. 255. 255. 0. 0. 0. 0. 0. 0. 0. 0. 0. 0. 0. 0. 0. 0. 0.
      0. 0. 255. 255. 0. 0. 0. 0. 0. 0. 0. 0. 0. 0. 0. 0. 0. 0. 0. 0. 0.
      0. 255. 255. 0. 0. 0. 0. 0. 0. 0. 0. 0. 0. 0. 0. 0. 0. 0. 0. 0. 0.
      255. 255. 0. 0. 0. 0. 0. 0. 0. 0. 0. 0. 0. 0. 0. 255. 255. 255.
      255. 255. 255. 255. 0. 0. 0. 255. 255. 255. 255. 255. 255. 255.
      255. 255. 255. 255. 255. 255. 255. 255. 255. 255. 0. 0. 0. 255.
      255. 255. 255. 255. 255. 255. 255. 255. 255. 255. 255. 255. 255.
      255. 255. 255. 0. 0. 0. 255. 255. 255. 255. 255. 255. 255. 255.
      255. 255. 255. 255. 255. 255. 255. 255. 255. 0. 0. 0. 255. 255.
      255. 255. 255. 255. 255. 255. 255. 255. 255. 255. 255. 255. 255.
      255. 255. 0. 0. 0. 255. 255. 255. 255. 255. 255. 255. 255. 255.
      255. 255. 255. 255. 255. 255. 255. 255. 0. 0. 0. 255. 255. 255.
      255. 255. 255. 255. 255. 255. 255. 255. 255. 255. 255. 255. 255.
      255. 0. 0. 0. 255. 255. 255. 255. 255. 255. 255. 255. 255. 255.
      255. 255. 255. 255. 255. 255. 255. 0. 0. 0. 255. 255. 255. 255.
      255. 255. 255. 255. 255. 255. 255. 255. 255. 255. 255. 255. 255.
      0. 0. 0. 0. 0. 255. 255. 255. 255. 255. 0. 0. 0. 255. 255. 255.
      255. 255. 255. 255. 0. 0. 0. 0. 0. 0. 0. 0. 0. 0. 0. 0. 0. 255.
      255. 255. 255. 255. 255. 255. 0. 0. 0. 0. 0. 0. 0. 0. 0. 0. 0. 0.
      0. 255. 255. 255. 255. 255. 255. 255. 0. 0. 0. 0. 0. 0. 0. 0. 0.
      0. 0. 0. 0. 255. 255. 255. 255. 255. 255. 255. 0. 0. 0. 255. 255.
      255. 255. 255. 255. 255. 255. 255. 255. 255. 255. 255. 255. 255.
      255. 255. 0. 0. 0. 255. 255. 255. 255. 255. 255. 255. 255. 255.
      255. 255. 255. 255. 255. 255. 255. 255. 0. 0. 0. 255. 255. 255.
      255. 255. 255. 255. 255. 255. 255. 255. 255. 255. 255. 255. 255.
      255. 0. 0. 0. 255. 255. 255. 255. 255. 255. 255. 255. 255. 255.
      255. 255. 255. 255. 255. 255. 255. 0. 0. 0. 255. 255. 255. 255.
      255. 255. 255. 255. 255. 255. 255. 255. 255. 255. 255. 255. 255.
      0. 0. 0. 255. 255. 255. 255. 255. 255. 255. 255. 255. 255. 255.
      255. 255. 255. 255. 255. 255. 0. 0. 0. 255. 255. 255. 255. 255.
      255. 255. 255. 255. 255. 255. 255. 255. 255. 255. 255. 255. 0. 0.
      0. 255. 255. 255. 255. 255. 255. 255. 255. 255. 255. 255. 255.
      255. 255. 255. 255. 255. 0. 0. 0. 255. 255. 255. 255. 255. 255.
      255. 255. 255. 255. 255. 255. 255. 255. 255. 255. 255. 0. 0. 0.
      255. 255. 255. 255. 255. 255. 255. 255. 255. 255. 255. 255. 255.
      255. 255. 255. 255. 0. 0. 0. 255. 255. 255. 255. 255. 255. 255.
      255. 255. 255. 255. 255. 255. 255. 255. 255. 255. 0. 0. 0. 255.
      255. 255. 255. 255. 255. 255. 255. 255. 255. 255. 255. 255. 255.
      255.</_>
    <_>
      255. 255. 255. 255. 255. 255. 255. 255. 255. 255. 255. 255. 255.
      255. 255. 255. 255. 255. 255. 255. 255. 255. 255. 255. 255. 255.
      255. 255. 255. 255. 255. 255. 255. 255. 255. 255. 255. 255. 255.
      255. 255. 255. 0. 0. 0. 0. 0. 0. 0. 0. 0. 0. 0. 0. 0. 0. 255. 255.
      255. 255. 255. 255. 0. 0. 0. 0. 0. 0. 0. 0. 0. 0. 0. 0. 0. 0. 0.
      255. 255. 255. 255. 255. 0. 0. 0. 0. 0. 0. 0. 0. 0. 0. 0. 0. 0. 0.
      0. 255. 255. 255. 255. 255. 0. 0. 0. 0. 0. 0. 0. 0. 0. 0. 0. 0. 0.
      0. 255. 255. 255. 255. 255. 255. 0. 0. 0. 255. 255. 255. 255. 255.
      255. 255. 255. 255. 255. 255. 255. 255. 255. 255. 255. 255. 0. 0.
      0. 255. 255. 255. 255. 255. 255. 255. 255. 255. 255. 255. 255.
      255. 255. 255. 255. 255. 0. 0. 0. 0. 255. 255. 255. 255. 255. 255.
      255. 255. 255. 255. 255. 255. 255. 255. 255. 255. 0. 0. 0. 0. 255.
      255. 255. 255. 255. 255. 255. 255. 255. 255. 255. 255. 255. 255.
      255. 255. 0. 0. 0. 0. 255. 255. 255. 255. 255. 255. 255. 255. 255.
      255. 255. 255. 255. 255. 255. 255. 0. 0. 0. 0. 255. 255. 255. 255.
      255. 255. 255. 255. 255. 255. 255. 255. 255. 255. 255. 255. 0. 0.
      0. 0. 255. 255. 0. 0. 0. 0. 0. 255. 255. 255. 255. 255. 255. 255.
      255. 255. 0. 0. 0. 0. 255. 255. 0. 0. 0. 0. 0. 255. 255. 255. 255.
      255. 255. 255. 255. 255. 0. 0. 0. 0. 0. 0. 0. 0. 0. 0. 0. 0. 0. 0.
      255. 255. 255. 255. 255. 255. 0. 0. 0. 0. 0. 0. 0. 0. 0. 0. 0. 0.
      0. 0. 0. 255. 255. 255. 255. 255. 255. 0. 0. 0. 0. 0. 0. 255. 255.
      255. 0. 0. 0. 0. 0. 0. 255. 255. 255. 255. 255. 255. 255. 0. 255.
      255. 255. 255. 255. 255. 255. 255. 255. 0. 0. 0. 0. 255. 255. 255.
      255. 255. 255. 255. 255. 255. 255. 255. 255. 255. 255. 255. 255.
      255. 0. 0. 0. 0. 255. 255. 255. 255. 255. 255. 255. 255. 255. 255.
      255. 255. 255. 255. 255. 255. 0. 0. 0. 0. 255. 255. 255. 255. 255.
      255. 255. 255. 255. 255. 255. 255. 255. 255. 255. 255. 0. 0. 0. 0.
      255. 255. 255. 255. 255. 255. 255. 255. 255. 255. 255. 255. 255.
      255. 255. 255. 0. 0. 0. 0. 255. 255. 255. 255. 255. 255. 255. 255.
      255. 255. 255. 255. 255. 255. 255. 255. 0. 0. 0. 0. 255. 255. 255.
      255. 255. 255. 255. 255. 255. 255. 255. 255. 255. 255. 255. 255.
      0. 0. 0. 0. 255. 255. 255. 255. 0. 0. 255. 255. 255. 255. 255.
      255. 255. 255. 255. 0. 0. 0. 0. 255. 255. 255. 255. 255. 0. 0.
      255. 255. 255. 255. 255. 255. 255. 255. 255. 0. 0. 0. 0. 255. 255.
      255. 255. 0. 0. 0. 0. 0. 0. 255. 255. 255. 255. 0. 0. 0. 0. 0. 0.
      255. 255. 255. 255. 0. 0. 0. 0. 0. 0. 0. 0. 0. 0. 0. 0. 0. 0. 0.
      255. 255. 255. 255. 255. 255. 255. 0. 0. 0. 0. 0. 0. 0. 0. 0. 0.
      0. 0. 255. 255. 255. 255. 255. 255. 255. 255. 255. 255. 255. 0. 0.
      0. 0. 0. 0. 0. 255. 255. 255. 255. 255.</_>
    <_>
      255. 255. 255. 255. 255. 255. 255. 255. 255. 255. 255. 255. 255.
      255. 255. 255. 255. 255. 255. 255. 255. 255. 255. 255. 255. 255.
      255. 255. 255. 255. 255. 255. 255. 255. 255. 255. 255. 255. 255.
      255. 255. 255. 255. 255. 255. 255. 255. 255. 0. 0. 0. 0. 0. 0. 0.
      0. 0. 0. 255. 255. 255. 255. 255. 0. 0. 0. 0. 0. 0. 0. 0. 0. 0. 0.
      0. 0. 0. 0. 255. 255. 0. 0. 0. 0. 0. 0. 0. 0. 0. 0. 0. 0. 0. 0. 0.
      0. 0. 0. 255. 255. 255. 255. 255. 0. 0. 0. 0. 0. 0. 0. 0. 0. 0. 0.
      0. 0. 0. 0. 255. 255. 0. 0. 0. 0. 0. 0. 0. 0. 255. 255. 0. 0. 0.
      0. 0. 0. 0. 0. 255. 255. 0. 0. 0. 0. 0. 0. 0. 0. 255. 255. 0. 0.
      0. 0. 0. 0. 0. 0. 255. 255. 255. 255. 255. 255. 255. 255. 255.
      255. 255. 255. 0. 0. 0. 0. 0. 0. 0. 0. 255. 255. 255. 255. 255.
      255. 255. 255. 255. 255. 255. 255. 0. 0. 0. 0. 0. 0. 0. 0. 255.
      255. 255. 255. 255. 255. 255. 255. 255. 255. 255. 255. 0. 0. 0. 0.
      0. 0. 0. 0. 255. 255. 255. 255. 255. 255. 255. 255. 255. 255. 255.
      255. 0. 0. 0. 0. 0. 0. 0. 0. 255. 255. 255. 255. 255. 255. 255.
      255. 255. 255. 255. 255. 0. 0. 0. 0. 0. 0. 0. 0. 255. 255. 255.
      255. 255. 255. 255. 255. 255. 255. 255. 255. 0. 0. 0. 0. 0. 0. 0.
      0. 255. 255. 255. 255. 255. 255. 255. 255. 255. 255. 255. 255. 0.
      0. 0. 0. 0. 0. 0. 0. 255. 255. 255. 255. 255. 255. 255. 255. 255.
      255. 255. 255. 0. 0. 0. 0. 0. 0. 0. 0. 255. 255. 255. 255. 255.
      255. 255. 255. 255. 255. 255. 255. 0. 0. 0. 0. 0. 0. 0. 0. 255.
      255. 255. 255. 255. 255. 255. 255. 255. 255. 255. 255. 0. 0. 0. 0.
      0. 0. 0. 0. 255. 255. 255. 255. 255. 255. 255. 255. 255. 255. 255.
      255. 0. 0. 0. 0. 0. 0. 0. 0. 0. 0. 255. 255. 255. 255. 255. 255.
      255. 255. 255. 255. 0. 0. 0. 0. 0. 0. 0. 0. 0. 0. 255. 255. 255.
      255. 255. 255. 255. 255. 255. 255. 0. 0. 0. 0. 0. 0. 0. 0. 0. 0.
      255. 255. 255. 255. 255. 255. 255. 255. 255. 255. 0. 0. 0. 0. 0.
      0. 0. 0. 0. 0. 255. 255. 255. 255. 255. 255. 255. 255. 255. 255.
      0. 0. 0. 0. 0. 0. 0. 0. 0. 0. 255. 255. 255. 255. 255. 255. 255.
      255. 255. 255. 0. 0. 0. 0. 0. 0. 0. 0. 0. 0. 255. 255. 255. 255.
      255. 255. 255. 255. 255. 255. 0. 0. 0. 0. 0. 0. 0. 0. 0. 0. 255.
      255. 255. 255. 255. 255. 255. 255. 255. 255. 0. 0. 0. 0. 0. 0. 0.
      0. 0. 0. 255. 255. 255. 255. 255. 255. 255. 255. 255. 255. 0. 0.
      0. 0. 0. 0. 0. 0. 0. 0. 255. 255. 255. 255. 255. 255. 255. 255.
      255. 255. 0. 0. 0. 0. 0. 0. 0. 0. 0. 0. 255. 255. 255. 255. 255.
      255. 255. 255. 255. 255. 0. 0. 0. 0. 0. 0. 0. 0. 0. 0. 255. 255.
      255. 255. 255. 255. 255. 255. 255. 255. 255. 255. 255. 0. 0. 0. 0.
      0. 0. 0.</_>
    <_>
      255. 255. 255. 255. 255. 255. 255. 255. 0. 0. 255. 255. 255. 255.
      255. 255. 255. 255. 255. 255. 255. 255. 255. 255. 255. 255. 255.
      255. 0. 0. 255. 255. 255. 255. 255. 255. 255. 255. 255. 255. 255.
      255. 255. 255. 0. 0. 0. 0. 0. 0. 0. 0. 0. 0. 255. 255. 255. 255.
      255. 255. 255. 255. 255. 0. 0. 0. 0. 0. 0. 0. 0. 0. 0. 0. 0. 0. 0.
      255. 255. 255. 255. 255. 0. 0. 0. 0. 0. 0. 0. 255. 0. 0. 0. 0. 0.
      0. 0. 0. 255. 255. 0. 0. 0. 0. 0. 255. 255. 255. 255. 255. 255.
      255. 255. 0. 0. 0. 0. 0. 255. 255. 0. 0. 0. 0. 0. 255. 255. 255.
      255. 255. 255. 255. 255. 0. 0. 0. 0. 0. 255. 255. 0. 0. 0. 0. 0.
      255. 255. 255. 255. 255. 255. 255. 255. 255. 255. 0. 0. 0. 0. 255.
      255. 255. 255. 255. 255. 255. 255. 255. 255. 255. 255. 255. 255.
      255. 255. 0. 0. 0. 0. 255. 255. 255. 255. 255. 255. 255. 255. 255.
      255. 255. 255. 255. 255. 255. 255. 0. 0. 0. 0. 0. 255. 255. 255.
      255. 255. 255. 255. 255. 255. 255. 255. 255. 255. 255. 255. 0. 0.
      0. 0. 255. 255. 255. 255. 255. 255. 255. 255. 255. 255. 255. 255.
      255. 255. 255. 255. 0. 0. 0. 0. 255. 255. 255. 255. 255. 255. 255.
      255. 255. 255. 255. 255. 255. 255. 255. 0. 0. 0. 0. 0. 255. 255.
      255. 255. 255. 255. 255. 255. 255. 255. 255. 255. 255. 0. 0. 0. 0.
      0. 0. 0. 255. 255. 255. 255. 255. 255. 255. 255. 255. 0. 0. 0. 0.
      0. 0. 0. 0. 0. 0. 255. 255. 255. 255. 255. 255. 255. 255. 255.
      255. 0. 0. 0. 0. 0. 0. 0. 0. 0. 255. 255. 255. 255. 255. 255. 255.
      255. 255. 255. 255. 0. 0. 0. 0. 0. 0. 0. 0. 0. 255. 255. 255. 255.
      255. 255. 255. 255. 255. 255. 255. 0. 0. 0. 0. 0. 0. 0. 0. 0. 0.
      255. 255. 255. 255. 255. 255. 255. 255. 255. 255. 255. 255. 255.
      255. 255. 255. 0. 0. 0. 0. 0. 255. 255. 255. 255. 255. 255. 255.
      255. 255. 255. 255. 255. 255. 255. 255. 255. 0. 0. 0. 0. 255. 255.
      255. 255. 255. 255. 255. 255. 255. 255. 255. 255. 255. 255. 255.
      255. 0. 0. 0. 0. 0. 255. 255. 255. 255. 255. 255. 255. 255. 255.
      255. 255. 255. 255. 255. 255. 0. 0. 0. 0. 0. 255. 255. 255. 255.
      255. 255. 255. 255. 255. 255. 255. 255. 255. 255. 255. 255. 255.
      0. 0. 0. 255. 255. 255. 0. 0. 255. 255. 255. 255. 255. 255. 255.
      255. 255. 255. 255. 255. 0. 0. 0. 255. 255. 0. 0. 0. 0. 0. 255.
      255. 255. 255. 255. 255. 255. 255. 0. 0. 0. 0. 0. 255. 255. 255.
      0. 0. 0. 0. 0. 255. 255. 255. 255. 255. 0. 0. 0. 0. 0. 0. 255.
      255. 255. 255. 0. 0. 0. 0. 0. 255. 255. 255. 255. 255. 0. 0. 0. 0.
      0. 0. 255. 255. 255. 255. 255. 0. 0. 0. 0. 0. 0. 0. 0. 0. 0. 0. 0.
      0. 0. 0. 255. 255. 255. 255. 255. 255. 0. 0. 0. 0. 0. 0. 0. 0. 0.
      0. 0. 0. 0. 255. 255. 255. 255. 255. 255. 255. 255. 255. 255. 0.
      0. 0. 0. 0. 0. 0. 255. 255. 255. 255. 255.</_>
    <_>
      255. 255. 255. 255. 255. 255. 255. 255. 255. 255. 255. 255. 255.
      255. 255. 255. 255. 255. 255. 255. 255. 255. 255. 255. 255. 255.
      255. 255. 255. 255. 255. 255. 255. 255. 255. 255. 255. 255. 255.
      255. 255. 255. 255. 255. 255. 255. 255. 255. 255. 255. 255. 255.
      255. 255. 255. 255. 0. 0. 0. 0. 0. 0. 0. 0. 0. 0. 255. 255. 255.
      255. 255. 255. 255. 255. 255. 0. 0. 0. 0. 0. 255. 255. 0. 0. 0. 0.
      0. 255. 255. 255. 255. 255. 255. 255. 255. 0. 0. 0. 0. 255. 255.
      255. 0. 0. 0. 0. 0. 255. 255. 255. 255. 255. 255. 255. 0. 0. 0. 0.
      0. 255. 255. 255. 255. 0. 0. 0. 0. 0. 255. 255. 255. 255. 255.
      255. 0. 0. 0. 0. 0. 255. 255. 255. 255. 0. 0. 0. 0. 0. 255. 255.
      255. 255. 255. 255. 0. 0. 0. 0. 0. 255. 255. 255. 255. 0. 0. 0. 0.
      0. 255. 255. 255. 255. 0. 0. 0. 0. 0. 0. 255. 255. 255. 255. 255.
      0. 0. 0. 0. 0. 255. 255. 255. 255. 0. 0. 0. 0. 0. 0. 255. 255.
      255. 255. 255. 255. 0. 0. 0. 0. 0. 0. 255. 0. 0. 0. 0. 0. 255.
      255. 255. 255. 255. 255. 255. 255. 0. 0. 0. 0. 0. 0. 255. 0. 0. 0.
      0. 0. 255. 255. 255. 255. 255. 255. 255. 255. 255. 255. 0. 0. 0.
      0. 0. 0. 0. 0. 0. 255. 255. 255. 255. 255. 255. 255. 255. 255.
      255. 255. 0. 0. 0. 0. 0. 0. 0. 0. 0. 255. 255. 255. 255. 255. 255.
      255. 255. 255. 255. 255. 0. 0. 0. 0. 0. 0. 0. 0. 0. 255. 255. 255.
      255. 255. 255. 255. 255. 255. 255. 255. 0. 0. 0. 0. 0. 0. 0. 0.
      255. 255. 255. 255. 255. 255. 255. 255. 255. 255. 255. 255. 255.
      0. 0. 0. 0. 0. 0. 0. 255. 255. 255. 255. 255. 255. 255. 255. 255.
      255. 255. 255. 255. 0. 0. 0. 0. 0. 0. 0. 255. 255. 255. 255. 255.
      255. 255. 255. 255. 255. 255. 255. 255. 0. 0. 0. 0. 0. 255. 255.
      255. 255. 255. 255. 255. 255. 255. 255. 255. 255. 255. 255. 255.
      0. 0. 0. 0. 0. 255. 255. 255. 255. 255. 255. 255. 255. 255. 255.
      255. 255. 255. 255. 255. 255. 0. 0. 0. 0. 255. 255. 255. 255. 255.
      255. 255. 255. 255. 255. 255. 255. 255. 255. 255. 0. 0. 0. 0. 0.
      255. 255. 255. 255. 255. 255. 255. 255. 255. 255. 255. 255. 255.
      255. 255. 0. 0. 0. 0. 0. 255. 255. 255. 255. 255. 255. 255. 255.
      255. 255. 255. 255. 255. 255. 255. 0. 0. 0. 0. 0. 255. 255. 255.
      255. 255. 255. 255. 255. 255. 255. 255. 255. 255. 255. 255. 0. 0.
      0. 0. 0. 255. 255. 255. 255. 255. 255. 255. 255. 255. 255. 255.
      255. 255. 255. 255. 0. 0. 0. 0. 0. 255. 255. 255. 255. 255. 255.
      255. 255. 255. 255. 255. 255. 255. 255. 255. 0. 0. 0. 0. 0. 255.
      255. 255. 255. 255. 255. 255. 255. 255. 255. 255. 255. 255. 255.
      255. 0. 0. 0. 0. 0. 255. 255. 255. 255. 255. 255. 255. 255. 255.
      255. 255. 255. 255. 255. 255. 0. 0. 0. 0. 0. 255. 255. 255. 255.
      255. 255. 255. 255. 255. 255. 255. 255. 255. 255. 255. 0. 0. 0. 0.
      0. 255. 255. 255. 255. 255. 255. 255. 255.</_>
    <_>
      0. 0. 0. 0. 0. 0. 0. 0. 0. 0. 0. 0. 0. 0. 255. 255. 255. 255. 255.
      255. 0. 0. 0. 0. 0. 0. 0. 0. 0. 0. 0. 0. 0. 0. 255. 255. 255. 255.
      255. 255. 0. 0. 0. 0. 0. 0. 0. 0. 0. 0. 0. 0. 0. 0. 255. 255. 255.
      255. 255. 255. 0. 0. 0. 0. 0. 0. 0. 0. 0. 0. 0. 0. 0. 0. 255. 255.
      255. 255. 255. 255. 0. 0. 0. 0. 0. 0. 0. 0. 0. 0. 0. 0. 0. 0. 255.
      255. 255. 255. 255. 255. 255. 255. 255. 255. 0. 0. 0. 0. 0. 0. 0.
      0. 0. 0. 255. 255. 255. 255. 255. 255. 0. 0. 0. 0. 0. 0. 0. 0. 0.
      0. 0. 0. 0. 0. 255. 255. 255. 255. 255. 255. 0. 0. 0. 0. 0. 0. 0.
      0. 0. 0. 0. 0. 0. 0. 255. 255. 255. 255. 255. 255. 0. 0. 0. 0. 0.
      0. 0. 0. 0. 0. 0. 0. 0. 0. 255. 255. 255. 255. 255. 255. 0. 0. 0.
      0. 0. 0. 0. 255. 255. 255. 0. 0. 0. 0. 255. 255. 255. 255. 255.
      255. 0. 0. 0. 0. 0. 0. 0. 0. 0. 0. 0. 0. 0. 0. 255. 255. 255. 255.
      255. 255. 0. 0. 0. 0. 0. 0. 0. 255. 255. 255. 0. 0. 0. 0. 255.
      255. 255. 255. 255. 255. 0. 0. 0. 0. 0. 0. 0. 0. 0. 0. 0. 0. 0. 0.
      255. 255. 255. 255. 255. 255. 255. 255. 255. 255. 255. 255. 255.
      0. 0. 0. 0. 0. 0. 0. 0. 0. 0. 255. 255. 255. 0. 0. 0. 0. 0. 0. 0.
      0. 0. 0. 0. 0. 0. 0. 255. 255. 255. 255. 255. 255. 0. 0. 0. 0. 0.
      0. 0. 0. 0. 0. 0. 0. 0. 0. 0. 0. 0. 255. 255. 255. 0. 0. 0. 0. 0.
      0. 0. 0. 0. 0. 0. 0. 0. 0. 0. 0. 0. 255. 255. 255. 0. 0. 0. 0. 0.
      0. 0. 0. 0. 0. 0. 0. 0. 0. 0. 0. 0. 255. 255. 255. 0. 0. 0. 0. 0.
      0. 0. 0. 0. 0. 0. 0. 0. 0. 0. 0. 0. 255. 255. 255. 255. 255. 255.
      255. 255. 255. 255. 0. 0. 0. 0. 0. 0. 0. 0. 0. 0. 255. 255. 255.
      255. 255. 255. 255. 255. 255. 255. 0. 0. 0. 0. 0. 0. 0. 0. 0. 0.
      255. 255. 255. 0. 0. 0. 0. 0. 0. 0. 0. 0. 0. 0. 0. 0. 0. 0. 0. 0.
      255. 255. 255. 255. 255. 255. 255. 0. 0. 0. 0. 0. 0. 0. 0. 0. 0.
      0. 0. 0. 255. 255. 255. 0. 0. 0. 0. 0. 0. 0. 0. 0. 0. 0. 0. 0. 0.
      0. 0. 0. 255. 255. 255. 255. 255. 255. 255. 255. 255. 255. 0. 0.
      0. 0. 0. 0. 0. 0. 0. 0. 255. 255. 255. 255. 255. 255. 255. 255.
      255. 255. 0. 0. 0. 0. 0. 0. 0. 0. 0. 0. 255. 255. 255. 0. 0. 0. 0.
      0. 0. 0. 0. 0. 0. 0. 0. 0. 0. 0. 0. 0. 255. 255. 255. 0. 0. 0. 0.
      0. 0. 0. 0. 0. 0. 0. 0. 0. 0. 0. 0. 0. 255. 255. 255. 0. 0. 0. 0.
      0. 0. 0. 0. 0. 0. 0. 0. 0. 0. 0. 0. 0. 255. 255. 255. 0. 0. 0. 0.
      0. 0. 0. 0. 0. 0. 0. 0. 0. 0. 0. 0. 0. 255. 255. 255.</_>
    <_>
      255. 255. 255. 255. 255. 255. 255. 255. 255. 255. 255. 255. 255.
      255. 255. 255. 255. 255. 255. 255. 255. 255. 255. 255. 255. 255.
      255. 255. 255. 255. 255. 255. 255. 255. 255. 255. 255. 255. 255.
      255. 0. 0. 0. 0. 0. 0. 0. 0. 0. 0. 0. 0. 0. 0. 0. 0. 0. 0. 0. 255.
      0. 0. 0. 0. 0. 0. 0. 0. 0. 0. 0. 0. 0. 0. 0. 0. 0. 0. 0. 0. 255.
      255. 0. 0. 0. 0. 0. 0. 0. 0. 0. 0. 0. 0. 0. 0. 0. 0. 0. 255. 255.
      255. 255. 255. 255. 255. 255. 255. 0. 0. 0. 0. 255. 255. 255. 255.
      255. 255. 255. 255. 255. 255. 255. 255. 255. 255. 255. 255. 0. 0.
      0. 0. 255. 255. 255. 255. 255. 255. 255. 255. 255. 255. 255. 255.
      255. 255. 255. 255. 0. 0. 0. 0. 255. 255. 255. 255. 255. 255. 255.
      255. 255. 255. 255. 255. 255. 255. 255. 255. 0. 0. 0. 0. 255. 255.
      255. 255. 255. 255. 255. 255. 255. 255. 255. 255. 255. 255. 255.
      255. 0. 0. 0. 0. 255. 255. 255. 255. 255. 255. 255. 255. 255. 255.
      255. 255. 255. 255. 255. 255. 0. 0. 0. 0. 255. 255. 255. 255. 255.
      255. 255. 255. 255. 255. 255. 255. 255. 255. 255. 255. 0. 0. 0. 0.
      255. 255. 255. 255. 255. 255. 255. 255. 255. 255. 255. 255. 255.
      255. 255. 255. 0. 0. 0. 0. 255. 255. 255. 255. 255. 255. 255. 255.
      255. 255. 255. 255. 255. 255. 255. 255. 0. 0. 0. 0. 255. 255. 255.
      255. 255. 255. 255. 255. 255. 255. 255. 255. 255. 255. 255. 255.
      0. 0. 0. 0. 255. 255. 255. 255. 255. 255. 255. 255. 255. 255. 255.
      255. 255. 255. 255. 0. 0. 0. 0. 0. 255. 255. 255. 255. 255. 255.
      255. 255. 255. 255. 255. 255. 255. 255. 255. 0. 0. 0. 0. 0. 255.
      255. 255. 255. 255. 255. 255. 255. 255. 255. 255. 255. 255. 255.
      255. 0. 0. 0. 0. 0. 255. 255. 255. 255. 255. 255. 255. 255. 255.
      255. 255. 255. 255. 255. 255. 0. 0. 0. 0. 0. 255. 255. 255. 255.
      255. 255. 255. 255. 255. 255. 255. 255. 255. 255. 255. 0. 0. 0. 0.
      0. 255. 255. 255. 255. 255. 255. 255. 255. 255. 255. 255. 255.
      255. 255. 255. 0. 0. 0. 0. 0. 255. 255. 255. 255. 255. 255. 255.
      255. 255. 255. 255. 255. 255. 255. 255. 0. 0. 0. 0. 0. 255. 255.
      255. 255. 255. 255. 255. 255. 255. 255. 255. 255. 255. 255. 255.
      0. 0. 0. 0. 0. 255. 255. 255. 255. 255. 255. 255. 255. 255. 255.
      255. 255. 255. 255. 255. 0. 0. 0. 0. 0. 255. 255. 255. 255. 255.
      255. 255. 255. 255. 255. 255. 255. 255. 255. 255. 0. 0. 0. 0. 0.
      255. 255. 255. 255. 255. 255. 255. 255. 255. 255. 255. 255. 255.
      255. 255. 0. 0. 0. 0. 0. 255. 255. 255. 255. 255. 255. 255. 255.
      255. 255. 255. 255. 255. 255. 255. 0. 0. 0. 0. 0. 255. 255. 255.
      255. 255. 255. 255. 255. 255. 255. 255. 255. 255. 255. 255. 0. 0.
      0. 0. 0. 255. 255. 255. 255. 255. 255. 255. 255. 255. 255. 255.
      255. 255. 255. 255. 0. 0. 0. 0. 0. 255. 255. 255. 255. 255. 255.
      255. 255. 255. 255. 255. 255. 255. 255. 255. 255. 0. 0. 0. 255.
      255. 255. 255. 255. 255. 255. 255. 255.</_>
    <_>
      255. 255. 255. 255. 255. 255. 255. 255. 255. 255. 255. 255. 255.
      255. 255. 255. 255. 255. 255. 255. 255. 255. 255. 255. 255. 255.
      255. 255. 255. 255. 255. 255. 255. 255. 255. 255. 255. 255. 255.
      255. 255. 255. 255. 0. 0. 0. 0. 255. 255. 255. 255. 255. 255. 255.
      255. 255. 255. 255. 255. 255. 255. 255. 0. 0. 0. 0. 0. 255. 255.
      255. 255. 255. 255. 255. 255. 0. 0. 0. 0. 0. 255. 255. 0. 0. 0. 0.
      0. 0. 255. 255. 255. 255. 255. 255. 255. 0. 0. 0. 0. 0. 255. 255.
      0. 0. 0. 0. 0. 0. 255. 255. 255. 255. 255. 255. 255. 0. 0. 0. 0.
      0. 255. 255. 0. 0. 0. 0. 0. 0. 255. 255. 255. 255. 255. 255. 255.
      0. 0. 0. 0. 0. 255. 255. 255. 0. 0. 0. 0. 0. 0. 255. 255. 255.
      255. 255. 255. 0. 0. 0. 0. 0. 255. 255. 0. 0. 0. 0. 0. 0. 0. 255.
      255. 255. 255. 255. 255. 0. 0. 0. 0. 0. 255. 255. 0. 0. 0. 0. 0.
      0. 0. 0. 255. 255. 255. 255. 255. 0. 0. 0. 0. 0. 255. 255. 0. 0.
      0. 0. 0. 0. 0. 0. 255. 255. 255. 255. 255. 0. 0. 0. 0. 0. 255.
      255. 0. 0. 0. 0. 0. 0. 0. 0. 255. 255. 255. 255. 255. 0. 0. 0. 0.
      0. 255. 255. 0. 0. 0. 0. 0. 0. 0. 0. 0. 0. 255. 255. 255. 0. 0. 0.
      0. 0. 255. 255. 0. 0. 0. 255. 255. 255. 255. 0. 0. 0. 255. 255.
      255. 0. 0. 0. 0. 0. 255. 255. 0. 0. 0. 0. 0. 0. 0. 0. 0. 0. 0.
      255. 255. 0. 0. 0. 0. 255. 255. 255. 0. 0. 0. 0. 0. 0. 0. 0. 0. 0.
      0. 255. 255. 0. 0. 0. 0. 255. 255. 255. 0. 0. 0. 0. 0. 0. 0. 0. 0.
      0. 0. 255. 255. 0. 0. 0. 0. 255. 255. 255. 0. 0. 0. 0. 0. 255.
      255. 0. 0. 0. 0. 255. 255. 0. 0. 0. 0. 255. 255. 255. 0. 0. 0. 0.
      0. 255. 255. 0. 0. 0. 0. 0. 255. 0. 0. 0. 0. 255. 255. 255. 0. 0.
      0. 0. 0. 255. 255. 255. 0. 0. 0. 0. 255. 0. 0. 0. 0. 255. 255.
      255. 0. 0. 0. 0. 0. 255. 255. 255. 0. 0. 0. 0. 0. 0. 0. 0. 0. 255.
      255. 255. 0. 0. 0. 0. 0. 255. 255. 255. 0. 0. 0. 0. 0. 0. 0. 0. 0.
      255. 255. 255. 0. 0. 0. 0. 0. 255. 255. 255. 255. 255. 0. 0. 0. 0.
      0. 0. 0. 255. 255. 255. 0. 0. 0. 0. 0. 255. 255. 255. 255. 255. 0.
      0. 0. 0. 0. 0. 0. 255. 255. 255. 0. 0. 0. 0. 0. 255. 255. 255.
      255. 255. 255. 0. 0. 0. 0. 0. 0. 255. 255. 255. 0. 0. 0. 0. 0.
      255. 255. 255. 255. 255. 255. 0. 0. 0. 0. 0. 0. 255. 255. 255. 0.
      0. 0. 0. 0. 255. 255. 255. 255. 255. 255. 0. 0. 0. 0. 0. 0. 255.
      255. 255. 0. 0. 0. 0. 0. 255. 255. 255. 255. 255. 255. 0. 0. 0. 0.
      0. 0. 255. 255. 255. 0. 0. 0. 0. 0. 255. 255. 255. 255. 255. 255.
      255. 0. 0. 0. 0. 0. 255. 255. 255. 0. 0. 0. 255. 255. 255. 255.
      255. 255. 255. 255. 255. 0. 0. 0. 0. 0. 255.</_>
    <_>
      255. 255. 255. 255. 255. 255. 255. 255. 255. 255. 255. 255. 255.
      255. 255. 255. 255. 255. 255. 255. 255. 255. 255. 255. 255. 255.
      255. 255. 255. 255. 255. 255. 255. 255. 255. 255. 255. 255. 255.
      255. 255. 255. 255. 255. 255. 255. 255. 0. 0. 0. 0. 0. 0. 0. 0.
      255. 255. 255. 255. 255. 255. 255. 255. 255. 255. 255. 0. 0. 0. 0.
      0. 0. 0. 0. 0. 0. 0. 0. 255. 255. 255. 255. 255. 255. 0. 0. 0. 0.
      0. 0. 0. 0. 0. 0. 0. 0. 0. 0. 0. 255. 255. 255. 255. 0. 0. 0. 0.
      0. 0. 0. 255. 255. 255. 255. 0. 0. 0. 0. 0. 255. 255. 255. 255. 0.
      0. 0. 0. 0. 0. 0. 255. 255. 255. 255. 0. 0. 0. 0. 0. 255. 255.
      255. 255. 0. 0. 0. 0. 255. 255. 255. 255. 255. 255. 255. 255. 0.
      0. 0. 0. 0. 255. 255. 0. 0. 0. 0. 0. 255. 255. 255. 255. 255. 255.
      255. 255. 255. 0. 0. 0. 0. 255. 255. 0. 0. 0. 0. 0. 255. 255. 255.
      255. 255. 255. 255. 255. 255. 0. 0. 0. 0. 255. 255. 0. 0. 0. 0. 0.
      255. 255. 255. 255. 255. 255. 255. 255. 255. 255. 255. 255. 255.
      255. 255. 0. 0. 0. 0. 0. 255. 255. 255. 255. 255. 255. 255. 255.
      255. 255. 255. 255. 255. 255. 255. 0. 0. 0. 0. 255. 255. 255. 255.
      255. 255. 255. 255. 255. 255. 255. 255. 255. 255. 255. 255. 0. 0.
