<?xml version="1.0"?>
<opencv_storage>
<opencv_ml_svm>
  <format>3</format>
  <svmType>C_SVC</svmType>
  <kernel>
    <type>LINEAR</type></kernel>
  <C>1.0000000000000001e-05</C>
  <term_criteria><epsilon>1.1920928955078125e-07</epsilon>
    <iterations>1000</iterations></term_criteria>
  <var_count>600</var_count>
  <class_count>24</class_count>
  <class_labels type_id="opencv-matrix">
    <rows>24</rows>
    <cols>1</cols>
    <dt>i</dt>
    <data>
      -1 0 1 2 3 4 5 6 7 8 9 10 11 12 13 14 15 16 17 18 19 20 21 22</data></class_labels>
  <sv_total>276</sv_total>
  <support_vectors>
    <_>
      -3.03164579e-05 -3.03164579e-05 -4.25601029e-05 -4.25601029e-05
      -4.25601029e-05 -4.25601029e-05 -4.25601029e-05 -2.45494834e-06
      4.12163308e-06 4.12163308e-06 9.47576518e-06 9.47576518e-06
      -2.45494834e-06 -6.29361011e-06 -3.93368282e-05 -4.25601029e-05
      -2.46314739e-05 -2.46314739e-05 -2.46314739e-05 -2.46314739e-05
      -3.03164579e-05 -3.03164579e-05 -4.25601029e-05 -4.25601029e-05
      -4.25601029e-05 -4.25601029e-05 -4.25601029e-05 -2.45494834e-06
      4.12163308e-06 4.12163308e-06 9.47576518e-06 9.47576518e-06
      -2.45494834e-06 -6.29361011e-06 -3.93368282e-05 -4.25601029e-05
      -2.46314739e-05 -2.46314739e-05 -2.46314739e-05 -2.46314739e-05
      -3.03164579e-05 -3.03164579e-05 -4.25601029e-05 -9.51688526e-06
      -9.51688526e-06 2.34351301e-05 3.20125364e-05 7.29160674e-05
      7.29160674e-05 7.29160674e-05 7.29160674e-05 7.29160674e-05
      7.29160674e-05 7.29160674e-05 5.03792980e-05 3.84485829e-05
      -2.46314739e-05 -2.46314739e-05 -2.46314739e-05 -2.46314739e-05
      -3.03164579e-05 -3.03164579e-05 -4.25601029e-05 -9.51688526e-06
      3.20125364e-05 3.20125364e-05 3.20125364e-05 7.29160674e-05
      7.29160674e-05 7.29160674e-05 7.29160674e-05 7.29160674e-05
      7.29160674e-05 7.29160674e-05 3.20125364e-05 2.31709837e-05
      3.31905503e-05 -2.14081992e-05 -2.46314739e-05 -2.46314739e-05
      -3.03164579e-05 -3.03164579e-05 -4.25601029e-05 1.61090466e-05
      3.20125364e-05 7.29160674e-05 7.29160674e-05 3.98728480e-05
      3.98728480e-05 3.98728480e-05 -1.03068146e-06 -1.03068146e-06
      -1.03068146e-06 -1.03068146e-06 7.29160674e-05 4.46360027e-05
      6.25646353e-05 1.69891518e-05 -2.46314739e-05 -2.46314739e-05
      -3.03164579e-05 -3.03164579e-05 -4.25601029e-05 2.31709837e-05
      3.20125364e-05 7.29160674e-05 7.29160674e-05 3.98728480e-05
      3.12954435e-05 2.24538890e-05 -2.50262237e-05 -1.84496421e-05
      -1.03068146e-06 -1.03068146e-06 7.29160674e-05 3.62915525e-05
      5.42201815e-05 4.10996145e-05 -1.60540676e-05 -4.18174786e-05
      -2.30740170e-05 -2.30740170e-05 -2.98103441e-06 3.20125364e-05
      3.20125364e-05 7.29160674e-05 7.29160674e-05 3.10312971e-05
      -4.25601029e-05 -4.25601029e-05 -4.25601029e-05 -4.25601029e-05
      -4.35967422e-06 -5.21012566e-07 3.20125364e-05 -4.61197942e-06
      1.33166495e-05 8.20031419e-05 2.48494634e-05 -4.18174786e-05
      -2.30740170e-05 -2.30740170e-05 8.57627299e-07 2.13263484e-05
      2.13263484e-05 2.91866618e-05 3.98728480e-05 -9.87223393e-06
      -4.25601029e-05 -4.25601029e-05 -4.25601029e-05 -4.25601029e-05
      -2.46314739e-05 -5.21012566e-07 4.99411653e-05 1.33166495e-05
      1.33166495e-05 8.20031419e-05 4.23833444e-05 -4.18174786e-05
      -4.25125290e-05 -4.25125290e-05 6.21175968e-06 2.13263484e-05
      6.22298830e-05 2.03451091e-05 2.39806122e-05 -9.90047556e-06
      -3.73671428e-05 -4.96107896e-05 -4.96107896e-05 -4.96107896e-05
      -3.16821606e-05 -1.14103586e-05 3.05026533e-05 2.55602972e-05
      6.66080086e-05 7.49524625e-05 4.19092430e-05 -4.88681617e-05
      -4.25125290e-05 -4.25125290e-05 6.21175968e-06 2.13263484e-05
      6.22298830e-05 3.25887559e-05 2.39806122e-05 -4.07816988e-05
      -4.96107896e-05 -4.96107896e-05 -4.96107896e-05 -4.96107896e-05
      -4.96107896e-05 -2.93389876e-05 3.05026533e-05 3.05026533e-05
      6.66080086e-05 6.66080086e-05 3.35647892e-05 -4.56448870e-05
      -9.46930959e-06 -9.46930959e-06 3.92549773e-05 3.92549773e-05
      8.01585120e-05 3.25887559e-05 1.74040306e-05 -4.73582804e-05
      -4.96107896e-05 -4.96107896e-05 -4.96107896e-05 -4.96107896e-05
      -4.96107896e-05 -4.30342079e-05 -2.54056454e-06 -2.54056454e-06
      6.66080086e-05 6.66080086e-05 3.35647892e-05 -4.02907572e-05
      -9.46930959e-06 -9.46930959e-06 3.92549773e-05 3.92549773e-05
      8.01585120e-05 2.03451091e-05 1.74040306e-05 -4.73582804e-05
      -4.96107896e-05 -3.16821606e-05 -3.16821606e-05 -3.16821606e-05
      -3.16821606e-05 -2.51055772e-05 -2.54056454e-06 -2.54056454e-06
      6.66080086e-05 6.66080086e-05 3.35647892e-05 -4.02907572e-05
      4.22590892e-06 4.22590892e-06 1.98164653e-05 1.98164653e-05
      6.07199981e-05 9.06596483e-07 1.74040306e-05 -6.67967906e-05
      -4.96107896e-05 -3.16821606e-05 -1.22436468e-05 -1.22436468e-05
      -1.22436468e-05 -2.51055772e-05 3.05026533e-05 3.05026533e-05
      6.66080086e-05 6.66080086e-05 3.35647892e-05 -2.27568744e-05
      1.96440433e-05 2.45803903e-06 2.63046149e-06 -1.52981684e-05
      2.56053627e-05 9.06596483e-07 1.74040306e-05 -4.96107896e-05
      -4.96107896e-05 -3.16821606e-05 -2.94296515e-05 -1.22436468e-05
      -1.22436468e-05 -2.51055772e-05 -4.61197942e-06 1.25740244e-05
      6.66080086e-05 6.66080086e-05 3.35647892e-05 -5.57087060e-06
      7.06954597e-06 -1.01164578e-05 2.56053627e-05 3.62915525e-05
      3.62915525e-05 1.15927851e-05 1.74040306e-05 -4.96107896e-05
      -4.96107896e-05 -3.16821606e-05 -2.94296515e-05 -1.22436468e-05
      -3.01722757e-05 -4.30342079e-05 -3.76551980e-05 -2.04691933e-05
      6.66080086e-05 6.66080086e-05 4.58084360e-05 -5.57087060e-06
      1.96440433e-05 -2.31473241e-05 1.79286289e-05 1.06861880e-05
      1.06861880e-05 2.95214140e-05 2.29448324e-05 -2.46314739e-05
      -2.46314739e-05 -2.46314739e-05 -4.18174786e-05 -2.46314739e-05
      -4.25601029e-05 -3.59835212e-05 -4.61197942e-06 1.25740244e-05
      5.42201815e-05 5.42201815e-05 2.11769620e-05 -1.13821170e-05
      3.56843630e-05 -7.10700397e-06 2.86148170e-05 1.06861880e-05
      1.06861880e-05 2.95214140e-05 2.29448324e-05 -2.46314739e-05
      -2.46314739e-05 -2.46314739e-05 -4.18174786e-05 -2.46314739e-05
      -4.25601029e-05 -3.59835212e-05 -4.61197942e-06 1.25740244e-05
      5.42201815e-05 5.42201815e-05 2.11769620e-05 -1.13821170e-05
      1.77557340e-05 -2.50356334e-05 1.06861880e-05 2.86148170e-05
      2.86148170e-05 8.61529600e-07 -1.79586987e-05 -4.25601029e-05
      -4.25601029e-05 -2.46314739e-05 -4.18174786e-05 -2.46314739e-05
      -2.46314739e-05 -1.80548941e-05 1.33166495e-05 3.05026533e-05
      6.64638283e-05 6.64638283e-05 2.11769620e-05 -1.79586987e-05
      6.25471239e-06 -2.16464673e-06 2.86148170e-05 2.86148170e-05
      2.86148170e-05 -1.13821170e-05 -1.79586987e-05 -4.18174786e-05
      -2.46314739e-05 -2.46314739e-05 -4.18174786e-05 -2.46314739e-05
      -2.46314739e-05 -1.80548941e-05 1.33166495e-05 3.05026533e-05
      5.42201815e-05 5.42201815e-05 2.11769620e-05 -1.79586987e-05
      -3.21868782e-07 -8.74122816e-06 2.86148170e-05 2.86148170e-05
      2.86148170e-05 -1.13821170e-05 -1.79586987e-05 -4.18174786e-05
      -2.46314739e-05 -2.46314739e-05 -4.18174786e-05 -2.46314739e-05
      -2.46314739e-05 -1.80548941e-05 5.42201815e-05 7.14061825e-05
      1.33166495e-05 5.42201815e-05 2.11769620e-05 -1.79586987e-05
      3.08022527e-06 -5.33913408e-06 2.86148170e-05 2.86148170e-05
      2.86148170e-05 -1.13821170e-05 -1.13821170e-05 -3.52408970e-05
      -2.46314739e-05 -2.46314739e-05 -4.18174786e-05 -2.46314739e-05
      -2.46314739e-05 -1.80548941e-05 5.42201815e-05 7.14061825e-05
      1.33166495e-05 5.42201815e-05 2.11769620e-05 -3.16539190e-05
      -2.82127730e-05 -3.66321328e-05 2.86148170e-05 2.86148170e-05
      2.86148170e-05 -1.13821170e-05 -1.13821170e-05 -3.52408970e-05
      -2.46314739e-05 -2.46314739e-05 -4.18174786e-05 -2.46314739e-05
      -2.46314739e-05 -1.80548941e-05 3.62915525e-05 5.34775572e-05
      1.33166495e-05 1.33166495e-05 -1.97265690e-05 -3.48771937e-05
      -4.40699878e-05 -6.96753486e-05 -4.42840110e-06 2.86148170e-05
      2.86148170e-05 -1.13821170e-05 -2.85681217e-05 -3.52408970e-05
      -4.18174786e-05 -2.46314739e-05 -2.46314739e-05 -2.46314739e-05
      -2.46314739e-05 -4.35967422e-06 7.14061825e-05 7.14061825e-05
      1.33166495e-05 4.47509728e-06 -2.85681217e-05 -5.74173282e-05
      -4.23683487e-05 -4.23683487e-05 2.28786030e-05 5.59218206e-05
      5.59218206e-05 -8.38924791e-07 -1.80249281e-05 -2.64773207e-05
      -5.95543497e-05 -3.16821606e-05 -3.16821606e-05 -3.16821606e-05
      -2.31047507e-05 -2.83295094e-06 8.37940097e-05 7.14061825e-05
      5.42201815e-05 4.47509728e-06 -2.85681217e-05 -6.12559888e-05
      -4.23683487e-05 -4.23683487e-05 -3.16634469e-05 1.50182896e-05
      5.59218206e-05 4.00646059e-05 2.28786030e-05 -7.42796919e-06
      -4.97544934e-05 -2.84588841e-05 -3.16821606e-05 -3.16821606e-05
      -1.65281708e-05 4.19092430e-05 8.37940097e-05 7.14061825e-05
      2.11769620e-05 -2.85681217e-05 -3.51447015e-05 -6.12559888e-05
      -4.23683487e-05 -4.23683487e-05 -4.05050014e-05 -1.17518921e-05
      3.79931917e-05 1.42756644e-05 7.77584864e-06 1.83728080e-05
      -2.01150560e-05 -6.76771288e-06 -9.99098847e-06 3.09125426e-05
      6.20267238e-05 6.58653807e-05 6.58653807e-05 5.34775572e-05
      -1.97265690e-05 -2.85681217e-05 -4.88399201e-05 -6.12559888e-05
      -4.96107896e-05 -4.96107896e-05 -6.67967906e-05 -1.06570405e-06
      4.86793797e-05 2.49618533e-05 7.77584864e-06 2.72143607e-05
      7.77584864e-06 2.49618533e-05 7.77584864e-06 4.86793797e-05
      6.66080086e-05 6.66080086e-05 6.66080086e-05 4.53786270e-05
      -2.85681217e-05 -3.51447015e-05 -6.12559888e-05 -6.12559888e-05
      -4.96107896e-05 -4.96107896e-05 -6.67967906e-05 -4.77474423e-05
      -2.52673690e-05 6.58653807e-05 4.86793797e-05 7.77584864e-06
      7.77584864e-06 2.49618533e-05 4.86793797e-05 4.86793797e-05
      6.66080086e-05 6.66080086e-05 -7.33874049e-06 -2.85681217e-05
      -4.37221097e-05 -6.12559888e-05 -6.12559888e-05 -6.12559888e-05
      -4.96107896e-05 -4.96107896e-05 -6.67967906e-05 -6.67967906e-05
      -4.77474423e-05 1.51619961e-05 7.77584864e-06 4.86793797e-05
      4.86793797e-05 6.58653807e-05 4.86793797e-05 4.86793797e-05
      4.86793797e-05 7.77584864e-06 -3.41089217e-05 -6.16507386e-05
      -4.75607703e-05 -6.12559888e-05 -6.12559888e-05 -6.12559888e-05
      -3.16821606e-05 -3.16821606e-05 -4.88681617e-05 -3.66245149e-05
      -3.66245149e-05 -1.94385120e-05 -3.66245149e-05 -1.37365032e-05
      -2.27568744e-05 -5.57087060e-06 -2.27568744e-05 -2.27568744e-05
      -1.37365032e-05 -2.59801509e-05 -4.50295011e-05 -4.90123457e-05
      -4.90123457e-05 -4.90123457e-05 -6.12559888e-05 -6.12559888e-05</_>
    <_>
      -6.26480833e-05 -6.26480833e-05 -1.95506309e-05 -1.95506309e-05
      -1.95506309e-05 -2.89168674e-05 -2.89168674e-05 -2.89168674e-05
      -8.64093636e-06 -8.64093636e-06 5.53792052e-05 5.53792052e-05
      8.11556947e-06 8.11556947e-06 -3.80691199e-05 -1.77931888e-05
      2.45468236e-05 8.90339106e-06 -1.13725391e-05 8.90339106e-06
      -6.26480833e-05 -6.26480833e-05 -1.95506309e-05 -1.95506309e-05
      -1.95506309e-05 -2.89168674e-05 -2.89168674e-05 -2.89168674e-05
      -8.64093636e-06 -8.64093636e-06 5.53792052e-05 5.53792052e-05
      8.11556947e-06 8.11556947e-06 -3.80691199e-05 -1.77931888e-05
      2.45468236e-05 8.90339106e-06 -1.13725391e-05 8.90339106e-06
      -1.64633966e-05 -1.64633966e-05 1.21708081e-05 1.21708081e-05
      1.22029523e-05 7.57045336e-06 3.98370103e-05 3.98370103e-05
      6.01129395e-05 6.01129395e-05 6.01129395e-05 6.01129395e-05
      2.26653610e-05 8.11556947e-06 -3.80691199e-05 -1.77931888e-05
      2.45468236e-05 8.90339106e-06 -1.13725391e-05 8.90339106e-06
      1.52580424e-05 3.55339726e-05 1.22029523e-05 1.22029523e-05
      1.69366886e-05 7.57045336e-06 3.98370103e-05 3.98370103e-05
      6.01129395e-05 6.01129395e-05 6.01129395e-05 3.98370103e-05
      2.26653610e-05 8.11556947e-06 -1.77931888e-05 -1.77931888e-05
      2.45468236e-05 8.90339106e-06 -1.13725391e-05 -2.33631654e-05
      1.52580424e-05 3.55339726e-05 1.22029523e-05 1.22029523e-05
      1.69366886e-05 -3.33924208e-06 2.89273139e-05 2.89273139e-05
      4.92032450e-05 4.92032450e-05 6.01129395e-05 3.98370103e-05
      2.26653610e-05 8.11556947e-06 -1.77931888e-05 -1.77931888e-05
      2.45468236e-05 8.90339106e-06 -1.13725391e-05 -2.33631654e-05
      -5.63454014e-05 -2.90362677e-05 -5.23672898e-05 -4.10149405e-05
      -2.92479999e-05 -5.65571354e-05 2.89273139e-05 2.89273139e-05
      2.89273139e-05 2.89273139e-05 3.98370103e-05 3.98370103e-05
      2.26653610e-05 8.11556947e-06 -1.77931888e-05 -1.77931888e-05
      2.45468236e-05 8.90339106e-06 -1.13725391e-05 -2.33631654e-05
      -4.56946836e-05 -1.83855518e-05 -1.00272773e-05 -4.10470857e-05
      -3.39817379e-05 -4.10149405e-05 -8.07297874e-06 -8.07297874e-06
      -8.07297874e-06 -3.33924208e-06 7.57045336e-06 3.98370103e-05
      6.50375150e-05 7.07636573e-05 -1.77931888e-05 -1.77931888e-05
      2.45468236e-05 8.90339106e-06 -1.13725391e-05 -2.33631654e-05
      -4.56946836e-05 -1.83855518e-05 -4.17487172e-05 -7.27685256e-05
      -6.57353230e-05 -7.27685256e-05 -2.52767713e-05 -8.10512211e-06
      -8.07297874e-06 -8.07297874e-06 7.57045336e-06 3.98370103e-05
      8.22091679e-05 8.79353029e-05 2.45789670e-05 2.45789670e-05
      2.45468236e-05 8.90339106e-06 -1.13725391e-05 -2.33631654e-05
      -6.01129395e-05 -3.28038077e-05 -5.61669731e-05 -8.71867815e-05
      -6.57353230e-05 -7.27685256e-05 -5.00084070e-06 -8.10512211e-06
      1.52901866e-05 -8.07297874e-06 7.57045336e-06 3.98370103e-05
      5.63004069e-05 4.17506162e-05 2.45789670e-05 4.79421324e-05
      2.45468236e-05 8.90339106e-06 8.90339106e-06 -2.33631654e-05
      -3.98370103e-05 -3.28038077e-05 -5.61669731e-05 -1.05572333e-04
      -8.41208748e-05 -6.77909120e-05 -2.33863921e-05 -6.21474328e-06
      -2.64585306e-05 -2.64585306e-05 4.17273877e-05 4.17273877e-05
      4.17273877e-05 2.71775971e-05 6.16127090e-06 -4.74842409e-06
      -4.74842409e-06 -9.48216075e-06 -9.48216075e-06 -4.17487172e-05
      -3.98370103e-05 -3.28038077e-05 -5.61669731e-05 -6.32001756e-05
      -4.17487172e-05 -6.07577094e-05 -2.33863921e-05 -6.21474328e-06
      -2.64585306e-05 -2.17247944e-05 3.46941852e-05 3.46941852e-05
      3.46941852e-05 2.01443945e-05 6.16127090e-06 -4.74842409e-06
      -4.74842409e-06 -9.48216075e-06 -9.48216075e-06 -4.17487172e-05
      -3.98370103e-05 -3.28038077e-05 -5.61669731e-05 -6.32001756e-05
      -4.17487172e-05 -8.41208748e-05 -2.33863921e-05 -6.21474328e-06
      -6.18259946e-06 4.09232925e-05 7.70663391e-05 7.70663391e-05
      3.08816525e-05 1.63318618e-05 6.16127090e-06 -4.74842409e-06
      -4.74842409e-06 -4.17487172e-05 -4.17487172e-05 -4.17487172e-05
      -3.98370103e-05 -3.28038077e-05 -5.61669731e-05 -6.32001756e-05
      -4.17487172e-05 -8.41208748e-05 -2.33863921e-05 -6.21474328e-06
      -6.18259946e-06 4.09232925e-05 7.70663391e-05 7.70663391e-05
      3.08816525e-05 1.63318618e-05 6.16127090e-06 -9.48216075e-06
      -9.48216075e-06 -6.20246501e-05 -4.17487172e-05 -6.20246501e-05
      -2.14514585e-05 -3.28038077e-05 -5.61669731e-05 -8.71867815e-05
      -8.41208748e-05 -6.57353230e-05 -5.00084070e-06 -6.21474328e-06
      -6.18259946e-06 4.09232925e-05 7.70663391e-05 7.70663391e-05
      4.92672043e-05 3.47174137e-05 -1.78253322e-05 -3.34687647e-05
      -9.48216075e-06 -4.36390947e-05 -2.33631654e-05 -4.36390947e-05
      -6.38236161e-05 -7.51759653e-05 -9.85391307e-05 -8.71867815e-05
      -8.41208748e-05 -6.57353230e-05 -5.00084070e-06 -6.21474328e-06
      -6.18259946e-06 5.18329871e-05 7.70663391e-05 7.70663391e-05
      6.89504805e-06 -7.65474306e-06 -1.78253322e-05 -3.34687647e-05
      -9.48216075e-06 -4.36390947e-05 3.38813179e-20 -4.36390947e-05
      -7.03320302e-06 -2.54187544e-05 -4.87819198e-05 -7.27685256e-05
      -9.11540774e-05 -3.03963679e-05 3.03381130e-05 2.91563538e-05
      2.17713023e-05 3.74147348e-05 6.26480833e-05 6.96812931e-05
      -4.90004027e-07 -1.50397946e-05 -3.22435881e-05 -3.34687647e-05
      -1.65153633e-05 -5.06722972e-05 -3.03963679e-05 -5.06722972e-05
      -7.03320302e-06 -2.54187544e-05 -4.87819198e-05 -7.27685256e-05
      -9.11540774e-05 -3.03963679e-05 3.03381130e-05 2.91563538e-05
      2.17713023e-05 3.74147348e-05 6.26480833e-05 6.96812931e-05
      -4.90004027e-07 -1.50397946e-05 -3.22435881e-05 -3.34687647e-05
      -1.65153633e-05 -5.06722972e-05 -3.03963679e-05 -5.06722972e-05
      -4.94053602e-05 -6.77909120e-05 -9.11540774e-05 -3.03963679e-05
      -4.87819198e-05 -7.03320302e-06 3.03381130e-05 -1.32158020e-05
      -2.06008535e-05 3.74147348e-05 6.26480833e-05 6.96812931e-05
      4.18821510e-05 2.73323603e-05 1.01285677e-05 -2.33631654e-05
      -2.54187544e-05 -2.73091337e-05 -3.03963679e-05 -5.06722972e-05
      -3.03963679e-05 -4.87819198e-05 -3.03963679e-05 -3.03963679e-05
      -4.87819198e-05 -3.03963679e-05 3.03381130e-05 2.91563538e-05
      2.17713023e-05 3.74147348e-05 6.26480833e-05 6.96812931e-05
      2.34966010e-05 2.73323603e-05 -7.81127596e-07 -2.33631654e-05
      -4.87819198e-05 -3.03963679e-05 -5.06722972e-05 -6.90578527e-05
      -3.03963679e-05 -4.87819198e-05 -3.03963679e-05 -3.03963679e-05
      -4.87819198e-05 -3.03963679e-05 3.03381130e-05 2.91563538e-05
      2.17713023e-05 3.74147348e-05 6.26480833e-05 6.96812931e-05
      2.34966010e-05 2.73323603e-05 -7.81127596e-07 -2.33631654e-05
      -4.87819198e-05 -3.03963679e-05 -5.06722972e-05 -6.90578527e-05
      -2.73091337e-05 -2.54187544e-05 -5.06722972e-05 -5.06722972e-05
      -6.90578527e-05 -5.06722972e-05 1.00621819e-05 8.88042268e-06
      -5.53783229e-06 1.01055994e-05 4.23721576e-05 4.23721576e-05
      -3.81253358e-06 2.32272708e-08 -2.10570579e-05 -4.36390947e-05
      -6.20246501e-05 -2.33631654e-05 -5.06722972e-05 -6.20246501e-05
      -3.03963679e-05 -4.87819198e-05 -3.03963679e-05 -3.03963679e-05
      -4.87819198e-05 -3.03963679e-05 3.03381130e-05 -8.29122655e-06
      9.55707492e-06 4.23721576e-05 4.23721576e-05 6.26480833e-05
      1.64633966e-05 2.02991578e-05 -4.31532826e-05 -6.57353230e-05
      -4.17487172e-05 -4.36390947e-05 -5.06722972e-05 -6.20246501e-05
      -4.87819198e-05 -4.87819198e-05 -3.03963679e-05 -3.03963679e-05
      -3.03963679e-05 -4.87819198e-05 3.03381130e-05 -8.29122655e-06
      9.55707492e-06 4.23721576e-05 4.23721576e-05 6.26480833e-05
      1.64633966e-05 1.88146214e-06 -5.51486391e-06 -2.33631654e-05
      -4.17487172e-05 -4.36390947e-05 -5.06722972e-05 -4.36390947e-05
      -8.34761086e-05 -8.34761086e-05 -6.50905567e-05 -5.06722972e-05
      -5.06722972e-05 -6.90578527e-05 1.00621819e-05 -8.29122655e-06
      2.39753299e-05 5.67904099e-05 5.67904099e-05 5.67904099e-05
      1.06057214e-05 -3.97621352e-06 -2.57907941e-05 -5.80573505e-05
      -6.20246501e-05 -4.36390947e-05 -6.50905567e-05 -5.80573505e-05
      -8.34761086e-05 -8.34761086e-05 1.37006623e-06 -4.48760966e-06
      1.57883205e-05 -2.28731606e-05 4.23287383e-05 5.98946935e-05
      3.96187606e-05 5.67904099e-05 7.70663391e-05 5.67904099e-05
      5.67904099e-05 4.22084777e-05 3.13035889e-05 -1.18726612e-05
      -1.58399580e-05 2.54559359e-06 -6.50905567e-05 -5.80573505e-05
      -8.34761086e-05 -8.34761086e-05 3.15632897e-05 -1.66665432e-05
      2.07810372e-05 -1.78483006e-05 3.28038077e-05 3.46941852e-05
      1.44182550e-05 1.44182550e-05 4.17273877e-05 1.44182550e-05
      1.44182550e-05 1.44182550e-05 1.83534084e-05 -1.39131489e-05
      2.44917101e-05 4.28772619e-05 -1.77256825e-05 -6.03568187e-05
      -4.19623502e-05 -4.00719691e-05 3.10428163e-06 1.75225359e-05
      5.30797370e-05 3.28038077e-05 3.28038077e-05 3.46941852e-05
      1.44182550e-05 3.46941852e-05 4.17273877e-05 1.44182550e-05
      5.67904099e-05 5.67904099e-05 6.07577094e-05 6.07577094e-05
      5.67904099e-05 7.51759653e-05 1.45730182e-05 -1.35404707e-05
      1.05801382e-05 -7.80541359e-06 3.10428163e-06 -2.75339403e-06
      5.30797370e-05 3.28038077e-05 5.30797370e-05 3.46941852e-05
      3.46941852e-05 3.46941852e-05 4.17273877e-05 1.44182550e-05
      5.67904099e-05 5.67904099e-05 6.07577094e-05 6.07577094e-05
      5.67904099e-05 7.51759653e-05 1.45730182e-05 3.63117874e-06
      1.05801382e-05 -7.80541359e-06 3.10428163e-06 -2.75339403e-06
      5.30797370e-05 3.28038077e-05 5.30797370e-05 3.46941852e-05
      3.46941852e-05 3.46941852e-05 4.17273877e-05 1.44182550e-05
      1.44182550e-05 1.44182550e-05 1.83855518e-05 1.83855518e-05
      5.67904099e-05 7.51759653e-05 1.45730182e-05 -2.86353770e-05
      -6.50584116e-05 -6.31680305e-05 -4.86182398e-05 -1.08368195e-05
      2.47203807e-05 4.44445050e-06 4.44445050e-06 6.33482932e-06
      1.52382208e-05 1.52382208e-05 2.22714243e-05 -3.73042676e-05
      -1.39411013e-05 -5.03771025e-06 -1.07041342e-06 2.22927520e-05
      1.83254542e-05 3.67110079e-05 -1.07041342e-06 -4.79189039e-05</_>
    <_>
      -2.57229785e-05 -2.57229785e-05 -3.84190535e-05 -1.45166123e-05
      -3.81794462e-06 -7.42479551e-06 -1.43928071e-06 6.08677624e-07
      7.50076106e-06 1.94167696e-05 1.73688113e-05 1.73688113e-05
      -1.43928071e-06 -7.42479551e-06 -4.20259057e-05 -3.84190535e-05
      -1.63029272e-05 -1.63029272e-05 -1.99097776e-05 -1.63029272e-05
      -2.57229785e-05 -2.57229785e-05 -3.84190535e-05 -1.45166123e-05
      -3.81794462e-06 -7.42479551e-06 -1.43928071e-06 6.08677624e-07
      7.50076106e-06 1.94167696e-05 1.73688113e-05 1.73688113e-05
      -1.43928071e-06 -7.42479551e-06 -4.20259057e-05 -3.84190535e-05
      -1.63029272e-05 -1.63029272e-05 -1.99097776e-05 -1.63029272e-05
      -2.57229785e-05 -2.57229785e-05 -1.10710234e-05 2.21021655e-05
      2.21021655e-05 1.84953151e-05 1.84953151e-05 4.16692928e-05
      4.52761415e-05 4.52761415e-05 4.52761415e-05 4.52761415e-05
      4.16692928e-05 1.84953151e-05 1.84953151e-05 1.94167696e-05
      -1.03174125e-05 -1.03174125e-05 -1.99097776e-05 -1.63029272e-05
      -2.40343943e-05 -2.04275439e-05 -1.10710234e-05 2.21021655e-05
      4.52761415e-05 4.16692928e-05 4.16692928e-05 4.16692928e-05
      4.52761415e-05 4.52761415e-05 4.52761415e-05 4.16692928e-05
      4.16692928e-05 4.16692928e-05 4.52761415e-05 4.52761415e-05
      1.93190390e-05 5.71444662e-06 -1.39242629e-05 -1.63029272e-05
      -2.40343943e-05 -2.04275439e-05 -1.10710234e-05 2.21021655e-05
      4.52761415e-05 1.44816186e-05 1.44816186e-05 1.44816186e-05
      1.80884690e-05 1.80884690e-05 1.80884690e-05 1.44816186e-05
      4.16692928e-05 4.16692928e-05 4.52761415e-05 4.52761415e-05
      6.73922696e-05 4.25297076e-05 2.10759572e-06 -1.63029272e-05
      -2.40343943e-05 -2.04275439e-05 -5.08550829e-06 -1.57841769e-05
      5.34184301e-06 1.73499211e-06 -4.25052258e-06 -5.24733559e-06
      -5.24733559e-06 -5.24733559e-06 -5.24733559e-06 -2.20256447e-06
      1.44816186e-05 1.77668517e-05 4.52761415e-05 2.82752080e-05
      5.03913361e-05 4.42182936e-05 1.67090002e-05 -2.26051943e-05
      -6.88983255e-06 -3.28298165e-06 -5.98131692e-06 -2.48144624e-05
      -3.32906848e-06 -1.52450766e-05 -1.88519280e-05 -4.20259057e-05
      -4.20259057e-05 -4.20259057e-05 -3.01098971e-05 -6.93591937e-06
      1.78656046e-05 3.07432019e-05 4.52761415e-05 2.82752080e-05
      5.03913361e-05 6.73922696e-05 3.98829761e-05 -1.45717213e-05
      -6.88983255e-06 -3.28298165e-06 -1.78973241e-05 -4.00134522e-05
      -4.17020347e-05 -4.17020347e-05 -4.20259057e-05 -4.20259057e-05
      -4.20259057e-05 -4.20259057e-05 -4.20259057e-05 -4.20259057e-05
      -1.72243817e-05 -1.70152236e-06 5.81215209e-05 5.03913361e-05
      5.03913361e-05 6.73922696e-05 3.98829761e-05 -1.45717213e-05
      -2.01209477e-05 -1.65140973e-05 -3.28170245e-05 -5.49331489e-05
      -4.17020347e-05 -4.17020347e-05 -3.84190535e-05 -4.20259057e-05
      -2.57229785e-05 -4.20259057e-05 -4.20259057e-05 -4.20259057e-05
      -1.63029272e-05 -4.38691904e-06 5.81215209e-05 6.66942578e-05
      5.03913361e-05 6.73922696e-05 4.34898284e-05 -1.35749087e-05
      -1.65140973e-05 -1.65140973e-05 -3.28170245e-05 -5.49331489e-05
      -4.17020347e-05 -2.53991093e-05 -3.84190535e-05 -5.54199905e-05
      -4.20259057e-05 -4.20259057e-05 -3.84190535e-05 -3.84190535e-05
      -3.84190535e-05 -2.65030467e-05 4.74228545e-05 6.73922696e-05
      5.03913361e-05 5.03913361e-05 2.64888931e-05 -1.35749087e-05
      -1.65140973e-05 -1.65140973e-05 -3.28170245e-05 -3.28170245e-05
      -1.95859084e-05 -2.53991093e-05 -3.84190535e-05 -5.54199905e-05
      -4.20259057e-05 -4.20259057e-05 -3.84190535e-05 -3.84190535e-05
      -3.84190535e-05 -2.65030467e-05 4.74228545e-05 6.73922696e-05
      5.03913361e-05 5.03913361e-05 2.64888931e-05 -1.35749087e-05
      -1.65140973e-05 -1.65140973e-05 -3.28170245e-05 -3.28170245e-05
      -1.95859084e-05 -4.17020347e-05 -3.84190535e-05 -5.54199905e-05
      -3.84190535e-05 -1.63029272e-05 -1.63029272e-05 -1.63029272e-05
      -1.63029272e-05 1.59859587e-06 6.41070365e-05 6.73922696e-05
      5.03913361e-05 5.03913361e-05 2.64888931e-05 -1.95604225e-05
      -1.65140973e-05 -1.65140973e-05 -3.28170245e-05 -3.28170245e-05
      -1.95859084e-05 -4.17020347e-05 -3.84190535e-05 -5.54199905e-05
      -3.84190535e-05 -1.63029272e-05 -1.63029272e-05 -1.63029272e-05
      -1.70152236e-06 3.07432019e-05 6.73922696e-05 6.73922696e-05
      5.03913361e-05 4.67844839e-05 2.64888931e-05 -3.69107147e-05
      -1.65140973e-05 -3.35150326e-05 -4.98179579e-05 -7.19340896e-05
      -5.87029717e-05 -4.17020347e-05 -3.84190535e-05 -3.84190535e-05
      -3.84190535e-05 -1.63029272e-05 -3.33038624e-05 -1.63029272e-05
      -1.70152236e-06 3.07432019e-05 2.82752080e-05 4.52761415e-05
      5.03913361e-05 4.67844839e-05 2.32036600e-05 -1.99097776e-05
      -3.86302236e-05 -5.56311606e-05 -6.86488565e-05 -6.86511048e-05
      -5.54199905e-05 -3.84190535e-05 -3.84190535e-05 -3.84190535e-05
      -3.84190535e-05 -1.63029272e-05 -3.33038624e-05 -4.38691904e-06
      2.21021655e-05 4.52761415e-05 2.82752080e-05 4.52761415e-05
      2.64888931e-05 -2.91935180e-07 -1.56891281e-06 -1.99097776e-05
      -3.28298165e-06 -2.84381767e-05 -4.47411039e-05 -6.35742472e-05
      -6.35742472e-05 -1.63029272e-05 -1.63029272e-05 -1.63029272e-05
      -2.95340415e-05 -5.63160074e-06 2.42802770e-07 5.41611553e-05
      3.20450272e-05 3.20450272e-05 -8.85834925e-06 2.13737021e-05
      1.72181462e-05 -2.31672748e-05 -3.33038624e-05 -1.99097776e-05
      -9.74087889e-21 -2.51551955e-05 -4.14581227e-05 -6.35742472e-05
      -6.35742472e-05 -1.63029272e-05 -1.63029272e-05 -1.63029272e-05
      -2.95340415e-05 -3.94301696e-06 3.71602182e-05 5.41611553e-05
      3.20450272e-05 3.20450272e-05 -8.85834925e-06 1.96851179e-05
      -2.13878538e-05 -3.69107147e-05 -3.33038624e-05 -1.99097776e-05
      -2.21161263e-05 -4.72713218e-05 -6.35742472e-05 -4.14581227e-05
      -4.14581227e-05 -9.74087889e-21 -1.63029272e-05 -3.84190535e-05
      -3.79067314e-05 3.09871757e-05 3.71602182e-05 5.41611553e-05
      5.41611553e-05 5.41611553e-05 -9.91619982e-06 -4.38691904e-06
      -5.08492758e-06 -2.06077857e-05 -3.33038624e-05 -1.99097776e-05
      -3.33038624e-05 -2.44571875e-05 -4.14581227e-05 -4.14581227e-05
      -4.14581227e-05 -1.63029272e-05 -1.63029272e-05 -1.78718401e-05
      -2.18601144e-06 3.09871757e-05 3.71602182e-05 5.41611553e-05
      5.41611553e-05 4.48904066e-05 -3.46189699e-05 -4.38691904e-06
      -3.33038624e-05 -3.33038624e-05 -3.69107147e-05 -1.99097776e-05
      -3.33038624e-05 -2.44571875e-05 -4.14581227e-05 -4.14581227e-05
      -4.14581227e-05 -1.63029272e-05 -4.38691904e-06 1.79466097e-05
      4.81756397e-05 5.41611553e-05 3.71602182e-05 5.41611553e-05
      2.52848968e-05 -3.87459522e-06 -3.46189699e-05 -1.63029272e-05
      -3.33038624e-05 -3.33038624e-05 -3.69107147e-05 -1.99097776e-05
      -2.06077857e-05 -8.15426029e-06 -4.50649750e-05 -4.50649750e-05
      -4.50649750e-05 5.68124733e-06 3.36291123e-05 4.07989683e-05
      5.05543030e-05 2.66518618e-05 4.67711061e-06 -1.49593097e-06
      -2.12248851e-05 -3.31408919e-05 -5.01418290e-05 -1.99097776e-05
      -3.69107147e-05 -3.33038624e-05 -3.69107147e-05 -1.99097776e-05
      -3.33038624e-05 -2.44571875e-05 -4.14581227e-05 -4.14581227e-05
      -1.57986760e-05 5.81215209e-05 6.73922696e-05 4.67844839e-05
      5.05543030e-05 2.66518618e-05 -2.44823823e-05 -1.76180347e-05
      -2.95340415e-05 -2.95340415e-05 -6.86511048e-05 -3.84190535e-05
      -3.33038624e-05 -3.69107147e-05 -3.69107147e-05 -1.99097776e-05
      -1.63029272e-05 -2.44571875e-05 -4.14581227e-05 -3.81224186e-06
      9.79234937e-06 6.73922696e-05 5.03913361e-05 2.28820427e-05
      9.65092750e-06 1.56925307e-05 -3.31408919e-05 -2.95340415e-05
      -2.95340415e-05 -2.95340415e-05 -2.95340415e-05 -1.63029272e-05
      -3.33038624e-05 -3.69107147e-05 -3.69107147e-05 -3.69107147e-05
      -3.64238731e-05 -3.64238731e-05 -3.47075547e-05 1.43420093e-05
      3.75159871e-05 6.05024361e-05 4.35015027e-05 1.79104773e-05
      -2.22921717e-05 -1.99097776e-05 -1.99097776e-05 -1.99097776e-05
      -1.99097776e-05 -1.99097776e-05 -3.31408919e-05 -3.31408919e-05
      -3.69107147e-05 -3.69107147e-05 -5.01418290e-05 -5.01418290e-05
      1.31380139e-05 1.31380139e-05 2.78917232e-05 4.35015027e-05
      4.71083513e-05 6.05024361e-05 4.35015027e-05 -2.65346262e-06
      -4.01936959e-05 -1.99097776e-05 -1.63029272e-05 -1.99097776e-05
      -1.99097776e-05 -1.99097776e-05 -3.31408919e-05 -3.31408919e-05
      -3.69107147e-05 -3.69107147e-05 -5.01418290e-05 -5.01418290e-05
      -9.07584399e-06 -9.07584399e-06 9.97479674e-06 2.13853746e-05
      2.49922250e-05 3.83863116e-05 2.46683558e-05 2.55898103e-05
      -1.39376434e-05 3.06329207e-06 6.67014274e-06 3.06329207e-06
      3.06329207e-06 3.06329207e-06 -1.01678233e-05 -1.01678233e-05
      3.13524615e-05 8.17848377e-06 -2.89550735e-05 -5.01418290e-05
      -2.79089891e-05 -2.43021386e-05 -8.85834925e-06 2.82752080e-05
      2.82752080e-05 4.16692928e-05 2.46683558e-05 2.82752080e-05
      1.49437926e-06 2.21021655e-05 5.10123027e-06 1.49437926e-06
      2.36105061e-05 2.36105061e-05 1.03793909e-05 1.03793909e-05
      4.67844839e-05 2.36105061e-05 -1.35230503e-05 -3.73952025e-05
      -3.99696944e-07 -3.99696944e-07 1.50440919e-05 2.46683558e-05
      2.82752080e-05 4.16692928e-05 2.82752080e-05 2.82752080e-05
      2.82752080e-05 4.52761415e-05 2.82752080e-05 2.46683558e-05
      4.67844839e-05 4.67844839e-05 3.35533696e-05 3.35533696e-05
      4.67844839e-05 2.36105061e-05 -1.35230503e-05 -3.73952025e-05
      -3.99696944e-07 -3.99696944e-07 1.50440919e-05 2.46683558e-05
      2.82752080e-05 4.16692928e-05 2.82752080e-05 2.82752080e-05
      2.82752080e-05 4.52761415e-05 2.82752080e-05 2.46683558e-05
      2.46683558e-05 2.46683558e-05 1.14372415e-05 1.14372415e-05
      4.67844839e-05 2.36105061e-05 -1.35230503e-05 -3.73952025e-05
      -2.12248851e-05 -1.76180347e-05 -3.46189699e-05 -3.03696947e-06
      -5.08492758e-06 8.30915724e-06 -7.69496546e-06 -4.08811457e-06
      -2.03910422e-05 -3.39010603e-06 -2.03910422e-05 -2.19499343e-05
      -7.69496546e-06 -2.39978926e-05 -3.72290087e-05 -8.17945420e-06
      5.05166054e-06 5.05166054e-06 -2.44823823e-05 -4.80938688e-05</_>
    <_>
      -2.81599496e-05 -2.81599496e-05 -4.51207634e-05 -3.16256483e-05
      -2.73152837e-05 -2.43628710e-05 -2.43628710e-05 -1.94818967e-05
      -1.53129185e-05 -1.53129185e-05 -1.96232850e-05 -1.96232850e-05
      -2.37922632e-05 -3.09136522e-05 -3.57946265e-05 -4.51207634e-05
      -2.11297920e-05 -2.11297920e-05 -2.52987702e-05 -2.11297920e-05
      -2.81599496e-05 -2.81599496e-05 -4.51207634e-05 -3.16256483e-05
      -2.73152837e-05 -2.43628710e-05 -2.43628710e-05 -1.94818967e-05
      -1.53129185e-05 -1.53129185e-05 -1.96232850e-05 -1.96232850e-05
      -2.37922632e-05 -3.09136522e-05 -3.57946265e-05 -4.51207634e-05
      -2.11297920e-05 -2.11297920e-05 -2.52987702e-05 -2.11297920e-05
      -2.38495832e-05 -2.38495832e-05 -2.01938947e-05 2.46958589e-05
      2.95768332e-05 4.69062543e-05 4.69062543e-05 4.69062543e-05
      5.10752325e-05 5.10752325e-05 5.10752325e-05 6.18547983e-06
      2.01650232e-06 3.18098586e-07 -3.99226747e-06 -1.96232850e-05
      -7.63467688e-06 -2.11297920e-05 -2.52987702e-05 -2.11297920e-05
      -2.38495832e-05 -1.96806068e-05 2.46958589e-05 4.93768275e-05
      5.10752325e-05 4.69062543e-05 4.69062543e-05 4.69062543e-05
      5.10752325e-05 5.10752325e-05 5.10752325e-05 4.69062543e-05
      4.69062543e-05 2.01650232e-06 6.18547983e-06 6.18547983e-06
      2.41676826e-05 2.41676826e-05 -1.81773812e-05 -2.11297920e-05
      -2.38495832e-05 -1.96806068e-05 2.63942620e-05 5.10752325e-05
      5.10752325e-05 4.69062543e-05 4.69062543e-05 4.69062543e-05
      5.10752325e-05 5.10752325e-05 5.10752325e-05 4.69062543e-05
      4.69062543e-05 4.69062543e-05 5.10752325e-05 5.33231741e-06
      2.93232897e-05 2.84780490e-05 1.51177301e-05 -2.11297920e-05
      -2.78772895e-05 -2.37083113e-05 -2.42215992e-05 -3.93898972e-07
      -7.51528796e-06 -1.16842648e-05 -1.59946303e-05 -2.94897472e-05
      -2.94897472e-05 -2.94897472e-05 1.97103727e-05 2.14087759e-05
      3.49038928e-05 4.20252800e-05 5.10752325e-05 8.84413794e-07
      2.48753859e-05 3.01764521e-05 2.16971093e-05 -1.20825807e-05
      -8.19668276e-06 -4.02770547e-06 -1.80361094e-05 -1.81993801e-05
      -2.53207691e-05 -2.53207691e-05 -2.94897472e-05 -2.94897472e-05
      -2.94897472e-05 -2.94897472e-05 -2.94897472e-05 1.54000063e-05
      4.37013441e-05 6.84868282e-05 5.10752325e-05 4.57741662e-05
      2.48753859e-05 3.01764521e-05 2.16971093e-05 -1.20825807e-05
      -8.19668276e-06 -4.02770547e-06 -2.51574984e-05 -4.51207634e-05
      -4.51207634e-05 -4.51207634e-05 -4.92897416e-05 -4.92897416e-05
      -4.92897416e-05 -4.92897416e-05 -4.92897416e-05 -4.39998939e-06
      2.39013480e-05 4.78703223e-05 7.50662075e-05 6.97651412e-05
      2.48753859e-05 3.01764521e-05 2.60074739e-05 1.48388035e-05
      -2.55520627e-05 -2.13830863e-05 -4.16597177e-05 -6.16229809e-05
      -4.51207634e-05 -4.51207634e-05 -4.59739276e-05 -4.92897416e-05
      -2.90131120e-05 -5.01429058e-05 -5.01429058e-05 -5.25315136e-06
      2.72171637e-05 2.72171637e-05 5.44130489e-05 9.08949296e-05
      2.48753859e-05 2.93232897e-05 2.93232897e-05 6.86425255e-06
      -2.13830863e-05 -2.13830863e-05 -4.16597177e-05 -6.56506891e-05
      -4.91484716e-05 -2.80186778e-05 -5.00016322e-05 -5.35963736e-05
      -5.41706104e-05 -5.41706104e-05 -5.00016322e-05 -5.11187955e-06
      -8.01513806e-07 -8.01513806e-07 5.03853407e-05 2.52955833e-05
      2.08476795e-05 2.08476795e-05 2.08476795e-05 9.95793562e-06
      -2.13830863e-05 -2.13830863e-05 -4.16597177e-05 -4.16597177e-05
      -2.51574984e-05 -2.80186778e-05 -5.00016322e-05 -5.35963736e-05
      -5.41706104e-05 -5.41706104e-05 -5.00016322e-05 -5.11187955e-06
      -8.01513806e-07 1.26936020e-05 5.03853407e-05 2.52955833e-05
      2.08476795e-05 2.08476795e-05 1.65373149e-05 -1.06585685e-05
      -2.13830863e-05 -2.13830863e-05 -4.16597177e-05 -4.16597177e-05
      -2.51574984e-05 -4.91484716e-05 -5.00016322e-05 -5.35963736e-05
      -5.00016322e-05 -2.60106608e-05 -2.60106608e-05 1.88790927e-05
      2.31894592e-05 3.83829793e-05 5.03853407e-05 2.52955833e-05
      2.08476795e-05 2.08476795e-05 1.65373149e-05 -1.06585685e-05
      -2.13830863e-05 -2.13830863e-05 -4.25128783e-05 -4.25128783e-05
      -2.60106608e-05 -5.00016322e-05 -5.00016322e-05 -5.44495379e-05
      -5.00016322e-05 1.88790927e-05 1.97322552e-05 3.77433898e-05
      5.12385050e-05 2.52955833e-05 2.52955833e-05 2.52955833e-05
      2.08476795e-05 1.49802991e-05 9.95793562e-06 -3.46275410e-05
      -1.73553799e-05 -2.58309883e-05 -4.69607803e-05 -6.69240471e-05
      -5.44495379e-05 -4.59739276e-05 -4.16635594e-05 -2.01937873e-05
      -2.01937873e-05 4.86869394e-05 6.48921923e-05 7.10384993e-05
      7.50662075e-05 2.93232897e-05 8.84413794e-07 5.33231741e-06
      1.16563397e-05 2.69527504e-06 -2.64308583e-05 -2.61519326e-05
      -4.13463531e-05 -4.98219597e-05 -7.09517553e-05 -6.69240471e-05
      -5.44495379e-05 -1.08417407e-06 3.22619189e-06 2.63943693e-05
      4.61943637e-05 7.01853351e-05 6.65905973e-05 7.10384993e-05
      6.18547983e-06 5.33231741e-06 -5.12435599e-06 -1.90525425e-05
      -3.04585647e-05 -3.05998365e-05 -5.30106581e-06 -2.61519326e-05
      -8.53162248e-07 -3.04040386e-05 -5.15338288e-05 -7.14970956e-05
      -7.12144392e-05 2.72171637e-05 2.72171637e-05 5.12385050e-05
      5.45362818e-05 5.45362818e-05 5.00883762e-05 5.45362818e-05
      -1.03167376e-05 -1.03167376e-05 -1.73162080e-05 -2.53574217e-05
      -1.69634495e-05 -3.05998365e-05 -2.64308583e-05 -2.61519326e-05
      -8.53162248e-07 -3.04040386e-05 -5.15338288e-05 -7.14970956e-05
      -7.12144392e-05 -1.76725898e-05 -1.76725898e-05 4.65034691e-06
      5.28378769e-05 5.28378769e-05 5.00883762e-05 5.45362818e-05
      3.45730150e-05 -1.03167376e-05 -1.56178030e-05 -2.36590186e-05
      -1.69634495e-05 -1.71047195e-05 -2.64308583e-05 -2.61519326e-05
      -2.48441338e-05 -5.43950082e-05 -7.55248038e-05 -4.75061242e-05
      -4.72234642e-05 3.45720377e-06 -1.76725898e-05 -4.48381033e-05
      -4.15403265e-05 -1.75493551e-05 2.28924946e-05 3.93427617e-05
      5.68655851e-05 5.85639864e-05 5.32629201e-05 2.93232897e-05
      3.76671087e-05 3.58274301e-05 -5.81435415e-06 1.87378209e-05
      -2.64308583e-05 -4.70859268e-05 -4.75061242e-05 -4.75061242e-05
      -5.15338288e-05 -2.19829544e-05 -1.76725898e-05 -2.52950358e-05
      -3.73493494e-05 -3.73493494e-05 -4.61076197e-05 7.54040275e-06
      1.24213784e-05 5.68655851e-05 5.32629201e-05 2.93232897e-05
      2.08476795e-05 2.48753859e-05 1.15150679e-05 -1.66845221e-05
      -2.64308583e-05 -4.70859268e-05 -4.75061242e-05 -4.75061242e-05
      -5.15338288e-05 -2.19829544e-05 -2.19829544e-05 -2.96054022e-05
      -4.16597177e-05 -4.16597177e-05 -4.61076197e-05 3.23003701e-06
      7.54040275e-06 3.13681048e-05 5.32629201e-05 2.93232897e-05
      2.08476795e-05 2.48753859e-05 2.07064077e-05 -9.56313397e-06
      -9.47004355e-06 -2.59561348e-05 -5.16751024e-05 -5.16751024e-05
      -5.57028070e-05 -2.61519326e-05 -2.61519326e-05 -3.37743804e-05
      -4.58286922e-05 -4.58286922e-05 -5.02765979e-05 -9.38940389e-07
      -9.38940389e-07 3.08876520e-06 2.92939476e-05 7.00440651e-05
      1.66787031e-05 2.48753859e-05 2.07064077e-05 -9.56313397e-06
      -2.64308583e-05 -4.70859268e-05 -4.75061242e-05 -4.75061242e-05
      -5.15338288e-05 -2.19829544e-05 -2.19829544e-05 -3.37743804e-05
      -4.58286922e-05 -4.58286922e-05 -5.02765979e-05 3.23003701e-06
      3.23003701e-06 7.25774271e-06 9.47195349e-06 5.02220719e-05
      2.08476795e-05 2.07064077e-05 2.07064077e-05 -9.56313397e-06
      -2.60106608e-05 -4.70859268e-05 -4.75061242e-05 -4.75061242e-05
      -4.75061242e-05 -2.60106608e-05 -2.64308583e-05 -3.37743804e-05
      -5.02765979e-05 -4.58286922e-05 -4.58286922e-05 3.23003701e-06
      3.23003701e-06 3.23003701e-06 3.79108278e-05 7.42130433e-05
      2.08476795e-05 2.07064077e-05 2.07064077e-05 -9.98333144e-06
      -4.66818565e-05 -4.66818565e-05 -4.71020539e-05 -3.05998365e-05
      -3.05998365e-05 -3.01796372e-05 -3.05998365e-05 -3.37743804e-05
      -3.46275410e-05 -3.01796372e-05 1.47101146e-05 1.47101146e-05
      1.95910907e-05 4.10894900e-05 5.35418476e-05 8.65209495e-06
      1.66787031e-05 2.07064077e-05 -6.76784111e-07 -2.64855498e-05
      -9.36989295e-08 -9.36989295e-08 -3.63536965e-05 -2.40204572e-05
      -2.64308583e-05 -3.01796372e-05 -3.05998365e-05 -2.96054022e-05
      -3.46275410e-05 1.47101146e-05 1.88790927e-05 2.12894938e-05
      2.55998602e-05 6.60163569e-05 5.35418476e-05 8.65209495e-06
      1.66787031e-05 1.90080045e-05 -2.37518793e-06 -4.71020539e-05
      7.02768966e-06 7.02768966e-06 4.06280242e-06 -7.59492968e-06
      -5.12435599e-06 -4.21682453e-05 -4.25884427e-05 -4.15940121e-05
      -4.66161509e-05 2.72150669e-06 4.01855941e-05 4.20253891e-05
      4.20253891e-05 4.20253891e-05 2.95508762e-05 -1.53388773e-05
      1.66787031e-05 1.90080045e-05 -2.21751834e-05 -4.71020539e-05
      4.86990484e-06 5.01117665e-06 2.52442442e-05 4.17464616e-05
      4.57741662e-05 2.62530975e-05 2.18051937e-05 2.27996279e-05
      1.77774891e-05 2.63943693e-05 4.17464616e-05 3.75774835e-05
      6.15684548e-05 1.66787031e-05 4.20419065e-06 4.20419065e-06
      1.66787031e-05 1.90080045e-05 -3.99806631e-05 -4.71020539e-05
      9.03888213e-06 5.01117665e-06 2.52442442e-05 3.75774835e-05
      4.57741662e-05 4.60530937e-05 4.57741662e-05 4.17464616e-05
      4.17464616e-05 4.61943637e-05 4.17464616e-05 3.75774835e-05
      1.66787031e-05 1.66787031e-05 2.50578705e-06 2.50578705e-06
      1.00993238e-05 7.00564078e-06 -4.71020539e-05 -4.71020539e-05
      -1.77492784e-05 -2.17769848e-05 -2.13439125e-05 3.58790785e-05
      4.40757649e-05 4.60530937e-05 4.57741662e-05 4.17464616e-05
      4.17464616e-05 4.61943637e-05 4.17464616e-05 -9.01067324e-06
      -9.01067324e-06 -9.01067324e-06 -2.63661605e-05 -3.98612756e-05
      -3.46275410e-05 -3.05998365e-05 -4.71020539e-05 -4.71020539e-05
      -4.26541483e-05 -4.25128783e-05 -4.69607803e-05 2.82767051e-05
      3.94257986e-05 3.97047261e-05 3.52568240e-05 3.53980940e-05
      1.42683011e-05 1.87162059e-05 1.42683011e-05 2.97793531e-06
      1.97973623e-05 -3.46275410e-05 -4.71020539e-05 -2.59722601e-05
      -1.34977490e-05 -9.47004355e-06 -4.71020539e-05 -4.71020539e-05</_>
    <_>
      -2.19161138e-05 -2.19161138e-05 -2.60499492e-05 -2.60499492e-05
      -2.60499492e-05 -4.08043416e-05 -4.08043416e-05 -4.08043416e-05
      -2.60499492e-05 -2.60499492e-05 -2.60499492e-05 -2.60499492e-05
      -4.08043416e-05 -2.33870396e-05 -2.33870396e-05 -8.63264722e-06
      -8.63264722e-06 -8.63264722e-06 -2.33870396e-05 -2.60499492e-05
      -2.19161138e-05 -2.19161138e-05 -2.60499492e-05 -2.60499492e-05
      -2.60499492e-05 -4.08043416e-05 -4.08043416e-05 -4.08043416e-05
      -2.60499492e-05 -2.60499492e-05 -2.60499492e-05 -2.60499492e-05
      -4.08043416e-05 -2.33870396e-05 -2.33870396e-05 -8.63264722e-06
      -8.63264722e-06 -8.63264722e-06 -2.33870396e-05 -2.60499492e-05
      -2.19161138e-05 -2.19161138e-05 -2.60499492e-05 -2.60499492e-05
      -2.60499492e-05 -4.08043416e-05 -4.08043416e-05 -4.08043416e-05
      -2.60499492e-05 -2.60499492e-05 -2.60499492e-05 -2.60499492e-05
      1.84855480e-07 2.60820489e-05 6.75006959e-05 8.22550865e-05
      8.22550865e-05 4.12658883e-05 2.61269070e-05 2.66615934e-05
      -2.19161138e-05 -7.16172099e-06 -2.60499492e-05 -2.60499492e-05
      -2.60499492e-05 -4.08043416e-05 -4.08043416e-05 -4.08043416e-05
      -2.60499492e-05 -2.60499492e-05 -2.60499492e-05 -1.82311105e-05
      2.64624359e-05 3.94884773e-05 8.22550865e-05 6.38391211e-05
      4.12658883e-05 4.12658883e-05 2.61269070e-05 9.62888225e-06
      -2.19161138e-05 -7.16172099e-06 -2.60499492e-05 -2.60499492e-05
      -2.60499492e-05 -4.08043416e-05 -4.08043416e-05 -4.08043416e-05
      -2.60499492e-05 -2.60499492e-05 1.35559940e-05 -1.19839899e-06
      2.64624359e-05 3.94884773e-05 8.22550865e-05 2.66626503e-05
      2.66626503e-05 4.12658883e-05 -2.20384863e-05 -2.60499492e-05
      -2.19161138e-05 -7.16172099e-06 -2.60499492e-05 -2.60499492e-05
      -2.60499492e-05 -4.08043416e-05 -4.08043416e-05 -4.08043416e-05
      -4.08043416e-05 -4.08043416e-05 2.07226203e-05 2.07226203e-05
      6.75006959e-05 6.75006959e-05 8.22550865e-05 2.66626503e-05
      -4.85462078e-06 4.00880435e-06 -4.08043416e-05 -2.60499492e-05
      -2.19161138e-05 -7.16172099e-06 -2.60499492e-05 -2.60499492e-05
      -2.60499492e-05 -2.60499492e-05 -4.08043416e-05 -4.08043416e-05
      -4.08043416e-05 -2.23520215e-06 3.94884773e-05 3.94884773e-05
      6.75006959e-05 5.96818572e-05 4.12658883e-05 2.05382457e-05
      -1.59538631e-05 -1.83833345e-05 -4.08043416e-05 -2.60499492e-05
      -2.19161138e-05 -7.16172099e-06 -2.60499492e-05 -2.60499492e-05
      -2.60499492e-05 -2.60499492e-05 -4.08043416e-05 -4.08043416e-05
      -2.37716304e-05 2.07226203e-05 3.94884773e-05 3.94884773e-05
      4.49274630e-05 4.08812994e-05 1.28690817e-05 -3.29865761e-05
      -3.29865761e-05 -2.60499492e-05 -4.08043416e-05 -2.60499492e-05
      -3.70989292e-05 -2.23445350e-05 -2.66295247e-05 -2.66295247e-05
      -2.60499492e-05 -2.60499492e-05 -3.34914694e-05 -3.36426201e-05
      1.02483109e-05 2.66875304e-05 3.20469589e-05 3.20469589e-05
      5.22403352e-05 3.34397810e-05 -1.87668684e-05 -2.17649613e-05
      -3.34914694e-05 -3.34914694e-05 -3.34914694e-05 -3.34914694e-05
      -2.23445350e-05 -2.23445350e-05 -2.66295247e-05 -2.66295247e-05
      -2.60499492e-05 -7.16172099e-06 -3.34914694e-05 -1.85551733e-06
      2.09477166e-05 6.00591775e-05 7.48135717e-05 7.48135717e-05
      3.38243699e-05 2.49598888e-05 -4.06531908e-05 -4.06531908e-05
      -3.34914694e-05 -3.34914694e-05 -3.34914694e-05 -3.34914694e-05
      -2.23445350e-05 -2.23445350e-05 -2.66295247e-05 -2.66295247e-05
      -2.60499492e-05 9.87099065e-06 9.61952901e-06 5.03053489e-05
      2.63071452e-05 6.00591775e-05 5.63976027e-05 3.38243699e-05
      -3.05232766e-06 -2.00850391e-05 -4.06531908e-05 -4.06531908e-05
      -3.34914694e-05 -3.34914694e-05 -3.34914694e-05 -3.34914694e-05
      -2.23445350e-05 -2.23445350e-05 -2.66295247e-05 -2.66295247e-05
      -2.60499492e-05 9.39872734e-06 2.80354943e-05 5.60451626e-05
      4.68013532e-05 7.48135717e-05 3.34397810e-05 3.34397810e-05
      -8.79214258e-06 -2.58248529e-05 -4.06531908e-05 -4.06531908e-05
      -3.34914694e-05 -3.34914694e-05 -3.34914694e-05 -3.34914694e-05
      -2.23445350e-05 -2.23445350e-05 -4.12327645e-05 -4.12327645e-05
      -4.06531908e-05 2.62289977e-05 3.37753081e-05 6.94541377e-05
      7.48135717e-05 5.22403352e-05 4.49225554e-05 4.49225554e-05
      -1.12216139e-05 -3.34914694e-05 -4.06531908e-05 -4.06531908e-05
      -3.34914694e-05 -4.82458599e-05 -3.34914694e-05 -4.82458599e-05
      -2.23445350e-05 -2.23445350e-05 -4.12327645e-05 -3.81122991e-05
      -2.05000142e-05 3.42802050e-05 4.68013532e-05 7.48135717e-05
      7.48135717e-05 3.03193174e-05 3.95631287e-05 3.95631287e-05
      -1.88882277e-05 -3.34914694e-05 -2.36204778e-05 -1.24488088e-05
      7.23394891e-08 -2.23486677e-05 -7.97886605e-06 -3.12131488e-05
      -2.23445350e-05 -2.23445350e-05 -4.12327645e-05 -2.06949971e-05
      2.85403894e-05 3.96396317e-05 4.68013532e-05 7.48135717e-05
      5.63976027e-05 -3.05232766e-06 -1.88882277e-05 -1.88882277e-05
      -1.88882277e-05 7.49772971e-06 2.50353351e-05 3.96396317e-05
      5.22403352e-05 1.90699775e-05 5.27125994e-05 -3.20093272e-06
      -2.17649613e-05 -7.40828400e-05 -8.98506041e-05 -1.84180644e-05
      -1.26782497e-05 6.76518466e-05 6.76518466e-05 5.42428716e-05
      9.16904446e-06 -2.66295247e-05 -2.66295247e-05 -2.66295247e-05
      -2.66295247e-05 1.43596744e-05 2.44557596e-05 3.96396317e-05
      6.76518466e-05 1.19082570e-05 -1.34956679e-06 -3.83748702e-05
      -2.17649613e-05 -7.40828400e-05 -7.28178929e-05 -1.84180644e-05
      -1.26782497e-05 6.76518466e-05 4.50786174e-05 3.16696387e-05
      9.16904446e-06 -2.66295247e-05 -2.66295247e-05 -2.66295247e-05
      -2.66295247e-05 1.43596744e-05 2.44557596e-05 3.96396317e-05
      6.76518466e-05 1.19082570e-05 -1.34956679e-06 -3.83748702e-05
      -1.61178593e-06 -5.39296670e-05 -1.80376774e-05 1.53339679e-05
      1.53339679e-05 8.65400798e-05 4.15735631e-05 9.74861905e-06
      -2.08897090e-05 -2.66295247e-05 -2.66295247e-05 -2.66295247e-05
      -2.66295247e-05 1.43596744e-05 2.44557596e-05 3.96396317e-05
      8.65400798e-05 3.07964874e-05 -1.34956679e-06 -3.30154435e-05
      -1.28333995e-05 -6.51512819e-05 -1.26782497e-05 1.53339679e-05
      1.53339679e-05 4.92358813e-05 1.77981692e-05 -2.60499492e-05
      -2.66295247e-05 -2.66295247e-05 -2.66295247e-05 -2.66295247e-05
      -2.66295247e-05 1.43596744e-05 2.44557596e-05 3.96396317e-05
      6.76518466e-05 2.66626503e-05 -1.61039588e-05 -3.26350564e-05
      -1.28333995e-05 -6.51512819e-05 -1.26782497e-05 1.53339679e-05
      1.53339679e-05 2.66626503e-05 1.77981692e-05 -9.01723797e-06
      -2.66295247e-05 -2.66295247e-05 -2.66295247e-05 -2.66295247e-05
      -9.59681256e-06 3.13923847e-05 2.44557596e-05 3.96396317e-05
      6.76518466e-05 2.66626503e-05 -1.61039588e-05 -3.26350564e-05
      -8.69956421e-06 -4.62630524e-05 -2.74326430e-05 5.79574362e-07
      5.79574362e-07 3.44814907e-05 2.87374714e-05 2.99342810e-05
      2.93547073e-05 2.93547073e-05 2.93547073e-05 2.93547073e-05
      2.93547073e-05 5.58218780e-05 4.69584520e-05 5.28974560e-05
      5.28974560e-05 2.66626503e-05 -2.37705735e-05 -3.26350564e-05
      -1.28333995e-05 -6.51512819e-05 -1.26782497e-05 1.53339679e-05
      1.53339679e-05 6.76518466e-05 6.76518466e-05 5.98340812e-05
      5.92545075e-05 5.92545075e-05 5.92545075e-05 7.40089017e-05
      7.40089017e-05 8.16755128e-05 6.70722729e-05 6.76518466e-05
      6.76518466e-05 1.19082570e-05 -2.37705735e-05 -3.26350564e-05
      -1.28333995e-05 -6.51512819e-05 -1.26782497e-05 1.53339679e-05
      1.53339679e-05 6.76518466e-05 6.76518466e-05 6.75006959e-05
      6.69211222e-05 6.69211222e-05 6.69211222e-05 8.16755128e-05
      8.16755128e-05 8.16755128e-05 6.70722729e-05 6.76518466e-05
      6.76518466e-05 1.19082570e-05 -2.37705735e-05 -3.26350564e-05
      -2.10056460e-05 -2.10056460e-05 3.14673853e-05 6.00591775e-05
      6.00591775e-05 6.00591775e-05 6.00591775e-05 7.46624137e-05
      6.00591775e-05 6.00591775e-05 6.00591775e-05 6.00591775e-05
      6.00591775e-05 6.00591775e-05 5.94796002e-05 5.23178824e-05
      5.28974560e-05 1.19082570e-05 -2.43501490e-05 -3.32146301e-05
      -4.11588226e-05 -4.11588226e-05 1.44036767e-05 2.28858255e-07
      1.49832513e-05 2.28858255e-07 2.28858255e-07 2.95864902e-05
      2.28858255e-07 2.28858255e-07 -8.79214258e-06 -2.35465359e-05
      4.09951355e-07 2.05631259e-05 1.99835522e-05 2.43056638e-05
      5.28974560e-05 1.19082570e-05 -2.43501490e-05 -3.32146301e-05
      -4.88254336e-05 -4.88254336e-05 -3.40710430e-05 -4.82458599e-05
      -3.34914694e-05 -4.82458599e-05 -4.82458599e-05 -1.88882277e-05
      -4.82458599e-05 -4.82458599e-05 -3.34914694e-05 -4.82458599e-05
      -2.56726289e-05 4.09951355e-07 1.68630886e-05 2.43056638e-05
      5.28974560e-05 1.19082570e-05 -2.43501490e-05 -3.32146301e-05
      -4.88254336e-05 -3.40710430e-05 -3.40710430e-05 -3.34914694e-05
      -3.34914694e-05 -4.82458599e-05 -4.82458599e-05 -1.88882277e-05
      -4.82458599e-05 -3.34914694e-05 -3.34914694e-05 -4.82458599e-05
      -2.56726289e-05 4.09951355e-07 1.68630886e-05 2.43056638e-05
      5.28974560e-05 1.19082570e-05 -2.43501490e-05 -3.32146301e-05
      -3.40710430e-05 -3.40710430e-05 -3.40710430e-05 -4.82458599e-05
      -3.34914694e-05 -4.82458599e-05 -3.34914694e-05 -3.34914694e-05
      -3.34914694e-05 -3.34914694e-05 -3.34914694e-05 -4.82458599e-05
      -2.56726289e-05 3.53041446e-06 1.99835522e-05 2.43056638e-05
      5.28974560e-05 1.19082570e-05 -2.43501490e-05 -3.32146301e-05
      -3.40710430e-05 -3.40710430e-05 -3.40710430e-05 -4.82458599e-05
      -3.34914694e-05 -4.82458599e-05 -3.34914694e-05 -3.34914694e-05
      -3.34914694e-05 -3.34914694e-05 -3.34914694e-05 -4.82458599e-05
      -4.82458599e-05 4.09951355e-07 1.68630886e-05 2.43056638e-05
      5.28974560e-05 1.19082570e-05 -2.43501490e-05 -3.32146301e-05
      -4.88254336e-05 -3.40710430e-05 -3.40710430e-05 -1.46032398e-05
      -1.46032398e-05 -2.93576322e-05 -2.93576322e-05 -1.46032398e-05
      -3.34914694e-05 -3.34914694e-05 -3.34914694e-05 -4.82458599e-05
      -2.93576322e-05 -2.21632799e-05 -2.27428554e-05 8.28949851e-08
      6.62469347e-07 -1.77534966e-05 -4.48879146e-05 -5.02473413e-05</_>
    <_>
      -4.66026031e-05 -4.66026031e-05 -7.57793387e-05 -5.35129366e-05
      -5.35129366e-05 -5.35129366e-05 -3.92697621e-05 -3.92697621e-05
      -3.92697621e-05 -3.92697621e-05 -3.92697621e-05 -3.92697621e-05
      -3.92697621e-05 -3.92697621e-05 -3.92697621e-05 -3.92697621e-05
      7.33284332e-06 7.33284332e-06 -1.49335601e-05 -2.91767356e-05
      -4.66026031e-05 -4.66026031e-05 -7.57793387e-05 -5.35129366e-05
      -5.35129366e-05 -5.35129366e-05 -3.92697621e-05 -3.92697621e-05
      -3.92697621e-05 -3.92697621e-05 -3.92697621e-05 -3.92697621e-05
      -3.92697621e-05 -3.92697621e-05 -3.92697621e-05 -3.92697621e-05
      7.33284332e-06 7.33284332e-06 -1.49335601e-05 -2.91767356e-05
      -4.66026031e-05 -4.66026031e-05 -1.36348135e-05 1.42562712e-05
      2.62005869e-05 3.80364909e-05 4.03353515e-05 4.03353515e-05
      4.03353515e-05 4.03353515e-05 4.03353515e-05 4.03353515e-05
      4.03353515e-05 4.03353515e-05 4.03353515e-05 4.57227543e-07
      4.70598316e-05 4.70598316e-05 2.01951552e-05 -2.81503271e-05
      -4.66026031e-05 -4.66026031e-05 -1.36348135e-05 1.42562712e-05
      4.03353515e-05 4.03353515e-05 4.03353515e-05 4.03353515e-05
      4.03353515e-05 4.03353515e-05 4.03353515e-05 4.03353515e-05
      4.03353515e-05 4.03353515e-05 4.03353515e-05 4.57227543e-07
      4.70598316e-05 4.70598316e-05 2.01951552e-05 -2.81503271e-05
      -4.66026031e-05 -4.66026031e-05 -1.36348135e-05 1.42562712e-05
      4.03353515e-05 4.03353515e-05 4.03353515e-05 4.03353515e-05
      4.03353515e-05 4.03353515e-05 4.03353515e-05 4.03353515e-05
      4.03353515e-05 4.03353515e-05 4.03353515e-05 4.57227543e-07
      4.70598316e-05 4.70598316e-05 2.01951552e-05 -2.81503271e-05
      -4.69931038e-05 -4.69931038e-05 -1.40253114e-05 1.42562712e-05
      4.03353515e-05 4.03353515e-05 4.03353515e-05 4.03353515e-05
      2.83910358e-05 2.83910358e-05 2.60921752e-05 2.60921752e-05
      2.60921752e-05 2.60921752e-05 -7.72501323e-07 -4.06506260e-05
      5.95198026e-06 5.95198026e-06 -1.63144232e-05 -2.91767356e-05
      -2.07334342e-05 -2.07334342e-05 1.22343563e-05 1.42562712e-05
      4.03353515e-05 4.03353515e-05 4.57227543e-07 -2.18091755e-05
      -3.60523518e-05 -3.70787602e-05 -3.70787602e-05 -3.70787602e-05
      9.52384471e-06 9.52384471e-06 -6.39434365e-05 -6.39434365e-05
      -1.73408316e-05 -1.73408316e-05 -1.73408316e-05 -2.91767356e-05
      -2.07334342e-05 -2.07334342e-05 1.22343563e-05 -6.08666596e-06
      1.99924143e-05 1.99924143e-05 4.57227543e-07 -2.18091755e-05
      -3.60523518e-05 -4.89146623e-05 -4.89146623e-05 -4.89146623e-05
      -2.31205945e-06 -2.31205945e-06 -2.91767356e-05 -2.91767356e-05
      -2.91767356e-05 -2.91767356e-05 -2.91767356e-05 -2.91767356e-05
      -3.31458104e-05 -3.31458104e-05 -1.78017714e-07 -1.84990404e-05
      1.99924143e-05 1.99924143e-05 4.57227543e-07 -2.18091755e-05
      -6.87561578e-06 -4.89146623e-05 -4.89146623e-05 -4.89146623e-05
      -2.31205945e-06 -2.31205945e-06 -2.91767356e-05 0. -2.91767356e-05
      -2.91767356e-05 -2.91767356e-05 -2.91767356e-05 -3.31458104e-05
      -3.31458104e-05 -1.78017714e-07 -1.88895374e-05 1.96019155e-05
      4.87786529e-05 6.67297186e-08 -4.90643506e-05 -6.33075251e-05
      -7.61698393e-05 -7.61698393e-05 -7.61698393e-05 -7.61698393e-05
      -7.61698393e-05 -2.95672344e-05 -2.95672344e-05 -2.95672344e-05
      -2.95672344e-05 -2.95672344e-05 -2.95672344e-05 -3.31458104e-05
      -3.31458104e-05 8.48390471e-07 3.96573814e-05 6.62045204e-05
      8.90052888e-06 6.67297186e-08 -4.90643506e-05 -6.33075251e-05
      -7.61698393e-05 -7.61698393e-05 -7.61698393e-05 -7.61698393e-05
      -7.61698393e-05 -2.95672344e-05 -2.95672344e-05 -2.95672344e-05
      -2.95672344e-05 -2.95672344e-05 -2.95672344e-05 -3.31458104e-05
      -3.31458104e-05 8.48390471e-07 3.96573814e-05 6.62045204e-05
      1.96019155e-05 3.99448509e-05 1.30801764e-05 1.13586054e-06
      3.59025616e-05 -3.97556187e-06 -3.97556187e-06 -2.62419653e-05
      -2.95672344e-05 -2.95672344e-05 -2.95672344e-05 -2.95672344e-05
      -2.95672344e-05 -2.95672344e-05 -2.95672344e-05 -3.31458104e-05
      -3.31458104e-05 8.48390471e-07 3.96573814e-05 6.62045204e-05
      1.96019155e-05 3.99448509e-05 3.99448509e-05 3.99448509e-05
      8.65474576e-05 8.65474576e-05 8.65474576e-05 4.66693346e-05
      4.66693346e-05 -3.97556187e-06 -2.85408260e-05 -2.95672344e-05
      -2.95672344e-05 -2.95672344e-05 -2.95672344e-05 -3.27553098e-05
      -3.31458104e-05 8.48390471e-07 -6.55472377e-06 1.96019155e-05
      1.99924143e-05 4.03353515e-05 3.99448509e-05 3.99448509e-05
      8.65474576e-05 8.65474576e-05 8.65474576e-05 4.70598316e-05
      4.70598316e-05 -2.64074497e-05 -2.87063085e-05 -2.85408260e-05
      -2.81503271e-05 -2.91767356e-05 -2.91767356e-05 -1.72133878e-05
      -1.76038866e-05 -4.34553549e-05 1.60870732e-05 3.99448509e-05
      4.03353515e-05 4.03353515e-05 3.99448509e-05 3.99448509e-05
      8.65474576e-05 8.65474576e-05 8.65474576e-05 1.34706743e-05
      -2.64074497e-05 4.57227543e-07 4.57227543e-07 1.98046582e-05
      6.06039157e-06 1.02640820e-06 -2.91767356e-05 1.95351859e-05
      1.19551460e-05 5.04481432e-06 -1.97979480e-05 -3.06189431e-05
      2.25372914e-05 2.25372914e-05 2.21467926e-05 9.73441911e-06
      9.73441911e-06 3.30272305e-05 4.72704050e-05 2.79229771e-05
      2.79229771e-05 2.79229771e-05 4.57227543e-07 4.66693346e-05
      4.70598316e-05 -3.58506418e-06 -2.81503271e-05 0. -7.58003989e-06
      -1.44903715e-05 -5.96760692e-05 -7.04970662e-05 -1.73408316e-05
      -1.73408316e-05 -1.77313304e-05 -4.19796088e-05 9.73441911e-06
      3.30272305e-05 4.72704050e-05 2.79229771e-05 2.79229771e-05
      2.79229771e-05 4.03353515e-05 4.66693346e-05 4.70598316e-05
      8.25083953e-06 -2.81503271e-05 -4.66026031e-05 -5.41826448e-05
      -8.33593804e-05 -3.63662766e-05 -3.67567773e-05 0. -2.91767356e-05
      -7.61698393e-05 -8.85822083e-05 -4.19796088e-05 -2.10148437e-06
      2.01649200e-05 3.35261393e-05 4.76609057e-05 7.45255820e-05
      8.69379583e-05 7.58460665e-05 7.62365671e-05 8.25083953e-06
      -2.81503271e-05 -2.91767356e-05 -3.67567773e-05 -3.63662766e-05
      -3.63662766e-05 -3.67567773e-05 -2.91767356e-05 -2.91767356e-05
      -2.95672344e-05 -4.19796088e-05 -4.19796088e-05 -2.10148437e-06
      -2.10148437e-06 2.01649200e-05 2.38806842e-05 7.45255820e-05
      8.69379583e-05 4.66693346e-05 4.70598316e-05 2.01951552e-05
      -2.85408260e-05 -2.91767356e-05 -3.67567773e-05 -3.63662766e-05
      -3.63662766e-05 -3.67567773e-05 -2.91767356e-05 -2.91767356e-05
      -2.95672344e-05 -4.19796088e-05 -4.19796088e-05 -2.10148437e-06
      -2.10148437e-06 2.01649200e-05 2.38806842e-05 7.45255820e-05
      8.69379583e-05 4.66693346e-05 4.70598316e-05 8.25083953e-06
      -1.67049220e-05 0. -7.58003989e-06 -3.63662766e-05 -3.63662766e-05
      -3.67567773e-05 -2.91767356e-05 -2.91767356e-05 -2.95672344e-05
      -4.19796088e-05 -4.19796088e-05 -4.19796088e-05 -2.10148437e-06
      3.21092339e-05 3.58249999e-05 4.76609057e-05 6.00732783e-05
      4.66693346e-05 4.70598316e-05 8.25083953e-06 -1.67049220e-05
      -2.91767356e-05 -3.67567773e-05 -3.63662766e-05 -3.63662766e-05
      -3.67567773e-05 -2.91767356e-05 -2.91767356e-05 -2.95672344e-05
      -4.19796088e-05 -4.19796088e-05 -4.19796088e-05 -2.10148437e-06
      3.21092339e-05 3.58249999e-05 1.05830031e-06 1.34706743e-05
      4.66693346e-05 4.70598316e-05 8.25083953e-06 -1.67049220e-05
      -2.95672344e-05 -3.67567773e-05 -3.63662766e-05 -3.63662766e-05
      -3.63662766e-05 -2.95672344e-05 -2.91767356e-05 -2.95672344e-05
      -4.19796088e-05 -4.19796088e-05 -2.10148437e-06 2.01649200e-05
      3.21092339e-05 3.54345029e-05 7.45255820e-05 8.69379583e-05
      4.66693346e-05 4.70598316e-05 8.25083953e-06 -1.63144232e-05
      -6.23225424e-05 -6.23225424e-05 -6.19320490e-05 -4.95196728e-05
      -4.95196728e-05 -4.99101698e-05 -4.95196728e-05 -4.99101698e-05
      -4.99101698e-05 -2.95672344e-05 1.03108896e-05 4.68204671e-05
      4.68204671e-05 4.78468755e-05 7.45255820e-05 3.46474590e-05
      4.66693346e-05 4.47609709e-05 -6.46039371e-06 -4.05626997e-05
      -6.23225424e-05 -6.23225424e-05 -2.66949191e-05 -4.95196728e-05
      -4.95196728e-05 -4.99101698e-05 -4.95196728e-05 -4.99101698e-05
      -1.00320476e-05 1.03108896e-05 4.78468755e-05 4.78468755e-05
      4.78468755e-05 5.96827813e-05 7.45255820e-05 3.46474590e-05
      3.47250170e-05 3.28166570e-05 -6.46039371e-06 -4.15891082e-05
      -4.00561403e-05 -4.00561403e-05 -2.66949191e-05 -3.40204715e-05
      -2.21845694e-05 -4.94397427e-05 -2.87063085e-05 -4.09327113e-05
      -1.05458753e-06 -1.05458753e-06 1.30801764e-05 1.30801764e-05
      3.99448509e-05 3.99448509e-05 2.79229771e-05 -2.38994617e-05
      7.86034161e-06 5.95198026e-06 -4.05626997e-05 -4.15891082e-05
      -2.27219189e-05 -2.31124177e-05 -1.11681011e-05 3.99448509e-05
      4.03353515e-05 1.34706743e-05 1.34706743e-05 1.30801764e-05
      1.30801764e-05 1.30801764e-05 1.30801764e-05 1.30801764e-05
      8.65474576e-05 4.66693346e-05 3.46474590e-05 2.04042826e-05
      -1.67049220e-05 -1.63144232e-05 -4.15891082e-05 -4.15891082e-05
      -1.07776041e-05 -1.11681011e-05 -1.11681011e-05 3.99448509e-05
      4.03353515e-05 4.03353515e-05 4.03353515e-05 3.99448509e-05
      3.99448509e-05 3.99448509e-05 3.99448509e-05 3.99448509e-05
      4.66693346e-05 4.43704739e-05 2.04042826e-05 -1.86212105e-06
      -1.77313304e-05 -2.91767356e-05 -4.15891082e-05 -4.15891082e-05
      -4.60147312e-05 -4.64052282e-05 -2.31124177e-05 3.99448509e-05
      4.03353515e-05 4.03353515e-05 4.03353515e-05 3.99448509e-05
      3.99448509e-05 3.99448509e-05 3.99448509e-05 -1.18775861e-05
      -1.18775861e-05 -1.52028542e-05 -4.94911328e-05 -4.94911328e-05
      -2.95672344e-05 -2.91767356e-05 -4.15891082e-05 -4.15891082e-05
      -4.15891082e-05 -4.19796088e-05 -3.96807482e-05 1.90836181e-06
      2.29885973e-06 8.08775658e-05 8.08775658e-05 8.04870651e-05
      1.14322065e-05 -1.54324698e-05 -1.77313304e-05 -1.77313304e-05
      1.14454060e-05 -1.77313304e-05 -4.15891082e-05 -1.24123735e-05
      -3.90497831e-07 0. -4.15891082e-05 -4.15891082e-05</_>
    <_>
      -2.84414218e-05 -2.84414218e-05 -5.18001762e-05 -5.18001762e-05
      -5.18001762e-05 -5.18001762e-05 -5.18001762e-05 -5.18001762e-05
      -1.69403866e-05 -1.69403866e-05 -4.93809466e-06 -4.93809466e-06
      1.93557025e-05 2.02392148e-05 -4.93809466e-06 -2.60701181e-05
      -1.74690595e-05 -1.74690595e-05 -2.33587543e-05 -2.33587543e-05
      -2.84414218e-05 -2.84414218e-05 -5.18001762e-05 -5.18001762e-05
      -5.18001762e-05 -5.18001762e-05 -5.18001762e-05 -5.18001762e-05
      -1.69403866e-05 -1.69403866e-05 -4.93809466e-06 -4.93809466e-06
      1.93557025e-05 2.02392148e-05 -4.93809466e-06 -2.60701181e-05
      -1.74690595e-05 -1.74690595e-05 -2.33587543e-05 -2.33587543e-05
      -2.84414218e-05 -2.84414218e-05 -5.18001762e-05 -5.18001762e-05
      -5.18001762e-05 -5.18001762e-05 -5.18001762e-05 -1.69403866e-05
      -1.69403866e-05 1.93557025e-05 2.02392148e-05 2.02392148e-05
      4.91818500e-05 7.25721184e-05 2.03730906e-05 -2.05718388e-05
      7.86958208e-06 -9.63098955e-06 -1.74690595e-05 -2.33587543e-05
      -2.84414218e-05 -2.84414218e-05 -5.18001762e-05 -5.18001762e-05
      -5.18001762e-05 -5.18001762e-05 -1.69403866e-05 -1.69403866e-05
      -4.05458240e-06 2.02392148e-05 4.91818500e-05 4.91818500e-05
      4.55504014e-05 3.35481054e-05 8.37079733e-06 -2.05718388e-05
      7.86958208e-06 -9.63098955e-06 -1.74690595e-05 -2.33587543e-05
      -2.84414218e-05 -2.84414218e-05 -5.18001762e-05 -5.18001762e-05
      -5.18001762e-05 -5.18001762e-05 -4.93809466e-06 2.02392148e-05
      2.02392148e-05 6.28751077e-05 8.04101874e-05 4.55504014e-05
      3.35481054e-05 3.26645932e-05 8.37079733e-06 -5.30329125e-05
      -2.45914907e-05 -9.63098955e-06 -2.33587543e-05 -2.33587543e-05
      -2.84414218e-05 -2.84414218e-05 -5.18001762e-05 -5.18001762e-05
      -1.69403866e-05 -1.69403866e-05 -4.93809466e-06 2.02392148e-05
      7.07131767e-05 8.04101874e-05 4.55504014e-05 4.55504014e-05
      9.25430959e-06 -2.05718388e-05 -2.05718388e-05 -6.09633862e-05
      -4.03600352e-05 -2.33587543e-05 -2.33587543e-05 -2.53995331e-05
      -5.45004332e-06 -5.45004332e-06 -2.88087977e-05 -5.18001762e-05
      -1.69403866e-05 -1.60568743e-05 2.48880551e-05 4.91818500e-05
      8.04101874e-05 8.04101874e-05 3.35481054e-05 3.26645932e-05
      7.86958208e-06 1.97988652e-06 -4.01547913e-05 -8.63020250e-05
      -5.78606050e-05 -2.33587543e-05 -2.33587543e-05 -2.53995331e-05
      -5.45004332e-06 -5.45004332e-06 -2.88087977e-05 -5.72502177e-05
      -2.23904299e-05 4.37318085e-05 5.50715486e-05 8.04101874e-05
      8.04101874e-05 4.41140983e-05 8.37079733e-06 -2.05718388e-05
      1.97988652e-06 -1.55206853e-05 -2.33587543e-05 -5.78606050e-05
      -5.78606050e-05 -2.33587543e-05 -2.33587543e-05 -2.53995331e-05
      -3.79111152e-05 -3.79111152e-05 -2.88087977e-05 -2.23904299e-05
      -2.15069176e-05 5.74250662e-05 4.41418015e-05 8.04101874e-05
      7.04243575e-05 2.27718065e-05 -6.17083106e-06 -6.17083106e-06
      -8.95774610e-06 -8.95774610e-06 -8.95774610e-06 -3.45018525e-05
      -5.78606050e-05 -5.58198262e-05 -5.58198262e-05 -5.78606050e-05
      -3.79111152e-05 -3.79111152e-05 -2.88087977e-05 -2.23904299e-05
      2.89670461e-05 9.24292035e-05 4.79491137e-05 5.40756118e-05
      2.27718065e-05 -6.17083106e-06 -2.95610971e-05 -3.73991679e-05
      -3.73991679e-05 -3.73991679e-05 -8.95774610e-06 -2.09600385e-05
      -5.78606050e-05 -5.78606050e-05 -5.78606050e-05 -5.78606050e-05
      -3.79111152e-05 -3.79111152e-05 -2.88087977e-05 7.12897163e-05
      9.75118674e-05 9.83189020e-05 4.79491137e-05 7.83694122e-05
      4.70656014e-05 4.42970850e-06 -5.26730082e-06 -5.26730082e-06
      -2.95610971e-05 -2.95610971e-05 -8.95774610e-06 -8.95774610e-06
      -1.09985249e-05 -1.09985249e-05 -5.78606050e-05 -5.78606050e-05
      -3.79111152e-05 -3.79111152e-05 -2.79252854e-05 7.21732285e-05
      9.75118674e-05 7.49601459e-05 4.79491137e-05 7.83694122e-05
      4.79491137e-05 7.63905336e-05 7.63905336e-05 7.63905336e-05
      5.20967405e-05 2.31541017e-05 1.53160327e-05 -2.18453829e-06
      -5.10882955e-06 -5.10882955e-06 -4.58583127e-05 -5.78606050e-05
      -3.79111152e-05 -3.79111152e-05 -2.55265695e-05 6.31024232e-05
      7.09404922e-05 4.24990722e-05 4.79491137e-05 4.59083349e-05
      1.30893268e-05 2.95284553e-05 6.19895291e-05 6.19895291e-05
      9.68493187e-05 6.43882449e-05 6.43882449e-05 4.74478984e-05
      2.11133229e-05 6.53655388e-06 -1.09985249e-05 -5.78606050e-05
      -3.79111152e-05 -3.99518940e-05 1.37528855e-06 4.04582934e-05
      4.04582934e-05 4.24990722e-05 4.79491137e-05 1.30893268e-05
      1.30893268e-05 2.95284553e-05 5.99487503e-05 6.19895291e-05
      6.19895291e-05 2.95284553e-05 3.39060425e-05 4.79491137e-05
      2.11133229e-05 2.02298106e-05 -5.10882955e-06 -5.58198262e-05
      -6.63525352e-05 -6.83933176e-05 -1.33728754e-05 4.59083349e-05
      4.59083349e-05 4.79491137e-05 4.79491137e-05 -1.12044700e-05
      -2.40902755e-05 -2.45914907e-05 -6.08923116e-08 3.09225252e-05
      2.48110223e-06 -2.90964581e-05 2.80163476e-05 4.79491137e-05
      7.43497585e-05 4.54071196e-05 4.44720790e-05 -5.58198262e-05
      -3.70276030e-05 -7.95266751e-05 -9.58014061e-06 5.45004332e-06
      5.45004332e-06 7.63905336e-05 5.85818441e-07 7.86958208e-06
      1.97988652e-06 -1.55206853e-05 -2.53995331e-05 -2.33587543e-05
      -2.28575391e-05 -9.16428144e-06 -3.11372351e-05 2.36553187e-05
      7.43497585e-05 4.54071196e-05 2.11133229e-05 -1.25891984e-05
      -3.15775615e-05 -7.40766336e-05 3.70797216e-06 5.45004332e-06
      5.45004332e-06 7.55070214e-05 -2.97693958e-07 7.86958208e-06
      -9.66549669e-06 -2.33587543e-05 -2.53995331e-05 -2.33587543e-05
      -2.28575391e-05 -9.16428144e-06 -3.20207510e-05 1.07695132e-05
      7.43497585e-05 4.54071196e-05 2.11133229e-05 -1.17056852e-05
      -6.00189815e-05 -1.02518054e-04 -1.88437534e-05 3.38914651e-05
      3.38914651e-05 7.45719808e-05 -2.45914907e-05 -2.84099096e-05
      -5.18001762e-05 -2.33587543e-05 -2.53995331e-05 -2.33587543e-05
      -2.33587543e-05 5.58388274e-06 -1.52247112e-05 3.92109323e-05
      9.77085147e-05 6.87658758e-05 4.54071196e-05 4.75004163e-06
      6.82533164e-06 -3.15921825e-05 9.59766749e-06 3.38914651e-05
      3.38914651e-05 2.22705894e-05 -2.45914907e-05 -1.95098382e-05
      -2.33587543e-05 -2.33587543e-05 -2.53995331e-05 -2.33587543e-05
      -2.33587543e-05 5.58388274e-06 -1.52247112e-05 3.92109323e-05
      7.43497585e-05 4.54071196e-05 4.54071196e-05 -1.10514611e-06
      6.82533164e-06 -3.15921825e-05 9.59766749e-06 3.38914651e-05
      3.38914651e-05 2.22705894e-05 -3.04811856e-05 -2.53995331e-05
      -2.33587543e-05 -2.33587543e-05 -2.53995331e-05 -2.33587543e-05
      -2.33587543e-05 5.58388274e-06 5.94181938e-06 5.12132283e-05
      7.43497585e-05 4.54071196e-05 4.54071196e-05 5.85818441e-07
      3.01840864e-05 -8.23342816e-06 9.59766749e-06 3.38914651e-05
      3.38914651e-05 1.02682970e-05 -3.83192564e-05 -2.53995331e-05
      -2.33587543e-05 -2.33587543e-05 -2.53995331e-05 -2.33587543e-05
      -2.33587543e-05 5.58388274e-06 5.94181938e-06 5.12132283e-05
      7.43497585e-05 4.54071196e-05 4.54071196e-05 -5.30387661e-06
      6.82533164e-06 -3.15921825e-05 9.59766749e-06 3.38914651e-05
      3.38914651e-05 2.22705894e-05 -3.83192564e-05 -2.53995331e-05
      -2.33587543e-05 -2.33587543e-05 -2.53995331e-05 -2.33587543e-05
      5.58388274e-06 5.58388274e-06 -2.16160897e-05 2.36553187e-05
      7.43497585e-05 4.54071196e-05 4.54071196e-05 -5.30387661e-06
      -2.59936769e-05 -6.64519685e-05 9.59766749e-06 3.38914651e-05
      3.38914651e-05 2.22705894e-05 -4.03600352e-05 -2.53995331e-05
      -2.53995331e-05 -2.33587543e-05 -2.33587543e-05 -2.33587543e-05
      5.58388274e-06 5.58388274e-06 3.42047497e-05 5.20967405e-05
      7.43497585e-05 4.54071196e-05 1.05473327e-05 -1.89900384e-05
      -3.23272325e-05 -3.23272325e-05 4.46059166e-05 6.88997170e-05
      6.88997170e-05 1.68205461e-05 -3.79720077e-05 -3.08495764e-05
      -6.33106465e-05 -5.58198262e-05 -5.58198262e-05 -5.58198262e-05
      7.98259771e-06 7.98259771e-06 3.42047497e-05 5.20967405e-05
      7.43497585e-05 4.54071196e-05 -1.45496040e-06 -3.35668083e-05
      -3.23272325e-05 -3.23272325e-05 4.46059166e-05 6.88997170e-05
      6.88997170e-05 1.77040602e-05 -2.22870767e-06 -2.70422624e-05
      -6.33106465e-05 -5.58198262e-05 -5.58198262e-05 7.98259771e-06
      7.98259771e-06 2.96818998e-05 7.63905336e-05 7.63905336e-05
      1.05473327e-05 1.05473327e-05 -3.16384539e-05 -5.78606050e-05
      -6.12698714e-05 -6.12698714e-05 4.07986045e-05 4.04582934e-05
      4.04582934e-05 4.24990722e-05 4.96340635e-06 5.29261251e-06
      -5.14422391e-05 -4.94014603e-05 -4.94014603e-05 -1.95753109e-05
      9.96206109e-06 2.36553187e-05 4.79491137e-05 1.30893268e-05
      -1.45496040e-06 -2.33847277e-06 -5.78606050e-05 -5.78606050e-05
      -8.42612499e-05 -8.42612499e-05 4.11396786e-06 4.59083349e-05
      4.59083349e-05 4.79491137e-05 3.39060425e-05 4.20733195e-05
      8.72873443e-06 -2.92374466e-06 -4.96452321e-06 -4.08101096e-06
      5.00559618e-05 5.00559618e-05 7.43497585e-05 1.05473327e-05
      -1.51827253e-05 -1.98735506e-05 -5.78606050e-05 -5.78606050e-05
      -8.42612499e-05 -8.42612499e-05 -8.63020250e-05 1.69237137e-05
      2.16145399e-05 4.79491137e-05 4.59083349e-05 4.59083349e-05
      4.59083349e-05 4.79491137e-05 4.59083349e-05 4.59083349e-05
      7.43497585e-05 4.54071196e-05 1.05473327e-05 -1.89900384e-05
      -4.41673474e-05 -5.78606050e-05 -5.78606050e-05 -5.78606050e-05
      -8.42612499e-05 -8.42612499e-05 -8.63020250e-05 -6.84100378e-05
      -1.79360741e-05 1.30893268e-05 4.59083349e-05 4.59083349e-05
      4.59083349e-05 4.79491137e-05 4.59083349e-05 1.10485480e-05
      -2.37837830e-05 -3.57860772e-05 -4.83149743e-05 -6.20082283e-05
      -5.78606050e-05 -5.78606050e-05 -5.78606050e-05 -5.78606050e-05
      -5.58198262e-05 -5.58198262e-05 -5.78606050e-05 -3.45018525e-05
      -3.45018525e-05 -1.87678161e-05 -8.80630068e-06 -9.68231575e-07
      -2.43269860e-05 2.00758996e-06 -1.98735506e-05 -1.98735506e-05
      -2.08085949e-05 -5.78606050e-05 -5.78606050e-05 -3.45018525e-05
      -3.45018525e-05 -3.45018525e-05 -5.78606050e-05 -5.78606050e-05</_>
    <_>
      -2.57098473e-05 -2.57098473e-05 -2.48388351e-05 -2.48388351e-05
      -3.33802163e-05 -8.80687548e-06 -8.80687548e-06 -8.80687548e-06
      -9.77573927e-06 -9.77573927e-06 -9.77573927e-06 -9.77573927e-06
      -1.49944681e-05 -1.49944681e-05 -1.49944681e-05 -9.77573927e-06
      1.87249352e-05 1.87249352e-05 7.31861428e-06 -2.16159733e-05
      -2.57098473e-05 -2.57098473e-05 -2.48388351e-05 -2.48388351e-05
      -3.33802163e-05 -8.80687548e-06 -8.80687548e-06 -8.80687548e-06
      -9.77573927e-06 -9.77573927e-06 -9.77573927e-06 -9.77573927e-06
      -1.49944681e-05 -1.49944681e-05 -1.49944681e-05 -9.77573927e-06
      1.87249352e-05 1.87249352e-05 7.31861428e-06 -2.16159733e-05
      1.46310613e-05 1.46310613e-05 5.84593545e-06 5.84593545e-06
      5.84593545e-06 4.60557385e-05 4.60557385e-05 4.60557385e-05
      5.12744700e-05 5.12744700e-05 5.12744700e-05 5.12744700e-05
      4.60557385e-05 4.60557385e-05 4.60557385e-05 5.12744700e-05
      7.35875510e-05 7.35875510e-05 6.83688195e-05 2.10787257e-05
      8.44346960e-06 1.36621975e-05 5.84593545e-06 5.84593545e-06
      5.84593545e-06 4.60557385e-05 4.60557385e-05 4.60557385e-05
      5.12744700e-05 5.12744700e-05 5.12744700e-05 4.60557385e-05
      4.60557385e-05 4.60557385e-05 5.12744700e-05 5.12744700e-05
      7.35875510e-05 7.35875510e-05 6.83688195e-05 3.67151879e-05
      1.57393388e-05 2.09580685e-05 5.84593545e-06 5.84593545e-06
      5.84593545e-06 4.60557385e-05 4.60557385e-05 4.60557385e-05
      5.12744700e-05 5.12744700e-05 5.12744700e-05 4.60557385e-05
      4.60557385e-05 4.60557385e-05 5.12744700e-05 5.12744700e-05
      7.35875510e-05 7.35875510e-05 6.83688195e-05 3.07323462e-05
      9.35793764e-07 6.15452245e-06 -7.84933218e-06 -6.32449746e-06
      -6.32449746e-06 3.38853060e-05 3.38853060e-05 3.27770285e-05
      3.38853060e-05 3.38853060e-05 3.27770285e-05 3.27770285e-05
      4.00729004e-05 4.60557385e-05 5.12744700e-05 5.12744700e-05
      7.35875510e-05 7.35875510e-05 6.83688195e-05 3.07323462e-05
      -1.46426901e-05 -9.42396127e-06 -2.48338310e-05 -4.44423713e-05
      -4.44423713e-05 -4.28207786e-05 -4.80395065e-05 -4.91477840e-05
      -4.80395065e-05 -4.80395065e-05 -4.91477840e-05 -4.91477840e-05
      2.44405146e-06 2.21870050e-05 7.46753085e-06 5.12744700e-05
      7.35875510e-05 7.35875510e-05 6.83688195e-05 -1.30745902e-05
      -1.46426901e-05 -9.42396127e-06 -2.59421104e-05 -4.51087617e-05
      -4.51087617e-05 -4.51087617e-05 -4.91477840e-05 -4.91477840e-05
      -4.91477840e-05 -4.91477840e-05 -4.91477840e-05 -4.91477840e-05
      2.44405146e-06 2.21870050e-05 2.97806127e-05 7.35875510e-05
      7.35875510e-05 7.35875510e-05 6.83688195e-05 -2.16159733e-05
      -2.59386070e-05 -2.07198791e-05 -3.72380273e-05 -5.64046786e-05
      -4.51087617e-05 -4.51087617e-05 -3.88312292e-05 -4.40499607e-05
      -2.75318107e-05 -4.40499607e-05 -4.40499607e-05 -4.40499607e-05
      1.27606045e-05 2.72848283e-05 2.97806127e-05 9.01056992e-05
      7.86853780e-05 7.86853780e-05 6.54066607e-05 -1.65181482e-05
      -2.07198791e-05 -2.07198791e-05 -3.72380273e-05 -5.79295120e-05
      -4.66335950e-05 -3.01154469e-05 -4.03560662e-05 -4.03560662e-05
      -4.55747941e-05 -4.55747941e-05 -4.03560662e-05 -4.03560662e-05
      2.49913728e-06 1.10405208e-05 7.20627140e-05 7.20627140e-05
      7.71605410e-05 4.75840498e-05 -9.50160029e-06 -1.80429834e-05
      -2.07198791e-05 -2.07198791e-05 -3.72380273e-05 -3.56164310e-05
      -2.43205141e-05 -3.01154469e-05 -4.03560662e-05 -4.03560662e-05
      -4.55747941e-05 -4.55747941e-05 -1.21855901e-05 -2.53592839e-06
      1.10405208e-05 1.10405208e-05 7.20627140e-05 7.20627140e-05
      6.98646691e-05 3.17467966e-05 -1.80429834e-05 -1.80429834e-05
      -2.07198791e-05 -2.07198791e-05 -3.72380273e-05 -3.56164310e-05
      -2.43205141e-05 -4.66335950e-05 -4.03560662e-05 -4.03560662e-05
      -4.03560662e-05 -1.80429834e-05 1.01274918e-05 2.59647459e-05
      3.33536009e-05 3.33536009e-05 7.20627140e-05 4.24862228e-05
      4.02881778e-05 3.17467966e-05 -1.80429834e-05 -1.80429834e-05
      -2.07198791e-05 -2.07198791e-05 -3.72380273e-05 -3.56164310e-05
      -2.43205141e-05 -4.66335950e-05 -4.03560662e-05 -4.03560662e-05
      -4.03560662e-05 -1.80429834e-05 1.01274918e-05 2.59647459e-05
      3.33536009e-05 3.33536009e-05 7.20627140e-05 4.24862228e-05
      3.43053362e-05 2.05452252e-05 -1.80429834e-05 -2.32617112e-05
      -1.91950439e-05 -2.07198791e-05 -3.72380273e-05 -5.64046786e-05
      -4.66335950e-05 -4.51087617e-05 -3.88312292e-05 -4.03560662e-05
      -4.03560662e-05 -1.80429834e-05 1.86246270e-05 3.33536009e-05
      3.48784379e-05 7.86853780e-05 5.12744700e-05 1.20483155e-05
      2.57639549e-05 -2.17368779e-05 -1.65181482e-05 -2.17368779e-05
      -4.15081267e-05 -4.30329601e-05 -5.95511083e-05 -5.52249730e-05
      -4.54538895e-05 -4.39290561e-05 -3.88312292e-05 -4.03560662e-05
      -4.03560662e-05 1.01274918e-05 3.33536009e-05 3.33536009e-05
      1.25653551e-05 5.63722933e-05 2.16979770e-05 -1.22117711e-07
      2.57639549e-05 -2.17368779e-05 1.35525272e-20 -2.17368779e-05
      -7.89912610e-06 -3.98576485e-05 -5.63757967e-05 -7.43627388e-05
      -7.58875758e-05 -2.16159733e-05 -2.16159733e-05 -2.31408085e-05
      -2.58953423e-05 9.66399057e-06 1.69598607e-05 1.69598607e-05
      -3.82838653e-06 3.14371682e-05 7.52397796e-07 -1.22117711e-07
      2.06661298e-05 -2.68347012e-05 -2.16159733e-05 -2.68347012e-05
      -6.71942007e-06 -3.86779393e-05 -5.51960911e-05 -7.43627388e-05
      -7.58875758e-05 -2.16159733e-05 -2.16159733e-05 -2.31408085e-05
      -2.58953423e-05 9.66399057e-06 1.69598607e-05 1.69598607e-05
      3.99785495e-05 3.14371682e-05 -5.43519400e-06 -1.22117711e-07
      2.06661298e-05 -2.68347012e-05 -2.16159733e-05 -2.68347012e-05
      -2.90325024e-05 -6.09910239e-05 -7.58875758e-05 -5.20496578e-05
      -5.35744948e-05 -5.09782467e-06 -2.16159733e-05 -1.72834152e-05
      -1.27420781e-05 1.69598607e-05 1.69598607e-05 1.69598607e-05
      3.41211562e-05 1.95969333e-05 1.08950471e-05 2.21909650e-05
      3.71842798e-05 -1.03165530e-05 -2.16159733e-05 -2.68347012e-05
      -2.32375696e-05 -5.51960911e-05 -5.20496578e-05 -5.20496578e-05
      -5.35744948e-05 -2.16159733e-05 -2.16159733e-05 6.43568364e-06
      1.09770199e-05 1.69598607e-05 1.69598607e-05 8.41847759e-06
      2.26489228e-05 1.81909163e-05 1.08950471e-05 -2.16159733e-05
      -2.31408085e-05 -2.16159733e-05 -2.68347012e-05 -2.83595364e-05
      -2.32375696e-05 -5.51960911e-05 -5.20496578e-05 -5.20496578e-05
      -5.35744948e-05 -2.16159733e-05 -2.16159733e-05 7.54396160e-06
      1.69598607e-05 1.69598607e-05 6.07667971e-05 5.22254159e-05
      2.15406453e-05 1.70826388e-05 1.08950471e-05 -2.16159733e-05
      -2.31408085e-05 -2.16159733e-05 -2.68347012e-05 -2.83595364e-05
      -1.19381484e-05 -3.86779393e-05 -5.72683894e-05 -5.72683894e-05
      -5.87932227e-05 1.33577328e-06 9.87715703e-06 1.70542080e-05
      1.17411319e-05 1.17411319e-05 2.73775950e-05 1.88362101e-05
      4.15148361e-06 5.67631832e-06 -3.81306199e-05 -2.68347012e-05
      -2.83595364e-05 -2.16159733e-05 -2.68347012e-05 -2.83595364e-05
      -2.32375696e-05 -5.51960911e-05 -5.20496578e-05 -5.20496578e-05
      -5.35744948e-05 7.96051791e-06 1.65019010e-05 1.70542080e-05
      1.17411319e-05 1.17411319e-05 2.59715780e-05 2.26489228e-05
      9.37021196e-06 1.08950471e-05 -5.52249730e-05 -4.39290561e-05
      -2.31408085e-05 -2.68347012e-05 -2.68347012e-05 -2.83595364e-05
      -2.47624030e-05 -5.51960911e-05 -5.20496578e-05 -5.20496578e-05
      -4.35082766e-05 1.49770667e-05 2.35930202e-05 2.30370497e-05
      1.17411319e-05 1.17411319e-05 1.74301949e-05 2.26489228e-05
      9.37021196e-06 9.37021196e-06 -3.29118920e-05 -2.16159733e-05
      -2.31408085e-05 -2.68347012e-05 -2.68347012e-05 -2.68347012e-05
      -3.73589319e-05 -3.73589319e-05 -3.42125022e-05 -2.29165835e-05
      -1.43752004e-05 1.36764565e-05 2.84800026e-05 2.69551674e-05
      2.69551674e-05 7.19418094e-05 3.38239370e-05 2.65280669e-05
      2.05452252e-05 -2.32617112e-05 -3.30327966e-05 -3.81306199e-05
      -2.83595364e-05 -2.68347012e-05 -3.81306199e-05 -3.81306199e-05
      -3.73589319e-05 -3.73589319e-05 -2.89937725e-05 -2.29165835e-05
      2.04200205e-05 1.96592973e-05 2.84800026e-05 3.21738953e-05
      2.69551674e-05 4.23653182e-05 3.30598232e-05 2.05452252e-05
      2.05452252e-05 -2.32617112e-05 -3.30327966e-05 -3.81306199e-05
      -2.83595364e-05 -2.68347012e-05 -3.81306199e-05 -3.81306199e-05
      6.44800593e-06 6.44800593e-06 -2.04523894e-05 -3.66882814e-05
      -7.84783992e-07 -1.54550628e-06 7.34662672e-06 1.10405208e-05
      5.82179200e-06 2.00522372e-05 9.63846378e-06 -1.76785636e-06
      -1.76785636e-06 -4.55747941e-05 -5.53458776e-05 -6.04437009e-05
      -2.83595364e-05 -2.68347012e-05 -3.81306199e-05 -3.81306199e-05
      -1.31605348e-05 -9.46664113e-06 -1.49401239e-05 -3.64420657e-06
      6.58251429e-06 7.34662672e-06 7.34662672e-06 -1.71299544e-05
      1.29168711e-05 1.67295839e-05 3.45087210e-06 -1.76785636e-06
      2.05452252e-05 -2.32617112e-05 -3.30327966e-05 -3.81306199e-05
      -2.83595364e-05 -2.68347012e-05 -3.81306199e-05 -3.81306199e-05
      -7.94180596e-06 -9.46664113e-06 -1.49401239e-05 -2.88009437e-06
      1.25653551e-05 7.34662672e-06 1.25653551e-05 -1.71299544e-05
      1.81355990e-05 1.07467422e-05 3.45087210e-06 -1.76785636e-06
      2.05452252e-05 -2.32617112e-05 -3.30327966e-05 -3.81306199e-05
      -2.83595364e-05 -2.68347012e-05 -3.81306199e-05 -3.81306199e-05
      2.22117296e-06 6.96338361e-07 -1.35341079e-05 5.82179200e-06
      1.25653551e-05 7.34662672e-06 1.25653551e-05 -1.85359713e-05
      1.67295839e-05 1.07467422e-05 3.45087210e-06 -1.76785636e-06
      -4.55747941e-05 -4.55747941e-05 -5.53458776e-05 -6.04437009e-05
      -2.83595364e-05 -2.68347012e-05 -3.81306199e-05 -3.81306199e-05
      -3.30327966e-05 -2.93389003e-05 -2.79328851e-05 9.89459977e-07
      2.51429447e-06 -2.70443411e-06 -2.70443411e-06 -4.16556361e-07
      -1.80429834e-05 -1.80429834e-05 -1.80429834e-05 -2.32617112e-05
      -6.74356306e-06 -2.32617112e-05 -3.30327966e-05 -2.16124699e-05
      -1.18413873e-05 -1.03165530e-05 -3.81306199e-05 -3.81306199e-05</_>
    <_>
      -1.80914521e-05 -1.80914521e-05 -4.61457239e-05 -4.61457239e-05
      -4.61457239e-05 -4.61457239e-05 -4.61457239e-05 -2.67106116e-05
      -2.04601984e-05 -1.01672085e-05 -5.40968176e-06 -5.40968176e-06
      -2.66881434e-05 -3.14456702e-05 -3.58527359e-05 -4.61457239e-05
      -3.60887352e-05 -3.60887352e-05 -3.60887352e-05 -3.60887352e-05
      -1.80914521e-05 -1.80914521e-05 -4.61457239e-05 -4.61457239e-05
      -4.61457239e-05 -4.61457239e-05 -4.61457239e-05 -2.67106116e-05
      -2.04601984e-05 -1.01672085e-05 -5.40968176e-06 -5.40968176e-06
      -2.66881434e-05 -3.14456702e-05 -3.58527359e-05 -4.61457239e-05
      -3.60887352e-05 -3.60887352e-05 -3.60887352e-05 -3.60887352e-05
      -1.80914521e-05 -1.80914521e-05 -4.61457239e-05 -4.61457239e-05
      -2.67106116e-05 -1.09518978e-05 1.25305487e-05 1.72880755e-05
      1.72880755e-05 4.09225322e-05 4.09225322e-05 4.09225322e-05
      4.09225322e-05 4.09225322e-05 1.86867692e-05 -1.21033895e-06
      -7.69675171e-06 -3.60887352e-05 -3.60887352e-05 -3.60887352e-05
      -1.80914521e-05 -1.80914521e-05 -4.61457239e-05 -3.44158980e-06
      -2.16950684e-06 4.09225322e-05 4.09225322e-05 4.09225322e-05
      4.09225322e-05 4.09225322e-05 4.09225322e-05 4.09225322e-05
      4.09225322e-05 4.09225322e-05 4.09225322e-05 3.18762250e-05
      8.84665224e-06 2.59623926e-06 -7.69675171e-06 -3.60887352e-05
      -1.80914521e-05 -1.80914521e-05 -4.47485036e-06 -2.16950684e-06
      2.23755842e-06 4.09225322e-05 4.09225322e-05 4.09225322e-05
      3.65154665e-05 2.62224748e-05 2.14649499e-05 2.14649499e-05
      -2.16950684e-06 1.25305487e-05 4.09225322e-05 3.14800891e-05
      4.15370814e-05 2.10028484e-05 7.00330429e-06 -3.60887352e-05
      -1.80914521e-05 -1.80914521e-05 -2.16950684e-06 -2.16950684e-06
      2.58720138e-05 4.09225322e-05 4.09225322e-05 2.77330746e-05
      1.30076223e-05 -2.19530848e-05 -1.76643061e-05 -3.44158980e-06
      -2.16950684e-06 1.25305487e-05 1.72880755e-05 2.36261822e-05
      3.36831727e-05 3.15444086e-05 7.00330429e-06 -2.03081872e-05
      8.49215121e-06 8.49215121e-06 -3.80340748e-06 1.25305487e-05
      4.09225322e-05 4.09225322e-05 2.64609916e-05 -6.42749092e-06
      -2.25112690e-05 -4.61457239e-05 -4.61457239e-05 -4.61457239e-05
      -2.43090358e-06 7.88748457e-06 6.99508473e-06 2.36261822e-05
      3.36831727e-05 5.09795209e-05 7.00330429e-06 -2.03081872e-05
      1.85717163e-05 1.85717163e-05 -3.80340748e-06 -3.56740793e-06
      2.48245742e-05 2.48245742e-05 2.54277311e-05 -3.10952091e-05
      -4.61457239e-05 -4.61457239e-05 -4.61457239e-05 -4.61457239e-05
      -3.50554728e-05 -5.30197212e-06 1.70520761e-05 3.36831727e-05
      3.36831727e-05 5.09795209e-05 2.10028484e-05 -2.03081872e-05
      9.12927499e-06 9.12927499e-06 -3.80340748e-06 -3.56740793e-06
      2.48245742e-05 1.57782688e-05 -4.46166678e-06 -2.30607457e-05
      -1.94994318e-05 -4.75537054e-05 -4.75537054e-05 -4.75537054e-05
      -3.74967130e-05 -6.70995269e-06 7.60963439e-06 6.17374462e-05
      4.17176343e-05 4.95715431e-05 1.95948669e-05 -2.17161669e-05
      9.12927499e-06 9.12927499e-06 -3.80340748e-06 -3.56740793e-06
      2.48245742e-05 5.28788478e-05 2.40197514e-05 -3.09146562e-05
      -4.75537054e-05 -4.75537054e-05 -4.75537054e-05 -4.75537054e-05
      -4.75537054e-05 -1.67669441e-05 7.60963439e-06 4.15370814e-05
      4.17176343e-05 4.17176343e-05 1.09308721e-05 -2.17161669e-05
      8.09601443e-06 8.09601443e-06 -3.80340748e-06 6.48958303e-06
      3.48815665e-05 5.28788478e-05 3.95145507e-05 -4.97485553e-06
      -2.39192486e-05 -4.75537054e-05 -4.75537054e-05 -4.75537054e-05
      -3.33309872e-05 -3.57748695e-06 7.60963439e-06 4.15370814e-05
      4.17176343e-05 3.68485744e-05 -1.69586401e-05 -4.53506218e-05
      -1.13390988e-05 -1.13390988e-05 -3.80340748e-06 6.48958303e-06
      3.48815665e-05 2.48245742e-05 3.95145507e-05 1.88673221e-05
      -1.25929973e-05 -3.74967130e-05 -3.74967130e-05 -3.64634543e-05
      -3.83888346e-06 2.11795596e-05 1.79026247e-05 4.15370814e-05
      4.17176343e-05 1.16226720e-05 -2.17161669e-05 -4.53506218e-05
      -3.35748591e-05 -3.35748591e-05 -1.86861744e-05 -1.76529138e-05
      1.03886068e-05 1.53821329e-05 3.95145507e-05 3.16606420e-05
      1.72787895e-05 2.60636989e-05 1.18716835e-05 2.50611411e-05
      3.53795294e-05 2.59370863e-05 4.15370814e-05 4.15370814e-05
      8.03733383e-06 -2.17161669e-05 -2.17161669e-05 -4.53506218e-05
      -3.35748591e-05 -4.14287679e-05 -4.72472784e-05 -3.55638149e-05
      -7.52229289e-06 1.53821329e-05 3.95145507e-05 3.95145507e-05
      3.95145507e-05 4.95715431e-05 5.11600738e-05 5.90139825e-05
      5.90139825e-05 4.95715431e-05 2.36261822e-05 -6.83907911e-06
      -3.63043182e-05 -4.53506218e-05 -4.53506218e-05 -3.74967130e-05
      -4.36318514e-05 -5.14857602e-05 -7.95400338e-05 -4.12063127e-05
      -1.94658569e-05 2.11870993e-05 3.95145507e-05 3.95145507e-05
      3.95145507e-05 4.95715431e-05 5.11600738e-05 5.90139825e-05
      4.89569939e-05 3.95145507e-05 1.92191164e-05 -2.53528360e-05
      -2.17161669e-05 -4.53506218e-05 -1.72963501e-05 -3.74967130e-05
      -3.35748591e-05 -4.89569939e-05 -7.70112674e-05 -7.09703017e-05
      -4.87345387e-05 2.85210785e-06 1.31450988e-05 5.09795209e-05
      5.09795209e-05 5.09795209e-05 4.31256121e-05 5.09795209e-05
      4.09225322e-05 4.09225322e-05 2.36261822e-05 2.19717895e-05
      -8.47216688e-06 -5.33850834e-05 -5.33850834e-05 -4.55311747e-05
      -1.74769029e-05 -3.28590359e-05 -6.09133094e-05 -7.09703017e-05
      -4.82725409e-05 2.85210785e-06 1.31450988e-05 5.09795209e-05
      5.09795209e-05 5.09795209e-05 4.31256121e-05 5.09795209e-05
      4.09225322e-05 4.09225322e-05 2.36261822e-05 3.14800891e-05
      3.36831727e-05 -2.90925491e-05 -5.33850834e-05 -4.55311747e-05
      -2.75338934e-05 -4.29160282e-05 -7.09703017e-05 -1.69370905e-05
      1.58619569e-05 6.95913550e-05 4.15370814e-05 4.09225322e-05
      8.27549229e-06 1.78704886e-05 1.00165789e-05 3.62794672e-05
      3.62794672e-05 5.09795209e-05 3.36831727e-05 4.15370814e-05
      6.17374462e-05 6.17374462e-05 3.70649786e-06 -4.55311747e-05
      -5.33850834e-05 -5.30594007e-05 5.88727880e-06 6.69736573e-06
      1.58619569e-05 4.15370814e-05 4.10750836e-05 5.83970541e-06
      -1.56203605e-05 -1.66536211e-05 -2.45075298e-05 -1.08628337e-05
      1.21830144e-05 2.73450660e-05 3.36831727e-05 4.15370814e-05
      3.36831727e-05 3.36831727e-05 1.42480594e-05 -2.18967198e-05
      -3.97336298e-05 -3.94079470e-05 1.11044310e-05 2.13974217e-05
      2.61549485e-05 1.79026247e-05 -6.85190525e-06 -2.34742693e-05
      -3.60887352e-05 -3.60887352e-05 -4.39426440e-05 -3.60887352e-05
      -1.56203605e-05 4.99101861e-06 1.00487168e-05 4.15370814e-05
      3.36831727e-05 3.36831727e-05 3.36831727e-05 -2.10866328e-05
      1.78353203e-05 1.81610048e-05 2.61549485e-05 2.61549485e-05
      2.61549485e-05 3.98725933e-06 -2.13385356e-05 -4.39426440e-05
      -3.60887352e-05 -3.60887352e-05 -4.39426440e-05 -3.60887352e-05
      -3.60887352e-05 -1.56203605e-05 -1.51635709e-06 4.15370814e-05
      3.36831727e-05 3.36831727e-05 3.36831727e-05 -7.89717615e-06
      -5.81188760e-06 -5.48620346e-06 2.61549485e-05 2.61549485e-05
      2.61549485e-05 -1.80352799e-06 -4.55311747e-05 -4.39426440e-05
      -3.60887352e-05 -3.60887352e-05 -4.39426440e-05 -3.60887352e-05
      -3.60887352e-05 -3.50554728e-05 -1.15733483e-05 3.14800891e-05
      3.36831727e-05 3.36831727e-05 3.36831727e-05 -7.89717615e-06
      2.04202092e-06 -5.48620346e-06 2.61549485e-05 2.61549485e-05
      2.61549485e-05 -7.70267263e-07 -5.33850834e-05 -4.39426440e-05
      -4.39426440e-05 -3.60887352e-05 -3.60887352e-05 -3.60887352e-05
      -3.60887352e-05 -3.50554728e-05 -6.85190525e-06 4.15370814e-05
      3.36831727e-05 3.36831727e-05 3.36831727e-05 -1.57510840e-05
      -6.02147475e-06 -6.02147475e-06 2.56196763e-05 2.56196763e-05
      2.56196763e-05 -8.83376288e-06 -6.14485762e-05 -5.20061367e-05
      -6.14485762e-05 -3.74967130e-05 -3.74967130e-05 -3.74967130e-05
      -3.74967130e-05 -3.64634543e-05 1.43720126e-05 4.15370814e-05
      3.36831727e-05 3.36831727e-05 3.36831727e-05 -1.57510840e-05
      -6.02147475e-06 -6.02147475e-06 2.56196763e-05 2.56196763e-05
      2.56196763e-05 -3.61424054e-06 -3.72559407e-05 -5.20061367e-05
      -6.14485762e-05 -3.74967130e-05 -3.74967130e-05 -3.74967130e-05
      -3.74967130e-05 -3.64634543e-05 3.80064703e-05 4.15370814e-05
      3.36831727e-05 3.36831727e-05 3.36831727e-05 -5.33850834e-05
      -7.51673133e-06 -7.51673133e-06 1.53266865e-05 1.55626858e-05
      1.55626858e-05 2.34165946e-05 3.11986478e-05 -1.43937204e-05
      -5.54076141e-05 -4.75537054e-05 -4.75537054e-05 -4.75537054e-05
      -9.69653229e-06 3.47570240e-05 3.95145507e-05 3.14800891e-05
      3.36831727e-05 2.45185802e-05 1.27303338e-05 -5.33850834e-05
      -4.31466397e-05 -4.31466397e-05 2.05575652e-05 3.16606420e-05
      3.16606420e-05 3.95145507e-05 3.16606420e-05 8.30403678e-06
      -1.14313953e-05 -1.26237919e-05 -2.04777007e-05 -2.04777007e-05
      2.22600520e-05 3.69601075e-05 4.17176343e-05 3.36831727e-05
      3.36831727e-05 2.45185802e-05 -2.89405416e-05 -5.33850834e-05
      -4.75537054e-05 -4.75537054e-05 -3.71967180e-05 8.02618706e-06
      3.16606420e-05 3.95145507e-05 3.16606420e-05 3.16606420e-05
      3.16606420e-05 3.95145507e-05 3.16606420e-05 3.16606420e-05
      4.17176343e-05 4.17176343e-05 4.17176343e-05 3.36831727e-05
      1.02007252e-05 -2.40935788e-05 -5.33850834e-05 -5.33850834e-05
      -4.75537054e-05 -4.75537054e-05 -5.54076141e-05 -5.54076141e-05
      -1.67283433e-05 2.63250950e-05 3.16606420e-05 3.16606420e-05
      3.16606420e-05 3.95145507e-05 3.16606420e-05 3.16606420e-05
      3.16606420e-05 3.16606420e-05 3.61912157e-06 -2.93930443e-05
      -4.35286929e-05 -5.33850834e-05 -5.33850834e-05 -5.33850834e-05
      -3.74967130e-05 -3.74967130e-05 -4.53506218e-05 -1.72963501e-05
      -1.72963501e-05 -3.96136642e-07 1.11850677e-05 1.59425945e-05
      -1.21116782e-05 -3.44768273e-06 -1.13015913e-05 -1.13015913e-05
      1.67526814e-05 -1.68692040e-05 -2.59155095e-05 -2.53308117e-05
      -2.53308117e-05 -2.53308117e-05 -5.33850834e-05 -5.33850834e-05</_>
    <_>
      -2.73329460e-05 -2.73329460e-05 -4.24574100e-05 -4.24574100e-05
      -4.24574100e-05 -4.24574100e-05 -4.24574100e-05 -4.20050565e-05
      -2.29448560e-05 -2.29448560e-05 -2.29448560e-05 -2.29448560e-05
      -2.29448560e-05 -2.66977113e-05 -2.66977113e-05 -4.24574100e-05
      -3.22317210e-05 -3.22317210e-05 -3.22317210e-05 -3.22317210e-05
      -2.73329460e-05 -2.73329460e-05 -4.24574100e-05 -4.24574100e-05
      -4.24574100e-05 -4.24574100e-05 -4.24574100e-05 -4.20050565e-05
      -2.29448560e-05 -2.29448560e-05 -2.29448560e-05 -2.29448560e-05
      -2.29448560e-05 -2.66977113e-05 -2.66977113e-05 -4.24574100e-05
      -3.22317210e-05 -3.22317210e-05 -3.22317210e-05 -3.22317210e-05
      -2.73329460e-05 -2.73329460e-05 -4.24574100e-05 -4.24574100e-05
      -4.24574100e-05 -1.71263346e-05 -3.98205930e-06 -8.23670689e-07
      3.81216596e-05 3.81216596e-05 3.81216596e-05 3.81216596e-05
      3.81216596e-05 3.23031418e-05 1.91588642e-05 1.87065089e-05
      -3.22317210e-05 -3.22317210e-05 -3.22317210e-05 -3.22317210e-05
      -2.73329460e-05 -2.73329460e-05 -4.24574100e-05 -2.73638198e-05
      -1.71263346e-05 3.81216596e-05 3.81216596e-05 3.81216596e-05
      3.81216596e-05 3.81216596e-05 3.81216596e-05 3.81216596e-05
      3.81216596e-05 3.81216596e-05 3.81216596e-05 2.65687231e-05
      2.89321997e-05 2.18072037e-05 -3.22317210e-05 -3.22317210e-05
      -2.73329460e-05 -2.73329460e-05 -3.91569120e-05 2.18189962e-05
      3.81216596e-05 3.81216596e-05 3.81216596e-05 3.81216596e-05
      3.81216596e-05 2.30280693e-05 1.98696798e-05 2.30280693e-05
      2.63285692e-05 3.81216596e-05 3.81216596e-05 3.72017093e-05
      3.58744619e-05 2.57738120e-05 -5.41374902e-06 -3.22317210e-05
      -3.19411920e-05 -3.19411920e-05 -3.39800281e-05 3.49632719e-05
      3.81216596e-05 3.81216596e-05 3.81216596e-05 3.81216596e-05
      2.07502017e-05 5.65661003e-06 -1.46838704e-06 5.65661003e-06
      2.63285692e-05 3.81216596e-05 3.81216596e-05 3.53524156e-05
      4.55781083e-05 2.78175030e-05 2.24733121e-05 -3.40810111e-05
      -3.81314130e-05 -3.81314130e-05 9.13992608e-06 3.49632719e-05
      3.81216596e-05 3.81216596e-05 2.90026401e-05 1.69973464e-05
      -4.08660744e-05 -4.24574100e-05 -4.24574100e-05 -4.24574100e-05
      -3.06403817e-05 3.33958706e-05 2.63285692e-05 3.53524156e-05
      4.55781083e-05 3.67944122e-05 2.56316998e-05 -3.40810111e-05
      -3.23128916e-05 -3.23128916e-05 1.22983147e-05 2.17057477e-05
      2.17057477e-05 1.58872263e-05 5.65661003e-06 2.04586581e-06
      -4.24574100e-05 -4.24574100e-05 -4.24574100e-05 -4.24574100e-05
      -3.22317210e-05 -9.01410374e-07 1.42622721e-05 4.55781083e-05
      4.55781083e-05 4.83473523e-05 2.93845551e-05 -3.40810111e-05
      -2.99022668e-05 -2.99022668e-05 2.29343077e-05 1.73168628e-05
      2.17057477e-05 1.58872263e-05 2.40006966e-06 -1.42970396e-06
      -1.11456429e-05 -2.62701087e-05 -2.62701087e-05 -2.62701087e-05
      -1.60444179e-05 1.36945555e-05 1.33423200e-05 4.56776943e-05
      6.26853653e-05 6.45346518e-05 4.71631938e-05 1.09777807e-06
      -5.98181350e-06 -5.98181350e-06 2.29343077e-05 1.27086178e-05
      1.70975036e-05 2.64034479e-05 -2.61286277e-05 -3.18076927e-05
      -3.08783528e-05 -3.08783528e-05 -3.08783528e-05 -3.08783528e-05
      -3.08783528e-05 -2.50598314e-05 -1.51863760e-05 2.77942763e-05
      5.80771193e-05 5.80771193e-05 4.65241792e-05 -3.51046629e-06
      5.81127824e-06 5.81127824e-06 2.29343077e-05 2.29343077e-05
      2.73231944e-05 1.99445585e-05 -2.92870154e-05 -3.18076927e-05
      -3.08783528e-05 -3.08783528e-05 -3.08783528e-05 -3.08783528e-05
      -3.08783528e-05 -3.08783528e-05 -2.10048966e-05 2.77942763e-05
      5.80771193e-05 5.80771193e-05 4.65241792e-05 -3.51046629e-06
      5.81127824e-06 5.81127824e-06 2.29343077e-05 2.29343077e-05
      2.73231944e-05 7.97848224e-06 -2.61286277e-05 -3.18076927e-05
      -3.08783528e-05 -2.06526620e-05 -2.06526620e-05 -2.06526620e-05
      -2.06526620e-05 -2.06526620e-05 -2.10048966e-05 2.77942763e-05
      5.80771193e-05 5.80771193e-05 4.65241792e-05 -3.51046629e-06
      -5.98181350e-06 -5.98181350e-06 2.20143556e-05 2.20143556e-05
      2.64032424e-05 3.90014156e-06 -2.92870154e-05 -3.27276466e-05
      -3.08783528e-05 -2.06526620e-05 -1.97327099e-05 -1.97327099e-05
      -1.97327099e-05 9.08631137e-06 8.73407589e-06 2.77942763e-05
      5.80771193e-05 5.80771193e-05 4.65241792e-05 -3.51046629e-06
      -7.19208992e-06 -1.36496265e-05 2.01650637e-05 1.45476179e-05
      1.43282587e-05 -1.54120662e-05 -2.46787713e-05 -3.08783528e-05
      -3.08783528e-05 -2.06526620e-05 -2.15820019e-05 -1.97327099e-05
      -1.51244658e-05 1.76611647e-05 5.23394556e-06 2.21768296e-05
      5.80771193e-05 6.26853653e-05 6.26853653e-05 2.94707024e-06
      -2.13843887e-05 -2.78419266e-05 9.93937374e-06 3.09635325e-05
      3.07441733e-05 1.01228679e-05 -2.07121630e-05 -2.69117445e-05
      -3.08783528e-05 -2.06526620e-05 -2.15820019e-05 -1.97327099e-05
      -2.53501566e-05 1.11883282e-05 8.53444544e-06 3.72017093e-05
      5.80771193e-05 6.26853653e-05 7.78098256e-05 1.19239794e-05
      -1.05226682e-05 -2.69195789e-05 3.06163770e-06 2.54130427e-05
      2.08047986e-05 4.74273984e-05 2.83498821e-06 -4.46404829e-06
      -3.72622417e-05 -4.12288500e-05 -4.30781438e-05 -4.12288500e-05
      -1.89592356e-05 1.55495072e-05 1.59386527e-05 3.72017093e-05
      4.09698623e-05 4.55781083e-05 2.16576555e-05 -9.14988323e-06
      5.89324509e-06 -1.05036652e-05 -1.37993084e-05 2.22546551e-05
      2.08047986e-05 4.74273984e-05 6.13548809e-06 2.44719581e-06
      -6.69141536e-06 -2.89834024e-05 -2.75321945e-05 -2.56829026e-05
      -3.41328882e-06 3.37327765e-05 3.09635325e-05 3.72017093e-05
      4.09698623e-05 4.55781083e-05 2.16576555e-05 -9.14988323e-06
      -4.33244577e-06 -2.07293560e-05 -3.58538200e-05 1.74554661e-05
      1.60056097e-05 6.25518660e-05 4.74273984e-05 3.35134173e-05
      -6.34885964e-06 2.19787635e-05 2.01294697e-05 2.19787635e-05
      4.39584655e-05 4.39584655e-05 4.11892215e-05 4.74273984e-05
      5.60943299e-05 5.75441845e-05 1.51987670e-05 -2.73331516e-05
      -3.50009650e-05 -4.76992900e-05 -2.10198868e-05 -3.68348850e-07
      1.60056097e-05 4.74273984e-05 4.74273984e-05 4.18898162e-05
      3.93502232e-05 3.93502232e-05 3.75009295e-05 3.93502232e-05
      3.93502232e-05 4.39584655e-05 4.11892215e-05 4.74273984e-05
      4.09698623e-05 4.24197206e-05 -2.62504818e-06 -3.77599172e-05
      -3.50009650e-05 -4.76992900e-05 -2.10198868e-05 -2.10198868e-05
      -2.00701852e-05 1.73089284e-05 3.56343080e-05 3.00967240e-05
      3.93502232e-05 3.93502232e-05 3.75009295e-05 3.93502232e-05
      3.93502232e-05 4.39584655e-05 4.11892215e-05 4.74273984e-05
      1.70494113e-05 6.94632809e-06 -1.60094769e-05 -3.77599172e-05
      -1.98764992e-05 -3.25748260e-05 -4.49403378e-05 -4.49403378e-05
      -4.95485838e-05 -9.23122025e-06 -3.67327493e-06 -9.21085939e-06
      -1.12980970e-05 5.62100649e-06 -7.78122376e-06 -1.17504524e-05
      9.37386176e-06 4.39584655e-05 4.11892215e-05 4.74273984e-05
      1.38910218e-05 6.75451759e-07 -1.99760852e-05 -3.77599172e-05
      -3.50009650e-05 -4.76992900e-05 -4.49403378e-05 -4.49403378e-05
