%YAML:1.0
opencv_ml_svm:
   format: 3
   svmType: C_SVC
   kernel:
      type: RBF
      gamma: 5.0000000000000003e-002
   C: 2.
   term_criteria: { epsilon:1.1920928955078125e-007, iterations:1000 }
   var_count: 64
   class_count: 2
   class_labels: !!opencv-matrix
      rows: 2
      cols: 1
      dt: i
      data: [ 0, 1 ]
   sv_total: 2000
   support_vectors:
      - [ 132., 122., 255., 239., 231., 3., 0., 0., 128., 254., 125.,
          239., 119., 79., 28., 224., 232., 255., 255., 111., 12., 195.,
          48., 78., 0., 0., 128., 231., 63., 127., 254., 251., 255.,
          223., 53., 130., 61., 255., 222., 57., 198., 144., 3., 48., 0.,
          2., 1., 136., 193., 96., 16., 240., 253., 191., 136., 208.,
          166., 73., 64., 0., 0., 0., 17., 50. ]
      - [ 128., 251., 255., 231., 129., 0., 1., 111., 111., 222., 125.,
          239., 49., 3., 60., 255., 254., 251., 201., 33., 12., 243.,
          180., 47., 247., 213., 0., 0., 0., 14., 254., 255., 123., 69.,
          48., 243., 254., 51., 135., 8., 247., 26., 0., 0., 0., 16., 0.,
          0., 0., 0., 240., 249., 63., 81., 252., 255., 215., 40., 84.,
          1., 0., 0., 0., 0. ]
      - [ 180., 123., 223., 247., 255., 223., 0., 0., 129., 0., 12.,
          238., 127., 195., 12., 234., 115., 207., 253., 255., 127.,
          195., 48., 12., 0., 98., 119., 174., 57., 64., 16., 99., 0.,
          1., 0., 96., 8., 255., 12., 0., 0., 0., 0., 128., 51., 25., 0.,
          0., 192., 97., 16., 57., 159., 207., 64., 64., 236., 67., 0.,
          0., 64., 16., 112., 240. ]
      - [ 132., 122., 255., 239., 231., 3., 0., 0., 128., 254., 125.,
          239., 119., 79., 28., 224., 232., 255., 255., 111., 12., 128.,
          0., 4., 0., 0., 0., 224., 63., 127., 244., 249., 255., 223.,
          53., 130., 61., 255., 222., 25., 198., 128., 3., 32., 0., 2.,
          0., 128., 193., 0., 48., 176., 249., 191., 136., 208., 6., 73.,
          64., 36., 16., 12., 16., 48. ]
      - [ 0., 250., 255., 239., 227., 1., 0., 0., 196., 222., 125., 239.,
          115., 71., 28., 248., 252., 247., 203., 35., 12., 227., 4., 4.,
          0., 0., 0., 96., 0., 3., 252., 255., 123., 199., 48., 195.,
          255., 255., 143., 24., 166., 0., 2., 0., 0., 16., 0., 0., 0.,
          0., 176., 241., 127., 7., 200., 252., 135., 72., 64., 0., 0.,
          0., 0., 0. ]
      - [ 176., 123., 223., 243., 255., 223., 1., 0., 130., 128., 0.,
          234., 112., 195., 13., 230., 114., 203., 127., 47., 0., 128.,
          0., 4., 0., 0., 0., 96., 8., 3., 20., 99., 8., 3., 0., 64., 0.,
          255., 15., 56., 0., 0., 0., 128., 0., 8., 0., 0., 192., 96.,
          48., 49., 157., 207., 199., 0., 160., 195., 64., 32., 8., 0.,
          0., 240. ]
      - [ 0., 251., 255., 239., 195., 193., 67., 127., 111., 28., 124.,
          237., 115., 79., 28., 224., 236., 255., 223., 103., 12., 99.,
          52., 43., 103., 255., 230., 13., 0., 124., 248., 255., 255.,
          239., 49., 130., 61., 255., 207., 25., 38., 0., 0., 0., 0.,
          16., 0., 128., 65., 64., 176., 241., 255., 183., 136., 240.,
          255., 105., 100., 0., 0., 0., 0., 128. ]
      - [ 160., 255., 255., 247., 225., 128., 1., 111., 71., 94., 29.,
          197., 0., 135., 63., 255., 188., 251., 207., 37., 12., 67.,
          48., 74., 231., 31., 0., 0., 0., 254., 127., 239., 16., 100.,
          184., 247., 12., 17., 130., 16., 68., 152., 217., 255., 255.,
          6., 0., 129., 65., 228., 255., 255., 130., 64., 255., 159., 3.,
          0., 0., 0., 0., 48., 113., 48. ]
      - [ 176., 255., 255., 231., 96., 192., 0., 103., 67., 70., 13.,
          225., 240., 199., 191., 127., 188., 241., 236., 47., 14., 99.,
          48., 75., 231., 27., 0., 0., 0., 239., 60., 163., 8., 39., 28.,
          105., 108., 251., 207., 24., 198., 0., 144., 160., 239., 30.,
          0., 128., 193., 228., 127., 23., 0., 0., 4., 12., 254., 67.,
          0., 0., 64., 48., 112., 48. ]
      - [ 3., 0., 0., 0., 156., 255., 127., 128., 188., 160., 128., 2.,
          110., 176., 0., 0., 0., 0., 2., 4., 113., 156., 199., 52., 8.,
          4., 0., 64., 0., 1., 0., 80., 196., 131., 131., 94., 247.,
          255., 39., 15., 24., 96., 12., 32., 0., 0., 0., 136., 193.,
          96., 48., 59., 64., 249., 255., 255., 251., 124., 55., 0., 0.,
          0., 0., 0. ]
      - [ 223., 191., 225., 63., 52., 36., 0., 128., 192., 193., 2., 18.,
          0., 0., 0., 0., 0., 128., 215., 255., 254., 247., 159., 159.,
          128., 0., 0., 64., 0., 3., 12., 16., 0., 0., 0., 96., 0., 0.,
          12., 99., 8., 3., 0., 32., 0., 6., 7., 0., 192., 124., 30., 0.,
          212., 255., 255., 215., 33., 16., 201., 1., 0., 0., 96., 192. ]
      - [ 32., 115., 255., 255., 199., 131., 3., 111., 127., 0., 124.,
          233., 119., 223., 61., 226., 136., 247., 255., 255., 28., 66.,
          48., 207., 231., 27., 224., 217., 255., 255., 247., 255., 255.,
          255., 119., 134., 48., 252., 254., 123., 70., 152., 217., 36.,
          0., 2., 0., 137., 193., 0., 32., 240., 249., 255., 155., 145.,
          248., 195., 0., 0., 97., 0., 16., 16. ]
      - [ 193., 255., 255., 255., 241., 1., 0., 192., 239., 207., 24.,
          243., 192., 199., 127., 127., 184., 247., 222., 63., 140.,
          195., 0., 0., 0., 0., 208., 243., 203., 143., 61., 130., 24.,
          103., 125., 101., 40., 253., 223., 59., 132., 0., 0., 0., 0.,
          16., 4., 0., 1., 96., 112., 50., 137., 12., 6., 4., 6., 255.,
          65., 0., 0., 48., 100., 252. ]
      - [ 148., 255., 255., 247., 225., 193., 1., 0., 128., 206., 61.,
          175., 16., 199., 191., 255., 188., 251., 207., 37., 12., 195.,
          48., 78., 199., 27., 0., 0., 8., 255., 127., 175., 16., 100.,
          60., 245., 172., 17., 130., 16., 68., 216., 223., 127., 48.,
          6., 3., 0., 200., 231., 255., 87., 162., 252., 215., 7., 0.,
          64., 32., 4., 193., 24., 0., 0. ]
      - [ 75., 0., 0., 8., 222., 255., 127., 0., 128., 0., 128., 0.,
          108., 248., 1., 0., 0., 0., 2., 140., 241., 156., 71., 60.,
          136., 6., 0., 64., 0., 131., 12., 0., 192., 2., 195., 254.,
          243., 239., 7., 7., 24., 34., 12., 32., 0., 0., 0., 136., 201.,
          96., 52., 63., 192., 253., 255., 255., 251., 124., 114., 0.,
          0., 32., 112., 240. ]
      - [ 127., 252., 40., 18., 16., 112., 250., 128., 0., 0., 0., 0.,
          0., 128., 3., 94., 255., 253., 247., 23., 0., 0., 8., 200.,
          184., 31., 0., 0., 0., 0., 0., 96., 0., 1., 12., 97., 191., 3.,
          4., 0., 0., 0., 0., 128., 0., 24., 231., 0., 0., 232., 255.,
          255., 143., 65., 204., 14., 2., 0., 0., 193., 120., 30., 2.,
          0. ]
      - [ 254., 191., 231., 113., 32., 0., 0., 225., 225., 199., 159.,
          255., 252., 115., 206., 57., 143., 124., 198., 49., 12., 64.,
          16., 195., 225., 29., 0., 0., 0., 39., 28., 97., 0., 0., 8.,
          96., 255., 223., 135., 24., 68., 216., 249., 255., 253., 14.,
          0., 128., 193., 96., 48., 16., 16., 0., 70., 12., 134., 64.,
          32., 1., 192., 48., 49., 48. ]
      - [ 252., 191., 199., 32., 0., 0., 64., 113., 0., 66., 15., 255.,
          254., 255., 239., 55., 14., 112., 128., 33., 78., 251., 247.,
          127., 251., 15., 0., 196., 16., 99., 28., 227., 140., 27.,
          207., 60., 198., 16., 225., 254., 255., 255., 255., 55., 0.,
          2., 0., 129., 251., 45., 0., 49., 24., 172., 39., 7., 121.,
          254., 255., 30., 19., 8., 16., 0. ]
      - [ 180., 255., 255., 239., 96., 64., 0., 0., 128., 128., 13.,
          239., 240., 199., 127., 127., 188., 247., 195., 33., 12., 129.,
          0., 12., 0., 0., 0., 64., 24., 239., 29., 163., 24., 38., 60.,
          117., 172., 17., 130., 16., 230., 2., 3., 32., 0., 22., 33.,
          152., 201., 96., 48., 50., 9., 12., 70., 14., 131., 104., 245.,
          255., 16., 0., 64., 192. ]
      - [ 180., 255., 255., 239., 225., 192., 0., 103., 103., 78., 0.,
          224., 224., 199., 31., 255., 255., 243., 197., 33., 12., 0.,
          48., 67., 103., 30., 224., 255., 251., 205., 49., 130., 24.,
          38., 28., 241., 221., 19., 130., 16., 70., 128., 0., 0., 0.,
          0., 0., 129., 1., 64., 48., 50., 25., 12., 238., 15., 0., 96.,
          245., 127., 0., 0., 0., 128. ]
      - [ 180., 255., 239., 251., 225., 0., 0., 103., 103., 78., 0.,
          224., 240., 199., 255., 255., 255., 255., 197., 33., 12., 64.,
          48., 66., 103., 251., 254., 255., 99., 0., 48., 227., 127.,
          255., 244., 255., 223., 17., 131., 24., 68., 152., 9., 0., 0.,
          16., 0., 129., 0., 0., 48., 113., 25., 4., 0., 8., 6., 64.,
          244., 255., 16., 0., 16., 0. ]
      - [ 75., 0., 16., 4., 18., 63., 255., 152., 184., 177., 226., 26.,
          47., 8., 226., 217., 255., 191., 127., 64., 2., 28., 4., 0.,
          0., 0., 0., 64., 0., 1., 0., 96., 119., 255., 252., 255., 255.,
          255., 115., 152., 225., 2., 0., 0., 0., 16., 0., 0., 0., 0.,
          48., 241., 251., 255., 250., 122., 159., 40., 118., 33., 0.,
          0., 0., 0. ]
      - [ 252., 255., 255., 243., 241., 192., 0., 128., 199., 207., 31.,
          255., 249., 255., 255., 247., 159., 121., 132., 241., 239.,
          227., 56., 14., 128., 0., 0., 192., 9., 255., 252., 255., 159.,
          1., 0., 0., 0., 0., 252., 255., 255., 19., 19., 49., 0., 2.,
          0., 0., 192., 100., 48., 16., 24., 6., 0., 8., 0., 131., 193.,
          1., 16., 8., 16., 0. ]
      - [ 252., 191., 231., 241., 248., 64., 0., 0., 128., 199., 31.,
          255., 248., 227., 142., 59., 174., 248., 231., 49., 140., 227.,
          48., 14., 128., 0., 0., 64., 0., 111., 60., 235., 40., 65., 9.,
          0., 0., 0., 236., 124., 230., 17., 3., 33., 0., 2., 0., 0.,
          128., 100., 48., 16., 24., 6., 0., 0., 4., 131., 193., 1., 16.,
          8., 0., 0. ]
      - [ 252., 93., 1., 0., 0., 16., 0., 0., 224., 199., 239., 127.,
          255., 125., 198., 1., 14., 0., 224., 41., 127., 253., 215.,
          63., 249., 1., 0., 192., 24., 103., 28., 113., 196., 223.,
          143., 28., 70., 216., 255., 255., 255., 255., 255., 63., 0.,
          6., 0., 129., 201., 96., 48., 48., 248., 175., 33., 240., 255.,
          255., 30., 254., 19., 0., 16., 0. ]
      - [ 244., 255., 255., 97., 96., 64., 0., 0., 128., 194., 13., 255.,
          240., 239., 159., 119., 222., 112., 128., 33., 8., 227., 20.,
          12., 128., 0., 0., 64., 8., 103., 28., 227., 8., 167., 158.,
          56., 132., 0., 130., 24., 247., 255., 15., 33., 0., 2., 0., 1.,
          216., 100., 16., 32., 25., 252., 7., 2., 208., 254., 255.,
          127., 18., 0., 0., 128. ]
      - [ 244., 255., 255., 227., 96., 64., 0., 0., 128., 130., 13.,
          239., 240., 231., 191., 255., 254., 121., 192., 33., 12., 128.,
          0., 4., 128., 0., 0., 194., 57., 35., 20., 227., 24., 39.,
          190., 121., 132., 16., 130., 24., 231., 2., 3., 0., 0., 0., 0.,
          128., 193., 32., 48., 48., 153., 252., 7., 2., 128., 254.,
          255., 47., 16., 0., 80., 240. ]
      - [ 1., 224., 254., 255., 255., 255., 15., 14., 30., 24., 120.,
          204., 51., 70., 60., 248., 241., 255., 31., 247., 255., 135.,
          56., 12., 6., 3., 0., 64., 55., 255., 255., 255., 123., 76.,
          112., 227., 191., 127., 61., 21., 192., 0., 0., 32., 0., 0.,
          0., 137., 219., 239., 255., 255., 38., 241., 222., 12., 0., 0.,
          193., 33., 0., 0., 88., 80. ]
      - [ 132., 255., 255., 255., 243., 195., 3., 135., 207., 223., 29.,
          224., 128., 199., 63., 255., 184., 227., 220., 127., 190.,
          243., 57., 14., 135., 224., 241., 255., 255., 255., 49., 128.,
          25., 110., 63., 169., 8., 0., 0., 96., 143., 223., 159., 49.,
          19., 161., 56., 255., 255., 255., 79., 66., 177., 12., 7., 2.,
          0., 144., 153., 65., 0., 0., 64., 64. ]
      - [ 248., 255., 255., 243., 64., 128., 128., 119., 99., 68., 30.,
          253., 255., 231., 158., 123., 142., 251., 239., 63., 14., 98.,
          48., 203., 119., 251., 255., 191., 49., 100., 48., 227., 235.,
          7., 4., 0., 4., 248., 238., 127., 231., 152., 240., 140., 255.,
          253., 218., 246., 55., 9., 34., 49., 24., 4., 0., 0., 38.,
          203., 100., 36., 139., 227., 230., 253. ]
      - [ 244., 255., 199., 32., 32., 64., 96., 0., 128., 128., 13.,
          255., 252., 255., 223., 55., 15., 112., 0., 32., 111., 251.,
          147., 29., 128., 1., 0., 64., 0., 35., 60., 227., 223., 55.,
          199., 28., 198., 0., 225., 254., 255., 255., 3., 33., 0., 6.,
          0., 129., 193., 100., 50., 49., 25., 12., 35., 2., 81., 190.,
          255., 111., 19., 8., 16., 48. ]
      - [ 180., 255., 255., 231., 225., 192., 0., 0., 231., 222., 29.,
          39., 0., 199., 255., 255., 191., 255., 192., 33., 12., 128.,
          0., 0., 0., 16., 0., 98., 0., 1., 60., 228., 16., 101., 188.,
          241., 143., 31., 207., 24., 192., 0., 0., 0., 0., 16., 0.,
          129., 128., 96., 48., 112., 155., 68., 70., 12., 130., 72.,
          96., 0., 0., 0., 64., 208. ]
      - [ 148., 251., 255., 255., 227., 65., 1., 0., 128., 130., 21.,
          174., 48., 0., 28., 254., 255., 255., 253., 123., 12., 195.,
          0., 12., 128., 0., 0., 64., 8., 255., 255., 255., 57., 65.,
          16., 227., 31., 191., 223., 24., 198., 0., 3., 32., 0., 2., 0.,
          136., 201., 231., 255., 255., 38., 65., 68., 76., 6., 3., 64.,
          32., 16., 8., 16., 48. ]
      - [ 176., 255., 255., 227., 64., 128., 0., 98., 66., 198., 9.,
          224., 112., 199., 191., 255., 255., 255., 193., 33., 12., 0.,
          0., 0., 0., 16., 0., 0., 0., 0., 12., 224., 24., 103., 188.,
          243., 142., 17., 131., 24., 230., 2., 0., 0., 0., 16., 0., 0.,
          128., 96., 48., 113., 25., 12., 6., 12., 130., 40., 244., 33.,
          0., 0., 0., 192. ]
      - [ 20., 0., 0., 0., 168., 95., 127., 0., 128., 176., 225., 14.,
          16., 60., 241., 5., 22., 31., 123., 206., 19., 157., 7., 12.,
          128., 0., 0., 64., 24., 51., 205., 180., 255., 255., 255.,
          143., 255., 254., 255., 191., 161., 0., 2., 33., 0., 2., 0.,
          128., 193., 100., 241., 243., 255., 191., 17., 240., 254.,
          255., 102., 50., 26., 8., 0., 0. ]
      - [ 176., 255., 239., 239., 96., 128., 0., 103., 99., 70., 12.,
          225., 240., 199., 127., 127., 188., 241., 192., 33., 12., 67.,
          48., 66., 103., 255., 255., 63., 0., 0., 16., 224., 24., 39.,
          28., 125., 132., 1., 2., 16., 198., 146., 1., 0., 0., 16., 0.,
          0., 128., 96., 48., 49., 25., 12., 6., 14., 0., 0., 245., 109.,
          0., 0., 0., 192. ]
      - [ 160., 255., 255., 247., 227., 193., 1., 79., 207., 94., 8., 0.,
          0., 131., 63., 254., 254., 251., 237., 123., 12., 67., 0., 0.,
          71., 16., 224., 251., 239., 143., 113., 207., 24., 101., 56.,
          227., 255., 255., 135., 16., 196., 16., 145., 40., 0., 0., 0.,
          137., 231., 235., 255., 255., 7., 64., 68., 12., 6., 3., 0.,
          244., 127., 9., 16., 16. ]
      - [ 252., 191., 199., 32., 0., 64., 64., 115., 97., 66., 12., 255.,
          252., 243., 207., 63., 31., 120., 0., 32., 78., 97., 146.,
          115., 243., 255., 110., 141., 48., 100., 28., 227., 254., 251.,
          199., 24., 198., 16., 193., 220., 255., 255., 241., 14., 255.,
          31., 0., 129., 193., 109., 16., 33., 24., 12., 0., 2., 81.,
          254., 255., 127., 155., 1., 16., 16. ]
      - [ 176., 255., 255., 227., 225., 128., 0., 103., 103., 78., 12.,
          225., 192., 199., 31., 127., 254., 255., 199., 33., 12., 67.,
          48., 67., 103., 254., 255., 185., 195., 0., 48., 194., 24.,
          39., 252., 247., 255., 59., 131., 24., 68., 0., 0., 0., 75.,
          24., 0., 0., 0., 96., 112., 55., 8., 0., 70., 12., 2., 64.,
          96., 0., 0., 0., 64., 192. ]
      - [ 244., 255., 207., 97., 0., 64., 64., 115., 99., 0., 12., 249.,
          248., 255., 223., 247., 95., 120., 0., 32., 78., 243., 22.,
          17., 33., 18., 0., 192., 33., 71., 60., 227., 93., 55., 214.,
          24., 198., 0., 225., 222., 255., 255., 247., 56., 0., 6., 0.,
          129., 193., 111., 18., 49., 25., 12., 35., 2., 81., 188., 255.,
          255., 19., 9., 16., 48. ]
      - [ 176., 255., 255., 227., 96., 0., 0., 103., 231., 206., 29.,
          99., 0., 199., 255., 255., 191., 255., 192., 33., 12., 227.,
          180., 111., 247., 239., 3., 0., 0., 0., 60., 231., 24., 101.,
          188., 241., 207., 27., 131., 24., 102., 0., 0., 0., 0., 20.,
          0., 129., 1., 64., 112., 119., 136., 8., 70., 12., 128., 8.,
          68., 0., 0., 0., 0., 240. ]
      - [ 176., 255., 255., 227., 64., 128., 0., 66., 66., 198., 1.,
          224., 112., 199., 191., 255., 255., 249., 192., 33., 12., 66.,
          48., 111., 231., 239., 7., 0., 0., 0., 28., 227., 24., 103.,
          156., 113., 142., 19., 131., 24., 102., 2., 0., 0., 0., 28.,
          0., 0., 128., 96., 48., 51., 25., 12., 6., 12., 130., 40.,
          244., 1., 0., 0., 0., 192. ]
      - [ 148., 248., 255., 255., 231., 195., 3., 79., 15., 30., 124.,
          239., 115., 71., 28., 248., 249., 247., 255., 255., 28., 195.,
          0., 0., 71., 19., 0., 192., 55., 255., 255., 255., 123., 69.,
          48., 195., 57., 247., 222., 123., 198., 16., 1., 32., 0., 2.,
          0., 129., 219., 229., 251., 255., 102., 65., 64., 72., 6.,
          131., 64., 32., 18., 0., 16., 16. ]
      - [ 20., 0., 0., 0., 44., 223., 127., 0., 128., 176., 229., 14.,
          24., 124., 241., 13., 0., 159., 122., 206., 19., 156., 197.,
          12., 128., 1., 0., 64., 8., 51., 205., 164., 255., 255., 255.,
          159., 127., 252., 255., 255., 169., 0., 2., 49., 0., 2., 0.,
          0., 200., 100., 247., 243., 255., 191., 17., 240., 252., 255.,
          102., 34., 16., 8., 16., 0. ]
      - [ 176., 255., 255., 231., 97., 128., 0., 103., 103., 70., 12.,
          225., 240., 199., 255., 255., 188., 241., 196., 33., 12., 67.,
          48., 66., 103., 251., 255., 191., 65., 204., 24., 162., 24.,
          39., 60., 121., 140., 1., 2., 16., 196., 152., 157., 12., 255.,
          25., 0., 0., 0., 96., 48., 50., 9., 12., 6., 14., 0., 0., 244.,
          125., 0., 0., 64., 192. ]
      - [ 160., 251., 255., 247., 235., 193., 1., 79., 207., 94., 24.,
          0., 0., 131., 61., 254., 255., 251., 237., 115., 12., 195., 0.,
          0., 71., 16., 224., 241., 255., 143., 113., 207., 57., 101.,
          48., 227., 255., 255., 135., 24., 132., 0., 1., 32., 0., 0.,
          0., 129., 229., 170., 255., 255., 39., 64., 68., 12., 6., 67.,
          64., 160., 127., 0., 16., 16. ]
      - [ 252., 191., 215., 32., 0., 0., 64., 115., 99., 66., 12., 255.,
          248., 255., 255., 247., 95., 120., 0., 32., 76., 97., 18., 83.,
          243., 255., 110., 141., 49., 66., 16., 227., 8., 255., 175.,
          56., 198., 16., 195., 220., 255., 255., 247., 14., 255., 31.,
          0., 129., 195., 111., 18., 1., 24., 12., 2., 2., 81., 252.,
          255., 127., 159., 1., 16., 48. ]
      - [ 240., 255., 239., 227., 96., 128., 0., 103., 103., 78., 8.,
          225., 224., 199., 159., 127., 254., 255., 199., 33., 12., 99.,
          48., 99., 103., 254., 12., 0., 0., 0., 24., 226., 24., 39.,
          220., 247., 191., 19., 131., 24., 230., 216., 208., 206., 255.,
          31., 0., 0., 192., 224., 114., 55., 9., 8., 70., 12., 128., 8.,
          4., 1., 0., 0., 96., 240. ]
      - [ 255., 204., 33., 16., 16., 48., 240., 144., 224., 129., 2.,
          242., 255., 255., 255., 247., 255., 127., 196., 16., 130.,
          184., 142., 36., 0., 0., 0., 64., 0., 1., 0., 96., 8., 191.,
          254., 184., 223., 159., 67., 8., 179., 2., 0., 32., 0., 2.,
          32., 201., 32., 8., 50., 49., 153., 12., 2., 32., 151., 109.,
          68., 32., 16., 0., 0., 128. ]
      - [ 244., 63., 3., 32., 40., 88., 48., 115., 1., 66., 141., 255.,
          254., 251., 207., 3., 14., 24., 240., 173., 63., 123., 209.,
          11., 123., 27., 0., 192., 49., 103., 188., 243., 254., 251.,
          199., 28., 70., 220., 251., 255., 255., 253., 243., 60., 0.,
          2., 0., 129., 219., 32., 32., 48., 248., 255., 55., 163., 120.,
          255., 255., 127., 19., 0., 16., 48. ]
      - [ 128., 255., 255., 231., 193., 128., 1., 6., 239., 222., 61.,
          199., 0., 135., 63., 255., 188., 243., 192., 33., 12., 0., 48.,
          111., 231., 253., 1., 0., 0., 0., 124., 230., 16., 101., 252.,
          255., 140., 17., 131., 24., 102., 0., 0., 0., 0., 16., 0., 0.,
          0., 64., 112., 117., 186., 125., 71., 6., 0., 0., 196., 1., 0.,
          0., 64., 64. ]
      - [ 0., 255., 255., 255., 247., 255., 127., 14., 14., 12., 56.,
          12., 0., 71., 63., 254., 245., 135., 253., 255., 128., 135.,
          56., 12., 134., 3., 0., 64., 163., 255., 127., 239., 17., 100.,
          56., 227., 25., 183., 14., 0., 128., 0., 0., 32., 0., 0., 0.,
          137., 219., 239., 255., 223., 134., 0., 68., 76., 6., 1., 0.,
          128., 0., 0., 64., 192. ]
      - [ 180., 255., 255., 239., 96., 64., 0., 103., 103., 70., 0.,
          224., 224., 199., 31., 255., 252., 241., 196., 41., 12., 1.,
          48., 66., 103., 250., 255., 191., 97., 132., 16., 194., 24.,
          103., 60., 127., 220., 17., 130., 24., 68., 144., 153., 76.,
          207., 25., 0., 0., 128., 96., 112., 55., 137., 92., 71., 4.,
          128., 64., 100., 117., 0., 0., 0., 0. ]
      - [ 252., 255., 223., 32., 32., 64., 0., 113., 97., 66., 13., 255.,
          249., 231., 158., 255., 126., 112., 192., 33., 12., 243., 182.,
          127., 243., 175., 38., 133., 16., 100., 60., 227., 123., 239.,
          159., 24., 132., 16., 194., 220., 255., 255., 255., 127., 127.,
          7., 0., 129., 251., 37., 32., 49., 24., 140., 39., 3., 80.,
          254., 255., 255., 255., 9., 16., 16. ]
      - [ 224., 255., 239., 255., 225., 0., 0., 103., 103., 78., 28.,
          255., 241., 223., 255., 255., 191., 255., 220., 33., 12., 0.,
          48., 67., 103., 250., 232., 73., 0., 0., 56., 225., 25., 127.,
          127., 177., 13., 16., 130., 24., 68., 144., 8., 0., 0., 16.,
          0., 1., 128., 0., 48., 49., 25., 4., 4., 12., 2., 64., 96.,
          245., 0., 0., 0., 0. ]
      - [ 1., 242., 255., 255., 255., 255., 143., 15., 12., 60., 127.,
          254., 51., 7., 60., 248., 241., 207., 255., 255., 153., 255.,
          125., 174., 223., 119., 198., 4., 55., 254., 255., 191., 99.,
          76., 112., 227., 59., 255., 30., 129., 173., 82., 4., 0., 34.,
          4., 16., 129., 218., 255., 255., 140., 36., 64., 76., 76., 6.,
          1., 0., 193., 0., 0., 64., 64. ]
      - [ 244., 63., 67., 32., 40., 88., 48., 115., 97., 66., 140., 255.,
          254., 251., 238., 3., 14., 8., 224., 45., 127., 123., 209.,
          11., 123., 27., 0., 192., 49., 103., 60., 227., 254., 251.,
          207., 28., 70., 220., 251., 255., 255., 253., 243., 63., 0.,
          2., 0., 152., 251., 32., 32., 48., 248., 255., 51., 163., 120.,
          254., 255., 255., 31., 8., 16., 48. ]
      - [ 128., 251., 255., 231., 225., 128., 1., 70., 239., 222., 61.,
          199., 0., 7., 63., 255., 252., 243., 204., 33., 12., 0., 48.,
          111., 231., 253., 31., 0., 0., 12., 125., 239., 16., 100.,
          248., 255., 252., 17., 194., 24., 70., 152., 208., 199., 255.,
          29., 0., 0., 0., 64., 240., 117., 170., 125., 127., 15., 0.,
          0., 96., 1., 0., 0., 64., 224. ]
      - [ 1., 255., 255., 255., 255., 239., 31., 14., 14., 0., 56., 204.,
          32., 71., 63., 254., 241., 207., 255., 255., 153., 135., 56.,
          12., 134., 3., 0., 64., 167., 255., 255., 239., 57., 100., 48.,
          227., 25., 103., 12., 0., 128., 0., 2., 32., 0., 0., 0., 137.,
          219., 239., 255., 223., 38., 1., 64., 76., 238., 3., 0., 0.,
          0., 0., 64., 192. ]
      - [ 180., 255., 255., 239., 225., 64., 0., 103., 231., 78., 4.,
          225., 224., 199., 31., 127., 188., 241., 198., 37., 12., 67.,
          48., 66., 103., 250., 127., 17., 0., 0., 24., 226., 24., 103.,
          28., 127., 236., 17., 130., 24., 0., 0., 144., 196., 207., 29.,
          0., 0., 192., 96., 114., 55., 137., 252., 87., 6., 128., 64.,
          96., 1., 0., 0., 64., 224. ]
      - [ 244., 255., 207., 32., 0., 0., 0., 115., 97., 66., 13., 255.,
          253., 227., 142., 123., 110., 112., 192., 33., 12., 243., 182.,
          127., 243., 15., 0., 0., 0., 103., 60., 227., 40., 199., 222.,
          127., 132., 16., 194., 220., 255., 255., 255., 127., 45., 6.,
          0., 129., 251., 45., 0., 49., 25., 252., 39., 3., 81., 254.,
          255., 255., 63., 8., 16., 48. ]
      - [ 224., 255., 239., 255., 225., 0., 0., 103., 103., 0., 28.,
          249., 241., 223., 255., 127., 157., 119., 198., 33., 12., 0.,
          48., 67., 103., 255., 4., 0., 0., 0., 56., 227., 159., 127.,
          127., 188., 165., 212., 139., 24., 64., 0., 0., 0., 0., 20.,
          0., 128., 1., 0., 48., 49., 25., 4., 4., 12., 2., 64., 96., 1.,
          0., 0., 16., 48. ]
      - [ 1., 130., 254., 255., 255., 255., 159., 15., 30., 40., 250.,
          220., 119., 79., 40., 240., 225., 207., 63., 255., 249., 207.,
          123., 140., 143., 3., 192., 72., 34., 253., 255., 255., 255.,
          141., 48., 195., 59., 111., 60., 129., 128., 0., 0., 32., 0.,
          0., 0., 129., 219., 239., 251., 255., 70., 17., 72., 72., 6.,
          3., 0., 192., 0., 0., 16., 16. ]
      - [ 160., 255., 223., 227., 64., 128., 64., 98., 230., 206., 29.,
          199., 16., 199., 191., 255., 190., 249., 192., 1., 4., 243.,
          182., 127., 247., 231., 87., 0., 0., 0., 56., 231., 24., 101.,
          156., 121., 132., 16., 131., 8., 247., 127., 6., 0., 0., 0.,
          0., 0., 0., 96., 112., 117., 168., 204., 7., 2., 129., 40.,
          222., 1., 0., 0., 64., 192. ]
      - [ 244., 127., 199., 32., 32., 64., 0., 115., 99., 66., 12., 255.,
          252., 243., 207., 39., 14., 112., 0., 33., 111., 115., 18., 2.,
          97., 242., 255., 255., 57., 100., 16., 65., 0., 3., 206., 124.,
          198., 153., 227., 222., 255., 255., 243., 28., 255., 25., 0.,
          128., 193., 105., 16., 49., 24., 0., 246., 255., 255., 124.,
          70., 0., 0., 224., 126., 48. ]
      - [ 254., 255., 255., 49., 32., 0., 0., 193., 227., 255., 255.,
          127., 144., 1., 159., 253., 255., 255., 253., 59., 142., 243.,
          24., 7., 64., 128., 48., 227., 153., 3., 4., 0., 0., 0., 140.,
          225., 95., 63., 246., 90., 199., 156., 243., 57., 25., 131.,
          41., 9., 192., 0., 32., 48., 24., 0., 206., 76., 71., 75., 0.,
          0., 0., 48., 96., 193. ]
      - [ 160., 255., 223., 227., 64., 128., 64., 98., 226., 206., 29.,
          231., 16., 199., 191., 255., 254., 251., 192., 1., 4., 243.,
          182., 127., 247., 5., 224., 127., 0., 1., 48., 231., 24., 101.,
          156., 113., 140., 16., 131., 8., 247., 95., 6., 0., 0., 0., 0.,
          129., 0., 64., 112., 113., 184., 204., 7., 2., 128., 42., 222.,
          3., 0., 0., 0., 144. ]
      - [ 244., 63., 199., 32., 32., 64., 0., 115., 99., 66., 12., 255.,
          252., 243., 207., 39., 14., 112., 128., 33., 111., 115., 18.,
          2., 97., 242., 127., 175., 57., 102., 16., 65., 0., 3., 206.,
          126., 198., 153., 227., 222., 255., 191., 243., 28., 255., 25.,
          0., 0., 193., 96., 50., 16., 24., 4., 126., 255., 255., 124.,
          79., 0., 0., 32., 112., 112. ]
      - [ 105., 255., 255., 255., 247., 255., 135., 15., 2., 13., 127.,
          254., 243., 223., 255., 255., 255., 255., 127., 243., 255.,
          255., 250., 142., 255., 95., 6., 0., 19., 254., 252., 255.,
          31., 125., 248., 227., 255., 63., 244., 127., 4., 0., 0., 0.,
          34., 20., 208., 191., 9., 101., 48., 16., 0., 8., 70., 76., 6.,
          213., 65., 0., 0., 0., 64., 192. ]
      - [ 244., 63., 67., 32., 32., 80., 0., 115., 1., 66., 157., 255.,
          255., 255., 239., 3., 14., 112., 224., 41., 47., 113., 1., 0.,
          123., 31., 0., 0., 0., 103., 60., 227., 223., 191., 199., 28.,
          70., 220., 251., 255., 255., 253., 243., 44., 0., 4., 0., 129.,
          201., 100., 48., 48., 216., 191., 51., 35., 120., 255., 255.,
          190., 19., 0., 16., 0. ]
      - [ 255., 220., 33., 0., 16., 48., 240., 144., 160., 0., 0., 24.,
          248., 245., 255., 255., 191., 124., 68., 0., 130., 176., 6.,
          0., 0., 0., 0., 64., 0., 1., 8., 96., 8., 127., 254., 185.,
          207., 159., 67., 8., 161., 0., 0., 32., 0., 0., 0., 129., 1.,
          64., 48., 49., 153., 12., 2., 40., 151., 109., 100., 32., 0.,
          40., 25., 0. ]
      - [ 251., 191., 35., 0., 80., 248., 121., 0., 0., 0., 0., 94.,
          248., 255., 255., 191., 159., 124., 100., 0., 130., 154., 238.,
          253., 186., 31., 6., 0., 0., 96., 12., 225., 28., 63., 255.,
          252., 255., 31., 67., 8., 0., 0., 0., 0., 32., 30., 0., 0., 0.,
          0., 48., 115., 25., 4., 254., 126., 147., 72., 96., 0., 16.,
          0., 16., 48. ]
      - [ 160., 255., 255., 231., 225., 128., 0., 66., 231., 206., 29.,
          7., 0., 199., 191., 255., 255., 243., 192., 33., 12., 0., 0.,
          0., 0., 0., 0., 64., 0., 0., 60., 228., 16., 101., 188., 249.,
          140., 17., 130., 24., 198., 0., 3., 0., 0., 0., 0., 1., 128.,
          96., 80., 119., 187., 221., 71., 7., 0., 64., 96., 0., 0., 0.,
          0., 128. ]
      - [ 0., 255., 255., 255., 247., 255., 135., 15., 14., 28., 63.,
          206., 17., 71., 63., 254., 255., 223., 253., 251., 239., 255.,
          63., 140., 135., 3., 0., 64., 23., 255., 255., 239., 49., 100.,
          56., 227., 95., 191., 31., 0., 132., 2., 0., 0., 0., 0., 0.,
          137., 217., 255., 255., 223., 166., 64., 68., 76., 6., 3., 0.,
          160., 16., 0., 0., 128. ]
      - [ 180., 255., 239., 243., 225., 192., 0., 103., 103., 78., 12.,
          224., 224., 199., 159., 255., 255., 241., 196., 33., 12., 0.,
          0., 0., 103., 250., 31., 0., 0., 0., 0., 224., 24., 39., 28.,
          121., 206., 19., 131., 24., 0., 0., 0., 0., 0., 28., 0., 0.,
          193., 96., 48., 51., 153., 204., 71., 6., 0., 64., 96., 0., 0.,
          0., 64., 32. ]
      - [ 252., 255., 207., 32., 32., 64., 0., 113., 0., 198., 15., 255.,
          249., 255., 223., 55., 14., 112., 128., 33., 78., 241., 183.,
          127., 241., 5., 0., 64., 16., 103., 60., 227., 223., 39., 135.,
          24., 132., 16., 225., 254., 255., 255., 255., 127., 61., 6.,
          0., 129., 201., 100., 48., 49., 24., 252., 39., 3., 80., 254.,
          255., 127., 159., 9., 17., 0. ]
      - [ 32., 248., 255., 255., 255., 231., 7., 15., 10., 191., 127.,
          238., 19., 5., 62., 252., 241., 255., 255., 247., 255., 239.,
          120., 207., 199., 99., 195., 132., 255., 255., 255., 31., 1.,
          68., 56., 225., 25., 39., 28., 160., 199., 27., 150., 33., 51.,
          6., 0., 155., 223., 255., 221., 206., 166., 64., 4., 0., 6.,
          1., 0., 193., 32., 0., 0., 128. ]
      - [ 244., 63., 67., 32., 32., 80., 32., 115., 65., 66., 157., 255.,
          255., 255., 239., 3., 14., 112., 224., 41., 111., 17., 16., 0.,
          123., 27., 0., 192., 49., 103., 60., 227., 206., 159., 207.,
          28., 198., 152., 251., 255., 255., 253., 243., 44., 0., 2., 0.,
          129., 219., 32., 32., 48., 216., 255., 55., 35., 120., 254.,
          255., 62., 27., 0., 16., 0. ]
      - [ 255., 220., 33., 0., 16., 48., 240., 144., 160., 0., 0., 24.,
          248., 245., 255., 255., 191., 124., 68., 0., 130., 176., 6.,
          0., 0., 0., 0., 64., 0., 1., 8., 96., 8., 127., 255., 185.,
          207., 30., 67., 8., 161., 0., 0., 0., 0., 0., 0., 129., 1.,
          64., 48., 49., 153., 12., 2., 40., 151., 109., 100., 0., 0.,
          40., 56., 0. ]
      - [ 176., 255., 255., 231., 225., 0., 0., 67., 231., 206., 29., 7.,
          0., 199., 191., 255., 190., 243., 192., 33., 12., 0., 48.,
          111., 231., 255., 3., 0., 0., 0., 60., 230., 16., 101., 188.,
          249., 140., 17., 130., 24., 102., 0., 0., 0., 0., 20., 0., 0.,
          128., 0., 112., 113., 187., 77., 71., 6., 0., 0., 68., 1., 0.,
          0., 0., 128. ]
      - [ 33., 255., 255., 255., 255., 239., 135., 14., 14., 28., 62.,
          206., 33., 71., 62., 254., 255., 239., 189., 251., 141., 255.,
          63., 140., 135., 3., 0., 64., 7., 255., 255., 255., 49., 100.,
          48., 227., 27., 175., 31., 0., 132., 0., 2., 32., 0., 0., 0.,
          137., 219., 239., 255., 223., 167., 65., 64., 76., 6., 3., 0.,
          0., 0., 0., 0., 0. ]
      - [ 180., 255., 239., 251., 225., 192., 0., 103., 103., 78., 0.,
          224., 224., 199., 223., 127., 255., 253., 196., 33., 12., 0.,
          48., 66., 103., 250., 31., 0., 0., 0., 56., 226., 8., 39.,
          220., 121., 255., 19., 130., 24., 64., 0., 144., 196., 255.,
          29., 0., 0., 193., 96., 114., 55., 137., 204., 70., 4., 0.,
          64., 96., 1., 0., 0., 64., 240. ]
      - [ 252., 255., 207., 32., 32., 0., 0., 113., 0., 194., 15., 255.,
          249., 255., 255., 55., 14., 112., 128., 33., 78., 241., 182.,
          127., 241., 173., 2., 0., 0., 102., 60., 227., 159., 39., 135.,
          28., 132., 0., 193., 254., 255., 255., 255., 255., 255., 7.,
          0., 128., 217., 36., 48., 49., 24., 252., 39., 3., 81., 190.,
          255., 127., 223., 9., 16., 0. ]
      - [ 1., 226., 255., 255., 255., 231., 143., 15., 30., 60., 122.,
          204., 51., 6., 60., 248., 241., 255., 191., 247., 157., 239.,
          248., 255., 255., 79., 198., 12., 55., 254., 255., 255., 115.,
          68., 48., 227., 57., 127., 31., 0., 0., 2., 4., 32., 34., 4.,
          0., 129., 223., 239., 255., 221., 38., 65., 68., 0., 6., 3.,
          0., 192., 32., 0., 0., 0. ]
      - [ 203., 255., 239., 255., 255., 229., 131., 239., 79., 9., 26.,
          248., 247., 223., 30., 114., 193., 65., 189., 255., 253., 239.,
          57., 139., 71., 67., 228., 93., 99., 77., 240., 255., 255.,
          223., 19., 0., 80., 238., 189., 247., 142., 16., 0., 32., 0.,
          0., 0., 205., 231., 129., 50., 17., 88., 14., 0., 248., 7., 1.,
          0., 192., 0., 0., 64., 64. ]
      - [ 223., 254., 109., 17., 16., 32., 128., 255., 127., 75., 54.,
          185., 233., 247., 255., 255., 255., 253., 252., 185., 143.,
          96., 0., 128., 96., 176., 24., 1., 0., 0., 44., 96., 0., 1.,
          208., 97., 7., 29., 254., 56., 199., 24., 129., 8., 205., 31.,
          0., 0., 128., 96., 240., 63., 0., 64., 239., 143., 250., 251.,
          64., 0., 82., 197., 118., 247. ]
      - [ 233., 255., 255., 255., 243., 225., 131., 239., 6., 4., 30.,
          252., 247., 223., 127., 255., 253., 255., 223., 119., 142.,
          227., 56., 139., 103., 227., 255., 12., 1., 108., 248., 227.,
          15., 7., 112., 103., 0., 0., 240., 127., 231., 1., 0., 0., 35.,
          80., 248., 39., 18., 5., 48., 241., 191., 69., 1., 0., 0.,
          130., 201., 1., 0., 0., 0., 192. ]
      - [ 148., 8., 223., 255., 239., 199., 15., 79., 95., 126., 252.,
          233., 119., 223., 125., 226., 0., 71., 190., 255., 127., 231.,
          49., 0., 71., 242., 254., 255., 255., 255., 247., 255., 255.,
          255., 255., 143., 33., 228., 248., 247., 222., 17., 145., 184.,
          255., 31., 0., 129., 207., 255., 223., 199., 225., 255., 191.,
          179., 40., 214., 201., 36., 138., 231., 51., 48. ]
      - [ 67., 246., 254., 223., 215., 231., 239., 255., 62., 25., 16.,
          208., 227., 223., 255., 255., 255., 255., 253., 211., 132.,
          38., 44., 128., 54., 94., 228., 124., 103., 136., 240., 231.,
          31., 127., 124., 161., 15., 3., 0., 0., 130., 3., 4., 0., 0.,
          0., 0., 255., 39., 138., 50., 113., 185., 255., 7., 194., 197.,
          0., 16., 233., 0., 0., 0., 128. ]
      - [ 0., 98., 4., 129., 207., 255., 127., 62., 28., 60., 249., 204.,
          63., 63., 216., 224., 71., 159., 123., 198., 3., 30., 252.,
          253., 191., 79., 198., 132., 255., 255., 255., 255., 255.,
          252., 243., 223., 255., 255., 247., 159., 113., 196., 112.,
          255., 255., 127., 83., 190., 95., 1., 192., 248., 252., 255.,
          255., 255., 159., 76., 102., 119., 128., 242., 255., 255. ]
      - [ 79., 254., 63., 16., 0., 32., 192., 255., 96., 65., 18., 157.,
          248., 230., 255., 255., 191., 255., 252., 25., 143., 96., 0.,
          129., 120., 154., 8., 1., 0., 0., 12., 225., 25., 111., 252.,
          121., 14., 24., 234., 184., 199., 156., 65., 8., 237., 31., 0.,
          0., 128., 96., 240., 247., 191., 4., 1., 13., 0., 0., 0., 229.,
          59., 193., 119., 116. ]
      - [ 255., 133., 32., 24., 30., 62., 252., 128., 128., 231., 255.,
          255., 255., 127., 226., 17., 129., 12., 254., 255., 255., 255.,
          203., 141., 136., 1., 0., 64., 8., 103., 252., 251., 199.,
          157., 227., 12., 33., 252., 252., 247., 223., 191., 3., 33.,
          0., 2., 0., 129., 193., 228., 186., 29., 64., 178., 23., 177.,
          124., 151., 10., 237., 16., 8., 17., 48. ]
      - [ 254., 159., 227., 127., 48., 0., 128., 193., 227., 255., 255.,
          255., 247., 31., 6., 16., 136., 118., 223., 255., 190., 227.,
          24., 7., 0., 160., 57., 163., 0., 0., 252., 251., 239., 131.,
          1., 0., 32., 2., 128., 0., 207., 159., 215., 17., 8., 129., 4.,
          0., 0., 96., 176., 187., 77., 243., 217., 219., 7., 0., 128.,
          201., 50., 136., 152., 255. ]
      - [ 223., 255., 0., 0., 0., 56., 248., 240., 96., 65., 131., 191.,
          252., 247., 255., 255., 191., 56., 64., 0., 71., 16., 200.,
          241., 255., 31., 0., 0., 0., 35., 12., 97., 4., 48., 254.,
          127., 199., 25., 227., 156., 115., 238., 244., 239., 204., 14.,
          0., 0., 193., 96., 0., 0., 16., 12., 102., 46., 217., 12.,
          126., 255., 137., 123., 51., 48. ]
      - [ 32., 19., 130., 239., 255., 255., 63., 14., 159., 190., 253.,
          194., 7., 63., 253., 238., 51., 15., 56., 248., 251., 255.,
          255., 62., 143., 96., 247., 255., 255., 253., 251., 159., 255.,
          254., 255., 191., 255., 140., 49., 134., 189., 119., 31., 49.,
          18., 224., 29., 0., 132., 227., 253., 246., 255., 255., 255.,
          247., 249., 0., 26., 251., 62., 8., 128., 201. ]
      - [ 235., 191., 0., 0., 16., 56., 248., 255., 32., 65., 131., 244.,
          252., 255., 239., 23., 143., 24., 0., 16., 227., 60., 207.,
          251., 120., 29., 0., 0., 0., 35., 12., 32., 0., 186., 239.,
          60., 199., 24., 97., 198., 255., 255., 255., 254., 0., 6., 0.,
          1., 192., 116., 20., 0., 155., 252., 255., 183., 81., 60.,
          255., 127., 1., 8., 16., 0. ]
      - [ 75., 246., 255., 255., 255., 167., 135., 239., 255., 25., 0.,
          144., 193., 255., 255., 246., 219., 127., 255., 247., 159.,
          103., 56., 131., 239., 26., 224., 217., 231., 137., 112., 199.,
          31., 191., 252., 160., 255., 15., 0., 0., 4., 154., 13., 32.,
          0., 0., 0., 201., 231., 138., 34., 17., 24., 252., 254., 95.,
          129., 0., 0., 253., 48., 0., 0., 0. ]
      - [ 107., 4., 32., 252., 255., 175., 159., 128., 144., 255., 255.,
          255., 191., 63., 98., 144., 129., 79., 255., 255., 255., 255.,
          249., 143., 128., 1., 0., 64., 24., 255., 255., 255., 231.,
          156., 65., 128., 51., 254., 252., 163., 255., 31., 7., 32., 0.,
          6., 99., 1., 200., 229., 191., 136., 100., 191., 152., 248.,
          47., 1., 216., 237., 16., 0., 81., 82. ]
      - [ 223., 142., 0., 0., 0., 32., 240., 176., 32., 1., 131., 255.,
          255., 255., 255., 19., 143., 124., 228., 16., 199., 56., 202.,
          253., 248., 31., 0., 0., 0., 0., 12., 227., 223., 31., 231.,
          28., 231., 156., 227., 148., 255., 175., 228., 175., 100., 14.,
          0., 0., 128., 96., 50., 115., 93., 167., 33., 242., 255., 47.,
          86., 255., 139., 107., 59., 50. ]
      - [ 255., 191., 247., 112., 16., 0., 0., 64., 64., 195., 15., 255.,
          255., 255., 255., 243., 223., 127., 239., 241., 207., 243.,
          24., 15., 64., 224., 127., 47., 24., 96., 248., 227., 255.,
          27., 240., 208., 247., 31., 225., 144., 215., 255., 255., 57.,
          189., 225., 255., 126., 58., 132., 114., 123., 237., 255.,
          203., 2., 128., 0., 0., 0., 66., 253., 237., 239. ]
      - [ 255., 191., 0., 0., 0., 32., 240., 48., 32., 1., 3., 127.,
          252., 255., 255., 63., 159., 56., 192., 16., 231., 56., 202.,
          221., 248., 31., 0., 0., 0., 2., 12., 97., 12., 255., 255.,
          61., 199., 24., 225., 222., 255., 175., 224., 175., 100., 6.,
          0., 0., 192., 96., 50., 115., 155., 4., 49., 47., 81., 60.,
          255., 255., 139., 43., 17., 48. ]
      - [ 176., 255., 207., 97., 96., 192., 64., 99., 231., 206., 12.,
          224., 240., 247., 255., 127., 63., 120., 128., 33., 206., 251.,
          247., 63., 247., 227., 225., 255., 255., 239., 49., 130., 25.,
          119., 159., 56., 199., 154., 227., 140., 255., 255., 255.,
          255., 255., 231., 57., 254., 127., 159., 5., 194., 251., 143.,
          241., 235., 251., 127., 30., 2., 0., 160., 241., 251. ]
      - [ 195., 255., 255., 247., 243., 251., 131., 135., 143., 159.,
          19., 240., 193., 207., 255., 255., 191., 219., 108., 121.,
          139., 251., 255., 255., 215., 99., 225., 214., 255., 191., 49.,
          130., 25., 111., 254., 255., 206., 24., 2., 0., 0., 0., 152.,
          225., 59., 127., 57., 254., 111., 18., 64., 243., 251., 125.,
          35., 179., 197., 0., 0., 0., 0., 48., 241., 255. ]
      - [ 252., 27., 0., 0., 8., 8., 0., 112., 225., 230., 205., 255.,
          254., 249., 192., 1., 0., 120., 226., 13., 31., 252., 215.,
          127., 249., 173., 27., 131., 24., 34., 156., 240., 238., 147.,
          131., 4., 247., 255., 255., 255., 255., 252., 255., 255., 255.,
          255., 251., 16., 0., 64., 48., 59., 93., 162., 248., 255.,
          255., 253., 255., 63., 131., 192., 192., 195. ]
      - [ 255., 255., 239., 251., 255., 255., 128., 131., 1., 207., 255.,
          255., 191., 255., 255., 113., 131., 77., 252., 255., 255.,
          255., 255., 255., 199., 227., 35., 132., 25., 126., 253., 161.,
          215., 191., 215., 128., 247., 206., 244., 239., 31., 61., 242.,
          49., 59., 103., 250., 19., 136., 101., 16., 112., 255., 175.,
          0., 0., 4., 1., 128., 225., 0., 0., 128., 192. ]
      - [ 255., 255., 239., 48., 48., 0., 128., 192., 225., 223., 255.,
          255., 189., 119., 255., 255., 255., 253., 244., 185., 239.,
          243., 24., 135., 193., 160., 27., 131., 25., 127., 127., 173.,
          63., 255., 255., 57., 7., 16., 224., 208., 255., 159., 247.,
          61., 255., 231., 127., 16., 136., 32., 0., 48., 56., 252., 39.,
          3., 0., 0., 129., 237., 51., 193., 128., 131. ]
      - [ 180., 120., 223., 255., 239., 199., 7., 79., 95., 62., 124.,
          232., 99., 207., 28., 224., 240., 255., 255., 255., 63., 231.,
          48., 0., 7., 224., 255., 189., 255., 255., 255., 255., 255.,
          237., 17., 130., 57., 255., 255., 127., 134., 16., 19., 16.,
          187., 31., 0., 129., 199., 255., 255., 255., 255., 191., 136.,
          240., 126., 67., 64., 0., 82., 247., 54., 48. ]
      - [ 180., 248., 255., 231., 227., 1., 0., 73., 239., 255., 127.,
          239., 17., 4., 60., 253., 255., 255., 205., 35., 12., 65., 48.,
          71., 231., 248., 233., 255., 255., 255., 247., 255., 115.,
          236., 248., 243., 223., 191., 199., 24., 70., 216., 251., 255.,
          255., 235., 61., 139., 0., 0., 241., 252., 254., 221., 78.,
          68., 252., 255., 100., 20., 239., 255., 191., 3. ]
      - [ 223., 254., 37., 0., 0., 32., 224., 255., 255., 223., 182.,
          49., 136., 183., 255., 127., 191., 253., 228., 1., 134., 112.,
          132., 161., 120., 252., 29., 1., 0., 0., 108., 230., 29., 117.,
          222., 121., 135., 252., 239., 28., 163., 220., 235., 74., 205.,
          29., 0., 0., 128., 96., 48., 49., 8., 8., 38., 253., 190.,
          239., 100., 22., 255., 85., 212., 255. ]
      - [ 65., 255., 255., 255., 243., 227., 131., 15., 6., 159., 59.,
          196., 144., 199., 255., 255., 189., 255., 255., 247., 159.,
          195., 56., 142., 247., 123., 199., 148., 255., 255., 53., 128.,
          25., 110., 60., 161., 13., 3., 4., 0., 0., 0., 16., 129., 59.,
          254., 87., 30., 255., 255., 69., 194., 187., 4., 128., 204.,
          199., 65., 0., 0., 0., 48., 224., 230. ]
      - [ 3., 64., 0., 0., 136., 63., 255., 254., 255., 56., 160., 128.,
          79., 188., 240., 195., 71., 191., 251., 206., 19., 28., 192.,
          241., 254., 30., 236., 127., 230., 144., 240., 255., 255.,
          255., 243., 159., 255., 255., 255., 191., 251., 132., 32.,
          132., 68., 24., 184., 255., 55., 138., 247., 255., 239., 255.,
          248., 248., 255., 125., 254., 55., 159., 111., 62., 28. ]
      - [ 20., 0., 216., 255., 255., 223., 31., 207., 223., 255., 252.,
          1., 0., 31., 253., 238., 115., 143., 24., 240., 249., 255.,
          127., 22., 5., 224., 255., 255., 255., 255., 243., 158., 255.,
          254., 255., 255., 255., 237., 49., 132., 189., 255., 159., 17.,
          3., 225., 4., 0., 192., 243., 253., 255., 255., 245., 255.,
          255., 251., 36., 18., 254., 63., 141., 136., 253. ]
      - [ 255., 255., 35., 0., 0., 0., 224., 255., 103., 71., 158., 249.,
          255., 247., 222., 123., 239., 120., 196., 17., 142., 112.,
          132., 131., 121., 252., 62., 33., 0., 0., 8., 96., 4., 19.,
          222., 123., 207., 25., 195., 128., 247., 254., 245., 206.,
          207., 157., 0., 0., 0., 96., 48., 49., 25., 68., 102., 166.,
          223., 40., 86., 255., 191., 239., 62., 53. ]
      - [ 3., 230., 255., 255., 255., 175., 7., 128., 156., 185., 17.,
          130., 65., 134., 58., 254., 243., 255., 31., 243., 223., 128.,
          0., 4., 0., 0., 0., 96., 254., 139., 228., 223., 59., 109.,
          112., 227., 255., 111., 21., 20., 192., 0., 0., 0., 0., 18.,
          33., 153., 239., 170., 255., 255., 38., 80., 222., 94., 2.,
          64., 225., 33., 0., 0., 100., 214. ]
      - [ 223., 140., 32., 0., 0., 48., 240., 249., 97., 65., 134., 61.,
          254., 240., 242., 223., 255., 124., 228., 1., 134., 120., 134.,
          129., 120., 156., 24., 1., 0., 0., 8., 96., 12., 123., 254.,
          255., 255., 157., 227., 140., 247., 254., 111., 10., 237., 31.,
          0., 0., 0., 96., 48., 49., 187., 92., 110., 246., 223., 108.,
          4., 254., 255., 69., 84., 247. ]
      - [ 79., 4., 32., 24., 30., 62., 254., 144., 252., 177., 254.,
          159., 175., 56., 226., 144., 131., 14., 126., 222., 255., 156.,
          251., 255., 253., 15., 0., 0., 0., 2., 236., 125., 230., 217.,
          227., 143., 255., 15., 0., 128., 0., 6., 252., 231., 16., 14.,
          0., 129., 1., 96., 240., 189., 14., 240., 252., 15., 0., 0.,
          129., 1., 224., 58., 51., 48. ]
      - [ 1., 34., 0., 223., 255., 255., 255., 30., 28., 60., 251., 220.,
          255., 255., 252., 224., 3., 7., 24., 192., 241., 159., 255.,
          255., 255., 95., 134., 4., 255., 255., 255., 191., 255., 254.,
          255., 159., 255., 204., 17., 134., 57., 239., 252., 255., 51.,
          70., 80., 191., 79., 1., 0., 240., 120., 60., 57., 191., 255.,
          55., 18., 222., 111., 0., 16., 16. ]
      - [ 252., 127., 67., 32., 32., 80., 0., 113., 97., 198., 159.,
          127., 188., 247., 255., 15., 14., 112., 192., 41., 111., 251.,
          247., 127., 251., 231., 103., 239., 16., 100., 24., 225., 157.,
          255., 207., 28., 68., 152., 251., 255., 255., 255., 255., 63.,
          63., 0., 0., 255., 81., 4., 0., 48., 249., 174., 35., 161.,
          253., 191., 30., 255., 19., 0., 0., 144. ]
      - [ 160., 123., 207., 239., 229., 193., 1., 2., 130., 142., 29.,
          70., 0., 199., 29., 110., 56., 229., 219., 47., 12., 2., 32.,
          76., 135., 249., 223., 134., 251., 238., 61., 134., 24., 34.,
          12., 32., 56., 99., 6., 16., 196., 216., 223., 255., 255.,
          255., 223., 18., 0., 243., 255., 255., 255., 247., 192., 0.,
          0., 194., 1., 254., 39., 0., 192., 227. ]
      - [ 244., 255., 207., 96., 104., 88., 0., 0., 128., 130., 13.,
          255., 121., 227., 142., 43., 14., 120., 224., 33., 111., 251.,
          19., 12., 0., 0., 16., 32., 24., 103., 124., 255., 253., 1.,
          130., 95., 254., 251., 255., 255., 255., 17., 3., 0., 0., 149.,
          6., 16., 201., 229., 242., 253., 14., 0., 252., 255., 255.,
          127., 78., 38., 18., 173., 29., 45. ]
      - [ 3., 0., 24., 14., 2., 2., 254., 252., 255., 253., 242., 131.,
          15., 28., 248., 253., 255., 255., 255., 67., 6., 0., 0., 64.,
          0., 24., 216., 243., 239., 155., 195., 8., 39., 252., 252.,
          255., 255., 255., 243., 159., 247., 252., 227., 63., 196.,
          129., 4., 129., 192., 0., 32., 208., 251., 253., 254., 54.,
          152., 108., 7., 0., 0., 224., 121., 251. ]
      - [ 254., 255., 239., 32., 0., 0., 64., 224., 225., 223., 15.,
          119., 152., 255., 135., 23., 142., 120., 230., 53., 14., 224.,
          16., 199., 241., 184., 41., 131., 25., 167., 29., 32., 0., 0.,
          136., 96., 4., 217., 239., 127., 231., 152., 240., 189., 255.,
          255., 111., 0., 136., 96., 16., 0., 152., 253., 199., 197.,
          120., 255., 111., 54., 155., 195., 231., 255. ]
      - [ 176., 123., 199., 233., 96., 0., 0., 0., 195., 198., 1., 226.,
          112., 255., 77., 39., 28., 96., 192., 45., 12., 128., 0., 4.,
          128., 224., 255., 255., 123., 239., 16., 2., 8., 34., 12., 96.,
          0., 0., 10., 16., 196., 252., 255., 255., 255., 255., 0., 0.,
          128., 251., 62., 0., 16., 12., 0., 255., 255., 255., 60., 30.,
          0., 0., 64., 192. ]
      - [ 3., 64., 24., 0., 11., 191., 255., 188., 254., 57., 224., 0.,
          15., 188., 251., 255., 127., 191., 120., 64., 3., 28., 204.,
          241., 254., 31., 140., 88., 196., 144., 193., 238., 255., 255.,
          255., 191., 255., 254., 243., 159., 113., 196., 32., 134.,
          196., 24., 248., 225., 0., 206., 247., 243., 251., 191., 250.,
          251., 251., 127., 126., 190., 159., 6., 2., 128. ]
      - [ 252., 255., 199., 32., 32., 64., 96., 115., 97., 66., 13.,
          255., 248., 227., 207., 31., 14., 112., 192., 33., 110., 251.,
          247., 127., 251., 239., 127., 175., 49., 96., 16., 227., 184.,
          3., 131., 24., 132., 144., 235., 254., 255., 255., 255., 255.,
          255., 7., 0., 231., 255., 175., 247., 59., 0., 0., 37., 239.,
          255., 255., 191., 254., 255., 1., 16., 16. ]
      - [ 1., 34., 4., 223., 255., 255., 191., 30., 28., 56., 248., 220.,
          255., 255., 253., 226., 3., 7., 16., 192., 241., 223., 255.,
          188., 223., 87., 134., 8., 119., 255., 255., 191., 255., 255.,
          247., 159., 247., 204., 51., 134., 24., 102., 61., 99., 51.,
          6., 114., 191., 95., 135., 241., 243., 8., 48., 252., 255.,
          251., 127., 50., 8., 116., 63., 29., 16. ]
      - [ 203., 167., 32., 16., 24., 56., 248., 255., 116., 109., 131.,
          17., 204., 178., 195., 23., 143., 8., 36., 16., 225., 24.,
          207., 243., 255., 223., 142., 17., 0., 0., 8., 32., 4., 176.,
          239., 127., 231., 152., 99., 158., 123., 255., 252., 255.,
          255., 31., 208., 1., 0., 0., 48., 118., 251., 13., 56., 59.,
          251., 255., 0., 0., 0., 112., 115., 80. ]
      - [ 176., 59., 131., 240., 255., 223., 25., 0., 0., 0., 0., 238.,
          124., 255., 205., 2., 2., 8., 48., 255., 127., 128., 0., 0.,
          0., 0., 0., 0., 0., 0., 12., 227., 222., 147., 231., 254.,
          243., 139., 48., 119., 128., 0., 0., 0., 0., 0., 0., 129.,
          193., 32., 48., 243., 31., 244., 255., 255., 73., 84., 65.,
          32., 24., 46., 0., 0. ]
      - [ 222., 255., 95., 0., 0., 0., 64., 240., 225., 195., 7., 51.,
          200., 231., 191., 255., 254., 249., 192., 1., 4., 112., 134.,
          35., 32., 128., 16., 97., 8., 3., 4., 0., 0., 2., 188., 123.,
          142., 25., 195., 8., 247., 254., 255., 127., 12., 131., 111.,
          25., 0., 112., 62., 63., 139., 253., 103., 167., 249., 108.,
          4., 158., 255., 221., 157., 59. ]
      - [ 248., 25., 226., 252., 255., 255., 31., 0., 128., 128., 1.,
          254., 127., 217., 68., 2., 65., 134., 127., 255., 49., 130.,
          0., 12., 128., 3., 0., 64., 0., 1., 12., 99., 238., 147., 100.,
          207., 57., 237., 60., 51., 0., 0., 0., 161., 48., 14., 0., 0.,
          192., 96., 50., 59., 73., 125., 2., 16., 236., 67., 0., 0.,
          64., 48., 112., 48. ]
      - [ 127., 0., 48., 12., 16., 62., 126., 16., 144., 161., 255.,
          255., 191., 56., 32., 209., 239., 255., 255., 70., 130., 188.,
          252., 255., 184., 15., 0., 0., 0., 35., 254., 255., 231., 221.,
          241., 255., 255., 253., 255., 24., 33., 252., 110., 119., 0.,
          6., 0., 128., 65., 100., 242., 255., 110., 241., 95., 48.,
          148., 73., 36., 222., 127., 8., 16., 48. ]
      - [ 240., 255., 255., 255., 97., 0., 128., 103., 99., 70., 30.,
          255., 241., 207., 127., 255., 255., 255., 255., 119., 14., 99.,
          32., 2., 103., 251., 255., 141., 33., 252., 252., 231., 59.,
          255., 253., 255., 255., 125., 242., 25., 198., 16., 209., 140.,
          255., 253., 150., 38., 222., 127., 0., 0., 248., 124., 7., 0.,
          4., 67., 96., 37., 130., 231., 254., 101. ]
      - [ 252., 3., 0., 8., 126., 222., 60., 0., 128., 160., 207., 255.,
          127., 56., 64., 0., 67., 12., 19., 192., 241., 223., 215., 60.,
          136., 1., 0., 64., 0., 99., 158., 123., 230., 145., 224., 223.,
          255., 255., 55., 132., 185., 119., 15., 33., 0., 6., 0., 136.,
          201., 100., 178., 191., 79., 113., 252., 127., 219., 36., 30.,
          255., 54., 8., 17., 48. ]
      - [ 224., 255., 231., 241., 253., 224., 1., 0., 0., 0., 0., 76.,
          240., 247., 255., 63., 152., 64., 0., 0., 0., 0., 32., 236.,
          135., 31., 6., 92., 120., 227., 0., 129., 24., 119., 223.,
          125., 235., 0., 3., 16., 0., 0., 8., 32., 112., 126., 255.,
          255., 127., 159., 6., 67., 187., 252., 55., 34., 217., 110.,
          116., 254., 191., 15., 1., 0. ]
      - [ 3., 228., 255., 255., 247., 227., 255., 175., 191., 61., 50.,
          128., 129., 6., 127., 254., 255., 255., 253., 243., 207., 191.,
          40., 128., 6., 82., 192., 248., 255., 223., 103., 140., 17.,
          108., 252., 251., 223., 189., 243., 16., 130., 0., 0., 0., 2.,
          0., 0., 157., 255., 187., 205., 196., 242., 253., 239., 7., 0.,
          128., 225., 33., 0., 0., 0., 128. ]
      - [ 255., 255., 231., 249., 252., 224., 128., 195., 1., 199., 255.,
          255., 255., 255., 255., 243., 223., 127., 244., 177., 207.,
          255., 63., 143., 199., 227., 39., 132., 57., 254., 252., 247.,
          255., 255., 247., 30., 1., 0., 128., 0., 6., 63., 255., 255.,
          255., 239., 91., 18., 218., 239., 55., 0., 0., 0., 0., 2., 0.,
          162., 129., 0., 96., 243., 251., 51. ]
      - [ 255., 255., 231., 249., 253., 224., 128., 131., 1., 199., 191.,
          255., 255., 255., 255., 243., 255., 127., 252., 251., 239.,
          255., 127., 143., 231., 99., 99., 134., 59., 255., 252., 227.,
          79., 255., 254., 251., 223., 28., 240., 192., 143., 255., 255.,
          121., 191., 71., 120., 191., 95., 133., 48., 0., 0., 8., 238.,
          175., 219., 0., 0., 0., 224., 255., 191., 50. ]
      - [ 223., 254., 63., 0., 0., 32., 224., 245., 97., 67., 22., 189.,
          248., 255., 255., 255., 191., 255., 196., 1., 132., 48., 140.,
          243., 121., 159., 8., 1., 0., 0., 12., 225., 25., 127., 252.,
          255., 255., 25., 195., 24., 35., 252., 253., 255., 253., 15.,
          0., 0., 128., 96., 48., 49., 24., 12., 126., 62., 219., 108.,
          4., 222., 239., 255., 63., 50. ]
      - [ 255., 191., 247., 253., 118., 96., 128., 195., 231., 239.,
          255., 255., 255., 127., 254., 255., 191., 255., 252., 253.,
          143., 231., 24., 130., 65., 224., 251., 255., 255., 45., 48.,
          0., 0., 0., 252., 224., 15., 31., 244., 250., 239., 155., 147.,
          24., 139., 225., 60., 255., 33., 0., 0., 0., 24., 12., 70.,
          12., 2., 0., 192., 255., 127., 141., 128., 141. ]
      - [ 223., 174., 33., 0., 16., 48., 240., 255., 127., 127., 254.,
          249., 255., 255., 255., 241., 207., 120., 68., 16., 198., 120.,
          222., 243., 127., 156., 0., 0., 0., 10., 252., 243., 207.,
          159., 246., 152., 215., 26., 195., 132., 119., 255., 255.,
          254., 207., 7., 0., 0., 193., 96., 48., 51., 201., 255., 251.,
          243., 223., 36., 30., 223., 239., 123., 17., 48. ]
      - [ 254., 9., 0., 0., 8., 0., 64., 112., 241., 255., 255., 119.,
          31., 56., 128., 0., 79., 124., 163., 1., 0., 252., 214., 119.,
          248., 132., 49., 227., 24., 63., 255., 127., 231., 144., 225.,
          222., 255., 255., 247., 159., 255., 252., 255., 255., 253.,
          167., 3., 0., 65., 96., 240., 189., 78., 113., 252., 255.,
          255., 125., 127., 6., 199., 255., 255., 63. ]
      - [ 0., 3., 148., 239., 255., 255., 63., 14., 0., 32., 209., 12.,
          0., 0., 0., 172., 113., 128., 25., 238., 241., 255., 119., 60.,
          143., 3., 194., 222., 255., 255., 255., 159., 255., 252., 255.,
          255., 251., 229., 17., 135., 184., 35., 4., 32., 32., 66., 49.,
          255., 255., 191., 239., 207., 247., 255., 251., 243., 249., 0.,
          26., 255., 58., 12., 93., 58. ]
      - [ 251., 159., 32., 0., 0., 48., 240., 240., 96., 193., 223.,
          255., 190., 123., 231., 17., 143., 56., 64., 0., 130., 56.,
          206., 251., 255., 31., 0., 0., 0., 3., 188., 241., 198., 153.,
          195., 156., 247., 26., 67., 140., 115., 255., 253., 255., 68.,
          6., 0., 129., 193., 96., 50., 57., 8., 32., 184., 255., 211.,
          44., 190., 255., 255., 11., 17., 48. ]
      - [ 11., 244., 255., 255., 247., 255., 143., 143., 14., 29., 58.,
          220., 129., 199., 127., 254., 255., 255., 255., 247., 255.,
          215., 56., 140., 255., 251., 207., 28., 167., 252., 255., 175.,
          17., 124., 252., 227., 31., 127., 125., 16., 0., 0., 0., 0.,
          35., 92., 214., 4., 158., 255., 95., 196., 243., 93., 206.,
          204., 134., 64., 0., 0., 0., 0., 64., 192. ]
      - [ 249., 255., 239., 243., 253., 224., 129., 231., 2., 5., 63.,
          255., 255., 255., 255., 255., 143., 127., 254., 253., 255.,
          255., 249., 143., 255., 227., 71., 128., 51., 254., 252., 231.,
          191., 63., 247., 132., 111., 223., 244., 211., 7., 28., 240.,
          253., 255., 95., 2., 182., 255., 239., 119., 219., 21., 0., 0.,
          8., 14., 247., 1., 0., 64., 240., 255., 115. ]
      - [ 255., 191., 231., 57., 16., 32., 128., 247., 255., 255., 254.,
          243., 143., 191., 255., 255., 143., 255., 254., 255., 143.,
          97., 8., 128., 96., 240., 57., 161., 0., 14., 252., 254., 191.,
          61., 241., 128., 127., 95., 246., 251., 231., 152., 131., 8.,
          207., 29., 0., 0., 192., 96., 240., 253., 30., 163., 240., 94.,
          3., 0., 192., 247., 19., 193., 118., 253. ]
      - [ 0., 120., 255., 239., 231., 193., 3., 15., 143., 254., 125.,
          239., 115., 79., 28., 224., 232., 247., 223., 103., 12., 131.,
          48., 79., 231., 235., 255., 134., 127., 254., 255., 255., 255.,
          236., 49., 130., 61., 255., 159., 25., 70., 216., 251., 255.,
          255., 239., 91., 18., 222., 255., 255., 255., 255., 147., 136.,
          216., 190., 107., 32., 190., 255., 255., 147., 191. ]
      - [ 0., 250., 255., 231., 129., 192., 67., 44., 175., 222., 61.,
          239., 17., 7., 60., 255., 255., 251., 193., 1., 0., 227., 52.,
          47., 36., 100., 241., 255., 255., 255., 255., 159., 49., 100.,
          176., 243., 223., 19., 131., 8., 247., 255., 255., 127., 255.,
          3., 56., 255., 79., 255., 255., 223., 38., 80., 254., 111.,
          147., 40., 190., 255., 255., 223., 159., 59. ]
      - [ 1., 64., 24., 130., 207., 255., 255., 127., 30., 16., 240.,
          200., 111., 254., 240., 192., 67., 31., 59., 6., 0., 28., 239.,
          249., 62., 95., 132., 24., 38., 252., 255., 255., 255., 253.,
          243., 159., 255., 254., 255., 159., 57., 100., 96., 230., 102.,
          14., 194., 37., 222., 239., 255., 223., 231., 243., 249., 251.,
          255., 255., 126., 54., 128., 50., 127., 48. ]
      - [ 31., 0., 16., 12., 2., 2., 252., 248., 253., 251., 247., 3.,
          14., 56., 240., 205., 63., 254., 136., 192., 111., 124., 7.,
          0., 56., 144., 184., 255., 254., 249., 195., 28., 38., 252.,
          255., 255., 255., 253., 243., 159., 255., 255., 239., 30.,
          132., 0., 4., 129., 197., 251., 205., 196., 226., 255., 255.,
          255., 249., 252., 127., 254., 255., 255., 29., 25. ]
      - [ 3., 246., 255., 255., 247., 231., 207., 255., 30., 24., 48.,
          128., 65., 198., 63., 254., 255., 247., 221., 251., 142., 7.,
          40., 136., 6., 83., 230., 124., 230., 220., 251., 239., 1.,
          108., 124., 251., 221., 181., 146., 16., 128., 0., 0., 0., 0.,
          16., 144., 229., 4., 223., 255., 79., 162., 93., 78., 4., 136.,
          227., 64., 0., 0., 0., 0., 192. ]
      - [ 255., 255., 239., 243., 112., 96., 128., 129., 195., 207.,
          255., 255., 255., 127., 222., 241., 255., 255., 253., 243.,
          207., 251., 184., 143., 227., 1., 96., 231., 63., 255., 254.,
          251., 111., 0., 0., 0., 23., 63., 253., 176., 247., 255., 247.,
          61., 63., 39., 121., 159., 75., 0., 176., 60., 4., 0., 0.,
          200., 247., 1., 0., 128., 227., 185., 153., 18. ]
      - [ 0., 2., 0., 205., 255., 255., 127., 30., 28., 56., 248., 204.,
          63., 16., 252., 236., 115., 143., 16., 192., 241., 255., 255.,
          188., 159., 71., 134., 8., 247., 255., 255., 255., 255., 252.,
          251., 255., 255., 253., 51., 132., 57., 254., 63., 115., 51.,
          6., 80., 191., 255., 191., 207., 207., 231., 49., 56., 50.,
          253., 127., 18., 218., 118., 24., 16., 16. ]
      - [ 255., 191., 231., 125., 16., 0., 128., 247., 247., 255., 255.,
          247., 255., 255., 255., 243., 143., 127., 252., 241., 255.,
          97., 0., 128., 97., 240., 121., 161., 1., 62., 252., 226.,
          135., 29., 242., 252., 231., 157., 241., 247., 223., 152.,
          131., 8., 207., 29., 0., 0., 192., 96., 48., 63., 159., 227.,
          33., 0., 0., 0., 192., 229., 19., 197., 118., 253. ]
      - [ 52., 120., 255., 255., 239., 199., 3., 79., 95., 22., 124.,
          233., 115., 207., 0., 224., 240., 231., 255., 255., 61., 231.,
          48., 2., 0., 224., 255., 191., 39., 252., 255., 255., 255.,
          239., 17., 130., 57., 239., 158., 49., 198., 16., 3., 16.,
          187., 253., 223., 36., 254., 255., 255., 223., 231., 243., 8.,
          64., 4., 131., 193., 32., 18., 192., 230., 239. ]
      - [ 248., 255., 255., 255., 247., 224., 128., 3., 0., 207., 127.,
          255., 247., 223., 127., 247., 137., 119., 255., 255., 191.,
          255., 63., 143., 231., 99., 99., 132., 59., 255., 253., 255.,
          159., 253., 123., 132., 37., 244., 220., 129., 175., 31., 247.,
          57., 191., 71., 88., 191., 223., 5., 0., 48., 24., 0., 0., 8.,
          6., 1., 0., 1., 96., 255., 191., 50. ]
      - [ 32., 80., 255., 255., 255., 223., 15., 10., 159., 190., 121.,
          226., 67., 143., 61., 198., 0., 199., 255., 255., 185., 207.,
          49., 14., 135., 224., 247., 255., 255., 255., 243., 159., 255.,
          255., 119., 135., 32., 228., 60., 251., 140., 17., 18., 17.,
          19., 224., 255., 127., 190., 255., 207., 192., 96., 248., 191.,
          151., 104., 218., 233., 0., 0., 8., 128., 207. ]
      - [ 252., 9., 1., 0., 0., 0., 0., 64., 225., 231., 207., 127.,
          254., 57., 192., 1., 0., 124., 226., 5., 0., 248., 212., 119.,
          249., 172., 27., 131., 24., 34., 12., 112., 230., 155., 199.,
          30., 247., 254., 255., 159., 119., 252., 251., 255., 255.,
          255., 79., 16., 136., 96., 0., 32., 253., 255., 255., 243.,
          253., 125., 118., 190., 143., 231., 255., 255. ]
      - [ 248., 255., 239., 255., 245., 224., 0., 131., 131., 6., 30.,
          255., 255., 255., 127., 243., 255., 127., 253., 255., 143.,
          247., 56., 142., 131., 226., 247., 111., 1., 236., 252., 243.,
          95., 255., 255., 170., 23., 0., 0., 0., 134., 223., 223., 57.,
          59., 225., 255., 47., 18., 239., 63., 17., 0., 8., 6., 14., 1.,
          0., 0., 201., 247., 255., 153., 1. ]
      - [ 255., 255., 239., 251., 113., 32., 128., 231., 239., 223.,
          255., 255., 255., 255., 254., 255., 255., 255., 255., 241.,
          143., 227., 24., 2., 0., 224., 248., 255., 63., 29., 240.,
          227., 47., 255., 253., 255., 191., 125., 243., 152., 199., 24.,
          131., 16., 8., 129., 0., 129., 0., 0., 48., 240., 255., 5., 0.,
          176., 7., 0., 64., 246., 26., 141., 28., 157. ]
      - [ 3., 0., 0., 8., 4., 31., 254., 255., 126., 125., 224., 0., 14.,
          60., 241., 205., 63., 30., 248., 200., 103., 28., 193., 0.,
          120., 156., 152., 113., 247., 147., 131., 4., 255., 254., 255.,
          255., 255., 252., 243., 255., 255., 255., 33., 12., 196., 144.,
          4., 193., 0., 16., 197., 247., 255., 255., 255., 255., 251.,
          28., 70., 230., 255., 79., 4., 4. ]
      - [ 67., 230., 254., 255., 255., 239., 255., 255., 31., 57., 16.,
          144., 227., 142., 58., 250., 241., 255., 255., 255., 191.,
          127., 248., 203., 127., 27., 228., 92., 231., 153., 242., 255.,
          127., 13., 112., 227., 63., 255., 252., 243., 207., 1., 0., 0.,
          0., 0., 0., 239., 103., 139., 255., 255., 38., 209., 254., 95.,
          2., 0., 64., 1., 0., 0., 16., 144. ]
      - [ 255., 191., 231., 253., 112., 224., 0., 0., 0., 0., 14., 255.,
          244., 219., 255., 63., 157., 116., 212., 241., 254., 243., 56.,
          143., 227., 3., 0., 192., 57., 231., 188., 231., 191., 127.,
          15., 0., 4., 0., 192., 64., 199., 255., 255., 125., 63., 102.,
          127., 62., 255., 255., 2., 0., 48., 14., 0., 0., 0., 130.,
          129., 193., 255., 31., 137., 2. ]
      - [ 7., 0., 16., 12., 0., 31., 254., 252., 255., 251., 224., 0.,
          14., 8., 240., 205., 127., 150., 72., 192., 99., 16., 192.,
          112., 120., 156., 152., 113., 198., 19., 131., 8., 247., 255.,
          255., 255., 255., 252., 243., 223., 251., 239., 33., 4., 196.,
          24., 0., 193., 1., 16., 229., 247., 255., 117., 121., 251.,
          255., 255., 255., 255., 159., 7., 4., 132. ]
      - [ 248., 255., 239., 243., 249., 224., 128., 131., 195., 6., 30.,
          255., 253., 247., 254., 255., 255., 255., 255., 179., 143.,
          255., 62., 143., 131., 226., 247., 255., 41., 108., 120., 239.,
          127., 255., 252., 255., 255., 255., 131., 0., 134., 92., 223.,
          121., 59., 225., 253., 239., 2., 197., 242., 55., 8., 0., 4.,
          252., 135., 0., 0., 128., 98., 253., 189., 1. ]
      - [ 255., 191., 247., 255., 112., 96., 0., 0., 0., 199., 31., 255.,
          247., 223., 127., 243., 141., 112., 204., 249., 255., 227.,
          56., 143., 227., 3., 0., 196., 57., 239., 252., 255., 255.,
          255., 7., 0., 0., 0., 128., 96., 207., 191., 255., 125., 59.,
          230., 127., 62., 255., 239., 2., 225., 29., 6., 0., 0., 0.,
          130., 129., 205., 255., 29., 137., 34. ]
      - [ 176., 123., 255., 239., 103., 192., 0., 0., 128., 128., 13.,
          238., 113., 207., 61., 230., 152., 247., 255., 111., 28., 131.,
          48., 12., 128., 3., 0., 0., 0., 99., 28., 227., 255., 47.,
          116., 231., 57., 245., 158., 57., 0., 0., 0., 33., 16., 6., 0.,
          0., 201., 100., 112., 115., 29., 4., 92., 220., 238., 67., 0.,
          0., 0., 32., 32., 240. ]
      - [ 148., 251., 255., 255., 239., 195., 1., 79., 71., 78., 29.,
          237., 113., 199., 60., 254., 249., 255., 255., 247., 12., 67.,
          16., 0., 71., 251., 255., 141., 119., 254., 252., 255., 123.,
          253., 124., 231., 57., 253., 191., 57., 198., 16., 209., 157.,
          255., 255., 82., 254., 255., 255., 255., 255., 231., 16., 8.,
          0., 6., 255., 247., 36., 2., 227., 230., 255. ]
      - [ 252., 63., 67., 0., 0., 80., 96., 49., 0., 194., 141., 255.,
          252., 255., 239., 7., 14., 16., 192., 40., 110., 241., 131.,
          8., 16., 241., 127., 47., 16., 100., 56., 227., 223., 255.,
          143., 28., 196., 152., 235., 255., 255., 255., 243., 31., 253.,
          241., 255., 119., 16., 68., 48., 49., 8., 0., 33., 160., 254.,
          255., 255., 62., 159., 207., 140., 141. ]
      - [ 255., 191., 231., 253., 112., 0., 128., 99., 0., 199., 255.,
          255., 255., 255., 254., 251., 143., 127., 252., 253., 143.,
          227., 0., 128., 99., 241., 127., 133., 57., 254., 188., 161.,
          0., 0., 248., 224., 7., 31., 254., 176., 199., 152., 211., 8.,
          255., 255., 87., 18., 219., 37., 0., 0., 0., 0., 68., 204.,
          166., 65., 252., 53., 27., 193., 231., 255. ]
      - [ 254., 255., 239., 255., 245., 96., 128., 195., 231., 223.,
          255., 255., 255., 255., 255., 255., 159., 127., 254., 241.,
          143., 231., 56., 2., 1., 224., 249., 255., 127., 125., 240.,
          227., 159., 63., 247., 253., 167., 220., 251., 189., 199., 24.,
          19., 0., 0., 0., 44., 137., 0., 0., 48., 112., 25., 100., 7.,
          0., 0., 236., 255., 255., 26., 141., 28., 157. ]
      - [ 0., 34., 0., 8., 4., 0., 72., 0., 128., 128., 1., 14., 116.,
          254., 249., 239., 127., 255., 248., 193., 79., 252., 6., 13.,
          128., 0., 0., 0., 8., 227., 12., 231., 63., 255., 255., 255.,
          255., 255., 243., 156., 135., 0., 2., 32., 0., 6., 0., 129.,
          201., 228., 247., 243., 255., 255., 250., 242., 223., 125.,
          118., 48., 16., 8., 0., 176. ]
      - [ 254., 255., 255., 119., 48., 0., 0., 64., 0., 194., 15., 255.,
          241., 239., 255., 255., 255., 255., 237., 49., 142., 243., 16.,
          14., 64., 161., 115., 239., 24., 100., 252., 231., 27., 3., 0.,
          0., 0., 16., 252., 252., 247., 25., 147., 57., 185., 243.,
          253., 255., 59., 207., 255., 255., 15., 2., 0., 0., 118., 223.,
          110., 38., 155., 207., 223., 31. ]
      - [ 248., 255., 255., 255., 241., 0., 128., 67., 64., 71., 31.,
          255., 255., 223., 62., 243., 255., 119., 205., 243., 239.,
          227., 56., 10., 67., 225., 127., 165., 59., 254., 252., 243.,
          79., 223., 126., 146., 4., 52., 221., 246., 255., 155., 147.,
          16., 187., 245., 223., 2., 222., 239., 62., 0., 0., 12., 2.,
          0., 0., 254., 219., 172., 27., 205., 132., 239. ]
      - [ 160., 255., 255., 231., 224., 192., 1., 6., 231., 206., 29.,
          227., 240., 199., 255., 255., 191., 243., 196., 33., 12., 2.,
          48., 79., 231., 232., 225., 255., 255., 239., 49., 130., 25.,
          127., 255., 255., 239., 220., 203., 24., 70., 220., 251., 255.,
          255., 171., 121., 255., 127., 155., 64., 247., 27., 0., 0.,
          188., 150., 237., 101., 4., 207., 255., 255., 27. ]
      - [ 249., 255., 239., 243., 253., 0., 128., 199., 71., 71., 30.,
          255., 253., 255., 255., 119., 136., 64., 132., 253., 255.,
          255., 59., 138., 67., 224., 255., 175., 51., 252., 252., 247.,
          223., 191., 255., 28., 64., 128., 240., 247., 255., 191., 147.,
          24., 43., 225., 223., 38., 154., 255., 95., 1., 0., 184., 191.,
          183., 105., 16., 139., 239., 123., 141., 128., 205. ]
      - [ 252., 255., 255., 255., 32., 0., 0., 64., 193., 194., 15.,
          255., 241., 199., 63., 255., 255., 243., 196., 49., 142., 243.,
          48., 15., 193., 131., 97., 239., 24., 101., 60., 227., 59.,
          103., 20., 81., 4., 0., 192., 126., 247., 25., 147., 49., 57.,
          115., 249., 255., 123., 207., 246., 51., 0., 192., 7., 7., 0.,
          144., 255., 127., 27., 205., 157., 191. ]
      - [ 75., 132., 56., 223., 223., 191., 255., 255., 127., 127., 251.,
          208., 143., 62., 254., 248., 227., 255., 255., 255., 255.,
          255., 249., 255., 255., 11., 0., 0., 6., 159., 255., 255.,
          255., 255., 243., 143., 255., 254., 255., 191., 127., 0., 0.,
          32., 0., 0., 0., 128., 65., 224., 243., 255., 96., 0., 0., 0.,
          6., 239., 199., 0., 0., 0., 80., 32. ]
      - [ 254., 255., 255., 51., 48., 96., 64., 128., 129., 128., 4.,
          250., 241., 255., 255., 255., 255., 255., 236., 49., 12., 129.,
          0., 132., 225., 31., 0., 64., 0., 195., 124., 227., 63., 255.,
          31., 128., 255., 255., 255., 28., 231., 128., 1., 32., 0., 6.,
          0., 129., 201., 228., 242., 247., 31., 0., 0., 252., 255.,
          127., 100., 36., 19., 0., 16., 0. ]
      - [ 254., 157., 251., 118., 32., 64., 0., 0., 193., 255., 255.,
          119., 147., 13., 254., 253., 255., 255., 253., 113., 142.,
          227., 24., 15., 193., 0., 0., 64., 0., 55., 223., 44., 3.,
          252., 255., 255., 255., 253., 243., 28., 231., 24., 147., 49.,
          0., 6., 0., 128., 65., 100., 63., 208., 243., 127., 122., 48.,
          0., 72., 246., 55., 26., 8., 17., 48. ]
      - [ 0., 115., 159., 195., 249., 255., 63., 0., 0., 128., 125.,
          206., 49., 255., 253., 255., 119., 159., 96., 0., 129., 223.,
          39., 12., 128., 1., 0., 0., 16., 127., 125., 229., 63., 255.,
          255., 255., 255., 253., 35., 128., 177., 102., 15., 32., 0.,
          6., 98., 17., 200., 101., 241., 243., 255., 125., 123., 191.,
          255., 108., 0., 154., 16., 0., 0., 128. ]
      - [ 97., 255., 255., 247., 65., 128., 0., 0., 0., 204., 63., 207.,
          176., 207., 255., 255., 255., 255., 253., 49., 142., 226., 56.,
          79., 128., 1., 0., 64., 0., 111., 61., 161., 27., 255., 255.,
          191., 4., 188., 251., 60., 199., 16., 2., 32., 0., 6., 0.,
          128., 201., 127., 87., 227., 255., 247., 1., 0., 0., 255.,
          231., 36., 24., 8., 16., 48. ]
      - [ 176., 123., 207., 239., 229., 128., 0., 2., 130., 132., 8.,
          106., 112., 215., 13., 102., 125., 247., 219., 47., 8., 130.,
          0., 0., 0., 16., 0., 224., 251., 231., 20., 3., 8., 35., 12.,
          96., 61., 247., 143., 24., 196., 216., 255., 255., 255., 231.,
          7., 30., 207., 255., 84., 127., 223., 71., 192., 72., 6., 72.,
          164., 255., 0., 0., 192., 227. ]
      - [ 188., 9., 65., 108., 46., 78., 0., 0., 128., 128., 255., 111.,
          62., 120., 228., 137., 111., 254., 251., 227., 15., 255., 6.,
          12., 128., 1., 1., 2., 24., 99., 220., 125., 38., 253., 251.,
          255., 255., 255., 243., 159., 247., 16., 3., 49., 16., 32.,
          14., 0., 217., 100., 186., 213., 255., 255., 255., 63., 16.,
          252., 247., 38., 16., 8., 216., 0. ]
      - [ 67., 246., 255., 255., 243., 243., 255., 191., 63., 61., 50.,
          0., 128., 135., 63., 254., 255., 255., 253., 243., 134., 3.,
          40., 128., 6., 82., 228., 248., 255., 223., 99., 132., 25.,
          238., 252., 255., 223., 189., 243., 24., 128., 0., 0., 0., 2.,
          16., 32., 255., 111., 155., 77., 192., 251., 255., 7., 0., 0.,
          238., 225., 0., 0., 0., 0., 192. ]
      - [ 255., 255., 231., 249., 116., 224., 128., 129., 1., 199., 255.,
          255., 255., 255., 255., 255., 159., 125., 212., 177., 207.,
          255., 63., 143., 195., 227., 35., 132., 59., 255., 252., 255.,
          31., 125., 251., 127., 1., 0., 128., 0., 6., 127., 255., 255.,
          191., 239., 91., 18., 219., 239., 63., 0., 0., 0., 4., 6., 0.,
          162., 129., 0., 96., 251., 187., 51. ]
      - [ 223., 254., 127., 0., 0., 32., 224., 253., 97., 67., 22., 189.,
          248., 239., 255., 255., 191., 255., 198., 1., 4., 32., 140.,
          227., 121., 158., 8., 1., 0., 0., 8., 224., 25., 47., 252.,
          253., 255., 31., 195., 24., 34., 252., 253., 254., 255., 31.,
          0., 0., 128., 96., 48., 48., 8., 12., 70., 254., 223., 109.,
          36., 158., 255., 255., 63., 50. ]
      - [ 223., 238., 37., 0., 16., 48., 240., 255., 127., 127., 254.,
          249., 255., 255., 254., 241., 207., 120., 196., 16., 134.,
          120., 222., 243., 125., 188., 8., 1., 0., 10., 252., 243., 79.,
          157., 242., 152., 199., 26., 67., 128., 55., 254., 255., 255.,
          255., 31., 0., 0., 0., 96., 48., 57., 223., 255., 235., 227.,
          217., 44., 22., 223., 239., 243., 17., 48. ]
      - [ 105., 255., 255., 255., 247., 255., 135., 143., 14., 29., 59.,
          220., 129., 199., 255., 255., 191., 255., 255., 247., 139.,
          199., 56., 142., 255., 127., 199., 12., 247., 254., 127., 133.,
          25., 126., 252., 225., 47., 31., 22., 16., 0., 0., 16., 129.,
          51., 124., 87., 22., 254., 255., 77., 192., 187., 205., 198.,
          78., 131., 64., 0., 0., 0., 32., 224., 228. ]
      - [ 255., 255., 231., 249., 48., 0., 128., 227., 255., 255., 254.,
          243., 143., 63., 255., 253., 255., 255., 255., 241., 143.,
          243., 8., 130., 64., 240., 249., 163., 11., 12., 248., 224.,
          23., 255., 252., 128., 7., 30., 252., 240., 255., 159., 131.,
          24., 141., 177., 6., 0., 0., 96., 48., 241., 251., 143., 128.,
          203., 231., 1., 0., 228., 51., 197., 132., 237. ]
      - [ 3., 246., 255., 255., 247., 231., 207., 255., 30., 24., 48.,
          128., 65., 134., 63., 254., 255., 247., 221., 251., 142., 7.,
          40., 136., 6., 83., 230., 124., 230., 216., 251., 239., 1.,
          108., 124., 251., 221., 183., 147., 16., 128., 0., 0., 0., 0.,
          16., 176., 229., 4., 223., 255., 79., 162., 221., 78., 4.,
          128., 226., 64., 0., 0., 0., 0., 192. ]
      - [ 0., 2., 0., 205., 255., 255., 127., 30., 28., 56., 249., 204.,
          63., 16., 252., 236., 115., 143., 16., 192., 241., 255., 255.,
          188., 159., 71., 198., 12., 255., 255., 255., 191., 255., 252.,
          251., 255., 255., 253., 51., 132., 57., 255., 63., 123., 51.,
          70., 80., 191., 255., 255., 223., 207., 247., 49., 56., 50.,
          255., 63., 18., 218., 102., 8., 16., 16. ]
      - [ 255., 255., 231., 123., 48., 0., 128., 227., 239., 255., 255.,
          255., 255., 255., 254., 243., 143., 127., 252., 241., 255.,
          99., 8., 130., 64., 240., 123., 163., 9., 60., 252., 227., 7.,
          29., 242., 216., 231., 31., 241., 214., 215., 153., 131., 0.,
          143., 145., 0., 0., 128., 96., 240., 63., 207., 227., 32., 2.,
          0., 0., 0., 229., 19., 197., 212., 253. ]
      - [ 32., 1., 255., 255., 255., 207., 15., 0., 159., 190., 121.,
          226., 67., 143., 61., 198., 0., 135., 255., 255., 185., 207.,
          49., 14., 135., 224., 247., 255., 255., 255., 243., 159., 255.,
          255., 119., 135., 32., 228., 60., 251., 140., 17., 18., 17.,
          18., 224., 255., 255., 62., 159., 207., 192., 96., 248., 191.,
          151., 104., 218., 233., 0., 0., 8., 128., 207. ]
      - [ 3., 0., 0., 12., 14., 63., 255., 255., 127., 56., 224., 0.,
          14., 188., 241., 207., 23., 31., 250., 204., 51., 0., 192.,
          241., 255., 223., 236., 93., 230., 144., 225., 222., 255.,
          255., 255., 191., 255., 252., 251., 255., 251., 204., 96.,
          134., 204., 24., 0., 64., 36., 138., 247., 247., 255., 255.,
          255., 247., 121., 92., 110., 247., 159., 6., 0., 196. ]
      - [ 67., 230., 254., 255., 255., 239., 255., 255., 31., 57., 16.,
          144., 227., 142., 58., 250., 241., 255., 255., 255., 191.,
          127., 248., 203., 127., 27., 228., 92., 231., 153., 242., 255.,
          127., 13., 112., 227., 127., 255., 254., 179., 79., 0., 0., 0.,
          0., 0., 0., 239., 103., 139., 255., 255., 38., 209., 254.,
          125., 2., 0., 64., 1., 0., 0., 16., 144. ]
      - [ 7., 0., 16., 12., 0., 31., 254., 252., 255., 249., 224., 0.,
          14., 8., 240., 205., 127., 150., 72., 192., 99., 16., 192.,
          112., 120., 156., 152., 49., 198., 16., 131., 8., 247., 255.,
          255., 255., 255., 252., 243., 223., 251., 237., 33., 4., 196.,
          24., 0., 193., 1., 16., 245., 247., 255., 117., 121., 251.,
          255., 255., 255., 254., 159., 7., 4., 132. ]
      - [ 180., 123., 255., 239., 103., 192., 0., 0., 128., 128., 13.,
          238., 113., 207., 61., 230., 152., 247., 255., 111., 12., 131.,
          48., 12., 128., 3., 1., 66., 8., 35., 28., 227., 251., 47.,
          52., 231., 57., 255., 159., 57., 192., 0., 2., 49., 48., 6.,
          0., 128., 201., 32., 114., 123., 9., 0., 94., 220., 174., 67.,
          0., 0., 0., 48., 48., 176. ]
      - [ 0., 34., 0., 9., 4., 0., 121., 0., 244., 0., 0., 136., 108.,
          254., 249., 239., 127., 255., 248., 193., 79., 252., 198., 7.,
          0., 0., 0., 64., 0., 203., 173., 231., 255., 255., 255., 255.,
          255., 255., 243., 156., 135., 0., 2., 32., 0., 2., 0., 137.,
          201., 231., 243., 243., 255., 255., 255., 243., 255., 124.,
          102., 48., 24., 8., 0., 144. ]
      - [ 0., 114., 142., 227., 255., 223., 63., 0., 128., 128., 17.,
          142., 112., 255., 253., 238., 119., 143., 56., 0., 0., 142.,
          4., 12., 128., 1., 0., 0., 0., 235., 125., 231., 63., 255.,
          255., 255., 255., 253., 51., 156., 240., 2., 2., 32., 0., 6.,
          67., 0., 200., 229., 243., 243., 255., 4., 0., 32., 254., 255.,
          86., 34., 16., 8., 25., 186. ]
      - [ 75., 196., 56., 223., 223., 175., 255., 255., 127., 127., 251.,
          209., 143., 62., 254., 248., 243., 255., 255., 255., 191.,
          255., 249., 255., 255., 11., 0., 0., 6., 255., 255., 255.,
          255., 255., 243., 143., 255., 255., 255., 159., 127., 0., 0.,
          0., 0., 0., 0., 129., 193., 224., 243., 255., 0., 0., 0., 0.,
          6., 239., 197., 0., 0., 0., 80., 16. ]
      - [ 222., 255., 255., 51., 48., 96., 192., 129., 161., 0., 4.,
          248., 241., 255., 255., 255., 255., 255., 236., 49., 12., 1.,
          0., 128., 225., 27., 0., 192., 104., 195., 116., 227., 63.,
          255., 31., 128., 255., 255., 255., 28., 231., 128., 1., 32.,
          0., 2., 0., 128., 201., 224., 242., 243., 31., 0., 0., 248.,
          255., 255., 100., 36., 27., 8., 16., 0. ]
      - [ 254., 157., 251., 118., 32., 64., 0., 193., 225., 255., 255.,
          119., 147., 13., 254., 253., 255., 255., 253., 113., 142.,
          227., 24., 7., 65., 0., 0., 128., 0., 63., 223., 44., 3., 252.,
          255., 255., 255., 253., 243., 28., 231., 24., 211., 49., 0.,
          6., 0., 128., 193., 100., 63., 208., 243., 127., 122., 48., 0.,
          72., 246., 55., 26., 15., 17., 48. ]
      - [ 0., 115., 159., 195., 241., 255., 63., 0., 128., 136., 125.,
          206., 49., 239., 253., 255., 119., 159., 104., 0., 128., 223.,
          39., 12., 128., 1., 0., 64., 24., 255., 127., 165., 63., 255.,
          255., 255., 255., 253., 99., 8., 160., 100., 15., 33., 0., 0.,
          4., 152., 201., 101., 240., 243., 255., 125., 122., 255., 255.,
          125., 0., 130., 16., 0., 0., 248. ]
      - [ 97., 255., 255., 247., 193., 0., 0., 102., 0., 76., 63., 207.,
          176., 199., 255., 255., 255., 255., 253., 49., 142., 226., 56.,
          79., 64., 1., 0., 64., 17., 111., 61., 161., 25., 255., 255.,
          191., 12., 60., 251., 124., 199., 16., 130., 48., 0., 6., 0.,
          0., 201., 127., 87., 227., 255., 255., 7., 0., 0., 255., 231.,
          36., 16., 8., 16., 32. ]
      - [ 79., 134., 32., 255., 255., 127., 31., 0., 128., 129., 243.,
          190., 255., 80., 122., 248., 227., 132., 4., 144., 224., 140.,
          15., 12., 128., 0., 0., 64., 8., 123., 238., 123., 36., 252.,
          255., 255., 255., 253., 19., 134., 248., 34., 3., 33., 0., 2.,
          0., 129., 201., 100., 186., 212., 255., 13., 40., 248., 255.,
          125., 86., 254., 16., 8., 16., 48. ]
      - [ 0., 251., 255., 231., 225., 1., 0., 70., 239., 0., 0., 0., 96.,
          199., 61., 255., 126., 225., 0., 0., 72., 227., 183., 127.,
          231., 231., 7., 16., 0., 0., 8., 96., 8., 103., 62., 123.,
          128., 0., 0., 0., 0., 122., 220., 247., 63., 15., 0., 0., 192.,
          96., 48., 16., 185., 252., 7., 3., 128., 32., 1., 0., 96., 16.,
          64., 224. ]
      - [ 148., 104., 255., 239., 163., 65., 0., 127., 127., 126., 124.,
          233., 99., 207., 25., 224., 248., 247., 139., 3., 0., 0., 0.,
          0., 103., 63., 8., 0., 0., 0., 0., 0., 0., 174., 60., 162.,
          189., 35., 7., 0., 0., 0., 0., 192., 192., 24., 0., 1., 0., 0.,
          48., 50., 8., 220., 206., 94., 135., 0., 0., 0., 0., 0., 0.,
          196. ]
      - [ 255., 255., 239., 243., 63., 32., 128., 192., 193., 223., 191.,
          255., 253., 7., 14., 112., 200., 237., 183., 191., 253., 239.,
          31., 14., 0., 0., 16., 227., 8., 47., 124., 120., 0., 0., 0.,
          0., 0., 99., 188., 239., 134., 25., 147., 49., 0., 0., 0.,
          153., 73., 0., 32., 0., 28., 4., 196., 76., 2., 130., 129., 0.,
          0., 0., 0., 128. ]
      - [ 180., 251., 255., 231., 225., 192., 0., 71., 199., 206., 28.,
          97., 0., 199., 191., 111., 188., 251., 194., 33., 12., 67., 0.,
          0., 0., 0., 240., 255., 251., 141., 49., 134., 16., 100., 28.,
          33., 0., 0., 10., 16., 196., 146., 3., 0., 0., 0., 4., 129.,
          0., 96., 80., 112., 187., 252., 7., 5., 0., 2., 240., 255., 0.,
          8., 0., 128. ]
      - [ 240., 255., 255., 231., 64., 128., 192., 119., 103., 78., 28.,
          249., 241., 199., 191., 127., 188., 113., 192., 33., 12., 115.,
          54., 35., 119., 246., 96., 65., 0., 0., 48., 225., 25., 39.,
          28., 125., 132., 0., 194., 72., 247., 91., 0., 0., 0., 16., 0.,
          129., 128., 96., 16., 49., 24., 12., 6., 6., 208., 190., 255.,
          1., 0., 0., 0., 192. ]
      - [ 224., 255., 239., 227., 0., 0., 128., 255., 111., 78., 8.,
          225., 192., 231., 255., 127., 191., 253., 196., 1., 12., 98.,
          180., 227., 119., 254., 254., 145., 67., 140., 48., 130., 8.,
          38., 220., 121., 132., 17., 139., 24., 102., 216., 216., 6.,
          79., 16., 0., 0., 192., 224., 112., 55., 136., 72., 7., 0.,
          176., 235., 4., 0., 0., 0., 0., 224. ]
      - [ 176., 255., 255., 239., 96., 128., 0., 127., 103., 78., 8.,
          225., 192., 207., 255., 127., 28., 96., 128., 33., 12., 66.,
          32., 0., 103., 254., 104., 17., 1., 0., 0., 192., 8., 35., 28.,
          120., 196., 1., 130., 16., 132., 0., 0., 0., 0., 16., 0., 0.,
          193., 32., 112., 119., 139., 0., 0., 254., 255., 125., 124.,
          0., 0., 32., 0., 0. ]
      - [ 244., 63., 199., 32., 32., 80., 96., 0., 227., 194., 12., 255.,
          252., 251., 207., 35., 14., 112., 224., 41., 111., 251., 147.,
          4., 241., 18., 0., 192., 8., 103., 60., 227., 140., 19., 143.,
          24., 68., 152., 249., 255., 255., 31., 243., 57., 0., 6., 0.,
          128., 201., 109., 18., 1., 0., 8., 33., 175., 43., 156., 223.,
          103., 18., 8., 16., 32. ]
      - [ 176., 255., 223., 227., 64., 128., 64., 98., 0., 0., 29., 111.,
          48., 199., 255., 127., 190., 255., 195., 1., 12., 227., 52.,
          47., 231., 31., 0., 0., 0., 0., 60., 229., 16., 39., 28., 113.,
          140., 19., 130., 24., 38., 0., 0., 0., 0., 30., 0., 0., 128.,
          96., 48., 113., 155., 12., 0., 8., 130., 255., 101., 0., 0.,
          0., 64., 196. ]
      - [ 0., 120., 255., 255., 231., 199., 7., 15., 15., 0., 60., 236.,
          115., 199., 28., 224., 240., 255., 255., 255., 127., 231., 48.,
          12., 7., 2., 0., 64., 0., 93., 252., 255., 255., 207., 16.,
          128., 24., 35., 12., 32., 132., 0., 19., 48., 0., 2., 0., 129.,
          193., 229., 242., 255., 111., 211., 140., 64., 0., 130., 129.,
          0., 64., 24., 16., 48. ]
      - [ 180., 255., 255., 239., 225., 0., 0., 103., 239., 222., 61.,
          227., 0., 7., 63., 255., 252., 243., 207., 47., 12., 64., 48.,
          66., 71., 248., 249., 33., 0., 0., 56., 228., 16., 33., 24.,
          97., 12., 3., 134., 24., 68., 0., 0., 0., 0., 24., 0., 0., 0.,
          96., 112., 241., 31., 4., 4., 0., 0., 195., 65., 0., 0., 0.,
          0., 32. ]
      - [ 244., 59., 199., 0., 0., 0., 64., 113., 96., 0., 12., 239.,
          248., 251., 205., 39., 14., 112., 0., 0., 0., 96., 150., 127.,
          241., 15., 96., 255., 121., 99., 0., 1., 8., 3., 14., 24.,
          132., 144., 235., 126., 255., 252., 251., 255., 0., 0., 0.,
          143., 195., 0., 0., 48., 24., 12., 0., 12., 120., 255., 255.,
          54., 3., 8., 0., 128. ]
      - [ 3., 254., 255., 135., 1., 0., 65., 0., 0., 217., 63., 143.,
          144., 70., 191., 255., 254., 255., 199., 1., 132., 242., 188.,
          255., 246., 7., 0., 64., 0., 43., 125., 111., 0., 100., 248.,
          247., 191., 17., 131., 8., 38., 222., 238., 99., 0., 6., 0.,
          0., 192., 96., 121., 244., 158., 4., 68., 12., 0., 232., 1.,
          0., 64., 48., 17., 0. ]
      - [ 148., 250., 255., 247., 243., 195., 3., 79., 95., 30., 60.,
          233., 97., 0., 60., 254., 254., 251., 237., 123., 175., 195.,
          48., 2., 7., 226., 252., 233., 39., 252., 255., 255., 123.,
          69., 16., 193., 8., 35., 12., 32., 132., 0., 146., 152., 139.,
          9., 0., 129., 211., 229., 251., 191., 36., 1., 0., 0., 6.,
          131., 193., 225., 126., 0., 16., 48. ]
      - [ 244., 127., 199., 0., 32., 80., 96., 115., 99., 66., 12., 255.,
          252., 243., 206., 3., 14., 112., 224., 41., 127., 123., 145.,
          0., 123., 179., 108., 205., 57., 71., 48., 227., 140., 19.,
          135., 24., 68., 152., 249., 255., 255., 29., 241., 189., 255.,
          15., 0., 129., 235., 109., 50., 1., 0., 12., 33., 173., 42.,
          158., 255., 39., 138., 35., 16., 48. ]
      - [ 160., 251., 255., 239., 225., 0., 0., 0., 239., 222., 61.,
          231., 0., 135., 63., 255., 188., 247., 195., 33., 12., 227.,
          52., 39., 192., 0., 224., 227., 223., 63., 117., 239., 16.,
          36., 24., 225., 140., 19., 134., 8., 230., 2., 0., 0., 0., 16.,
          0., 129., 1., 0., 112., 117., 138., 8., 6., 0., 4., 169., 255.,
          33., 16., 0., 0., 196. ]
      - [ 0., 120., 255., 255., 231., 199., 7., 15., 15., 16., 60., 238.,
          115., 199., 28., 224., 240., 255., 255., 255., 255., 231., 48.,
          12., 7., 98., 247., 254., 127., 93., 240., 255., 255., 207.,
          16., 128., 24., 35., 12., 32., 132., 0., 18., 16., 187., 31.,
          0., 129., 195., 235., 242., 255., 111., 211., 140., 64., 0.,
          130., 129., 0., 0., 240., 119., 48. ]
      - [ 176., 255., 239., 227., 225., 128., 0., 103., 239., 222., 28.,
          225., 0., 199., 31., 127., 188., 241., 194., 33., 8., 67., 48.,
          99., 103., 236., 120., 1., 0., 12., 61., 230., 0., 36., 28.,
          113., 140., 19., 130., 24., 230., 216., 223., 30., 79., 5., 0.,
          0., 128., 96., 112., 127., 138., 0., 4., 4., 128., 11., 244.,
          5., 0., 0., 0., 176. ]
      - [ 244., 187., 215., 32., 0., 0., 0., 113., 96., 0., 4., 239.,
          248., 235., 141., 39., 30., 112., 0., 0., 64., 97., 182., 127.,
          243., 15., 0., 192., 121., 231., 4., 1., 8., 35., 14., 56.,
          132., 16., 235., 126., 255., 253., 240., 191., 0., 6., 0.,
          128., 239., 51., 0., 32., 24., 12., 6., 12., 120., 255., 255.,
          55., 0., 0., 16., 32. ]
      - [ 148., 255., 255., 239., 1., 0., 0., 103., 0., 0., 29., 45.,
          48., 199., 255., 255., 255., 255., 195., 33., 12., 99., 52.,
          111., 231., 31., 0., 0., 0., 238., 61., 39., 0., 36., 252.,
          119., 140., 17., 130., 24., 102., 216., 252., 255., 45., 6.,
          0., 0., 192., 100., 121., 119., 159., 0., 0., 0., 0., 232.,
          133., 0., 64., 48., 113., 48. ]
      - [ 252., 63., 67., 0., 32., 16., 0., 115., 97., 70., 159., 255.,
          254., 251., 196., 1., 12., 124., 242., 173., 31., 121., 240.,
          111., 251., 255., 102., 207., 16., 100., 24., 225., 206., 155.,
          199., 4., 231., 254., 255., 191., 255., 252., 241., 0., 0., 0.,
          16., 163., 1., 64., 48., 49., 25., 166., 16., 240., 254., 255.,
          103., 38., 0., 0., 0., 0. ]
      - [ 132., 255., 255., 227., 0., 0., 0., 0., 0., 128., 29., 239.,
          240., 231., 191., 255., 254., 121., 192., 1., 12., 243., 182.,
          127., 228., 7., 0., 64., 0., 33., 60., 227., 25., 239., 30.,
          16., 132., 16., 195., 76., 247., 255., 247., 191., 32., 6., 0.,
          0., 193., 96., 48., 49., 24., 12., 2., 138., 215., 60., 5., 0.,
          0., 0., 0., 176. ]
      - [ 244., 255., 223., 32., 0., 0., 0., 0., 128., 194., 13., 255.,
          248., 227., 191., 47., 14., 112., 128., 33., 78., 243., 7.,
          12., 0., 0., 0., 192., 56., 99., 28., 225., 136., 111., 143.,
          24., 132., 144., 235., 254., 255., 127., 3., 32., 0., 0., 0.,
          136., 201., 32., 0., 32., 24., 172., 39., 3., 120., 255., 255.,
          46., 16., 0., 0., 0. ]
      - [ 180., 255., 255., 255., 225., 64., 0., 0., 128., 206., 29.,
          239., 241., 199., 255., 255., 191., 247., 204., 33., 12., 195.,
          0., 12., 0., 0., 0., 64., 24., 239., 60., 227., 25., 127., 30.,
          160., 207., 19., 135., 24., 198., 144., 3., 49., 0., 6., 0.,
          129., 1., 0., 48., 48., 24., 12., 2., 8., 6., 1., 0., 192.,
          50., 8., 16., 16. ]
      - [ 240., 127., 199., 0., 96., 144., 32., 115., 227., 0., 12.,
          255., 253., 247., 223., 15., 14., 112., 224., 45., 47., 251.,
          241., 3., 123., 2., 0., 200., 41., 71., 20., 225., 140., 55.,
          207., 60., 70., 220., 251., 255., 255., 253., 3., 32., 0., 0.,
          0., 137., 235., 41., 34., 51., 153., 174., 55., 163., 120.,
          222., 255., 39., 19., 8., 0., 0. ]
      - [ 244., 255., 223., 32., 0., 0., 64., 113., 97., 66., 13., 255.,
          248., 227., 255., 47., 14., 112., 128., 33., 78., 243., 183.,
          127., 243., 167., 96., 207., 57., 99., 16., 193., 136., 111.,
          143., 24., 132., 144., 235., 254., 255., 255., 255., 35., 0.,
          0., 0., 206., 251., 9., 0., 32., 24., 14., 3., 1., 120., 255.,
          255., 190., 16., 0., 0., 128. ]
      - [ 224., 255., 239., 227., 0., 128., 65., 162., 231., 206., 28.,
          243., 241., 247., 223., 119., 159., 125., 196., 1., 4., 227.,
          4., 0., 0., 0., 0., 96., 1., 3., 48., 227., 157., 39., 212.,
          88., 231., 19., 131., 8., 247., 10., 3., 0., 0., 0., 0., 1.,
          0., 0., 48., 48., 24., 4., 4., 12., 2., 168., 255., 43., 0.,
          0., 0., 0. ]
      - [ 148., 0., 255., 239., 39., 67., 70., 0., 128., 254., 125.,
          239., 119., 223., 60., 224., 200., 247., 255., 111., 28., 128.,
          0., 4., 128., 0., 0., 64., 8., 35., 252., 241., 255., 255.,
          53., 134., 48., 254., 223., 57., 192., 0., 0., 32., 0., 2., 0.,
          0., 128., 32., 0., 240., 249., 191., 27., 208., 252., 235.,
          100., 36., 0., 0., 0., 128. ]
      - [ 180., 255., 255., 239., 96., 0., 0., 103., 103., 78., 12., 97.,
          64., 199., 31., 127., 188., 255., 195., 33., 12., 99., 52.,
          107., 247., 255., 228., 221., 227., 4., 48., 103., 8., 33.,
          28., 113., 172., 3., 130., 8., 102., 218., 132., 0., 8., 16.,
          0., 1., 0., 192., 242., 127., 143., 64., 222., 223., 131., 40.,
          254., 11., 0., 0., 96., 64. ]
      - [ 240., 255., 239., 235., 96., 128., 0., 103., 103., 78., 12.,
          225., 224., 199., 31., 63., 156., 241., 214., 63., 14., 99.,
          48., 3., 103., 250., 124., 145., 65., 140., 28., 162., 8., 35.,
          12., 96., 4., 247., 206., 59., 198., 0., 0., 0., 15., 24., 0.,
          0., 193., 224., 126., 55., 1., 0., 4., 12., 6., 203., 65., 0.,
          0., 0., 0., 224. ]
      - [ 254., 253., 1., 48., 56., 28., 16., 193., 225., 255., 255.,
          119., 156., 49., 199., 29., 15., 8., 244., 189., 255., 255.,
          255., 159., 217., 160., 33., 67., 0., 0., 24., 96., 132., 19.,
          199., 28., 66., 220., 249., 255., 255., 31., 146., 33., 25.,
          0., 0., 0., 0., 64., 48., 49., 24., 239., 39., 161., 120.,
          151., 203., 0., 0., 0., 0., 224. ]
      - [ 4., 0., 255., 239., 7., 2., 68., 0., 255., 254., 252., 239.,
          119., 223., 60., 192., 136., 247., 255., 239., 28., 224., 0.,
          0., 0., 0., 0., 226., 127., 127., 244., 251., 255., 255., 119.,
          134., 32., 244., 222., 59., 198., 152., 3., 32., 0., 0., 0.,
          137., 193., 0., 32., 240., 121., 255., 27., 145., 232., 203.,
          96., 0., 0., 0., 0., 128. ]
      - [ 244., 255., 255., 231., 32., 0., 0., 119., 103., 70., 12., 97.,
          96., 195., 31., 255., 254., 255., 195., 33., 12., 99., 180.,
          127., 247., 255., 102., 17., 0., 132., 28., 99., 8., 33., 28.,
          115., 140., 1., 130., 8., 247., 91., 144., 0., 15., 28., 0.,
          129., 193., 224., 114., 127., 139., 208., 223., 15., 193.,
          252., 223., 0., 0., 32., 96., 240. ]
      - [ 244., 255., 239., 225., 32., 0., 0., 119., 103., 70., 12.,
          225., 240., 231., 15., 55., 156., 121., 231., 47., 14., 99.,
          48., 67., 119., 255., 108., 153., 97., 198., 28., 128., 8., 3.,
          12., 96., 52., 251., 254., 127., 199., 24., 208., 0., 255.,
          31., 0., 128., 193., 243., 62., 2., 0., 8., 6., 12., 38., 203.,
          0., 0., 0., 0., 80., 240. ]
      - [ 254., 191., 67., 32., 56., 88., 48., 145., 193., 199., 255.,
          127., 188., 113., 198., 29., 15., 24., 96., 48., 239., 255.,
          255., 255., 251., 33., 32., 199., 25., 35., 20., 224., 244.,
          19., 199., 28., 198., 24., 240., 238., 127., 127., 246., 33.,
          17., 2., 120., 129., 0., 0., 48., 48., 24., 164., 183., 47.,
          89., 20., 139., 193., 0., 0., 0., 0. ]
      - [ 254., 253., 239., 123., 48., 0., 128., 193., 227., 223., 255.,
          127., 145., 255., 223., 245., 255., 117., 244., 249., 255.,
          243., 24., 7., 64., 160., 121., 227., 9., 5., 24., 96., 1.,
          255., 223., 184., 215., 22., 192., 0., 199., 158., 223., 57.,
          9., 161., 13., 0., 0., 96., 48., 115., 27., 0., 164., 254.,
          223., 0., 0., 192., 127., 157., 136., 169. ]
      - [ 249., 255., 239., 255., 240., 224., 129., 231., 2., 5., 31.,
          255., 245., 215., 95., 127., 253., 245., 215., 255., 254.,
          247., 185., 143., 255., 255., 103., 12., 49., 252., 60., 161.,
          13., 247., 92., 111., 125., 55., 208., 65., 7., 0., 16., 0.,
          35., 92., 248., 39., 146., 0., 0., 0., 24., 12., 14., 12., 2.,
          208., 65., 0., 0., 0., 64., 192. ]
      - [ 223., 174., 127., 21., 0., 32., 192., 241., 97., 67., 87.,
          191., 178., 64., 254., 255., 255., 255., 255., 63., 142., 96.,
          0., 129., 113., 152., 8., 1., 0., 2., 172., 239., 59., 255.,
          189., 33., 4., 124., 254., 255., 231., 152., 193., 140., 237.,
          31., 0., 0., 192., 96., 240., 243., 232., 15., 3., 0., 4., 0.,
          192., 229., 2., 225., 119., 112. ]
      - [ 255., 157., 99., 48., 48., 32., 128., 128., 128., 195., 255.,
          255., 191., 97., 2., 16., 128., 0., 231., 255., 255., 255.,
          27., 143., 128., 0., 0., 64., 0., 103., 254., 127., 192., 0.,
          0., 64., 0., 3., 0., 227., 255., 31., 7., 32., 0., 6., 0.,
          129., 201., 100., 59., 12., 0., 249., 255., 255., 111., 0.,
          152., 255., 48., 8., 16., 16. ]
      - [ 251., 255., 239., 243., 253., 225., 129., 3., 0., 143., 191.,
          255., 185., 103., 158., 124., 255., 233., 165., 49., 141.,
          235., 120., 143., 199., 227., 103., 132., 25., 126., 126.,
          161., 49., 71., 212., 123., 223., 41., 3., 0., 0., 16., 216.,
          253., 255., 127., 250., 19., 136., 101., 16., 0., 16., 12.,
          254., 255., 135., 0., 0., 0., 96., 50., 160., 0. ]
      - [ 255., 159., 247., 112., 48., 0., 0., 64., 192., 195., 15.,
          255., 250., 235., 174., 191., 255., 122., 196., 49., 142.,
          243., 24., 15., 192., 160., 55., 111., 24., 96., 24., 99., 8.,
          3., 172., 249., 134., 25., 227., 28., 135., 28., 243., 57.,
          57., 225., 255., 255., 58., 0., 226., 191., 143., 1., 0., 0.,
          20., 131., 0., 0., 64., 249., 233., 207. ]
